{"learner":{"attributes":{"best_iteration":"41","best_score":"1.9755236267660596"},"feature_names":["at_bat_num","b_height_inches","balls","bases_loaded","batter_pct_CH","batter_pct_CU","batter_pct_FC","batter_pct_FF","batter_pct_FS","batter_pct_FT","batter_pct_SI","batter_pct_SL","close_game","count_category_ahead","count_category_behind","count_category_even","count_category_first_pitch","count_category_full_count","fouls","inning","is_first_pitch","late_inning","on_1b_flag","on_2b_flag","on_3b_flag","outs","p_throws_L","p_throws_R","pcount_at_bat","pcount_pitcher","pitcher_count_pct_CH","pitcher_count_pct_CU","pitcher_count_pct_FC","pitcher_count_pct_FF","pitcher_count_pct_FS","pitcher_count_pct_FT","pitcher_count_pct_SI","pitcher_count_pct_SL","pitcher_hand_count_pct_CH","pitcher_hand_count_pct_CU","pitcher_hand_count_pct_FC","pitcher_hand_count_pct_FF","pitcher_hand_count_pct_FS","pitcher_hand_count_pct_FT","pitcher_hand_count_pct_SI","pitcher_hand_count_pct_SL","pitcher_hand_pct_CH","pitcher_hand_pct_CU","pitcher_hand_pct_FC","pitcher_hand_pct_FF","pitcher_hand_pct_FS","pitcher_hand_pct_FT","pitcher_hand_pct_SI","pitcher_hand_pct_SL","pitcher_n_types","pitcher_pct_CH","pitcher_pct_CU","pitcher_pct_FC","pitcher_pct_FF","pitcher_pct_FS","pitcher_pct_FT","pitcher_pct_SI","pitcher_pct_SL","prev_pitch_type_2_CH","prev_pitch_type_2_CU","prev_pitch_type_2_FC","prev_pitch_type_2_FF","prev_pitch_type_2_FS","prev_pitch_type_2_FT","prev_pitch_type_2_NONE","prev_pitch_type_2_SI","prev_pitch_type_2_SL","prev_pitch_type_CH","prev_pitch_type_CU","prev_pitch_type_FC","prev_pitch_type_FF","prev_pitch_type_FS","prev_pitch_type_FT","prev_pitch_type_NONE","prev_pitch_type_SI","prev_pitch_type_SL","runners_on","same_hand","score_diff","stand_L","stand_R","strikes","top","total_runs"],"feature_types":["int","int","int","int","float","float","float","float","float","float","float","float","int","int","int","int","int","int","int","int","int","int","int","int","int","int","int","int","int","int","float","float","float","float","float","float","float","float","float","float","float","float","float","float","float","float","float","float","float","float","float","float","float","float","int","float","float","float","float","float","float","float","float","int","int","int","int","int","int","int","int","int","int","int","int","int","int","int","int","int","int","int","int","int","int","int","int","int","int"],"gradient_booster":{"model":{"gbtree_model_param":{"num_parallel_tree":"1","num_trees":"1136"},"iteration_indptr":[0,8,16,24,32,40,48,56,64,72,80,88,96,104,112,120,128,136,144,152,160,168,176,184,192,200,208,216,224,232,240,248,256,264,272,280,288,296,304,312,320,328,336,344,352,360,368,376,384,392,400,408,416,424,432,440,448,456,464,472,480,488,496,504,512,520,528,536,544,552,560,568,576,584,592,600,608,616,624,632,640,648,656,664,672,680,688,696,704,712,720,728,736,744,752,760,768,776,784,792,800,808,816,824,832,840,848,856,864,872,880,888,896,904,912,920,928,936,944,952,960,968,976,984,992,1000,1008,1016,1024,1032,1040,1048,1056,1064,1072,1080,1088,1096,1104,1112,1120,1128,1136],"tree_info":[0,1,2,3,4,5,6,7,0,1,2,3,4,5,6,7,0,1,2,3,4,5,6,7,0,1,2,3,4,5,6,7,0,1,2,3,4,5,6,7,0,1,2,3,4,5,6,7,0,1,2,3,4,5,6,7,0,1,2,3,4,5,6,7,0,1,2,3,4,5,6,7,0,1,2,3,4,5,6,7,0,1,2,3,4,5,6,7,0,1,2,3,4,5,6,7,0,1,2,3,4,5,6,7,0,1,2,3,4,5,6,7,0,1,2,3,4,5,6,7,0,1,2,3,4,5,6,7,0,1,2,3,4,5,6,7,0,1,2,3,4,5,6,7,0,1,2,3,4,5,6,7,0,1,2,3,4,5,6,7,0,1,2,3,4,5,6,7,0,1,2,3,4,5,6,7,0,1,2,3,4,5,6,7,0,1,2,3,4,5,6,7,0,1,2,3,4,5,6,7,0,1,2,3,4,5,6,7,0,1,2,3,4,5,6,7,0,1,2,3,4,5,6,7,0,1,2,3,4,5,6,7,0,1,2,3,4,5,6,7,0,1,2,3,4,5,6,7,0,1,2,3,4,5,6,7,0,1,2,3,4,5,6,7,0,1,2,3,4,5,6,7,0,1,2,3,4,5,6,7,0,1,2,3,4,5,6,7,0,1,2,3,4,5,6,7,0,1,2,3,4,5,6,7,0,1,2,3,4,5,6,7,0,1,2,3,4,5,6,7,0,1,2,3,4,5,6,7,0,1,2,3,4,5,6,7,0,1,2,3,4,5,6,7,0,1,2,3,4,5,6,7,0,1,2,3,4,5,6,7,0,1,2,3,4,5,6,7,0,1,2,3,4,5,6,7,0,1,2,3,4,5,6,7,0,1,2,3,4,5,6,7,0,1,2,3,4,5,6,7,0,1,2,3,4,5,6,7,0,1,2,3,4,5,6,7,0,1,2,3,4,5,6,7,0,1,2,3,4,5,6,7,0,1,2,3,4,5,6,7,0,1,2,3,4,5,6,7,0,1,2,3,4,5,6,7,0,1,2,3,4,5,6,7,0,1,2,3,4,5,6,7,0,1,2,3,4,5,6,7,0,1,2,3,4,5,6,7,0,1,2,3,4,5,6,7,0,1,2,3,4,5,6,7,0,1,2,3,4,5,6,7,0,1,2,3,4,5,6,7,0,1,2,3,4,5,6,7,0,1,2,3,4,5,6,7,0,1,2,3,4,5,6,7,0,1,2,3,4,5,6,7,0,1,2,3,4,5,6,7,0,1,2,3,4,5,6,7,0,1,2,3,4,5,6,7,0,1,2,3,4,5,6,7,0,1,2,3,4,5,6,7,0,1,2,3,4,5,6,7,0,1,2,3,4,5,6,7,0,1,2,3,4,5,6,7,0,1,2,3,4,5,6,7,0,1,2,3,4,5,6,7,0,1,2,3,4,5,6,7,0,1,2,3,4,5,6,7,0,1,2,3,4,5,6,7,0,1,2,3,4,5,6,7,0,1,2,3,4,5,6,7,0,1,2,3,4,5,6,7,0,1,2,3,4,5,6,7,0,1,2,3,4,5,6,7,0,1,2,3,4,5,6,7,0,1,2,3,4,5,6,7,0,1,2,3,4,5,6,7,0,1,2,3,4,5,6,7,0,1,2,3,4,5,6,7,0,1,2,3,4,5,6,7,0,1,2,3,4,5,6,7,0,1,2,3,4,5,6,7,0,1,2,3,4,5,6,7,0,1,2,3,4,5,6,7,0,1,2,3,4,5,6,7,0,1,2,3,4,5,6,7,0,1,2,3,4,5,6,7,0,1,2,3,4,5,6,7,0,1,2,3,4,5,6,7,0,1,2,3,4,5,6,7,0,1,2,3,4,5,6,7,0,1,2,3,4,5,6,7,0,1,2,3,4,5,6,7,0,1,2,3,4,5,6,7,0,1,2,3,4,5,6,7,0,1,2,3,4,5,6,7,0,1,2,3,4,5,6,7,0,1,2,3,4,5,6,7,0,1,2,3,4,5,6,7,0,1,2,3,4,5,6,7,0,1,2,3,4,5,6,7,0,1,2,3,4,5,6,7,0,1,2,3,4,5,6,7,0,1,2,3,4,5,6,7,0,1,2,3,4,5,6,7,0,1,2,3,4,5,6,7,0,1,2,3,4,5,6,7,0,1,2,3,4,5,6,7,0,1,2,3,4,5,6,7,0,1,2,3,4,5,6,7,0,1,2,3,4,5,6,7,0,1,2,3,4,5,6,7,0,1,2,3,4,5,6,7,0,1,2,3,4,5,6,7,0,1,2,3,4,5,6,7,0,1,2,3,4,5,6,7,0,1,2,3,4,5,6,7,0,1,2,3,4,5,6,7,0,1,2,3,4,5,6,7,0,1,2,3,4,5,6,7,0,1,2,3,4,5,6,7,0,1,2,3,4,5,6,7,0,1,2,3,4,5,6,7,0,1,2,3,4,5,6,7,0,1,2,3,4,5,6,7,0,1,2,3,4,5,6,7,0,1,2,3,4,5,6,7,0,1,2,3,4,5,6,7,0,1,2,3,4,5,6,7],"trees":[{"base_weights":[-9.1643736E-2,-4.2732146E-1,5.5848914E-1,-9.5405225E-3,-1.8738201E-3,6.5559796E-3,1.952992E-2],"categories":[],"categories_nodes":[],"categories_segments":[],"categories_sizes":[],"default_left":[0,0,0,0,0,0,0],"id":0,"left_children":[1,3,5,-1,-1,-1,-1],"loss_changes":[1.538973E4,7.707471E2,2.312374E3,0E0,0E0,0E0,0E0],"parents":[2147483647,0,0,1,1,2,2],"right_children":[2,4,6,-1,-1,-1,-1],"split_conditions":[1.1710875E-1,9.7634204E-2,2.0067883E-1,-9.5405225E-3,-1.8738201E-3,6.5559796E-3,1.952992E-2],"split_indices":[38,38,38,0,0,0,0],"split_type":[0,0,0,0,0,0,0],"sum_hessian":[7.049809E4,4.6495094E4,2.4003E4,4.0462625E4,6.0324688E3,1.5478531E4,8.524469E3],"tree_param":{"num_deleted":"0","num_feature":"89","num_nodes":"7","size_leaf_vector":"1"}},{"base_weights":[-2.0302138E-1,-4.4173202E-1,5.2422607E-1,-1.0352952E-2,-2.1812585E-3,7.0856926E-3,2.487565E-2],"categories":[],"categories_nodes":[],"categories_segments":[],"categories_sizes":[],"default_left":[0,0,0,0,0,0,0],"id":1,"left_children":[1,3,5,-1,-1,-1,-1],"loss_changes":[1.2280352E4,1.3443242E3,2.1333892E3,0E0,0E0,0E0,0E0],"parents":[2147483647,0,0,1,1,2,2],"right_children":[2,4,6,-1,-1,-1,-1],"split_conditions":[1.1929346E-1,7.49949E-2,2.4282086E-1,-1.0352952E-2,-2.1812585E-3,7.0856926E-3,2.487565E-2],"split_indices":[31,31,31,0,0,0,0],"split_type":[0,0,0,0,0,0,0],"sum_hessian":[7.071531E4,5.3242875E4,1.7472438E4,4.334575E4,9.897125E3,1.4146344E4,3.3260938E3],"tree_param":{"num_deleted":"0","num_feature":"89","num_nodes":"7","size_leaf_vector":"1"}},{"base_weights":[-3.025522E-1,-4.9928418E-1,7.5645375E-1,-1.106682E-2,-2.0246312E-3,9.4223935E-3,3.463519E-2],"categories":[],"categories_nodes":[],"categories_segments":[],"categories_sizes":[],"default_left":[0,0,0,0,0,0,0],"id":2,"left_children":[1,3,5,-1,-1,-1,-1],"loss_changes":[1.4766877E4,1.2854316E3,3.082351E3,0E0,0E0,0E0,0E0],"parents":[2147483647,0,0,1,1,2,2],"right_children":[2,4,6,-1,-1,-1,-1],"split_conditions":[1.2359557E-1,5.70878E-2,2.741163E-1,-1.106682E-2,-2.0246312E-3,9.4223935E-3,3.463519E-2],"split_indices":[32,32,32,0,0,0,0],"split_type":[0,0,0,0,0,0,0],"sum_hessian":[7.08505E4,5.9755062E4,1.10954375E4,5.260697E4,7.1480938E3,8.5955625E3,2.499875E3],"tree_param":{"num_deleted":"0","num_feature":"89","num_nodes":"7","size_leaf_vector":"1"}},{"base_weights":[9.780953E-1,1.2897532E0,-1.3003346E-1,2.8884089E-2,1.9370543E-2,2.604931E-3,-6.1623524E-3],"categories":[],"categories_nodes":[],"categories_segments":[],"categories_sizes":[],"default_left":[0,0,0,0,0,0,0],"id":3,"left_children":[1,3,5,-1,-1,-1,-1],"loss_changes":[2.4420297E4,2.7239844E3,7.20228E2,0E0,0E0,0E0,0E0],"parents":[2147483647,0,0,1,1,2,2],"right_children":[2,4,6,-1,-1,-1,-1],"split_conditions":[2.661689E-1,8.85829E-2,4.661099E-1,2.8884089E-2,1.9370543E-2,2.604931E-3,-6.1623524E-3],"split_indices":[52,39,61,0,0,0,0],"split_type":[0,0,0,0,0,0,0],"sum_hessian":[7.069541E4,5.517575E4,1.5519656E4,3.723672E4,1.7939031E4,6.3059062E3,9.21375E3],"tree_param":{"num_deleted":"0","num_feature":"89","num_nodes":"7","size_leaf_vector":"1"}},{"base_weights":[-5.0322235E-1,-8.572881E-2,-5.605956E-1,-5.1131537E-3,2.190113E-3,-1.0868117E-2,-1.1355704E-2],"categories":[],"categories_nodes":[],"categories_segments":[],"categories_sizes":[],"default_left":[0,0,0,0,0,0,0],"id":4,"left_children":[1,3,5,-1,-1,-1,-1],"loss_changes":[1.6914258E3,2.8379666E2,4.5898438E0,0E0,0E0,0E0,0E0],"parents":[2147483647,0,0,1,1,2,2],"right_children":[2,4,6,-1,-1,-1,-1],"split_conditions":[7.708497E-3,1E0,7.3126584E-2,-5.1131537E-3,2.190113E-3,-1.0868117E-2,-1.1355704E-2],"split_indices":[55,84,55,0,0,0,0],"split_type":[0,0,0,0,0,0,0],"sum_hessian":[7.062453E4,8.535844E3,6.2088688E4,4.5620312E3,3.9738125E3,1.8536219E4,4.355247E4],"tree_param":{"num_deleted":"0","num_feature":"89","num_nodes":"7","size_leaf_vector":"1"}},{"base_weights":[-4.550895E-2,-4.3278E-1,9.814598E-1,-9.9527E-3,9.952813E-4,1.2984132E-2,3.151454E-2],"categories":[],"categories_nodes":[],"categories_segments":[],"categories_sizes":[],"default_left":[0,0,0,0,0,0,0],"id":5,"left_children":[1,3,5,-1,-1,-1,-1],"loss_changes":[2.8093373E4,1.6054854E3,3.8090156E3,0E0,0E0,0E0,0E0],"parents":[2147483647,0,0,1,1,2,2],"right_children":[2,4,6,-1,-1,-1,-1],"split_conditions":[1.4055434E-1,1.0943384E-1,2.6154172E-1,-9.9527E-3,9.952813E-4,1.2984132E-2,3.151454E-2],"split_indices":[43,43,43,0,0,0,0],"split_type":[0,0,0,0,0,0,0],"sum_hessian":[7.061622E4,5.1283094E4,1.9333125E4,4.5206875E4,6.0762188E3,1.2413625E4,6.9195E3],"tree_param":{"num_deleted":"0","num_feature":"89","num_nodes":"7","size_leaf_vector":"1"}},{"base_weights":[1.2903837E-2,-5.104301E-1,1.682435E0,-1.114427E-2,5.3287577E-3,2.3390057E-2,4.48682E-2],"categories":[],"categories_nodes":[],"categories_segments":[],"categories_sizes":[],"default_left":[0,0,0,0,0,0,0],"id":6,"left_children":[1,3,5,-1,-1,-1,-1],"loss_changes":[6.1684184E4,1.9550342E3,4.8218477E3,0E0,0E0,0E0,0E0],"parents":[2147483647,0,0,1,1,2,2],"right_children":[2,4,6,-1,-1,-1,-1],"split_conditions":[1.8743443E-1,1.21843465E-1,3.8130036E-1,-1.114427E-2,5.3287577E-3,2.3390057E-2,4.48682E-2],"split_indices":[36,36,36,0,0,0,0],"split_type":[0,0,0,0,0,0,0],"sum_hessian":[7.057947E4,5.374075E4,1.6838719E4,5.0690938E4,3.0498125E3,8.812125E3,8.0265938E3],"tree_param":{"num_deleted":"0","num_feature":"89","num_nodes":"7","size_leaf_vector":"1"}},{"base_weights":[1.4493513E-1,-2.9113787E-1,8.590972E-1,-9.427551E-3,2.7169E-3,1.2877945E-2,3.17768E-2],"categories":[],"categories_nodes":[],"categories_segments":[],"categories_sizes":[],"default_left":[0,0,0,0,0,0,0],"id":7,"left_children":[1,3,5,-1,-1,-1,-1],"loss_changes":[2.2011162E4,3.3780408E3,4.1976465E3,0E0,0E0,0E0,0E0],"parents":[2147483647,0,0,1,1,2,2],"right_children":[2,4,6,-1,-1,-1,-1],"split_conditions":[1.7293082E-1,1.407359E-1,3.0551398E-1,-9.427551E-3,2.7169E-3,1.2877945E-2,3.17768E-2],"split_indices":[37,53,37,0,0,0,0],"split_type":[0,0,0,0,0,0,0],"sum_hessian":[7.066041E4,4.3875562E4,2.6784844E4,3.0851406E4,1.3024156E4,2.0699438E4,6.0854062E3],"tree_param":{"num_deleted":"0","num_feature":"89","num_nodes":"7","size_leaf_vector":"1"}},{"base_weights":[-8.975998E-2,-3.9907908E-1,4.2937893E-1,-1.00670075E-2,-3.0482807E-3,8.1956666E-4,1.4548963E-2],"categories":[],"categories_nodes":[],"categories_segments":[],"categories_sizes":[],"default_left":[0,0,0,0,0,0,0],"id":8,"left_children":[1,3,5,-1,-1,-1,-1],"loss_changes":[1.1337036E4,1.1370688E3,3.0515024E3,0E0,0E0,0E0,0E0],"parents":[2147483647,0,0,1,1,2,2],"right_children":[2,4,6,-1,-1,-1,-1],"split_conditions":[1.2380063E-1,6.2049985E-2,1.3591672E-1,-1.00670075E-2,-3.0482807E-3,8.1956666E-4,1.4548963E-2],"split_indices":[46,46,30,0,0,0,0],"split_type":[0,0,0,0,0,0,0],"sum_hessian":[7.0580055E4,4.4229223E4,2.6350832E4,3.1080385E4,1.3148838E4,1.1446626E4,1.4904207E4],"tree_param":{"num_deleted":"0","num_feature":"89","num_nodes":"7","size_leaf_vector":"1"}},{"base_weights":[-2.019051E-1,-4.8531085E-1,4.5898524E-1,-1.0479888E-2,-4.2222342E-3,5.454437E-3,2.1857593E-2],"categories":[],"categories_nodes":[],"categories_segments":[],"categories_sizes":[],"default_left":[0,0,0,0,0,0,0],"id":9,"left_children":[1,3,5,-1,-1,-1,-1],"loss_changes":[1.3204032E4,5.221924E2,2.4953252E3,0E0,0E0,0E0,0E0],"parents":[2147483647,0,0,1,1,2,2],"right_children":[2,4,6,-1,-1,-1,-1],"split_conditions":[9.4861254E-2,7.3964246E-2,2.0857956E-1,-1.0479888E-2,-4.2222342E-3,5.454437E-3,2.1857593E-2],"split_indices":[39,39,39,0,0,0,0],"split_type":[0,0,0,0,0,0,0],"sum_hessian":[7.047475E4,4.932546E4,2.1149293E4,4.3219082E4,6.1063794E3,1.6357199E4,4.7920933E3],"tree_param":{"num_deleted":"0","num_feature":"89","num_nodes":"7","size_leaf_vector":"1"}},{"base_weights":[-2.9878983E-1,-4.8045227E-1,8.178162E-1,-1.1026704E-2,-1.2253849E-3,1.0812884E-2,3.7441675E-2],"categories":[],"categories_nodes":[],"categories_segments":[],"categories_sizes":[],"default_left":[0,0,0,0,0,0,0],"id":10,"left_children":[1,3,5,-1,-1,-1,-1],"loss_changes":[1.4264949E4,1.7965098E3,2.8656177E3,0E0,0E0,0E0,0E0],"parents":[2147483647,0,0,1,1,2,2],"right_children":[2,4,6,-1,-1,-1,-1],"split_conditions":[1.5623021E-1,5.8559272E-2,3.8274738E-1,-1.1026704E-2,-1.2253849E-3,1.0812884E-2,3.7441675E-2],"split_indices":[48,48,48,0,0,0,0],"split_type":[0,0,0,0,0,0,0],"sum_hessian":[7.029488E4,6.046365E4,9.831231E3,5.1715516E4,8.748135E3,7.7965977E3,2.0346342E3],"tree_param":{"num_deleted":"0","num_feature":"89","num_nodes":"7","size_leaf_vector":"1"}},{"base_weights":[9.5389616E-1,1.0086286E-1,1.6290702E0,-5.26876E-3,1.0379835E-2,2.5110075E-2,4.272982E-2],"categories":[],"categories_nodes":[],"categories_segments":[],"categories_sizes":[],"default_left":[0,0,0,0,0,0,0],"id":11,"left_children":[1,3,5,-1,-1,-1,-1],"loss_changes":[4.1369562E4,4.8371416E3,7.5734453E3,0E0,0E0,0E0,0E0],"parents":[2147483647,0,0,1,1,2,2],"right_children":[2,4,6,-1,-1,-1,-1],"split_conditions":[3.1912038E-1,1.7134982E-1,4.8525175E-1,-5.26876E-3,1.0379835E-2,2.5110075E-2,4.272982E-2],"split_indices":[49,49,49,0,0,0,0],"split_type":[0,0,0,0,0,0,0],"sum_hessian":[7.1821734E4,3.1736486E4,4.0085246E4,1.696189E4,1.4774595E4,2.3107848E4,1.69774E4],"tree_param":{"num_deleted":"0","num_feature":"89","num_nodes":"7","size_leaf_vector":"1"}},{"base_weights":[-5.017404E-1,-5.5756044E-1,3.7513232E-1,-1.1393509E-2,-5.5170986E-3,2.4095287E-3,1.29887415E-2],"categories":[],"categories_nodes":[],"categories_segments":[],"categories_sizes":[],"default_left":[0,0,0,0,0,0,0],"id":12,"left_children":[1,3,5,-1,-1,-1,-1],"loss_changes":[3.4290762E3,2.2308984E2,2.92336E2,0E0,0E0,0E0,0E0],"parents":[2147483647,0,0,1,1,2,2],"right_children":[2,4,6,-1,-1,-1,-1],"split_conditions":[9.4798565E-2,2.2868702E-2,2.072222E-1,-1.1393509E-2,-5.5170986E-3,2.4095287E-3,1.29887415E-2],"split_indices":[50,50,50,0,0,0,0],"split_type":[0,0,0,0,0,0,0],"sum_hessian":[7.00041E4,6.58179E4,4.186199E3,6.3094254E4,2.723647E3,2.178314E3,2.0078855E3],"tree_param":{"num_deleted":"0","num_feature":"89","num_nodes":"7","size_leaf_vector":"1"}},{"base_weights":[-4.5614168E-2,-4.3046764E-1,9.494914E-1,-1.0848847E-2,-2.8095983E-3,1.2657765E-2,3.0128246E-2],"categories":[],"categories_nodes":[],"categories_segments":[],"categories_sizes":[],"default_left":[0,0,0,0,0,0,0],"id":13,"left_children":[1,3,5,-1,-1,-1,-1],"loss_changes":[2.701874E4,1.6511865E3,3.4597676E3,0E0,0E0,0E0,0E0],"parents":[2147483647,0,0,1,1,2,2],"right_children":[2,4,6,-1,-1,-1,-1],"split_conditions":[1.4055434E-1,6.2740535E-2,2.6154172E-1,-1.0848847E-2,-2.8095983E-3,1.2657765E-2,3.0128246E-2],"split_indices":[43,51,43,0,0,0,0],"split_type":[0,0,0,0,0,0,0],"sum_hessian":[7.052991E4,5.0864086E4,1.9665826E4,3.6688586E4,1.4175498E4,1.2551696E4,7.1141294E3],"tree_param":{"num_deleted":"0","num_feature":"89","num_nodes":"7","size_leaf_vector":"1"}},{"base_weights":[1.7371304E-2,-4.9446362E-1,1.6580269E0,-1.1260662E-2,4.6675717E-3,2.1226592E-2,4.066807E-2],"categories":[],"categories_nodes":[],"categories_segments":[],"categories_sizes":[],"default_left":[0,0,0,0,0,0,0],"id":14,"left_children":[1,3,5,-1,-1,-1,-1],"loss_changes":[5.9406957E4,2.692456E3,3.7463242E3,0E0,0E0,0E0,0E0],"parents":[2147483647,0,0,1,1,2,2],"right_children":[2,4,6,-1,-1,-1,-1],"split_conditions":[2.3897748E-1,1.0044865E-1,4.270562E-1,-1.1260662E-2,4.6675717E-3,2.1226592E-2,4.066807E-2],"split_indices":[52,52,52,0,0,0,0],"split_type":[0,0,0,0,0,0,0],"sum_hessian":[7.07243E4,5.3912285E4,1.6812016E4,4.927261E4,4.639673E3,6.506918E3,1.0305097E4],"tree_param":{"num_deleted":"0","num_feature":"89","num_nodes":"7","size_leaf_vector":"1"}},{"base_weights":[1.472243E-1,-2.96035E-1,8.365974E-1,-1.0518065E-2,-1.4793879E-3,1.1657242E-2,2.8162336E-2],"categories":[],"categories_nodes":[],"categories_segments":[],"categories_sizes":[],"default_left":[0,0,0,0,0,0,0],"id":15,"left_children":[1,3,5,-1,-1,-1,-1],"loss_changes":[2.1684248E4,2.204478E3,4.019004E3,0E0,0E0,0E0,0E0],"parents":[2147483647,0,0,1,1,2,2],"right_children":[2,4,6,-1,-1,-1,-1],"split_conditions":[1.6995044E-1,8.22175E-2,2.8070784E-1,-1.0518065E-2,-1.4793879E-3,1.1657242E-2,2.8162336E-2],"split_indices":[37,62,37,0,0,0,0],"split_type":[0,0,0,0,0,0,0],"sum_hessian":[7.094493E4,4.318388E4,2.7761055E4,2.1212432E4,2.1971447E4,1.9239545E4,8.52151E3],"tree_param":{"num_deleted":"0","num_feature":"89","num_nodes":"7","size_leaf_vector":"1"}},{"base_weights":[-8.988321E-2,6.503813E-2,-3.122758E-1,2.6138949E-3,-1.06895305E-2,-3.5268029E-3,-8.175514E-3],"categories":[],"categories_nodes":[],"categories_segments":[],"categories_sizes":[],"default_left":[0,0,0,0,0,0,0],"id":16,"left_children":[1,3,5,-1,-1,-1,-1],"loss_changes":[2.4281326E3,1.6359585E3,3.7885522E2,0E0,0E0,0E0,0E0],"parents":[2147483647,0,0,1,1,2,2],"right_children":[2,4,6,-1,-1,-1,-1],"split_conditions":[1.7417109E-1,4.908959E-2,1.0599009E-3,2.6138949E-3,-1.06895305E-2,-3.5268029E-3,-8.175514E-3],"split_indices":[53,50,50,0,0,0,0],"split_type":[0,0,0,0,0,0,0],"sum_hessian":[7.046003E4,4.1534016E4,2.8926014E4,3.7441395E4,4.0926226E3,1.2020905E4,1.690511E4],"tree_param":{"num_deleted":"0","num_feature":"89","num_nodes":"7","size_leaf_vector":"1"}},{"base_weights":[-2.0168501E-1,-4.607698E-1,4.436386E-1,-1.0479305E-2,-3.4995277E-3,4.9734493E-3,2.0175904E-2],"categories":[],"categories_nodes":[],"categories_segments":[],"categories_sizes":[],"default_left":[0,0,0,0,0,0,0],"id":17,"left_children":[1,3,5,-1,-1,-1,-1],"loss_changes":[1.1720433E4,9.024043E2,2.2104026E3,0E0,0E0,0E0,0E0],"parents":[2147483647,0,0,1,1,2,2],"right_children":[2,4,6,-1,-1,-1,-1],"split_conditions":[1.0564957E-1,6.99034E-2,2.2023745E-1,-1.0479305E-2,-3.4995277E-3,4.9734493E-3,2.0175904E-2],"split_indices":[31,31,31,0,0,0,0],"split_type":[0,0,0,0,0,0,0],"sum_hessian":[7.007877E4,5.000543E4,2.007334E4,4.0943543E4,9.061887E3,1.4935377E4,5.1379634E3],"tree_param":{"num_deleted":"0","num_feature":"89","num_nodes":"7","size_leaf_vector":"1"}},{"base_weights":[-2.9821554E-1,-4.7622195E-1,8.511926E-1,-1.1000931E-2,-8.096717E-4,1.1468979E-2,3.536129E-2],"categories":[],"categories_nodes":[],"categories_segments":[],"categories_sizes":[],"default_left":[0,0,0,0,0,0,0],"id":18,"left_children":[1,3,5,-1,-1,-1,-1],"loss_changes":[1.4331734E4,1.9505498E3,2.382151E3,0E0,0E0,0E0,0E0],"parents":[2147483647,0,0,1,1,2,2],"right_children":[2,4,6,-1,-1,-1,-1],"split_conditions":[1.4360961E-1,5.8323313E-2,3.5409203E-1,-1.1000931E-2,-8.096717E-4,1.1468979E-2,3.536129E-2],"split_indices":[32,32,57,0,0,0,0],"split_type":[0,0,0,0,0,0,0],"sum_hessian":[7.0017086E4,6.063286E4,9.384227E3,5.184623E4,8.786629E3,7.2149043E3,2.1693218E3],"tree_param":{"num_deleted":"0","num_feature":"89","num_nodes":"7","size_leaf_vector":"1"}},{"base_weights":[9.2423207E-1,1.482538E-1,1.7812532E0,-5.3110686E-3,9.310937E-3,2.872425E-2,4.3020844E-2],"categories":[],"categories_nodes":[],"categories_segments":[],"categories_sizes":[],"default_left":[0,0,0,0,0,0,0],"id":19,"left_children":[1,3,5,-1,-1,-1,-1],"loss_changes":[4.8497332E4,5.0279966E3,4.390672E3,0E0,0E0,0E0,0E0],"parents":[2147483647,0,0,1,1,2,2],"right_children":[2,4,6,-1,-1,-1,-1],"split_conditions":[3.4238666E-1,1.6956761E-1,4.329995E-1,-5.3110686E-3,9.310937E-3,2.872425E-2,4.3020844E-2],"split_indices":[41,49,41,0,0,0,0],"split_type":[0,0,0,0,0,0,0],"sum_hessian":[7.2919016E4,3.8275082E4,3.464393E4,1.661186E4,2.1663225E4,1.794694E4,1.669699E4],"tree_param":{"num_deleted":"0","num_feature":"89","num_nodes":"7","size_leaf_vector":"1"}},{"base_weights":[-5.003969E-1,-5.147433E-1,7.784567E-1,-2.962453E-3,-1.0735087E-2,2.1625685E-2,1.1901358E-2],"categories":[],"categories_nodes":[],"categories_segments":[],"categories_sizes":[],"default_left":[0,0,0,0,0,0,0],"id":20,"left_children":[1,3,5,-1,-1,-1,-1],"loss_changes":[1.2781504E3,5.534512E2,3.657254E1,0E0,0E0,0E0,0E0],"parents":[2147483647,0,0,1,1,2,2],"right_children":[2,4,6,-1,-1,-1,-1],"split_conditions":[1E0,2.0685362E-2,5E0,-2.962453E-3,-1.0735087E-2,2.1625685E-2,1.1901358E-2],"split_indices":[76,30,54,0,0,0,0],"split_type":[0,0,0,0,0,0,0],"sum_hessian":[6.9436836E4,6.867243E4,7.644082E2,3.893791E3,6.4778637E4,2.6984888E2,4.945593E2],"tree_param":{"num_deleted":"0","num_feature":"89","num_nodes":"7","size_leaf_vector":"1"}},{"base_weights":[-4.2316474E-2,-4.2169833E-1,8.863044E-1,-1.0118499E-2,-2.605035E-4,1.2982675E-2,3.2359038E-2],"categories":[],"categories_nodes":[],"categories_segments":[],"categories_sizes":[],"default_left":[0,0,0,0,0,0,0],"id":21,"left_children":[1,3,5,-1,-1,-1,-1],"loss_changes":[2.485178E4,1.723752E3,3.5398896E3,0E0,0E0,0E0,0E0],"parents":[2147483647,0,0,1,1,2,2],"right_children":[2,4,6,-1,-1,-1,-1],"split_conditions":[1.480624E-1,9.807251E-2,3.1766593E-1,-1.0118499E-2,-2.605035E-4,1.2982675E-2,3.2359038E-2],"split_indices":[35,35,35,0,0,0,0],"split_type":[0,0,0,0,0,0,0],"sum_hessian":[7.052054E4,5.0070164E4,2.0450373E4,4.1512207E4,8.557957E3,1.545829E4,4.992083E3],"tree_param":{"num_deleted":"0","num_feature":"89","num_nodes":"7","size_leaf_vector":"1"}},{"base_weights":[1.30359065E-2,-4.9303627E-1,1.5835018E0,-1.12440465E-2,4.572569E-3,2.26767E-2,4.0546298E-2],"categories":[],"categories_nodes":[],"categories_segments":[],"categories_sizes":[],"default_left":[0,0,0,0,0,0,0],"id":22,"left_children":[1,3,5,-1,-1,-1,-1],"loss_changes":[5.6223867E4,2.6718213E3,3.4176836E3,0E0,0E0,0E0,0E0],"parents":[2147483647,0,0,1,1,2,2],"right_children":[2,4,6,-1,-1,-1,-1],"split_conditions":[2.3897748E-1,1.0044865E-1,4.7233897E-1,-1.12440465E-2,4.572569E-3,2.26767E-2,4.0546298E-2],"split_indices":[52,52,52,0,0,0,0],"split_type":[0,0,0,0,0,0,0],"sum_hessian":[7.072258E4,5.3491996E4,1.723058E4,4.88156E4,4.6763936E3,8.576504E3,8.654075E3],"tree_param":{"num_deleted":"0","num_feature":"89","num_nodes":"7","size_leaf_vector":"1"}},{"base_weights":[1.4306669E-1,-3.6501175E-1,9.3518406E-1,-9.251637E-3,-1.3969484E-3,1.3217605E-2,2.8408179E-2],"categories":[],"categories_nodes":[],"categories_segments":[],"categories_sizes":[],"default_left":[0,0,0,0,0,0,0],"id":23,"left_children":[1,3,5,-1,-1,-1,-1],"loss_changes":[2.8609174E4,1.2469658E3,3.6878242E3,0E0,0E0,0E0,0E0],"parents":[2147483647,0,0,1,1,2,2],"right_children":[2,4,6,-1,-1,-1,-1],"split_conditions":[1.6718252E-1,1.2733252E-1,2.6541498E-1,-9.251637E-3,-1.3969484E-3,1.3217605E-2,2.8408179E-2],"split_indices":[45,45,45,0,0,0,0],"split_type":[0,0,0,0,0,0,0],"sum_hessian":[7.106768E4,4.3299797E4,2.7767883E4,3.253822E4,1.0761576E4,1.7754602E4,1.0013281E4],"tree_param":{"num_deleted":"0","num_feature":"89","num_nodes":"7","size_leaf_vector":"1"}},{"base_weights":[-8.783967E-2,1.10421106E-1,-3.299767E-1,3.4569856E-3,-1.0805693E-2,-6.9327382E-3,6.9261836E-3],"categories":[],"categories_nodes":[],"categories_segments":[],"categories_sizes":[],"default_left":[0,0,0,0,0,0,0],"id":24,"left_children":[1,3,5,-1,-1,-1,-1],"loss_changes":[3.3773018E3,1.5723473E3,3.5803076E2,0E0,0E0,0E0,0E0],"parents":[2147483647,0,0,1,1,2,2],"right_children":[2,4,6,-1,-1,-1,-1],"split_conditions":[1E0,4.908959E-2,1E0,3.4569856E-3,-1.0805693E-2,-6.9327382E-3,6.9261836E-3],"split_indices":[82,50,63,0,0,0,0],"split_type":[0,0,0,0,0,0,0],"sum_hessian":[7.0333664E4,3.867345E4,3.1660215E4,3.5294652E4,3.378796E3,3.090378E4,7.5643585E2],"tree_param":{"num_deleted":"0","num_feature":"89","num_nodes":"7","size_leaf_vector":"1"}},{"base_weights":[-1.9921817E-1,-4.77628E-1,4.577255E-1,-1.0406232E-2,-3.4112546E-3,4.9187886E-3,1.95245E-2],"categories":[],"categories_nodes":[],"categories_segments":[],"categories_sizes":[],"default_left":[0,0,0,0,0,0,0],"id":25,"left_children":[1,3,5,-1,-1,-1,-1],"loss_changes":[1.2779187E4,6.4225E2,2.2815015E3,0E0,0E0,0E0,0E0],"parents":[2147483647,0,0,1,1,2,2],"right_children":[2,4,6,-1,-1,-1,-1],"split_conditions":[9.820241E-2,7.497966E-2,1.945174E-1,-1.0406232E-2,-3.4112546E-3,4.9187886E-3,1.95245E-2],"split_indices":[39,39,39,0,0,0,0],"split_type":[0,0,0,0,0,0,0],"sum_hessian":[6.984801E4,4.9059527E4,2.0788482E4,4.3066164E4,5.993363E3,1.4770197E4,6.018284E3],"tree_param":{"num_deleted":"0","num_feature":"89","num_nodes":"7","size_leaf_vector":"1"}},{"base_weights":[-2.9868382E-1,-5.086545E-1,6.880744E-1,-1.1011741E-2,-2.2558526E-3,7.406954E-3,2.7595708E-2],"categories":[],"categories_nodes":[],"categories_segments":[],"categories_sizes":[],"default_left":[0,0,0,0,0,0,0],"id":26,"left_children":[1,3,5,-1,-1,-1,-1],"loss_changes":[1.4421682E4,9.519453E2,2.6792046E3,0E0,0E0,0E0,0E0],"parents":[2147483647,0,0,1,1,2,2],"right_children":[2,4,6,-1,-1,-1,-1],"split_conditions":[1.0050529E-1,5.9030995E-2,2.1031137E-1,-1.1011741E-2,-2.2558526E-3,7.406954E-3,2.7595708E-2],"split_indices":[40,40,40,0,0,0,0],"split_type":[0,0,0,0,0,0,0],"sum_hessian":[6.957909E4,5.737517E4,1.2203921E4,5.1876156E4,5.4990166E3,8.373183E3,3.8307378E3],"tree_param":{"num_deleted":"0","num_feature":"89","num_nodes":"7","size_leaf_vector":"1"}},{"base_weights":[9.010592E-1,1.3900101E-1,1.6992661E0,-3.4863672E-3,1.0192339E-2,2.8689269E-2,4.295615E-2],"categories":[],"categories_nodes":[],"categories_segments":[],"categories_sizes":[],"default_left":[0,0,0,0,0,0,0],"id":27,"left_children":[1,3,5,-1,-1,-1,-1],"loss_changes":[4.5075355E4,4.404525E3,4.2681484E3,0E0,0E0,0E0,0E0],"parents":[2147483647,0,0,1,1,2,2],"right_children":[2,4,6,-1,-1,-1,-1],"split_conditions":[3.3999896E-1,2.5683075E-1,4.573823E-1,-3.4863672E-3,1.0192339E-2,2.8689269E-2,4.295615E-2],"split_indices":[41,41,41,0,0,0,0],"split_type":[0,0,0,0,0,0,0],"sum_hessian":[7.409685E4,3.791278E4,3.618407E4,2.054733E4,1.7365451E4,2.2778469E4,1.34056E4],"tree_param":{"num_deleted":"0","num_feature":"89","num_nodes":"7","size_leaf_vector":"1"}},{"base_weights":[-4.9933112E-1,-5.510819E-1,6.2396866E-1,-1.1327537E-2,-3.1642236E-3,5.5027837E-3,2.0637983E-2],"categories":[],"categories_nodes":[],"categories_segments":[],"categories_sizes":[],"default_left":[0,0,0,0,0,0,0],"id":28,"left_children":[1,3,5,-1,-1,-1,-1],"loss_changes":[4.0092441E3,3.9497266E2,4.296825E2,0E0,0E0,0E0,0E0],"parents":[2147483647,0,0,1,1,2,2],"right_children":[2,4,6,-1,-1,-1,-1],"split_conditions":[8.434534E-2,2.848636E-2,1.6374145E-1,-1.1327537E-2,-3.1642236E-3,5.5027837E-3,2.0637983E-2],"split_indices":[42,42,42,0,0,0,0],"split_type":[0,0,0,0,0,0,0],"sum_hessian":[6.88993E4,6.586976E4,3.0295447E3,6.3397195E4,2.4725598E3,1.6420984E3,1.3874463E3],"tree_param":{"num_deleted":"0","num_feature":"89","num_nodes":"7","size_leaf_vector":"1"}},{"base_weights":[-4.0901586E-2,1.8529236E-1,-5.544095E-1,1.3426423E-2,-3.5152584E-3,-8.793543E-3,-1.1348132E-2],"categories":[],"categories_nodes":[],"categories_segments":[],"categories_sizes":[],"default_left":[0,0,0,0,0,0,0],"id":29,"left_children":[1,3,5,-1,-1,-1,-1],"loss_changes":[8.192921E3,8.59426E3,2.9669434E1,0E0,0E0,0E0,0E0],"parents":[2147483647,0,0,1,1,2,2],"right_children":[2,4,6,-1,-1,-1,-1],"split_conditions":[6.994474E-2,3.759224E-1,1.41489E-1,1.3426423E-2,-3.5152584E-3,-8.793543E-3,-1.1348132E-2],"split_indices":[61,49,61,0,0,0,0],"split_type":[0,0,0,0,0,0,0],"sum_hessian":[7.0517125E4,4.8958082E4,2.1559045E4,2.0863893E4,2.809419E4,2.229181E3,1.9329863E4],"tree_param":{"num_deleted":"0","num_feature":"89","num_nodes":"7","size_leaf_vector":"1"}},{"base_weights":[1.5799697E-2,1.2617862E0,-3.549612E-1,2.7045943E-2,-3.2456538E-3,3.2574325E-3,-9.0229055E-3],"categories":[],"categories_nodes":[],"categories_segments":[],"categories_sizes":[],"default_left":[0,0,0,0,0,0,0],"id":30,"left_children":[1,3,5,-1,-1,-1,-1],"loss_changes":[3.2676488E4,2.0929883E3,2.7158901E3,0E0,0E0,0E0,0E0],"parents":[2147483647,0,0,1,1,2,2],"right_children":[2,4,6,-1,-1,-1,-1],"split_conditions":[1.4986342E-1,3.5409203E-1,2.617228E-1,2.7045943E-2,-3.2456538E-3,3.2574325E-3,-9.0229055E-3],"split_indices":[58,57,58,0,0,0,0],"split_type":[0,0,0,0,0,0,0],"sum_hessian":[7.071429E4,1.6211055E4,5.4503234E4,1.524276E4,9.682952E2,8.536697E3,4.5966535E4],"tree_param":{"num_deleted":"0","num_feature":"89","num_nodes":"7","size_leaf_vector":"1"}},{"base_weights":[1.4056912E-1,-3.719632E-1,8.992825E-1,-9.271791E-3,-1.6525007E-3,1.2584601E-2,2.7296169E-2],"categories":[],"categories_nodes":[],"categories_segments":[],"categories_sizes":[],"default_left":[0,0,0,0,0,0,0],"id":31,"left_children":[1,3,5,-1,-1,-1,-1],"loss_changes":[2.7653127E4,1.1248428E3,3.595713E3,0E0,0E0,0E0,0E0],"parents":[2147483647,0,0,1,1,2,2],"right_children":[2,4,6,-1,-1,-1,-1],"split_conditions":[1.6387616E-1,1.2733252E-1,2.6339146E-1,-9.271791E-3,-1.6525007E-3,1.2584601E-2,2.7296169E-2],"split_indices":[45,45,45,0,0,0,0],"split_type":[0,0,0,0,0,0,0],"sum_hessian":[7.109378E4,4.243371E4,2.8660074E4,3.222334E4,1.0210372E4,1.8152998E4,1.0507075E4],"tree_param":{"num_deleted":"0","num_feature":"89","num_nodes":"7","size_leaf_vector":"1"}},{"base_weights":[-8.670564E-2,-4.1705158E-1,5.5090934E-1,-9.311305E-3,-6.820119E-4,7.292407E-3,2.0308504E-2],"categories":[],"categories_nodes":[],"categories_segments":[],"categories_sizes":[],"default_left":[0,0,0,0,0,0,0],"id":32,"left_children":[1,3,5,-1,-1,-1,-1],"loss_changes":[1.478377E4,8.5876074E2,2.069145E3,0E0,0E0,0E0,0E0],"parents":[2147483647,0,0,1,1,2,2],"right_children":[2,4,6,-1,-1,-1,-1],"split_conditions":[1.1958828E-1,1.0193532E-1,2.1775904E-1,-9.311305E-3,-6.820119E-4,7.292407E-3,2.0308504E-2],"split_indices":[38,38,38,0,0,0,0],"split_type":[0,0,0,0,0,0,0],"sum_hessian":[7.0166266E4,4.6222184E4,2.3944082E4,4.1023066E4,5.199114E3,1.7102973E4,6.841109E3],"tree_param":{"num_deleted":"0","num_feature":"89","num_nodes":"7","size_leaf_vector":"1"}},{"base_weights":[-1.9702053E-1,-4.6622333E-1,4.771684E-1,-1.0252119E-2,-2.1519319E-3,6.4140144E-3,2.253381E-2],"categories":[],"categories_nodes":[],"categories_segments":[],"categories_sizes":[],"default_left":[0,0,0,0,0,0,0],"id":33,"left_children":[1,3,5,-1,-1,-1,-1],"loss_changes":[1.263491E4,8.2694434E2,2.0154438E3,0E0,0E0,0E0,0E0],"parents":[2147483647,0,0,1,1,2,2],"right_children":[2,4,6,-1,-1,-1,-1],"split_conditions":[1.0328879E-1,7.844994E-2,2.2557016E-1,-1.0252119E-2,-2.1519319E-3,6.4140144E-3,2.253381E-2],"split_indices":[39,39,39,0,0,0,0],"split_type":[0,0,0,0,0,0,0],"sum_hessian":[6.959404E4,4.9737145E4,1.9856895E4,4.4037324E4,5.69982E3,1.6014092E4,3.842803E3],"tree_param":{"num_deleted":"0","num_feature":"89","num_nodes":"7","size_leaf_vector":"1"}},{"base_weights":[-2.907605E-1,-5.065521E-1,6.9344425E-1,-1.098636E-2,-2.1499675E-3,8.342827E-3,3.0573305E-2],"categories":[],"categories_nodes":[],"categories_segments":[],"categories_sizes":[],"default_left":[0,0,0,0,0,0,0],"id":34,"left_children":[1,3,5,-1,-1,-1,-1],"loss_changes":[1.4707358E4,9.6855664E2,2.8677075E3,0E0,0E0,0E0,0E0],"parents":[2147483647,0,0,1,1,2,2],"right_children":[2,4,6,-1,-1,-1,-1],"split_conditions":[1.0050529E-1,5.9030995E-2,3.1010816E-1,-1.098636E-2,-2.1499675E-3,8.342827E-3,3.0573305E-2],"split_indices":[40,40,48,0,0,0,0],"split_type":[0,0,0,0,0,0,0],"sum_hessian":[6.922264E4,5.6778527E4,1.244411E4,5.127925E4,5.4992803E3,9.362018E3,3.0820933E3],"tree_param":{"num_deleted":"0","num_feature":"89","num_nodes":"7","size_leaf_vector":"1"}},{"base_weights":[8.7947345E-1,1.4083228E-1,1.5811584E0,-5.0204895E-3,9.498583E-3,2.547976E-2,4.059238E-2],"categories":[],"categories_nodes":[],"categories_segments":[],"categories_sizes":[],"default_left":[0,0,0,0,0,0,0],"id":35,"left_children":[1,3,5,-1,-1,-1,-1],"loss_changes":[3.8946344E4,4.7955137E3,5.282758E3,0E0,0E0,0E0,0E0],"parents":[2147483647,0,0,1,1,2,2],"right_children":[2,4,6,-1,-1,-1,-1],"split_conditions":[3.3685058E-1,1.7095159E-1,4.6534184E-1,-5.0204895E-3,9.498583E-3,2.547976E-2,4.059238E-2],"split_indices":[33,58,33,0,0,0,0],"split_type":[0,0,0,0,0,0,0],"sum_hessian":[7.5137734E4,3.661076E4,3.8526973E4,1.6850074E4,1.976069E4,2.288823E4,1.563874E4],"tree_param":{"num_deleted":"0","num_feature":"89","num_nodes":"7","size_leaf_vector":"1"}},{"base_weights":[-4.9676633E-1,-5.524283E-1,5.733158E-1,-1.13248E-2,-4.021788E-3,3.870721E-3,1.8752946E-2],"categories":[],"categories_nodes":[],"categories_segments":[],"categories_sizes":[],"default_left":[0,0,0,0,0,0,0],"id":36,"left_children":[1,3,5,-1,-1,-1,-1],"loss_changes":[4.0649512E3,3.1343945E2,4.654043E2,0E0,0E0,0E0,0E0],"parents":[2147483647,0,0,1,1,2,2],"right_children":[2,4,6,-1,-1,-1,-1],"split_conditions":[7.678621E-2,2.5684953E-2,1.421457E-1,-1.13248E-2,-4.021788E-3,3.870721E-3,1.8752946E-2],"split_indices":[42,42,42,0,0,0,0],"split_type":[0,0,0,0,0,0,0],"sum_hessian":[6.818327E4,6.4816582E4,3.3666956E3,6.2359027E4,2.4575527E3,1.6558977E3,1.710798E3],"tree_param":{"num_deleted":"0","num_feature":"89","num_nodes":"7","size_leaf_vector":"1"}},{"base_weights":[-4.1765794E-2,-4.2558447E-1,9.042711E-1,-9.845714E-3,1.113156E-3,1.2252897E-2,2.805154E-2],"categories":[],"categories_nodes":[],"categories_segments":[],"categories_sizes":[],"default_left":[0,0,0,0,0,0,0],"id":37,"left_children":[1,3,5,-1,-1,-1,-1],"loss_changes":[2.5581254E4,1.609001E3,2.946254E3,0E0,0E0,0E0,0E0],"parents":[2147483647,0,0,1,1,2,2],"right_children":[2,4,6,-1,-1,-1,-1],"split_conditions":[1.4055434E-1,1.0943384E-1,2.6154172E-1,-9.845714E-3,1.113156E-3,1.2252897E-2,2.805154E-2],"split_indices":[43,43,43,0,0,0,0],"split_type":[0,0,0,0,0,0,0],"sum_hessian":[7.043048E4,5.010697E4,2.0323506E4,4.4007242E4,6.099728E3,1.2834562E4,7.4889443E3],"tree_param":{"num_deleted":"0","num_feature":"89","num_nodes":"7","size_leaf_vector":"1"}},{"base_weights":[1.774044E-2,1.223852E0,-3.518803E-1,3.0392174E-2,-1.1319288E-2,2.0220154E-3,-1.0450943E-2],"categories":[],"categories_nodes":[],"categories_segments":[],"categories_sizes":[],"default_left":[0,0,0,0,0,0,0],"id":38,"left_children":[1,3,5,-1,-1,-1,-1],"loss_changes":[3.1566379E4,8.800793E3,4.190569E3,0E0,0E0,0E0,0E0],"parents":[2147483647,0,0,1,1,2,2],"right_children":[2,4,6,-1,-1,-1,-1],"split_conditions":[1.4986342E-1,6.9554456E-2,1.8911399E-2,3.0392174E-2,-1.1319288E-2,2.0220154E-3,-1.0450943E-2],"split_indices":[58,51,51,0,0,0,0],"split_type":[0,0,0,0,0,0,0],"sum_hessian":[7.078811E4,1.65994E4,5.418871E4,1.4246722E4,2.352678E3,1.4830343E4,3.9358367E4],"tree_param":{"num_deleted":"0","num_feature":"89","num_nodes":"7","size_leaf_vector":"1"}},{"base_weights":[1.4063346E-1,-3.0890065E-1,7.39722E-1,-1.0295628E-2,-4.8157826E-4,1.1063893E-2,2.5227431E-2],"categories":[],"categories_nodes":[],"categories_segments":[],"categories_sizes":[],"default_left":[0,0,0,0,0,0,0],"id":39,"left_children":[1,3,5,-1,-1,-1,-1],"loss_changes":[1.9193816E4,2.3876428E3,2.9658008E3,0E0,0E0,0E0,0E0],"parents":[2147483647,0,0,1,1,2,2],"right_children":[2,4,6,-1,-1,-1,-1],"split_conditions":[1.7417109E-1,7.364607E-2,3.248338E-1,-1.0295628E-2,-4.8157826E-4,1.1063893E-2,2.5227431E-2],"split_indices":[53,53,53,0,0,0,0],"split_type":[0,0,0,0,0,0,0],"sum_hessian":[7.1251664E4,4.0709555E4,3.0542113E4,2.3624633E4,1.7084922E4,2.251278E4,8.029335E3],"tree_param":{"num_deleted":"0","num_feature":"89","num_nodes":"7","size_leaf_vector":"1"}},{"base_weights":[-8.841061E-2,-3.9480382E-1,4.01169E-1,-1.0054262E-2,-3.2357525E-3,5.03553E-3,1.5761597E-2],"categories":[],"categories_nodes":[],"categories_segments":[],"categories_sizes":[],"default_left":[0,0,0,0,0,0,0],"id":40,"left_children":[1,3,5,-1,-1,-1,-1],"loss_changes":[1.0529396E4,1.0847534E3,1.559855E3,0E0,0E0,0E0,0E0],"parents":[2147483647,0,0,1,1,2,2],"right_children":[2,4,6,-1,-1,-1,-1],"split_conditions":[1.2311621E-1,5.8146235E-2,2.3369174E-1,-1.0054262E-2,-3.2357525E-3,5.03553E-3,1.5761597E-2],"split_indices":[46,46,46,0,0,0,0],"split_type":[0,0,0,0,0,0,0],"sum_hessian":[7.017361E4,4.3162926E4,2.7010684E4,2.9493143E4,1.3669783E4,1.9498506E4,7.512178E3],"tree_param":{"num_deleted":"0","num_feature":"89","num_nodes":"7","size_leaf_vector":"1"}},{"base_weights":[-1.9512776E-1,-4.640765E-1,2.237859E-1,-1.0858025E-2,-4.5137773E-3,2.0801865E-3,1.3339251E-2],"categories":[],"categories_nodes":[],"categories_segments":[],"categories_sizes":[],"default_left":[0,0,0,0,0,0,0],"id":41,"left_children":[1,3,5,-1,-1,-1,-1],"loss_changes":[7.8185205E3,7.92876E2,1.4397543E3,0E0,0E0,0E0,0E0],"parents":[2147483647,0,0,1,1,2,2],"right_children":[2,4,6,-1,-1,-1,-1],"split_conditions":[9.849538E-2,4.7261015E-2,2.0199884E-1,-1.0858025E-2,-4.5137773E-3,2.0801865E-3,1.3339251E-2],"split_indices":[47,47,47,0,0,0,0],"split_type":[0,0,0,0,0,0,0],"sum_hessian":[6.9376164E4,4.2249977E4,2.7126184E4,3.174159E4,1.0508387E4,2.136441E4,5.761775E3],"tree_param":{"num_deleted":"0","num_feature":"89","num_nodes":"7","size_leaf_vector":"1"}},{"base_weights":[-2.9317316E-1,8.493798E-2,-4.2518914E-1,2.7481936E-2,1.0616675E-3,-9.590613E-3,-4.7544423E-3],"categories":[],"categories_nodes":[],"categories_segments":[],"categories_sizes":[],"default_left":[0,0,0,0,0,0,0],"id":42,"left_children":[1,3,5,-1,-1,-1,-1],"loss_changes":[3.4377344E3,7.3143835E2,5.1884863E2,0E0,0E0,0E0,0E0],"parents":[2147483647,0,0,1,1,2,2],"right_children":[2,4,6,-1,-1,-1,-1],"split_conditions":[7.628278E-2,1.8979368E-3,6E0,2.7481936E-2,1.0616675E-3,-9.590613E-3,-4.7544423E-3],"split_indices":[37,55,54,0,0,0,0],"split_type":[0,0,0,0,0,0,0],"sum_hessian":[6.885219E4,1.7819201E4,5.103299E4,4.1952734E2,1.7399674E4,3.955229E4,1.1480696E4],"tree_param":{"num_deleted":"0","num_feature":"89","num_nodes":"7","size_leaf_vector":"1"}},{"base_weights":[8.5283554E-1,1.087406E0,-4.5226716E-2,2.5628699E-2,9.382149E-3,2.7366548E-3,-4.277904E-3],"categories":[],"categories_nodes":[],"categories_segments":[],"categories_sizes":[],"default_left":[0,0,0,0,0,0,0],"id":43,"left_children":[1,3,5,-1,-1,-1,-1],"loss_changes":[1.6111801E4,7.269039E3,4.869752E2,0E0,0E0,0E0,0E0],"parents":[2147483647,0,0,1,1,2,2],"right_children":[2,4,6,-1,-1,-1,-1],"split_conditions":[1.8503143E-1,2.40954E-1,3.3101436E-1,2.5628699E-2,9.382149E-3,2.7366548E-3,-4.277904E-3],"split_indices":[44,51,44,0,0,0,0],"split_type":[0,0,0,0,0,0,0],"sum_hessian":[7.6470555E4,6.063168E4,1.5838879E4,4.6141305E4,1.4490376E4,7.617979E3,8.2209E3],"tree_param":{"num_deleted":"0","num_feature":"89","num_nodes":"7","size_leaf_vector":"1"}},{"base_weights":[-4.9664518E-1,-5.490488E-1,5.8730173E-1,-1.1288818E-2,-3.166354E-3,3.8569786E-3,1.7990235E-2],"categories":[],"categories_nodes":[],"categories_segments":[],"categories_sizes":[],"default_left":[0,0,0,0,0,0,0],"id":44,"left_children":[1,3,5,-1,-1,-1,-1],"loss_changes":[3.8455195E3,3.871914E2,3.830204E2,0E0,0E0,0E0,0E0],"parents":[2147483647,0,0,1,1,2,2],"right_children":[2,4,6,-1,-1,-1,-1],"split_conditions":[8.434534E-2,2.848636E-2,1.421457E-1,-1.1288818E-2,-3.166354E-3,3.8569786E-3,1.7990235E-2],"split_indices":[42,42,42,0,0,0,0],"split_type":[0,0,0,0,0,0,0],"sum_hessian":[6.763281E4,6.4518586E4,3.1142258E3,6.2069043E4,2.4495403E3,1.3830404E3,1.7311854E3],"tree_param":{"num_deleted":"0","num_feature":"89","num_nodes":"7","size_leaf_vector":"1"}},{"base_weights":[-4.1178387E-2,-4.5319822E-1,8.096401E-1,-1.035753E-2,-3.7476458E-3,9.306043E-3,2.5008103E-2],"categories":[],"categories_nodes":[],"categories_segments":[],"categories_sizes":[],"default_left":[0,0,0,0,0,0,0],"id":45,"left_children":[1,3,5,-1,-1,-1,-1],"loss_changes":[2.4676535E4,8.1439453E2,3.479919E3,0E0,0E0,0E0,0E0],"parents":[2147483647,0,0,1,1,2,2],"right_children":[2,4,6,-1,-1,-1,-1],"split_conditions":[1.2773211E-1,9.465131E-2,2.3172596E-1,-1.035753E-2,-3.7476458E-3,9.306043E-3,2.5008103E-2],"split_indices":[43,43,43,0,0,0,0],"split_type":[0,0,0,0,0,0,0],"sum_hessian":[7.037248E4,4.7415555E4,2.295692E4,3.8128625E4,9.286929E3,1.2899797E4,1.0057123E4],"tree_param":{"num_deleted":"0","num_feature":"89","num_nodes":"7","size_leaf_vector":"1"}},{"base_weights":[1.46467015E-2,-5.243435E-1,1.4101607E0,-1.1343513E-2,-1.5981907E-3,1.8196704E-2,3.5663337E-2],"categories":[],"categories_nodes":[],"categories_segments":[],"categories_sizes":[],"default_left":[0,0,0,0,0,0,0],"id":46,"left_children":[1,3,5,-1,-1,-1,-1],"loss_changes":[5.322528E4,9.712793E2,3.6632188E3,0E0,0E0,0E0,0E0],"parents":[2147483647,0,0,1,1,2,2],"right_children":[2,4,6,-1,-1,-1,-1],"split_conditions":[1.5472686E-1,6.994474E-2,4.270562E-1,-1.1343513E-2,-1.5981907E-3,1.8196704E-2,3.5663337E-2],"split_indices":[44,61,52,0,0,0,0],"split_type":[0,0,0,0,0,0,0],"sum_hessian":[7.0742625E4,5.103687E4,1.9705758E4,4.654806E4,4.48881E3,8.431159E3,1.1274599E4],"tree_param":{"num_deleted":"0","num_feature":"89","num_nodes":"7","size_leaf_vector":"1"}},{"base_weights":[1.4146163E-1,-3.6088163E-1,8.828721E-1,-9.0508135E-3,-9.7184925E-4,1.2436168E-2,2.6169686E-2],"categories":[],"categories_nodes":[],"categories_segments":[],"categories_sizes":[],"default_left":[0,0,0,0,0,0,0],"id":47,"left_children":[1,3,5,-1,-1,-1,-1],"loss_changes":[2.6615014E4,1.2191763E3,3.1987656E3,0E0,0E0,0E0,0E0],"parents":[2147483647,0,0,1,1,2,2],"right_children":[2,4,6,-1,-1,-1,-1],"split_conditions":[1.6718252E-1,1.316075E-1,2.6339146E-1,-9.0508135E-3,-9.7184925E-4,1.2436168E-2,2.6169686E-2],"split_indices":[45,45,45,0,0,0,0],"split_type":[0,0,0,0,0,0,0],"sum_hessian":[7.1442164E4,4.2590242E4,2.8851918E4,3.2922703E4,9.667538E3,1.7898111E4,1.0953808E4],"tree_param":{"num_deleted":"0","num_feature":"89","num_nodes":"7","size_leaf_vector":"1"}},{"base_weights":[-8.456844E-2,-2.2255395E-2,-3.7546346E-1,-2.4814836E-3,2.395829E-3,-5.174131E-3,-1.0116541E-2],"categories":[],"categories_nodes":[],"categories_segments":[],"categories_sizes":[],"default_left":[0,0,0,0,0,0,0],"id":48,"left_children":[1,3,5,-1,-1,-1,-1],"loss_changes":[1.2690813E3,8.34306E2,1.866958E2,0E0,0E0,0E0,0E0],"parents":[2147483647,0,0,1,1,2,2],"right_children":[2,4,6,-1,-1,-1,-1],"split_conditions":[9.238148E-3,1.0725025E-1,3.465905E-2,-2.4814836E-3,2.395829E-3,-5.174131E-3,-1.0116541E-2],"split_indices":[34,4,34,0,0,0,0],"split_type":[0,0,0,0,0,0,0],"sum_hessian":[7.000688E4,5.766512E4,1.2341765E4,3.3589516E4,2.4075605E4,6.5264023E3,5.8153623E3],"tree_param":{"num_deleted":"0","num_feature":"89","num_nodes":"7","size_leaf_vector":"1"}},{"base_weights":[-1.9446631E-1,-4.929521E-1,1.738165E-1,-1.0848341E-2,-5.407949E-3,7.224769E-4,1.1149687E-2],"categories":[],"categories_nodes":[],"categories_segments":[],"categories_sizes":[],"default_left":[0,0,0,0,0,0,0],"id":49,"left_children":[1,3,5,-1,-1,-1,-1],"loss_changes":[7.59946E3,4.188711E2,1.6349087E3,0E0,0E0,0E0,0E0],"parents":[2147483647,0,0,1,1,2,2],"right_children":[2,4,6,-1,-1,-1,-1],"split_conditions":[8.439466E-2,4.62255E-2,1.8953417E-1,-1.0848341E-2,-5.407949E-3,7.224769E-4,1.1149687E-2],"split_indices":[47,47,47,0,0,0,0],"split_type":[0,0,0,0,0,0,0],"sum_hessian":[6.911395E4,3.817251E4,3.094144E4,3.1219342E4,6.953172E3,2.2777777E4,8.1636626E3],"tree_param":{"num_deleted":"0","num_feature":"89","num_nodes":"7","size_leaf_vector":"1"}},{"base_weights":[-2.8910846E-1,-5.047103E-1,6.261426E-1,-1.095346E-2,-2.6760504E-3,7.450379E-3,3.068571E-2],"categories":[],"categories_nodes":[],"categories_segments":[],"categories_sizes":[],"default_left":[0,0,0,0,0,0,0],"id":50,"left_children":[1,3,5,-1,-1,-1,-1],"loss_changes":[1.3497955E4,8.8134863E2,2.9983716E3,0E0,0E0,0E0,0E0],"parents":[2147483647,0,0,1,1,2,2],"right_children":[2,4,6,-1,-1,-1,-1],"split_conditions":[1.0742187E-1,5.70878E-2,3.2310852E-1,-1.095346E-2,-2.6760504E-3,7.450379E-3,3.068571E-2],"split_indices":[32,32,48,0,0,0,0],"split_type":[0,0,0,0,0,0,0],"sum_hessian":[6.8377E4,5.5344273E4,1.3032731E4,4.9594875E4,5.749396E3,1.0198598E4,2.834134E3],"tree_param":{"num_deleted":"0","num_feature":"89","num_nodes":"7","size_leaf_vector":"1"}},{"base_weights":[8.2989144E-1,1.3407312E-1,1.4788916E0,-4.599171E-3,9.682468E-3,2.3908148E-2,3.7649147E-2],"categories":[],"categories_nodes":[],"categories_segments":[],"categories_sizes":[],"default_left":[0,0,0,0,0,0,0],"id":51,"left_children":[1,3,5,-1,-1,-1,-1],"loss_changes":[3.496142E4,4.7637974E3,4.560375E3,0E0,0E0,0E0,0E0],"parents":[2147483647,0,0,1,1,2,2],"right_children":[2,4,6,-1,-1,-1,-1],"split_conditions":[3.379645E-1,1.92749E-1,4.6534184E-1,-4.599171E-3,9.682468E-3,2.3908148E-2,3.7649147E-2],"split_indices":[33,49,33,0,0,0,0],"split_type":[0,0,0,0,0,0,0],"sum_hessian":[7.741357E4,3.7365082E4,4.0048492E4,1.8318426E4,1.9046654E4,2.354733E4,1.6501162E4],"tree_param":{"num_deleted":"0","num_feature":"89","num_nodes":"7","size_leaf_vector":"1"}},{"base_weights":[-4.9473915E-1,-5.527593E-1,5.059414E-1,-1.1273048E-2,-3.9793584E-3,3.1144798E-3,1.7754706E-2],"categories":[],"categories_nodes":[],"categories_segments":[],"categories_sizes":[],"default_left":[0,0,0,0,0,0,0],"id":52,"left_children":[1,3,5,-1,-1,-1,-1],"loss_changes":[3.8970781E3,2.4322461E2,4.908178E2,0E0,0E0,0E0,0E0],"parents":[2147483647,0,0,1,1,2,2],"right_children":[2,4,6,-1,-1,-1,-1],"split_conditions":[7.120176E-2,2.848636E-2,1.421457E-1,-1.1273048E-2,-3.9793584E-3,3.1144798E-3,1.7754706E-2],"split_indices":[42,42,42,0,0,0,0],"split_type":[0,0,0,0,0,0,0],"sum_hessian":[6.706386E4,6.3392777E4,3.671078E3,6.149348E4,1.8992991E3,1.9220608E3,1.7490171E3],"tree_param":{"num_deleted":"0","num_feature":"89","num_nodes":"7","size_leaf_vector":"1"}},{"base_weights":[-4.1423436E-2,-4.5208386E-1,7.883257E-1,-1.0181036E-2,-2.872657E-3,1.0159973E-2,2.5671357E-2],"categories":[],"categories_nodes":[],"categories_segments":[],"categories_sizes":[],"default_left":[0,0,0,0,0,0,0],"id":53,"left_children":[1,3,5,-1,-1,-1,-1],"loss_changes":[2.3989656E4,8.268047E2,3.2294023E3,0E0,0E0,0E0,0E0],"parents":[2147483647,0,0,1,1,2,2],"right_children":[2,4,6,-1,-1,-1,-1],"split_conditions":[1.2773211E-1,9.969186E-2,2.5460002E-1,-1.0181036E-2,-2.872657E-3,1.0159973E-2,2.5671357E-2],"split_indices":[43,43,43,0,0,0,0],"split_type":[0,0,0,0,0,0,0],"sum_hessian":[7.0383055E4,4.7084492E4,2.329856E4,3.9738645E4,7.3458467E3,1.4890304E4,8.408257E3],"tree_param":{"num_deleted":"0","num_feature":"89","num_nodes":"7","size_leaf_vector":"1"}},{"base_weights":[1.9067965E-2,1.1564431E0,-3.4758252E-1,2.837804E-2,-1.1237861E-2,3.5416074E-3,-8.964631E-3],"categories":[],"categories_nodes":[],"categories_segments":[],"categories_sizes":[],"default_left":[0,0,0,0,0,0,0],"id":54,"left_children":[1,3,5,-1,-1,-1,-1],"loss_changes":[2.9530758E4,7.7934316E3,2.8286694E3,0E0,0E0,0E0,0E0],"parents":[2147483647,0,0,1,1,2,2],"right_children":[2,4,6,-1,-1,-1,-1],"split_conditions":[1.4986342E-1,1.08869776E-1,2.617228E-1,2.837804E-2,-1.1237861E-2,3.5416074E-3,-8.964631E-3],"split_indices":[58,35,58,0,0,0,0],"split_type":[0,0,0,0,0,0,0],"sum_hessian":[7.079427E4,1.7252936E4,5.354134E4,1.4968401E4,2.2845334E3,8.616692E3,4.492465E4],"tree_param":{"num_deleted":"0","num_feature":"89","num_nodes":"7","size_leaf_vector":"1"}},{"base_weights":[1.3942923E-1,-3.578768E-1,8.576408E-1,-9.513191E-3,-2.276038E-3,1.3315277E-2,2.7613034E-2],"categories":[],"categories_nodes":[],"categories_segments":[],"categories_sizes":[],"default_left":[0,0,0,0,0,0,0],"id":55,"left_children":[1,3,5,-1,-1,-1,-1],"loss_changes":[2.558211E4,1.2161396E3,2.9314883E3,0E0,0E0,0E0,0E0],"parents":[2147483647,0,0,1,1,2,2],"right_children":[2,4,6,-1,-1,-1,-1],"split_conditions":[1.6718252E-1,1.1763035E-1,2.903602E-1,-9.513191E-3,-2.276038E-3,1.3315277E-2,2.7613034E-2],"split_indices":[45,45,45,0,0,0,0],"split_type":[0,0,0,0,0,0,0],"sum_hessian":[7.160569E4,4.231254E4,2.9293146E4,2.8533629E4,1.3778909E4,2.1447451E4,7.845695E3],"tree_param":{"num_deleted":"0","num_feature":"89","num_nodes":"7","size_leaf_vector":"1"}},{"base_weights":[-8.582923E-2,-3.4041807E-1,2.8746656E-1,-1.0227389E-2,-3.5843044E-3,3.5368747E-3,1.3264028E-2],"categories":[],"categories_nodes":[],"categories_segments":[],"categories_sizes":[],"default_left":[0,0,0,0,0,0,0],"id":56,"left_children":[1,3,5,-1,-1,-1,-1],"loss_changes":[6.6223657E3,1.1407075E3,1.1732532E3,0E0,0E0,0E0,0E0],"parents":[2147483647,0,0,1,1,2,2],"right_children":[2,4,6,-1,-1,-1,-1],"split_conditions":[1.1917005E-1,5.0000913E-2,2.1572855E-1,-1.0227389E-2,-3.5843044E-3,3.5368747E-3,1.3264028E-2],"split_indices":[55,55,55,0,0,0,0],"split_type":[0,0,0,0,0,0,0],"sum_hessian":[6.966172E4,4.1416457E4,2.8245266E4,2.008991E4,2.1326547E4,2.1832197E4,6.413068E3],"tree_param":{"num_deleted":"0","num_feature":"89","num_nodes":"7","size_leaf_vector":"1"}},{"base_weights":[-1.9311062E-1,-4.7225532E-1,4.3467388E-1,-1.040513E-2,-4.1379593E-3,3.9191106E-3,1.7043618E-2],"categories":[],"categories_nodes":[],"categories_segments":[],"categories_sizes":[],"default_left":[0,0,0,0,0,0,0],"id":57,"left_children":[1,3,5,-1,-1,-1,-1],"loss_changes":[1.2086935E4,6.070117E2,2.1143257E3,0E0,0E0,0E0,0E0],"parents":[2147483647,0,0,1,1,2,2],"right_children":[2,4,6,-1,-1,-1,-1],"split_conditions":[9.820241E-2,7.185548E-2,1.8059075E-1,-1.040513E-2,-4.1379593E-3,3.9191106E-3,1.7043618E-2],"split_indices":[39,39,39,0,0,0,0],"split_type":[0,0,0,0,0,0,0],"sum_hessian":[6.895083E4,4.773009E4,2.1220734E4,4.041052E4,7.319571E3,1.3510512E4,7.7102217E3],"tree_param":{"num_deleted":"0","num_feature":"89","num_nodes":"7","size_leaf_vector":"1"}},{"base_weights":[-2.864626E-1,-3.4652293E-1,9.16611E-1,9.981628E-4,-8.979176E-3,9.476438E-3,2.2880811E-2],"categories":[],"categories_nodes":[],"categories_segments":[],"categories_sizes":[],"default_left":[0,0,0,0,0,0,0],"id":58,"left_children":[1,3,5,-1,-1,-1,-1],"loss_changes":[4.9240293E3,2.6345645E3,3.2094922E2,0E0,0E0,0E0,0E0],"parents":[2147483647,0,0,1,1,2,2],"right_children":[2,4,6,-1,-1,-1,-1],"split_conditions":[1E0,1.5186308E-2,3.4804185E-4,9.981628E-4,-8.979176E-3,9.476438E-3,2.2880811E-2],"split_indices":[74,62,59,0,0,0,0],"split_type":[0,0,0,0,0,0,0],"sum_hessian":[6.80921E4,6.4861195E4,3.2309067E3,1.3319464E4,5.154173E4,1.106827E3,2.1240796E3],"tree_param":{"num_deleted":"0","num_feature":"89","num_nodes":"7","size_leaf_vector":"1"}},{"base_weights":[8.1034243E-1,9.56177E-2,1.4513935E0,-6.34573E-3,6.8172435E-3,2.2614427E-2,3.4504846E-2],"categories":[],"categories_nodes":[],"categories_segments":[],"categories_sizes":[],"default_left":[0,0,0,0,0,0,0],"id":59,"left_children":[1,3,5,-1,-1,-1,-1],"loss_changes":[3.5953723E4,3.7595232E3,3.6133281E3,0E0,0E0,0E0,0E0],"parents":[2147483647,0,0,1,1,2,2],"right_children":[2,4,6,-1,-1,-1,-1],"split_conditions":[3.3298796E-1,1.4247277E-1,4.183856E-1,-6.34573E-3,6.8172435E-3,2.2614427E-2,3.4504846E-2],"split_indices":[41,58,41,0,0,0,0],"split_type":[0,0,0,0,0,0,0],"sum_hessian":[7.846462E4,3.7105832E4,4.135878E4,1.382557E4,2.3280264E4,1.907435E4,2.228443E4],"tree_param":{"num_deleted":"0","num_feature":"89","num_nodes":"7","size_leaf_vector":"1"}},{"base_weights":[-4.9393842E-1,-5.085945E-1,7.137816E-1,-1.0358275E-2,-2.9389702E-3,1.714237E-2,9.621994E-3],"categories":[],"categories_nodes":[],"categories_segments":[],"categories_sizes":[],"default_left":[0,0,0,0,0,0,0],"id":60,"left_children":[1,3,5,-1,-1,-1,-1],"loss_changes":[1.180873E3,2.2072461E2,2.2611176E1,0E0,0E0,0E0,0E0],"parents":[2147483647,0,0,1,1,2,2],"right_children":[2,4,6,-1,-1,-1,-1],"split_conditions":[1E0,7E0,5.0295472E-2,-1.0358275E-2,-2.9389702E-3,1.714237E-2,9.621994E-3],"split_indices":[76,54,31,0,0,0,0],"split_type":[0,0,0,0,0,0,0],"sum_hessian":[6.649918E4,6.5707586E4,7.9159564E2,6.4052695E4,1.6548875E3,4.7323578E2,3.1835983E2],"tree_param":{"num_deleted":"0","num_feature":"89","num_nodes":"7","size_leaf_vector":"1"}},{"base_weights":[-3.913374E-2,-4.501937E-1,7.785481E-1,-1.0986258E-2,-4.462598E-3,8.858555E-3,2.3557127E-2],"categories":[],"categories_nodes":[],"categories_segments":[],"categories_sizes":[],"default_left":[0,0,0,0,0,0,0],"id":61,"left_children":[1,3,5,-1,-1,-1,-1],"loss_changes":[2.36E4,1.0503652E3,3.1427246E3,0E0,0E0,0E0,0E0],"parents":[2147483647,0,0,1,1,2,2],"right_children":[2,4,6,-1,-1,-1,-1],"split_conditions":[1.2773211E-1,4.9774744E-2,2.2831827E-1,-1.0986258E-2,-4.462598E-3,8.858555E-3,2.3557127E-2],"split_indices":[43,51,43,0,0,0,0],"split_type":[0,0,0,0,0,0,0],"sum_hessian":[7.019337E4,4.6714062E4,2.347931E4,3.2508893E4,1.4205168E4,1.2768457E4,1.0710853E4],"tree_param":{"num_deleted":"0","num_feature":"89","num_nodes":"7","size_leaf_vector":"1"}},{"base_weights":[1.5350458E-2,-5.19177E-1,1.3228427E0,-1.1184702E-2,7.289153E-4,1.790977E-2,3.4260675E-2],"categories":[],"categories_nodes":[],"categories_segments":[],"categories_sizes":[],"default_left":[0,0,0,0,0,0,0],"id":62,"left_children":[1,3,5,-1,-1,-1,-1],"loss_changes":[4.9405547E4,1.1170234E3,3.405293E3,0E0,0E0,0E0,0E0],"parents":[2147483647,0,0,1,1,2,2],"right_children":[2,4,6,-1,-1,-1,-1],"split_conditions":[1.6843663E-1,1.0044865E-1,3.624689E-1,-1.1184702E-2,7.289153E-4,1.790977E-2,3.4260675E-2],"split_indices":[36,52,36,0,0,0,0],"split_type":[0,0,0,0,0,0,0],"sum_hessian":[7.067156E4,5.016798E4,2.0503584E4,4.6794246E4,3.373735E3,9.801503E3,1.0702081E4],"tree_param":{"num_deleted":"0","num_feature":"89","num_nodes":"7","size_leaf_vector":"1"}},{"base_weights":[1.3284303E-1,-3.5652164E-1,8.307318E-1,-9.108514E-3,-1.3633244E-3,1.2076788E-2,2.498634E-2],"categories":[],"categories_nodes":[],"categories_segments":[],"categories_sizes":[],"default_left":[0,0,0,0,0,0,0],"id":63,"left_children":[1,3,5,-1,-1,-1,-1],"loss_changes":[2.4491406E4,1.2019526E3,2.7996934E3,0E0,0E0,0E0,0E0],"parents":[2147483647,0,0,1,1,2,2],"right_children":[2,4,6,-1,-1,-1,-1],"split_conditions":[1.6718252E-1,1.2733252E-1,2.698779E-1,-9.108514E-3,-1.3633244E-3,1.2076788E-2,2.498634E-2],"split_indices":[45,45,45,0,0,0,0],"split_type":[0,0,0,0,0,0,0],"sum_hessian":[7.169383E4,4.214579E4,2.954804E4,3.1377658E4,1.076813E4,1.9177422E4,1.0370617E4],"tree_param":{"num_deleted":"0","num_feature":"89","num_nodes":"7","size_leaf_vector":"1"}},{"base_weights":[-8.568756E-2,-3.614082E-1,3.9493036E-1,-9.339045E-3,-3.1019663E-3,1.2842605E-2,3.5579575E-4],"categories":[],"categories_nodes":[],"categories_segments":[],"categories_sizes":[],"default_left":[0,0,0,0,0,0,0],"id":64,"left_children":[1,3,5,-1,-1,-1,-1],"loss_changes":[9.251045E3,9.652002E2,2.3725745E3,0E0,0E0,0E0,0E0],"parents":[2147483647,0,0,1,1,2,2],"right_children":[2,4,6,-1,-1,-1,-1],"split_conditions":[1.1995007E-1,8.11895E-2,1E0,-9.339045E-3,-3.1019663E-3,1.2842605E-2,3.5579575E-4],"split_indices":[30,30,82,0,0,0,0],"split_type":[0,0,0,0,0,0,0],"sum_hessian":[6.978986E4,4.434978E4,2.544008E4,2.9331654E4,1.5018127E4,1.536315E4,1.007693E4],"tree_param":{"num_deleted":"0","num_feature":"89","num_nodes":"7","size_leaf_vector":"1"}},{"base_weights":[-1.8925118E-1,-4.582348E-1,4.5373565E-1,-1.0113916E-2,-1.721923E-3,5.3332685E-3,1.9026008E-2],"categories":[],"categories_nodes":[],"categories_segments":[],"categories_sizes":[],"default_left":[0,0,0,0,0,0,0],"id":65,"left_children":[1,3,5,-1,-1,-1,-1],"loss_changes":[1.1880623E4,8.549131E2,1.8834858E3,0E0,0E0,0E0,0E0],"parents":[2147483647,0,0,1,1,2,2],"right_children":[2,4,6,-1,-1,-1,-1],"split_conditions":[1.0328879E-1,7.891728E-2,2.0348999E-1,-1.0113916E-2,-1.721923E-3,5.3332685E-3,1.9026008E-2],"split_indices":[39,39,39,0,0,0,0],"split_type":[0,0,0,0,0,0,0],"sum_hessian":[6.86708E4,4.8418527E4,2.025227E4,4.2938715E4,5.479812E3,1.4729643E4,5.522627E3],"tree_param":{"num_deleted":"0","num_feature":"89","num_nodes":"7","size_leaf_vector":"1"}},{"base_weights":[-2.8652528E-1,-4.8988855E-1,6.272759E-1,-1.0936994E-2,-2.6195166E-3,8.515193E-3,3.1338196E-2],"categories":[],"categories_nodes":[],"categories_segments":[],"categories_sizes":[],"default_left":[0,0,0,0,0,0,0],"id":66,"left_children":[1,3,5,-1,-1,-1,-1],"loss_changes":[1.2613978E4,1.134209E3,2.3332441E3,0E0,0E0,0E0,0E0],"parents":[2147483647,0,0,1,1,2,2],"right_children":[2,4,6,-1,-1,-1,-1],"split_conditions":[1.3384011E-1,5.3464092E-2,3.841439E-1,-1.0936994E-2,-2.6195166E-3,8.515193E-3,3.1338196E-2],"split_indices":[57,57,57,0,0,0,0],"split_type":[0,0,0,0,0,0,0],"sum_hessian":[6.7851266E4,5.550374E4,1.2347524E4,4.789702E4,7.60672E3,1.0179035E4,2.1684902E3],"tree_param":{"num_deleted":"0","num_feature":"89","num_nodes":"7","size_leaf_vector":"1"}},{"base_weights":[7.89207E-1,-2.1104886E-4,1.2231522E0,-6.5572755E-3,6.1219633E-3,1.8325746E-2,3.1450044E-2],"categories":[],"categories_nodes":[],"categories_segments":[],"categories_sizes":[],"default_left":[0,0,0,0,0,0,0],"id":67,"left_children":[1,3,5,-1,-1,-1,-1],"loss_changes":[2.7261004E4,2.8350505E3,5.490625E3,0E0,0E0,0E0,0E0],"parents":[2147483647,0,0,1,1,2,2],"right_children":[2,4,6,-1,-1,-1,-1],"split_conditions":[2.874248E-1,1.4739695E-1,4.6225408E-1,-6.5572755E-3,6.1219633E-3,1.8325746E-2,3.1450044E-2],"split_indices":[49,49,49,0,0,0,0],"split_type":[0,0,0,0,0,0,0],"sum_hessian":[7.956927E4,2.8227951E4,5.134132E4,1.3638462E4,1.4589489E4,2.7351941E4,2.3989379E4],"tree_param":{"num_deleted":"0","num_feature":"89","num_nodes":"7","size_leaf_vector":"1"}},{"base_weights":[-4.9042436E-1,-6.2460672E-2,-5.529963E-1,-2.766705E-3,1.4999625E-2,-1.0701233E-2,-1.1210616E-2],"categories":[],"categories_nodes":[],"categories_segments":[],"categories_sizes":[],"default_left":[0,0,0,0,0,0,0],"id":68,"left_children":[1,3,5,-1,-1,-1,-1],"loss_changes":[1.7668145E3,5.20636E2,4.78125E0,0E0,0E0,0E0,0E0],"parents":[2147483647,0,0,1,1,2,2],"right_children":[2,4,6,-1,-1,-1,-1],"split_conditions":[7.708497E-3,1E0,7.3126584E-2,-2.766705E-3,1.4999625E-2,-1.0701233E-2,-1.1210616E-2],"split_indices":[55,76,55,0,0,0,0],"split_type":[0,0,0,0,0,0,0],"sum_hessian":[6.598172E4,8.419063E3,5.7562652E4,7.707547E3,7.115164E2,1.7241807E4,4.0320844E4],"tree_param":{"num_deleted":"0","num_feature":"89","num_nodes":"7","size_leaf_vector":"1"}},{"base_weights":[-4.3813806E-2,-4.1471195E-1,7.064476E-1,-1.06897615E-2,-1.8765469E-3,1.0602002E-2,2.681329E-2],"categories":[],"categories_nodes":[],"categories_segments":[],"categories_sizes":[],"default_left":[0,0,0,0,0,0,0],"id":69,"left_children":[1,3,5,-1,-1,-1,-1],"loss_changes":[1.9487701E4,1.8006523E3,2.584037E3,0E0,0E0,0E0,0E0],"parents":[2147483647,0,0,1,1,2,2],"right_children":[2,4,6,-1,-1,-1,-1],"split_conditions":[1.5490435E-1,5.840911E-2,3.7298837E-1,-1.06897615E-2,-1.8765469E-3,1.0602002E-2,2.681329E-2],"split_indices":[60,60,60,0,0,0,0],"split_type":[0,0,0,0,0,0,0],"sum_hessian":[7.001095E4,4.6853164E4,2.315779E4,3.4113145E4,1.2740018E4,1.8133912E4,5.023877E3],"tree_param":{"num_deleted":"0","num_feature":"89","num_nodes":"7","size_leaf_vector":"1"}},{"base_weights":[1.6657336E-2,-5.2245736E-1,1.2690738E0,-1.1295971E-2,-1.1433028E-3,1.7058738E-2,3.302994E-2],"categories":[],"categories_nodes":[],"categories_segments":[],"categories_sizes":[],"default_left":[0,0,0,0,0,0,0],"id":70,"left_children":[1,3,5,-1,-1,-1,-1],"loss_changes":[4.7651918E4,9.716758E2,3.3656797E3,0E0,0E0,0E0,0E0],"parents":[2147483647,0,0,1,1,2,2],"right_children":[2,4,6,-1,-1,-1,-1],"split_conditions":[1.6168816E-1,6.994474E-2,3.624689E-1,-1.1295971E-2,-1.1433028E-3,1.7058738E-2,3.302994E-2],"split_indices":[36,61,36,0,0,0,0],"split_type":[0,0,0,0,0,0,0],"sum_hessian":[7.055511E4,4.9327457E4,2.1227648E4,4.521114E4,4.116319E3,1.0181198E4,1.1046451E4],"tree_param":{"num_deleted":"0","num_feature":"89","num_nodes":"7","size_leaf_vector":"1"}},{"base_weights":[1.316858E-1,-3.2029465E-1,6.5218157E-1,-1.0196675E-2,-8.453275E-4,1.004773E-2,2.350974E-2],"categories":[],"categories_nodes":[],"categories_segments":[],"categories_sizes":[],"default_left":[0,0,0,0,0,0,0],"id":71,"left_children":[1,3,5,-1,-1,-1,-1],"loss_changes":[1.6937094E4,2.0305044E3,2.6170127E3,0E0,0E0,0E0,0E0],"parents":[2147483647,0,0,1,1,2,2],"right_children":[2,4,6,-1,-1,-1,-1],"split_conditions":[1.6638516E-1,7.364607E-2,3.3264017E-1,-1.0196675E-2,-8.453275E-4,1.004773E-2,2.350974E-2],"split_indices":[53,53,53,0,0,0,0],"split_type":[0,0,0,0,0,0,0],"sum_hessian":[7.197607E4,3.8525613E4,3.3450457E4,2.2903418E4,1.5622195E4,2.6021469E4,7.4289873E3],"tree_param":{"num_deleted":"0","num_feature":"89","num_nodes":"7","size_leaf_vector":"1"}},{"base_weights":[-8.5319765E-2,-4.301878E-1,4.8929852E-1,-9.689773E-3,-4.2341873E-3,5.311285E-3,1.6637962E-2],"categories":[],"categories_nodes":[],"categories_segments":[],"categories_sizes":[],"default_left":[0,0,0,0,0,0,0],"id":72,"left_children":[1,3,5,-1,-1,-1,-1],"loss_changes":[1.3808735E4,5.155791E2,2.0011558E3,0E0,0E0,0E0,0E0],"parents":[2147483647,0,0,1,1,2,2],"right_children":[2,4,6,-1,-1,-1,-1],"split_conditions":[1.1366529E-1,8.930845E-2,1.9251591E-1,-9.689773E-3,-4.2341873E-3,5.311285E-3,1.6637962E-2],"split_indices":[38,38,38,0,0,0,0],"split_type":[0,0,0,0,0,0,0],"sum_hessian":[6.966152E4,4.353543E4,2.6126098E4,3.485928E4,8.676146E3,1.5815534E4,1.0310563E4],"tree_param":{"num_deleted":"0","num_feature":"89","num_nodes":"7","size_leaf_vector":"1"}},{"base_weights":[-1.9098483E-1,-4.7704917E-1,4.0114146E-1,-1.0259412E-2,-3.7560158E-3,4.0183202E-3,1.6717913E-2],"categories":[],"categories_nodes":[],"categories_segments":[],"categories_sizes":[],"default_left":[0,0,0,0,0,0,0],"id":73,"left_children":[1,3,5,-1,-1,-1,-1],"loss_changes":[1.158333E4,4.7808203E2,1.9375422E3,0E0,0E0,0E0,0E0],"parents":[2147483647,0,0,1,1,2,2],"right_children":[2,4,6,-1,-1,-1,-1],"split_conditions":[9.3298115E-2,7.497966E-2,1.8957302E-1,-1.0259412E-2,-3.7560158E-3,4.0183202E-3,1.6717913E-2],"split_indices":[39,39,39,0,0,0,0],"split_type":[0,0,0,0,0,0,0],"sum_hessian":[6.8362836E4,4.609544E4,2.2267396E4,4.099641E4,5.0990317E3,1.5255923E4,7.011474E3],"tree_param":{"num_deleted":"0","num_feature":"89","num_nodes":"7","size_leaf_vector":"1"}},{"base_weights":[-2.8558555E-1,-3.4504378E-1,8.701879E-1,8.2998537E-4,-8.934988E-3,2.0000074E-2,9.872187E-3],"categories":[],"categories_nodes":[],"categories_segments":[],"categories_sizes":[],"default_left":[0,0,0,0,0,0,0],"id":74,"left_children":[1,3,5,-1,-1,-1,-1],"loss_changes":[4.632816E3,2.5195078E3,1.5634692E2,0E0,0E0,0E0,0E0],"parents":[2147483647,0,0,1,1,2,2],"right_children":[2,4,6,-1,-1,-1,-1],"split_conditions":[1E0,1.5186308E-2,1.0499733E-1,8.2998537E-4,-8.934988E-3,2.0000074E-2,9.872187E-3],"split_indices":[74,62,35,0,0,0,0],"split_type":[0,0,0,0,0,0,0],"sum_hessian":[6.736191E4,6.407273E4,3.2891772E3,1.3348031E4,5.07247E4,2.433675E3,8.555023E2],"tree_param":{"num_deleted":"0","num_feature":"89","num_nodes":"7","size_leaf_vector":"1"}},{"base_weights":[7.6951355E-1,1.0979399E-1,1.3230876E0,-3.964975E-3,8.9652985E-3,2.0795152E-2,3.2809816E-2],"categories":[],"categories_nodes":[],"categories_segments":[],"categories_sizes":[],"default_left":[0,0,0,0,0,0,0],"id":75,"left_children":[1,3,5,-1,-1,-1,-1],"loss_changes":[2.9483625E4,3.8427166E3,3.93075E3,0E0,0E0,0E0,0E0],"parents":[2147483647,0,0,1,1,2,2],"right_children":[2,4,6,-1,-1,-1,-1],"split_conditions":[3.3274418E-1,2.3474397E-1,4.4864327E-1,-3.964975E-3,8.9652985E-3,2.0795152E-2,3.2809816E-2],"split_indices":[33,33,33,0,0,0,0],"split_type":[0,0,0,0,0,0,0],"sum_hessian":[8.072599E4,3.6837285E4,4.3888703E4,1.9287688E4,1.75496E4,2.321162E4,2.0677082E4],"tree_param":{"num_deleted":"0","num_feature":"89","num_nodes":"7","size_leaf_vector":"1"}},{"base_weights":[-4.8983574E-1,-2.2876196E-1,-5.490685E-1,2.084901E-3,-8.03544E-3,-1.1191131E-2,-1.059279E-2],"categories":[],"categories_nodes":[],"categories_segments":[],"categories_sizes":[],"default_left":[0,0,0,0,0,0,0],"id":76,"left_children":[1,3,5,-1,-1,-1,-1],"loss_changes":[1.0094834E3,6.9776807E2,7.8896484E0,0E0,0E0,0E0,0E0],"parents":[2147483647,0,0,1,1,2,2],"right_children":[2,4,6,-1,-1,-1,-1],"split_conditions":[1.5004546E-2,1E0,2.6452024E-2,2.084901E-3,-8.03544E-3,-1.1191131E-2,-1.059279E-2],"split_indices":[46,82,52,0,0,0,0],"split_type":[0,0,0,0,0,0,0],"sum_hessian":[6.5350258E4,1.2093907E4,5.325635E4,4.136333E3,7.957574E3,3.440574E4,1.8850613E4],"tree_param":{"num_deleted":"0","num_feature":"89","num_nodes":"7","size_leaf_vector":"1"}},{"base_weights":[-3.9088048E-2,-4.1695404E-1,6.9216156E-1,-1.0687978E-2,-1.9418699E-3,9.756032E-3,2.4461713E-2],"categories":[],"categories_nodes":[],"categories_segments":[],"categories_sizes":[],"default_left":[0,0,0,0,0,0,0],"id":77,"left_children":[1,3,5,-1,-1,-1,-1],"loss_changes":[1.9373598E4,1.7360195E3,2.5858232E3,0E0,0E0,0E0,0E0],"parents":[2147483647,0,0,1,1,2,2],"right_children":[2,4,6,-1,-1,-1,-1],"split_conditions":[1.5286334E-1,5.840911E-2,3.458077E-1,-1.0687978E-2,-1.9418699E-3,9.756032E-3,2.4461713E-2],"split_indices":[60,60,60,0,0,0,0],"split_type":[0,0,0,0,0,0,0],"sum_hessian":[7.009389E4,4.621635E4,2.3877543E4,3.3799355E4,1.2416994E4,1.7255033E4,6.6225093E3],"tree_param":{"num_deleted":"0","num_feature":"89","num_nodes":"7","size_leaf_vector":"1"}},{"base_weights":[1.4040441E-2,-5.1690686E-1,1.231979E0,-1.1280837E-2,-6.542683E-4,1.6816977E-2,3.1560075E-2],"categories":[],"categories_nodes":[],"categories_segments":[],"categories_sizes":[],"default_left":[0,0,0,0,0,0,0],"id":78,"left_children":[1,3,5,-1,-1,-1,-1],"loss_changes":[4.571388E4,1.1233848E3,2.8913496E3,0E0,0E0,0E0,0E0],"parents":[2147483647,0,0,1,1,2,2],"right_children":[2,4,6,-1,-1,-1,-1],"split_conditions":[1.6843663E-1,6.994474E-2,3.624689E-1,-1.1280837E-2,-6.542683E-4,1.6816977E-2,3.1560075E-2],"split_indices":[36,61,36,0,0,0,0],"split_type":[0,0,0,0,0,0,0],"sum_hessian":[7.067233E4,4.92208E4,2.1451525E4,4.485284E4,4.367959E3,1.0085571E4,1.1365954E4],"tree_param":{"num_deleted":"0","num_feature":"89","num_nodes":"7","size_leaf_vector":"1"}},{"base_weights":[1.3176875E-1,-3.6177516E-1,7.9150385E-1,-9.4173215E-3,-2.6194458E-3,1.0705804E-2,2.2870678E-2],"categories":[],"categories_nodes":[],"categories_segments":[],"categories_sizes":[],"default_left":[0,0,0,0,0,0,0],"id":79,"left_children":[1,3,5,-1,-1,-1,-1],"loss_changes":[2.3445963E4,1.0365708E3,2.7731934E3,0E0,0E0,0E0,0E0],"parents":[2147483647,0,0,1,1,2,2],"right_children":[2,4,6,-1,-1,-1,-1],"split_conditions":[1.6387616E-1,1.1763035E-1,2.5537816E-1,-9.4173215E-3,-2.6194458E-3,1.0705804E-2,2.2870678E-2],"split_indices":[45,45,45,0,0,0,0],"split_type":[0,0,0,0,0,0,0],"sum_hessian":[7.1987875E4,4.1183363E4,3.0804514E4,2.7958254E4,1.3225107E4,1.7843162E4,1.2961353E4],"tree_param":{"num_deleted":"0","num_feature":"89","num_nodes":"7","size_leaf_vector":"1"}},{"base_weights":[-7.899631E-2,-3.2213083E-1,2.9280755E-1,-9.774391E-3,-2.7599807E-3,3.3357574E-3,1.2221606E-2],"categories":[],"categories_nodes":[],"categories_segments":[],"categories_sizes":[],"default_left":[0,0,0,0,0,0,0],"id":80,"left_children":[1,3,5,-1,-1,-1,-1],"loss_changes":[6.292989E3,1.2903579E3,1.1029753E3,0E0,0E0,0E0,0E0],"parents":[2147483647,0,0,1,1,2,2],"right_children":[2,4,6,-1,-1,-1,-1],"split_conditions":[1.22949176E-1,5.9135385E-2,2.0763512E-1,-9.774391E-3,-2.7599807E-3,3.3357574E-3,1.2221606E-2],"split_indices":[55,55,55,0,0,0,0],"split_type":[0,0,0,0,0,0,0],"sum_hessian":[6.959353E4,4.207843E4,2.7515104E4,2.2082914E4,1.9995514E4,1.9721604E4,7.793501E3],"tree_param":{"num_deleted":"0","num_feature":"89","num_nodes":"7","size_leaf_vector":"1"}},{"base_weights":[-1.8778354E-1,2.6774876E-2,-2.8525153E-1,-1.6805416E-3,7.3377155E-3,-2.6958967E-3,-6.8741525E-3],"categories":[],"categories_nodes":[],"categories_segments":[],"categories_sizes":[],"default_left":[0,0,0,0,0,0,0],"id":81,"left_children":[1,3,5,-1,-1,-1,-1],"loss_changes":[1.4267817E3,8.037449E2,4.1213672E2,0E0,0E0,0E0,0E0],"parents":[2147483647,0,0,1,1,2,2],"right_children":[2,4,6,-1,-1,-1,-1],"split_conditions":[9.026334E-2,1E0,3.2340128E-3,-1.6805416E-3,7.3377155E-3,-2.6958967E-3,-6.8741525E-3],"split_indices":[37,13,61,0,0,0,0],"split_type":[0,0,0,0,0,0,0],"sum_hessian":[6.821235E4,2.1309822E4,4.6902527E4,1.6079079E4,5.2307427E3,1.3133093E4,3.3769438E4],"tree_param":{"num_deleted":"0","num_feature":"89","num_nodes":"7","size_leaf_vector":"1"}},{"base_weights":[-2.8311747E-1,1.646987E-1,-4.161816E-1,2.6336476E-2,1.7028842E-3,-9.503118E-3,-4.5878557E-3],"categories":[],"categories_nodes":[],"categories_segments":[],"categories_sizes":[],"default_left":[0,0,0,0,0,0,0],"id":82,"left_children":[1,3,5,-1,-1,-1,-1],"loss_changes":[3.99548E3,1.4071134E3,5.682666E2,0E0,0E0,0E0,0E0],"parents":[2147483647,0,0,1,1,2,2],"right_children":[2,4,6,-1,-1,-1,-1],"split_conditions":[1.5186308E-2,1.2226407E-2,6E0,2.6336476E-2,1.7028842E-3,-9.503118E-3,-4.5878557E-3],"split_indices":[62,58,54,0,0,0,0],"split_type":[0,0,0,0,0,0,0],"sum_hessian":[6.702996E4,1.5354225E4,5.167574E4,9.8168787E2,1.4372537E4,3.9263684E4,1.2412054E4],"tree_param":{"num_deleted":"0","num_feature":"89","num_nodes":"7","size_leaf_vector":"1"}},{"base_weights":[7.513476E-1,1.1468209E-1,1.3386863E0,-6.4946E-3,6.8234014E-3,2.3330078E-2,3.4320273E-2],"categories":[],"categories_nodes":[],"categories_segments":[],"categories_sizes":[],"default_left":[0,0,0,0,0,0,0],"id":83,"left_children":[1,3,5,-1,-1,-1,-1],"loss_changes":[3.0450203E4,3.8911702E3,2.7319219E3,0E0,0E0,0E0,0E0],"parents":[2147483647,0,0,1,1,2,2],"right_children":[2,4,6,-1,-1,-1,-1],"split_conditions":[3.3999896E-1,1.3595033E-1,5.040064E-1,-6.4946E-3,6.8234014E-3,2.3330078E-2,3.4320273E-2],"split_indices":[41,58,33,0,0,0,0],"split_type":[0,0,0,0,0,0,0],"sum_hessian":[8.142518E4,3.9077633E4,4.2347547E4,1.3289729E4,2.5787902E4,2.910653E4,1.3241018E4],"tree_param":{"num_deleted":"0","num_feature":"89","num_nodes":"7","size_leaf_vector":"1"}},{"base_weights":[-4.889034E-1,-5.4927325E-1,5.0860804E-1,-1.1221967E-2,-4.3580513E-3,4.3762657E-3,1.8766815E-2],"categories":[],"categories_nodes":[],"categories_segments":[],"categories_sizes":[],"default_left":[0,0,0,0,0,0,0],"id":84,"left_children":[1,3,5,-1,-1,-1,-1],"loss_changes":[3.9019307E3,2.380332E2,4.587467E2,0E0,0E0,0E0,0E0],"parents":[2147483647,0,0,1,1,2,2],"right_children":[2,4,6,-1,-1,-1,-1],"split_conditions":[7.120176E-2,2.5684953E-2,1.6374145E-1,-1.1221967E-2,-4.3580513E-3,4.3762657E-3,1.8766815E-2],"split_indices":[42,42,42,0,0,0,0],"split_type":[0,0,0,0,0,0,0],"sum_hessian":[6.473862E4,6.1048438E4,3.690186E3,5.8938273E4,2.1101619E3,2.2129512E3,1.477235E3],"tree_param":{"num_deleted":"0","num_feature":"89","num_nodes":"7","size_leaf_vector":"1"}},{"base_weights":[-3.9763674E-2,-4.4109306E-1,6.7899954E-1,-1.0604412E-2,-4.1871737E-3,7.5041014E-3,2.1114582E-2],"categories":[],"categories_nodes":[],"categories_segments":[],"categories_sizes":[],"default_left":[0,0,0,0,0,0,0],"id":85,"left_children":[1,3,5,-1,-1,-1,-1],"loss_changes":[2.0148215E4,9.246084E2,2.8602852E3,0E0,0E0,0E0,0E0],"parents":[2147483647,0,0,1,1,2,2],"right_children":[2,4,6,-1,-1,-1,-1],"split_conditions":[1.2898791E-1,7.5252905E-2,2.4887158E-1,-1.0604412E-2,-4.1871737E-3,7.5041014E-3,2.1114582E-2],"split_indices":[35,35,35,0,0,0,0],"split_type":[0,0,0,0,0,0,0],"sum_hessian":[6.982694E4,4.4810414E4,2.5016527E4,3.2353879E4,1.2456535E4,1.3859886E4,1.1156642E4],"tree_param":{"num_deleted":"0","num_feature":"89","num_nodes":"7","size_leaf_vector":"1"}},{"base_weights":[1.2463821E-2,-5.103981E-1,1.1819001E0,-1.12642655E-2,5.390856E-4,1.5177544E-2,2.9469155E-2],"categories":[],"categories_nodes":[],"categories_segments":[],"categories_sizes":[],"default_left":[0,0,0,0,0,0,0],"id":86,"left_children":[1,3,5,-1,-1,-1,-1],"loss_changes":[4.3128E4,1.3834473E3,2.6765957E3,0E0,0E0,0E0,0E0],"parents":[2147483647,0,0,1,1,2,2],"right_children":[2,4,6,-1,-1,-1,-1],"split_conditions":[2.1307266E-1,6.994474E-2,4.270562E-1,-1.12642655E-2,5.390856E-4,1.5177544E-2,2.9469155E-2],"split_indices":[52,61,52,0,0,0,0],"split_type":[0,0,0,0,0,0,0],"sum_hessian":[7.051368E4,4.8731277E4,2.1782406E4,4.4369785E4,4.3614897E3,8.902188E3,1.2880219E4],"tree_param":{"num_deleted":"0","num_feature":"89","num_nodes":"7","size_leaf_vector":"1"}},{"base_weights":[1.291568E-1,-3.0479208E-1,6.6639733E-1,-1.0806949E-2,-2.2908817E-3,8.710294E-3,2.141291E-2],"categories":[],"categories_nodes":[],"categories_segments":[],"categories_sizes":[],"default_left":[0,0,0,0,0,0,0],"id":87,"left_children":[1,3,5,-1,-1,-1,-1],"loss_changes":[1.6803645E4,1.7862644E3,3.0011377E3,0E0,0E0,0E0,0E0],"parents":[2147483647,0,0,1,1,2,2],"right_children":[2,4,6,-1,-1,-1,-1],"split_conditions":[1.6314228E-1,6.250211E-2,2.6672462E-1,-1.0806949E-2,-2.2908817E-3,8.710294E-3,2.141291E-2],"split_indices":[37,62,37,0,0,0,0],"split_type":[0,0,0,0,0,0,0],"sum_hessian":[7.2058195E4,3.98634E4,3.21948E4,1.7802654E4,2.2060742E4,2.0504578E4,1.1690223E4],"tree_param":{"num_deleted":"0","num_feature":"89","num_nodes":"7","size_leaf_vector":"1"}},{"base_weights":[-7.984059E-2,-4.0818545E-1,3.481552E-1,-1.030655E-2,-4.149457E-3,5.2552955E-4,1.2728028E-2],"categories":[],"categories_nodes":[],"categories_segments":[],"categories_sizes":[],"default_left":[0,0,0,0,0,0,0],"id":88,"left_children":[1,3,5,-1,-1,-1,-1],"loss_changes":[9.761575E3,8.441987E2,2.7977402E3,0E0,0E0,0E0,0E0],"parents":[2147483647,0,0,1,1,2,2],"right_children":[2,4,6,-1,-1,-1,-1],"split_conditions":[1.10499665E-1,4.9656693E-2,1.3831583E-1,-1.030655E-2,-4.149457E-3,5.2552955E-4,1.2728028E-2],"split_indices":[46,46,30,0,0,0,0],"split_type":[0,0,0,0,0,0,0],"sum_hessian":[6.944235E4,3.9296094E4,3.0146262E4,2.5609732E4,1.368636E4,1.4247395E4,1.5898867E4],"tree_param":{"num_deleted":"0","num_feature":"89","num_nodes":"7","size_leaf_vector":"1"}},{"base_weights":[-1.840931E-1,-4.530822E-1,3.8522467E-1,-1.0378316E-2,-4.021615E-3,3.6753642E-3,1.6080333E-2],"categories":[],"categories_nodes":[],"categories_segments":[],"categories_sizes":[],"default_left":[0,0,0,0,0,0,0],"id":89,"left_children":[1,3,5,-1,-1,-1,-1],"loss_changes":[1.0405796E4,7.6448047E2,1.8381589E3,0E0,0E0,0E0,0E0],"parents":[2147483647,0,0,1,1,2,2],"right_children":[2,4,6,-1,-1,-1,-1],"split_conditions":[1.0138444E-1,6.547553E-2,2.0180354E-1,-1.0378316E-2,-4.021615E-3,3.6753642E-3,1.6080333E-2],"split_indices":[31,31,31,0,0,0,0],"split_type":[0,0,0,0,0,0,0],"sum_hessian":[6.792805E4,4.613323E4,2.1794812E4,3.6569195E4,9.564037E3,1.4725582E4,7.0692314E3],"tree_param":{"num_deleted":"0","num_feature":"89","num_nodes":"7","size_leaf_vector":"1"}},{"base_weights":[-2.8076336E-1,-5.06893E-1,6.0201466E-1,-1.0861044E-2,-2.4550976E-3,6.572971E-3,2.420422E-2],"categories":[],"categories_nodes":[],"categories_segments":[],"categories_sizes":[],"default_left":[0,0,0,0,0,0,0],"id":90,"left_children":[1,3,5,-1,-1,-1,-1],"loss_changes":[1.330968E4,7.365E2,2.256788E3,0E0,0E0,0E0,0E0],"parents":[2147483647,0,0,1,1,2,2],"right_children":[2,4,6,-1,-1,-1,-1],"split_conditions":[9.304807E-2,5.9030995E-2,2.1031137E-1,-1.0861044E-2,-2.4550976E-3,6.572971E-3,2.420422E-2],"split_indices":[40,40,40,0,0,0,0],"split_type":[0,0,0,0,0,0,0],"sum_hessian":[6.664903E4,5.3061277E4,1.3587751E4,4.8492504E4,4.568771E3,9.384915E3,4.202836E3],"tree_param":{"num_deleted":"0","num_feature":"89","num_nodes":"7","size_leaf_vector":"1"}},{"base_weights":[7.348387E-1,1.2928469E-3,1.1199282E0,-6.4646495E-3,5.831326E-3,1.8506328E-2,3.0815717E-2],"categories":[],"categories_nodes":[],"categories_segments":[],"categories_sizes":[],"default_left":[0,0,0,0,0,0,0],"id":91,"left_children":[1,3,5,-1,-1,-1,-1],"loss_changes":[2.3249895E4,2.6709644E3,4.406289E3,0E0,0E0,0E0,0E0],"parents":[2147483647,0,0,1,1,2,2],"right_children":[2,4,6,-1,-1,-1,-1],"split_conditions":[2.900283E-1,1.4739695E-1,5.183876E-1,-6.4646495E-3,5.831326E-3,1.8506328E-2,3.0815717E-2],"split_indices":[49,49,49,0,0,0,0],"split_type":[0,0,0,0,0,0,0],"sum_hessian":[8.229616E4,2.8333855E4,5.39623E4,1.337712E4,1.4956735E4,3.6921258E4,1.7041041E4],"tree_param":{"num_deleted":"0","num_feature":"89","num_nodes":"7","size_leaf_vector":"1"}},{"base_weights":[-4.8777142E-1,-6.666838E-2,-5.503235E-1,2.138992E-3,-4.544226E-3,-1.1183343E-2,-1.0670015E-2],"categories":[],"categories_nodes":[],"categories_segments":[],"categories_sizes":[],"default_left":[0,0,0,0,0,0,0],"id":92,"left_children":[1,3,5,-1,-1,-1,-1],"loss_changes":[1.6876934E3,2.3158041E2,5.3183594E0,0E0,0E0,0E0,0E0],"parents":[2147483647,0,0,1,1,2,2],"right_children":[2,4,6,-1,-1,-1,-1],"split_conditions":[7.708497E-3,1E0,2.7489109E-2,2.138992E-3,-4.544226E-3,-1.1183343E-2,-1.0670015E-2],"split_indices":[55,85,52,0,0,0,0],"split_type":[0,0,0,0,0,0,0],"sum_hessian":[6.4075293E4,8.289654E3,5.578564E4,3.984252E3,4.3054023E3,3.6352707E4,1.9432932E4],"tree_param":{"num_deleted":"0","num_feature":"89","num_nodes":"7","size_leaf_vector":"1"}},{"base_weights":[-3.7535433E-2,-4.2319757E-1,7.0210654E-1,-1.0855977E-2,-3.296199E-3,1.0516286E-2,2.6387665E-2],"categories":[],"categories_nodes":[],"categories_segments":[],"categories_sizes":[],"default_left":[0,0,0,0,0,0,0],"id":93,"left_children":[1,3,5,-1,-1,-1,-1],"loss_changes":[1.9934178E4,1.4185664E3,2.5993564E3,0E0,0E0,0E0,0E0],"parents":[2147483647,0,0,1,1,2,2],"right_children":[2,4,6,-1,-1,-1,-1],"split_conditions":[1.4034276E-1,4.8785485E-2,3.3002636E-1,-1.0855977E-2,-3.296199E-3,1.0516286E-2,2.6387665E-2],"split_indices":[35,60,35,0,0,0,0],"split_type":[0,0,0,0,0,0,0],"sum_hessian":[6.9862305E4,4.5922035E4,2.3940268E4,3.13841E4,1.4537937E4,1.8636314E4,5.303953E3],"tree_param":{"num_deleted":"0","num_feature":"89","num_nodes":"7","size_leaf_vector":"1"}},{"base_weights":[1.433794E-2,-5.1248074E-1,1.1456722E0,-1.1091872E-2,1.9276291E-3,1.4754527E-2,2.8625164E-2],"categories":[],"categories_nodes":[],"categories_segments":[],"categories_sizes":[],"default_left":[0,0,0,0,0,0,0],"id":94,"left_children":[1,3,5,-1,-1,-1,-1],"loss_changes":[4.21375E4,1.2373906E3,2.606371E3,0E0,0E0,0E0,0E0],"parents":[2147483647,0,0,1,1,2,2],"right_children":[2,4,6,-1,-1,-1,-1],"split_conditions":[1.9517063E-1,1.0044865E-1,4.270562E-1,-1.1091872E-2,1.9276291E-3,1.4754527E-2,2.8625164E-2],"split_indices":[52,52,52,0,0,0,0],"split_type":[0,0,0,0,0,0,0],"sum_hessian":[7.06797E4,4.8227492E4,2.245221E4,4.510839E4,3.1191006E3,9.26024E3,1.319197E4],"tree_param":{"num_deleted":"0","num_feature":"89","num_nodes":"7","size_leaf_vector":"1"}},{"base_weights":[1.291333E-1,-4.0250143E-1,4.3084776E-1,-1.0792192E-2,-2.3873772E-3,5.4154266E-3,1.6021669E-2],"categories":[],"categories_nodes":[],"categories_segments":[],"categories_sizes":[],"default_left":[0,0,0,0,0,0,0],"id":95,"left_children":[1,3,5,-1,-1,-1,-1],"loss_changes":[1.1591318E4,1.0150586E3,2.7299268E3,0E0,0E0,0E0,0E0],"parents":[2147483647,0,0,1,1,2,2],"right_children":[2,4,6,-1,-1,-1,-1],"split_conditions":[1.2956752E-1,6.250211E-2,2.6810423E-1,-1.0792192E-2,-2.3873772E-3,5.4154266E-3,1.6021669E-2],"split_indices":[62,62,62,0,0,0,0],"split_type":[0,0,0,0,0,0,0],"sum_hessian":[7.2243414E4,2.6154553E4,4.608886E4,1.7615238E4,8.539314E3,3.2188873E4,1.3899987E4],"tree_param":{"num_deleted":"0","num_feature":"89","num_nodes":"7","size_leaf_vector":"1"}},{"base_weights":[-8.010122E-2,-4.236872E-1,4.6987975E-1,-9.61671E-3,-3.959351E-3,5.3909235E-3,1.6654385E-2],"categories":[],"categories_nodes":[],"categories_segments":[],"categories_sizes":[],"default_left":[0,0,0,0,0,0,0],"id":96,"left_children":[1,3,5,-1,-1,-1,-1],"loss_changes":[1.3087907E4,5.489292E2,1.9336196E3,0E0,0E0,0E0,0E0],"parents":[2147483647,0,0,1,1,2,2],"right_children":[2,4,6,-1,-1,-1,-1],"split_conditions":[1.1366529E-1,8.930845E-2,2.0067883E-1,-9.61671E-3,-3.959351E-3,5.3909235E-3,1.6654385E-2],"split_indices":[38,38,38,0,0,0,0],"split_type":[0,0,0,0,0,0,0],"sum_hessian":[6.92402E4,4.2618023E4,2.662218E4,3.3998805E4,8.619216E3,1.7163291E4,9.45889E3],"tree_param":{"num_deleted":"0","num_feature":"89","num_nodes":"7","size_leaf_vector":"1"}},{"base_weights":[-1.8439376E-1,-4.8050168E-1,3.7754074E-1,-1.0285132E-2,-4.8868293E-3,3.120863E-3,1.4994129E-2],"categories":[],"categories_nodes":[],"categories_segments":[],"categories_sizes":[],"default_left":[0,0,0,0,0,0,0],"id":97,"left_children":[1,3,5,-1,-1,-1,-1],"loss_changes":[1.1253922E4,3.5181543E2,1.9230247E3,0E0,0E0,0E0,0E0],"parents":[2147483647,0,0,1,1,2,2],"right_children":[2,4,6,-1,-1,-1,-1],"split_conditions":[8.9707814E-2,7.185548E-2,1.7446135E-1,-1.0285132E-2,-4.8868293E-3,3.120863E-3,1.4994129E-2],"split_indices":[39,39,39,0,0,0,0],"split_type":[0,0,0,0,0,0,0],"sum_hessian":[6.761358E4,4.428128E4,2.3332299E4,3.8733266E4,5.548016E3,1.4635845E4,8.696454E3],"tree_param":{"num_deleted":"0","num_feature":"89","num_nodes":"7","size_leaf_vector":"1"}},{"base_weights":[-2.776611E-1,-4.976536E-1,5.8665115E-1,-1.084945E-2,-2.4237195E-3,7.170477E-3,2.5372842E-2],"categories":[],"categories_nodes":[],"categories_segments":[],"categories_sizes":[],"default_left":[0,0,0,0,0,0,0],"id":98,"left_children":[1,3,5,-1,-1,-1,-1],"loss_changes":[1.2586575E4,8.895283E2,2.0851768E3,0E0,0E0,0E0,0E0],"parents":[2147483647,0,0,1,1,2,2],"right_children":[2,4,6,-1,-1,-1,-1],"split_conditions":[1.0742187E-1,5.70878E-2,2.614138E-1,-1.084945E-2,-2.4237195E-3,7.170477E-3,2.5372842E-2],"split_indices":[32,32,32,0,0,0,0],"split_type":[0,0,0,0,0,0,0],"sum_hessian":[6.617023E4,5.2748457E4,1.342177E4,4.7132832E4,5.615626E3,1.0068945E4,3.3528245E3],"tree_param":{"num_deleted":"0","num_feature":"89","num_nodes":"7","size_leaf_vector":"1"}},{"base_weights":[7.161977E-1,9.0463316E-1,-1.0687382E-1,2.1013157E-2,8.061681E-3,2.8845277E-3,-5.9656673E-3],"categories":[],"categories_nodes":[],"categories_segments":[],"categories_sizes":[],"default_left":[0,0,0,0,0,0,0],"id":99,"left_children":[1,3,5,-1,-1,-1,-1],"loss_changes":[1.2925918E4,4.9621953E3,7.47022E2,0E0,0E0,0E0,0E0],"parents":[2147483647,0,0,1,1,2,2],"right_children":[2,4,6,-1,-1,-1,-1],"split_conditions":[2.8662008E-1,2.40954E-1,4.661099E-1,2.1013157E-2,8.061681E-3,2.8845277E-3,-5.9656673E-3],"split_indices":[61,51,61,0,0,0,0],"split_type":[0,0,0,0,0,0,0],"sum_hessian":[8.3325266E4,6.780165E4,1.5523616E4,5.250423E4,1.529742E4,6.715875E3,8.807741E3],"tree_param":{"num_deleted":"0","num_feature":"89","num_nodes":"7","size_leaf_vector":"1"}},{"base_weights":[-4.855978E-1,-5.447245E-1,5.467401E-1,-1.1175268E-2,-3.178174E-3,3.9358814E-3,1.7274218E-2],"categories":[],"categories_nodes":[],"categories_segments":[],"categories_sizes":[],"default_left":[0,0,0,0,0,0,0],"id":100,"left_children":[1,3,5,-1,-1,-1,-1],"loss_changes":[3.8837822E3,3.2485742E2,3.808955E2,0E0,0E0,0E0,0E0],"parents":[2147483647,0,0,1,1,2,2],"right_children":[2,4,6,-1,-1,-1,-1],"split_conditions":[7.678621E-2,2.848636E-2,1.421457E-1,-1.1175268E-2,-3.178174E-3,3.9358814E-3,1.7274218E-2],"split_indices":[42,42,42,0,0,0,0],"split_type":[0,0,0,0,0,0,0],"sum_hessian":[6.356934E4,6.0130137E4,3.4392048E3,5.801464E4,2.1154958E3,1.6422815E3,1.7969233E3],"tree_param":{"num_deleted":"0","num_feature":"89","num_nodes":"7","size_leaf_vector":"1"}},{"base_weights":[-3.657811E-2,-4.4910157E-1,6.857673E-1,-1.0212636E-2,-3.8049107E-3,7.908976E-3,2.0980256E-2],"categories":[],"categories_nodes":[],"categories_segments":[],"categories_sizes":[],"default_left":[0,0,0,0,0,0,0],"id":101,"left_children":[1,3,5,-1,-1,-1,-1],"loss_changes":[2.0821049E4,7.0738184E2,2.6743428E3,0E0,0E0,0E0,0E0],"parents":[2147483647,0,0,1,1,2,2],"right_children":[2,4,6,-1,-1,-1,-1],"split_conditions":[1.250541E-1,9.465131E-2,2.3172596E-1,-1.0212636E-2,-3.8049107E-3,7.908976E-3,2.0980256E-2],"split_indices":[43,43,43,0,0,0,0],"split_type":[0,0,0,0,0,0,0],"sum_hessian":[6.98526E4,4.4463676E4,2.538893E4,3.5916566E4,8.54711E3,1.4122565E4,1.1266364E4],"tree_param":{"num_deleted":"0","num_feature":"89","num_nodes":"7","size_leaf_vector":"1"}},{"base_weights":[1.2875855E-2,-5.177819E-1,1.1438255E0,-1.08641265E-2,2.689462E-3,1.6059484E-2,2.8745383E-2],"categories":[],"categories_nodes":[],"categories_segments":[],"categories_sizes":[],"default_left":[0,0,0,0,0,0,0],"id":102,"left_children":[1,3,5,-1,-1,-1,-1],"loss_changes":[4.2341277E4,7.9705566E2,2.242084E3,0E0,0E0,0E0,0E0],"parents":[2147483647,0,0,1,1,2,2],"right_children":[2,4,6,-1,-1,-1,-1],"split_conditions":[1.5472686E-1,1.261265E-1,3.624689E-1,-1.08641265E-2,2.689462E-3,1.6059484E-2,2.8745383E-2],"split_indices":[44,44,36,0,0,0,0],"split_type":[0,0,0,0,0,0,0],"sum_hessian":[7.053162E4,4.801004E4,2.2521576E4,4.621046E4,1.7995791E3,1.0436434E4,1.2085142E4],"tree_param":{"num_deleted":"0","num_feature":"89","num_nodes":"7","size_leaf_vector":"1"}},{"base_weights":[1.286089E-1,-3.1217563E-1,6.33334E-1,-9.5078405E-3,-1.6909014E-3,8.265201E-3,2.0523526E-2],"categories":[],"categories_nodes":[],"categories_segments":[],"categories_sizes":[],"default_left":[0,0,0,0,0,0,0],"id":103,"left_children":[1,3,5,-1,-1,-1,-1],"loss_changes":[1.6134273E4,1.4379775E3,2.9185967E3,0E0,0E0,0E0,0E0],"parents":[2147483647,0,0,1,1,2,2],"right_children":[2,4,6,-1,-1,-1,-1],"split_conditions":[1.6050234E-1,1.04614384E-1,2.6672462E-1,-9.5078405E-3,-1.6909014E-3,8.265201E-3,2.0523526E-2],"split_indices":[37,37,37,0,0,0,0],"split_type":[0,0,0,0,0,0,0],"sum_hessian":[7.250284E4,3.870498E4,3.3797863E4,2.253557E4,1.6169409E4,2.1675543E4,1.2122322E4],"tree_param":{"num_deleted":"0","num_feature":"89","num_nodes":"7","size_leaf_vector":"1"}},{"base_weights":[-7.7087685E-2,-3.868313E-1,3.2232165E-1,-9.686059E-3,-4.663609E-3,3.4556338E-3,1.44387735E-2],"categories":[],"categories_nodes":[],"categories_segments":[],"categories_sizes":[],"default_left":[0,0,0,0,0,0,0],"id":104,"left_children":[1,3,5,-1,-1,-1,-1],"loss_changes":[8.5607295E3,5.8254346E2,1.8049651E3,0E0,0E0,0E0,0E0],"parents":[2147483647,0,0,1,1,2,2],"right_children":[2,4,6,-1,-1,-1,-1],"split_conditions":[1.0839111E-1,7.107556E-2,1.9804265E-1,-9.686059E-3,-4.663609E-3,3.4556338E-3,1.44387735E-2],"split_indices":[30,30,30,0,0,0,0],"split_type":[0,0,0,0,0,0,0],"sum_hessian":[6.917738E4,3.8962285E4,3.0215102E4,2.3826146E4,1.5136138E4,2.1997705E4,8.217397E3],"tree_param":{"num_deleted":"0","num_feature":"89","num_nodes":"7","size_leaf_vector":"1"}},{"base_weights":[-1.8302245E-1,-4.4410366E-1,3.865227E-1,-1.0142458E-2,-2.8475248E-3,5.3320723E-3,1.952527E-2],"categories":[],"categories_nodes":[],"categories_segments":[],"categories_sizes":[],"default_left":[0,0,0,0,0,0,0],"id":105,"left_children":[1,3,5,-1,-1,-1,-1],"loss_changes":[1.0027671E4,8.784551E2,1.4965679E3,0E0,0E0,0E0,0E0],"parents":[2147483647,0,0,1,1,2,2],"right_children":[2,4,6,-1,-1,-1,-1],"split_conditions":[1.0564957E-1,7.26001E-2,2.5013432E-1,-1.0142458E-2,-2.8475248E-3,5.3320723E-3,1.952527E-2],"split_indices":[31,31,31,0,0,0,0],"split_type":[0,0,0,0,0,0,0],"sum_hessian":[6.7415164E4,4.6226848E4,2.1188322E4,3.8234355E4,7.9924907E3,1.7619963E4,3.5683582E3],"tree_param":{"num_deleted":"0","num_feature":"89","num_nodes":"7","size_leaf_vector":"1"}},{"base_weights":[-2.7725646E-1,-5.086389E-1,5.6795055E-1,-1.0824475E-2,-2.841414E-3,6.158902E-3,2.3066448E-2],"categories":[],"categories_nodes":[],"categories_segments":[],"categories_sizes":[],"default_left":[0,0,0,0,0,0,0],"id":106,"left_children":[1,3,5,-1,-1,-1,-1],"loss_changes":[1.291401E4,6.183838E2,2.1567266E3,0E0,0E0,0E0,0E0],"parents":[2147483647,0,0,1,1,2,2],"right_children":[2,4,6,-1,-1,-1,-1],"split_conditions":[9.0090826E-2,5.9030995E-2,2.1031137E-1,-1.0824475E-2,-2.841414E-3,6.158902E-3,2.3066448E-2],"split_indices":[40,40,40,0,0,0,0],"split_type":[0,0,0,0,0,0,0],"sum_hessian":[6.6009234E4,5.1825543E4,1.4183689E4,4.759039E4,4.2351533E3,9.831901E3,4.351788E3],"tree_param":{"num_deleted":"0","num_feature":"89","num_nodes":"7","size_leaf_vector":"1"}},{"base_weights":[7.0013803E-1,8.512904E-2,1.1680144E0,-4.1052727E-3,7.7459565E-3,1.8459078E-2,2.8927106E-2],"categories":[],"categories_nodes":[],"categories_segments":[],"categories_sizes":[],"default_left":[0,0,0,0,0,0,0],"id":107,"left_children":[1,3,5,-1,-1,-1,-1],"loss_changes":[2.429893E4,3.2034087E3,3.2580547E3,0E0,0E0,0E0,0E0],"parents":[2147483647,0,0,1,1,2,2],"right_children":[2,4,6,-1,-1,-1,-1],"split_conditions":[3.2755822E-1,2.2933815E-1,4.4864327E-1,-4.1052727E-3,7.7459565E-3,1.8459078E-2,2.8927106E-2],"split_indices":[33,33,33,0,0,0,0],"split_type":[0,0,0,0,0,0,0],"sum_hessian":[8.443858E4,3.648802E4,4.7950555E4,1.8608215E4,1.7879807E4,2.5522693E4,2.2427861E4],"tree_param":{"num_deleted":"0","num_feature":"89","num_nodes":"7","size_leaf_vector":"1"}},{"base_weights":[-4.852051E-1,-5.4638237E-1,4.7588396E-1,-1.1178055E-2,-4.12313E-3,3.1060965E-3,1.6314888E-2],"categories":[],"categories_nodes":[],"categories_segments":[],"categories_sizes":[],"default_left":[0,0,0,0,0,0,0],"id":108,"left_children":[1,3,5,-1,-1,-1,-1],"loss_changes":[3.7059824E3,2.5111719E2,4.0999823E2,0E0,0E0,0E0,0E0],"parents":[2147483647,0,0,1,1,2,2],"right_children":[2,4,6,-1,-1,-1,-1],"split_conditions":[7.120176E-2,2.5684953E-2,1.421457E-1,-1.1178055E-2,-4.12313E-3,3.1060965E-3,1.6314888E-2],"split_indices":[42,42,42,0,0,0,0],"split_type":[0,0,0,0,0,0,0],"sum_hessian":[6.297614E4,5.921141E4,3.764732E3,5.710355E4,2.1078572E3,1.9448184E3,1.8199135E3],"tree_param":{"num_deleted":"0","num_feature":"89","num_nodes":"7","size_leaf_vector":"1"}},{"base_weights":[-3.8434185E-2,-4.3868595E-1,6.410128E-1,-1.0965034E-2,-4.1772686E-3,7.290637E-3,1.9839488E-2],"categories":[],"categories_nodes":[],"categories_segments":[],"categories_sizes":[],"default_left":[0,0,0,0,0,0,0],"id":109,"left_children":[1,3,5,-1,-1,-1,-1],"loss_changes":[1.8967145E4,1.1040234E3,2.5052217E3,0E0,0E0,0E0,0E0],"parents":[2147483647,0,0,1,1,2,2],"right_children":[2,4,6,-1,-1,-1,-1],"split_conditions":[1.2898791E-1,4.396051E-2,2.532075E-1,-1.0965034E-2,-4.1772686E-3,7.290637E-3,1.9839488E-2],"split_indices":[35,60,35,0,0,0,0],"split_type":[0,0,0,0,0,0,0],"sum_hessian":[6.972468E4,4.387949E4,2.584519E4,2.9704354E4,1.4175133E4,1.4467978E4,1.1377211E4],"tree_param":{"num_deleted":"0","num_feature":"89","num_nodes":"7","size_leaf_vector":"1"}},{"base_weights":[1.3838583E-2,-5.27114E-1,1.0961536E0,-1.0936278E-2,-7.669982E-4,1.5539603E-2,2.808538E-2],"categories":[],"categories_nodes":[],"categories_segments":[],"categories_sizes":[],"default_left":[0,0,0,0,0,0,0],"id":110,"left_children":[1,3,5,-1,-1,-1,-1],"loss_changes":[4.1286E4,4.5249902E2,2.300082E3,0E0,0E0,0E0,0E0],"parents":[2147483647,0,0,1,1,2,2],"right_children":[2,4,6,-1,-1,-1,-1],"split_conditions":[1.4472549E-1,1.21843465E-1,3.6936954E-1,-1.0936278E-2,-7.669982E-4,1.5539603E-2,2.808538E-2],"split_indices":[44,36,36,0,0,0,0],"split_type":[0,0,0,0,0,0,0],"sum_hessian":[7.049651E4,4.7007023E4,2.348948E4,4.518464E4,1.8223848E3,1.1555002E4,1.19344795E4],"tree_param":{"num_deleted":"0","num_feature":"89","num_nodes":"7","size_leaf_vector":"1"}},{"base_weights":[1.2195711E-1,-3.8096055E-1,4.2357612E-1,-1.073023E-2,-2.103082E-3,5.7260105E-3,1.6475054E-2],"categories":[],"categories_nodes":[],"categories_segments":[],"categories_sizes":[],"default_left":[0,0,0,0,0,0,0],"id":111,"left_children":[1,3,5,-1,-1,-1,-1],"loss_changes":[1.0997727E4,1.165595E3,2.4872153E3,0E0,0E0,0E0,0E0],"parents":[2147483647,0,0,1,1,2,2],"right_children":[2,4,6,-1,-1,-1,-1],"split_conditions":[1.35862E-1,6.250211E-2,2.78612E-1,-1.073023E-2,-2.103082E-3,5.7260105E-3,1.6475054E-2],"split_indices":[62,62,62,0,0,0,0],"split_type":[0,0,0,0,0,0,0],"sum_hessian":[7.248092E4,2.717195E4,4.530897E4,1.736748E4,9.80447E3,3.374896E4,1.1560008E4],"tree_param":{"num_deleted":"0","num_feature":"89","num_nodes":"7","size_leaf_vector":"1"}},{"base_weights":[-7.815289E-2,-3.8496312E-1,3.632245E-1,-1.003806E-2,-3.4092544E-3,4.389539E-3,1.3692295E-2],"categories":[],"categories_nodes":[],"categories_segments":[],"categories_sizes":[],"default_left":[0,0,0,0,0,0,0],"id":112,"left_children":[1,3,5,-1,-1,-1,-1],"loss_changes":[9.341905E3,1.0199253E3,1.305457E3,0E0,0E0,0E0,0E0],"parents":[2147483647,0,0,1,1,2,2],"right_children":[2,4,6,-1,-1,-1,-1],"split_conditions":[1.2030992E-1,5.3068824E-2,2.282708E-1,-1.003806E-2,-3.4092544E-3,4.389539E-3,1.3692295E-2],"split_indices":[46,46,46,0,0,0,0],"split_type":[0,0,0,0,0,0,0],"sum_hessian":[6.896481E4,4.068508E4,2.8279734E4,2.6321762E4,1.4363317E4,1.955171E4,8.728023E3],"tree_param":{"num_deleted":"0","num_feature":"89","num_nodes":"7","size_leaf_vector":"1"}},{"base_weights":[-1.7760593E-1,-4.4570547E-1,3.78948E-1,-1.0099591E-2,-2.866824E-3,4.331084E-3,1.6411692E-2],"categories":[],"categories_nodes":[],"categories_segments":[],"categories_sizes":[],"default_left":[0,0,0,0,0,0,0],"id":113,"left_children":[1,3,5,-1,-1,-1,-1],"loss_changes":[1.0004684E4,8.102412E2,1.5617073E3,0E0,0E0,0E0,0E0],"parents":[2147483647,0,0,1,1,2,2],"right_children":[2,4,6,-1,-1,-1,-1],"split_conditions":[1.0333647E-1,7.26001E-2,2.2023745E-1,-1.0099591E-2,-2.866824E-3,4.331084E-3,1.6411692E-2],"split_indices":[31,31,31,0,0,0,0],"split_type":[0,0,0,0,0,0,0],"sum_hessian":[6.7028875E4,4.5238746E4,2.1790125E4,3.781832E4,7.4204263E3,1.5942737E4,5.8473867E3],"tree_param":{"num_deleted":"0","num_feature":"89","num_nodes":"7","size_leaf_vector":"1"}},{"base_weights":[-2.74436E-1,-5.031909E-1,5.288975E-1,-1.0798595E-2,-2.9612135E-3,6.3479734E-3,2.3914663E-2],"categories":[],"categories_nodes":[],"categories_segments":[],"categories_sizes":[],"default_left":[0,0,0,0,0,0,0],"id":114,"left_children":[1,3,5,-1,-1,-1,-1],"loss_changes":[1.2067326E4,6.659863E2,2.0491382E3,0E0,0E0,0E0,0E0],"parents":[2147483647,0,0,1,1,2,2],"right_children":[2,4,6,-1,-1,-1,-1],"split_conditions":[1.0131421E-1,5.70878E-2,2.614138E-1,-1.0798595E-2,-2.9612135E-3,6.3479734E-3,2.3914663E-2],"split_indices":[32,32,32,0,0,0,0],"split_type":[0,0,0,0,0,0,0],"sum_hessian":[6.564216E4,5.109596E4,1.4546199E4,4.6300844E4,4.795116E3,1.1054748E4,3.491451E3],"tree_param":{"num_deleted":"0","num_feature":"89","num_nodes":"7","size_leaf_vector":"1"}},{"base_weights":[6.8372065E-1,-2.0861305E-2,1.0060322E0,-8.465571E-3,3.9691194E-3,1.5619845E-2,2.612559E-2],"categories":[],"categories_nodes":[],"categories_segments":[],"categories_sizes":[],"default_left":[0,0,0,0,0,0,0],"id":115,"left_children":[1,3,5,-1,-1,-1,-1],"loss_changes":[1.937689E4,2.3652927E3,3.9454453E3,0E0,0E0,0E0,0E0],"parents":[2147483647,0,0,1,1,2,2],"right_children":[2,4,6,-1,-1,-1,-1],"split_conditions":[2.7670226E-1,1.09587E-1,4.725202E-1,-8.465571E-3,3.9691194E-3,1.5619845E-2,2.612559E-2],"split_indices":[58,58,58,0,0,0,0],"split_type":[0,0,0,0,0,0,0],"sum_hessian":[8.5314125E4,2.6780523E4,5.8533605E4,9.443566E3,1.7336955E4,3.347762E4,2.5055984E4],"tree_param":{"num_deleted":"0","num_feature":"89","num_nodes":"7","size_leaf_vector":"1"}},{"base_weights":[-4.8302302E-1,-4.990788E-1,7.1664596E-1,-5.341963E-3,-1.0892553E-2,1.7422382E-2,1.0601381E-2],"categories":[],"categories_nodes":[],"categories_segments":[],"categories_sizes":[],"default_left":[0,0,0,0,0,0,0],"id":116,"left_children":[1,3,5,-1,-1,-1,-1],"loss_changes":[1.2041924E3,6.485381E2,1.922647E1,0E0,0E0,0E0,0E0],"parents":[2147483647,0,0,1,1,2,2],"right_children":[2,4,6,-1,-1,-1,-1],"split_conditions":[1E0,1.3661575E-2,5.437348E-2,-5.341963E-3,-1.0892553E-2,1.7422382E-2,1.0601381E-2],"split_indices":[76,46,39,0,0,0,0],"split_type":[0,0,0,0,0,0,0],"sum_hessian":[6.2322E4,6.150469E4,8.173093E2,1.0105576E4,5.1399113E4,4.270505E2,3.902588E2],"tree_param":{"num_deleted":"0","num_feature":"89","num_nodes":"7","size_leaf_vector":"1"}},{"base_weights":[-3.6455724E-2,-4.3855944E-1,6.683641E-1,-1.0886977E-2,-4.408392E-3,7.9009095E-3,1.984754E-2],"categories":[],"categories_nodes":[],"categories_segments":[],"categories_sizes":[],"default_left":[0,0,0,0,0,0,0],"id":117,"left_children":[1,3,5,-1,-1,-1,-1],"loss_changes":[1.973152E4,1.0218037E3,2.235833E3,0E0,0E0,0E0,0E0],"parents":[2147483647,0,0,1,1,2,2],"right_children":[2,4,6,-1,-1,-1,-1],"split_conditions":[1.2773211E-1,4.6748925E-2,2.3172596E-1,-1.0886977E-2,-4.408392E-3,7.9009095E-3,1.984754E-2],"split_indices":[43,51,43,0,0,0,0],"split_type":[0,0,0,0,0,0,0],"sum_hessian":[6.960131E4,4.4320176E4,2.5281137E4,2.9835938E4,1.448424E4,1.3725387E4,1.155575E4],"tree_param":{"num_deleted":"0","num_feature":"89","num_nodes":"7","size_leaf_vector":"1"}},{"base_weights":[1.24477185E-2,-5.167957E-1,1.0625408E0,-1.0896219E-2,2.3165918E-3,1.3510668E-2,2.600606E-2],"categories":[],"categories_nodes":[],"categories_segments":[],"categories_sizes":[],"default_left":[0,0,0,0,0,0,0],"id":118,"left_children":[1,3,5,-1,-1,-1,-1],"loss_changes":[3.917262E4,8.312363E2,2.164627E3,0E0,0E0,0E0,0E0],"parents":[2147483647,0,0,1,1,2,2],"right_children":[2,4,6,-1,-1,-1,-1],"split_conditions":[1.6168816E-1,1.21843465E-1,3.2576063E-1,-1.0896219E-2,2.3165918E-3,1.3510668E-2,2.600606E-2],"split_indices":[36,36,36,0,0,0,0],"split_type":[0,0,0,0,0,0,0],"sum_hessian":[7.0465555E4,4.685558E4,2.3609979E4,4.486994E4,1.9856383E3,8.999628E3,1.4610351E4],"tree_param":{"num_deleted":"0","num_feature":"89","num_nodes":"7","size_leaf_vector":"1"}},{"base_weights":[1.23184204E-1,-3.3141783E-1,5.8655685E-1,-9.524902E-3,-2.3385324E-3,7.9744235E-3,2.0150172E-2],"categories":[],"categories_nodes":[],"categories_segments":[],"categories_sizes":[],"default_left":[0,0,0,0,0,0,0],"id":119,"left_children":[1,3,5,-1,-1,-1,-1],"loss_changes":[1.5318951E4,1.1398162E3,2.843503E3,0E0,0E0,0E0,0E0],"parents":[2147483647,0,0,1,1,2,2],"right_children":[2,4,6,-1,-1,-1,-1],"split_conditions":[1.546291E-1,1.0324703E-1,2.762111E-1,-9.524902E-3,-2.3385324E-3,7.9744235E-3,2.0150172E-2],"split_indices":[37,37,37,0,0,0,0],"split_type":[0,0,0,0,0,0,0],"sum_hessian":[7.270301E4,3.6700254E4,3.6002754E4,2.190053E4,1.4799727E4,2.4907904E4,1.109485E4],"tree_param":{"num_deleted":"0","num_feature":"89","num_nodes":"7","size_leaf_vector":"1"}},{"base_weights":[-7.7567466E-2,-4.148884E-1,4.6399778E-1,-9.204919E-3,-2.0291568E-3,6.0644387E-3,1.7175324E-2],"categories":[],"categories_nodes":[],"categories_segments":[],"categories_sizes":[],"default_left":[0,0,0,0,0,0,0],"id":120,"left_children":[1,3,5,-1,-1,-1,-1],"loss_changes":[1.2571377E4,6.023506E2,1.6737808E3,0E0,0E0,0E0,0E0],"parents":[2147483647,0,0,1,1,2,2],"right_children":[2,4,6,-1,-1,-1,-1],"split_conditions":[1.1548377E-1,9.7634204E-2,2.1775904E-1,-9.204919E-3,-2.0291568E-3,6.0644387E-3,1.7175324E-2],"split_indices":[38,38,38,0,0,0,0],"split_type":[0,0,0,0,0,0,0],"sum_hessian":[6.879536E4,4.2392797E4,2.6402562E4,3.7029453E4,5.3633413E3,1.8774162E4,7.628402E3],"tree_param":{"num_deleted":"0","num_feature":"89","num_nodes":"7","size_leaf_vector":"1"}},{"base_weights":[-1.7757052E-1,-4.769485E-1,3.6936462E-1,-1.0221882E-2,-4.867799E-3,2.9152571E-3,1.3707976E-2],"categories":[],"categories_nodes":[],"categories_segments":[],"categories_sizes":[],"default_left":[0,0,0,0,0,0,0],"id":121,"left_children":[1,3,5,-1,-1,-1,-1],"loss_changes":[1.0979217E4,3.4431738E2,1.6752839E3,0E0,0E0,0E0,0E0],"parents":[2147483647,0,0,1,1,2,2],"right_children":[2,4,6,-1,-1,-1,-1],"split_conditions":[8.9707814E-2,7.185548E-2,1.6676046E-1,-1.0221882E-2,-4.867799E-3,2.9152571E-3,1.3707976E-2],"split_indices":[39,39,39,0,0,0,0],"split_type":[0,0,0,0,0,0,0],"sum_hessian":[6.703185E4,4.3320582E4,2.3711273E4,3.7784688E4,5.5358916E3,1.3894906E4,9.816366E3],"tree_param":{"num_deleted":"0","num_feature":"89","num_nodes":"7","size_leaf_vector":"1"}},{"base_weights":[-2.735405E-1,-4.8294064E-1,5.735809E-1,-1.084797E-2,-2.5095672E-3,7.1971086E-3,2.3951283E-2],"categories":[],"categories_nodes":[],"categories_segments":[],"categories_sizes":[],"default_left":[0,0,0,0,0,0,0],"id":122,"left_children":[1,3,5,-1,-1,-1,-1],"loss_changes":[1.1566588E4,1.1103623E3,1.7193838E3,0E0,0E0,