{"learner":{"attributes":{"best_iteration":"105","best_score":"1.891127730103767"},"feature_names":["at_bat_num","b_height_inches","balls","bases_loaded","close_game","count_category_ahead","count_category_behind","count_category_even","count_category_first_pitch","count_category_full_count","fouls","inning","is_first_pitch","late_inning","on_1b_flag","on_2b_flag","on_3b_flag","outs","p_throws_L","p_throws_R","pcount_at_bat","pcount_pitcher","pitcher_n_types","prev_pitch_type_2_CH","prev_pitch_type_2_CU","prev_pitch_type_2_FC","prev_pitch_type_2_FF","prev_pitch_type_2_FS","prev_pitch_type_2_FT","prev_pitch_type_2_NONE","prev_pitch_type_2_SI","prev_pitch_type_2_SL","prev_pitch_type_CH","prev_pitch_type_CU","prev_pitch_type_FC","prev_pitch_type_FF","prev_pitch_type_FS","prev_pitch_type_FT","prev_pitch_type_NONE","prev_pitch_type_SI","prev_pitch_type_SL","runners_on","same_hand","score_diff","stand_L","stand_R","strikes","top","total_runs"],"feature_types":["int","int","int","int","int","int","int","int","int","int","int","int","int","int","int","int","int","int","int","int","int","int","int","int","int","int","int","int","int","int","int","int","int","int","int","int","int","int","int","int","int","int","int","int","int","int","int","int","int"],"gradient_booster":{"model":{"gbtree_model_param":{"num_parallel_tree":"1","num_trees":"1648"},"iteration_indptr":[0,8,16,24,32,40,48,56,64,72,80,88,96,104,112,120,128,136,144,152,160,168,176,184,192,200,208,216,224,232,240,248,256,264,272,280,288,296,304,312,320,328,336,344,352,360,368,376,384,392,400,408,416,424,432,440,448,456,464,472,480,488,496,504,512,520,528,536,544,552,560,568,576,584,592,600,608,616,624,632,640,648,656,664,672,680,688,696,704,712,720,728,736,744,752,760,768,776,784,792,800,808,816,824,832,840,848,856,864,872,880,888,896,904,912,920,928,936,944,952,960,968,976,984,992,1000,1008,1016,1024,1032,1040,1048,1056,1064,1072,1080,1088,1096,1104,1112,1120,1128,1136,1144,1152,1160,1168,1176,1184,1192,1200,1208,1216,1224,1232,1240,1248,1256,1264,1272,1280,1288,1296,1304,1312,1320,1328,1336,1344,1352,1360,1368,1376,1384,1392,1400,1408,1416,1424,1432,1440,1448,1456,1464,1472,1480,1488,1496,1504,1512,1520,1528,1536,1544,1552,1560,1568,1576,1584,1592,1600,1608,1616,1624,1632,1640,1648],"tree_info":[0,1,2,3,4,5,6,7,0,1,2,3,4,5,6,7,0,1,2,3,4,5,6,7,0,1,2,3,4,5,6,7,0,1,2,3,4,5,6,7,0,1,2,3,4,5,6,7,0,1,2,3,4,5,6,7,0,1,2,3,4,5,6,7,0,1,2,3,4,5,6,7,0,1,2,3,4,5,6,7,0,1,2,3,4,5,6,7,0,1,2,3,4,5,6,7,0,1,2,3,4,5,6,7,0,1,2,3,4,5,6,7,0,1,2,3,4,5,6,7,0,1,2,3,4,5,6,7,0,1,2,3,4,5,6,7,0,1,2,3,4,5,6,7,0,1,2,3,4,5,6,7,0,1,2,3,4,5,6,7,0,1,2,3,4,5,6,7,0,1,2,3,4,5,6,7,0,1,2,3,4,5,6,7,0,1,2,3,4,5,6,7,0,1,2,3,4,5,6,7,0,1,2,3,4,5,6,7,0,1,2,3,4,5,6,7,0,1,2,3,4,5,6,7,0,1,2,3,4,5,6,7,0,1,2,3,4,5,6,7,0,1,2,3,4,5,6,7,0,1,2,3,4,5,6,7,0,1,2,3,4,5,6,7,0,1,2,3,4,5,6,7,0,1,2,3,4,5,6,7,0,1,2,3,4,5,6,7,0,1,2,3,4,5,6,7,0,1,2,3,4,5,6,7,0,1,2,3,4,5,6,7,0,1,2,3,4,5,6,7,0,1,2,3,4,5,6,7,0,1,2,3,4,5,6,7,0,1,2,3,4,5,6,7,0,1,2,3,4,5,6,7,0,1,2,3,4,5,6,7,0,1,2,3,4,5,6,7,0,1,2,3,4,5,6,7,0,1,2,3,4,5,6,7,0,1,2,3,4,5,6,7,0,1,2,3,4,5,6,7,0,1,2,3,4,5,6,7,0,1,2,3,4,5,6,7,0,1,2,3,4,5,6,7,0,1,2,3,4,5,6,7,0,1,2,3,4,5,6,7,0,1,2,3,4,5,6,7,0,1,2,3,4,5,6,7,0,1,2,3,4,5,6,7,0,1,2,3,4,5,6,7,0,1,2,3,4,5,6,7,0,1,2,3,4,5,6,7,0,1,2,3,4,5,6,7,0,1,2,3,4,5,6,7,0,1,2,3,4,5,6,7,0,1,2,3,4,5,6,7,0,1,2,3,4,5,6,7,0,1,2,3,4,5,6,7,0,1,2,3,4,5,6,7,0,1,2,3,4,5,6,7,0,1,2,3,4,5,6,7,0,1,2,3,4,5,6,7,0,1,2,3,4,5,6,7,0,1,2,3,4,5,6,7,0,1,2,3,4,5,6,7,0,1,2,3,4,5,6,7,0,1,2,3,4,5,6,7,0,1,2,3,4,5,6,7,0,1,2,3,4,5,6,7,0,1,2,3,4,5,6,7,0,1,2,3,4,5,6,7,0,1,2,3,4,5,6,7,0,1,2,3,4,5,6,7,0,1,2,3,4,5,6,7,0,1,2,3,4,5,6,7,0,1,2,3,4,5,6,7,0,1,2,3,4,5,6,7,0,1,2,3,4,5,6,7,0,1,2,3,4,5,6,7,0,1,2,3,4,5,6,7,0,1,2,3,4,5,6,7,0,1,2,3,4,5,6,7,0,1,2,3,4,5,6,7,0,1,2,3,4,5,6,7,0,1,2,3,4,5,6,7,0,1,2,3,4,5,6,7,0,1,2,3,4,5,6,7,0,1,2,3,4,5,6,7,0,1,2,3,4,5,6,7,0,1,2,3,4,5,6,7,0,1,2,3,4,5,6,7,0,1,2,3,4,5,6,7,0,1,2,3,4,5,6,7,0,1,2,3,4,5,6,7,0,1,2,3,4,5,6,7,0,1,2,3,4,5,6,7,0,1,2,3,4,5,6,7,0,1,2,3,4,5,6,7,0,1,2,3,4,5,6,7,0,1,2,3,4,5,6,7,0,1,2,3,4,5,6,7,0,1,2,3,4,5,6,7,0,1,2,3,4,5,6,7,0,1,2,3,4,5,6,7,0,1,2,3,4,5,6,7,0,1,2,3,4,5,6,7,0,1,2,3,4,5,6,7,0,1,2,3,4,5,6,7,0,1,2,3,4,5,6,7,0,1,2,3,4,5,6,7,0,1,2,3,4,5,6,7,0,1,2,3,4,5,6,7,0,1,2,3,4,5,6,7,0,1,2,3,4,5,6,7,0,1,2,3,4,5,6,7,0,1,2,3,4,5,6,7,0,1,2,3,4,5,6,7,0,1,2,3,4,5,6,7,0,1,2,3,4,5,6,7,0,1,2,3,4,5,6,7,0,1,2,3,4,5,6,7,0,1,2,3,4,5,6,7,0,1,2,3,4,5,6,7,0,1,2,3,4,5,6,7,0,1,2,3,4,5,6,7,0,1,2,3,4,5,6,7,0,1,2,3,4,5,6,7,0,1,2,3,4,5,6,7,0,1,2,3,4,5,6,7,0,1,2,3,4,5,6,7,0,1,2,3,4,5,6,7,0,1,2,3,4,5,6,7,0,1,2,3,4,5,6,7,0,1,2,3,4,5,6,7,0,1,2,3,4,5,6,7,0,1,2,3,4,5,6,7,0,1,2,3,4,5,6,7,0,1,2,3,4,5,6,7,0,1,2,3,4,5,6,7,0,1,2,3,4,5,6,7,0,1,2,3,4,5,6,7,0,1,2,3,4,5,6,7,0,1,2,3,4,5,6,7,0,1,2,3,4,5,6,7,0,1,2,3,4,5,6,7,0,1,2,3,4,5,6,7,0,1,2,3,4,5,6,7,0,1,2,3,4,5,6,7,0,1,2,3,4,5,6,7,0,1,2,3,4,5,6,7,0,1,2,3,4,5,6,7,0,1,2,3,4,5,6,7,0,1,2,3,4,5,6,7,0,1,2,3,4,5,6,7,0,1,2,3,4,5,6,7,0,1,2,3,4,5,6,7,0,1,2,3,4,5,6,7,0,1,2,3,4,5,6,7,0,1,2,3,4,5,6,7,0,1,2,3,4,5,6,7,0,1,2,3,4,5,6,7,0,1,2,3,4,5,6,7,0,1,2,3,4,5,6,7,0,1,2,3,4,5,6,7,0,1,2,3,4,5,6,7,0,1,2,3,4,5,6,7,0,1,2,3,4,5,6,7,0,1,2,3,4,5,6,7,0,1,2,3,4,5,6,7,0,1,2,3,4,5,6,7,0,1,2,3,4,5,6,7,0,1,2,3,4,5,6,7,0,1,2,3,4,5,6,7,0,1,2,3,4,5,6,7,0,1,2,3,4,5,6,7,0,1,2,3,4,5,6,7,0,1,2,3,4,5,6,7,0,1,2,3,4,5,6,7,0,1,2,3,4,5,6,7,0,1,2,3,4,5,6,7,0,1,2,3,4,5,6,7,0,1,2,3,4,5,6,7,0,1,2,3,4,5,6,7,0,1,2,3,4,5,6,7,0,1,2,3,4,5,6,7,0,1,2,3,4,5,6,7,0,1,2,3,4,5,6,7,0,1,2,3,4,5,6,7,0,1,2,3,4,5,6,7,0,1,2,3,4,5,6,7,0,1,2,3,4,5,6,7,0,1,2,3,4,5,6,7,0,1,2,3,4,5,6,7,0,1,2,3,4,5,6,7,0,1,2,3,4,5,6,7,0,1,2,3,4,5,6,7,0,1,2,3,4,5,6,7],"trees":[{"base_weights":[-9.1643736E-2,-1.4678276E-1,5.8772427E-1,-4.7836867E-3,-1.9820193E-3,1.3914274E-2,8.234663E-3],"categories":[],"categories_nodes":[],"categories_segments":[],"categories_sizes":[],"default_left":[0,0,0,0,0,0,0],"id":0,"left_children":[1,3,5,-1,-1,-1,-1],"loss_changes":[2.6420735E3,2.8712756E2,9.776807E1,0E0,0E0,0E0,0E0],"parents":[2147483647,0,0,1,1,2,2],"right_children":[2,4,6,-1,-1,-1,-1],"split_conditions":[1E0,5E0,2E0,-4.7836867E-3,-1.9820193E-3,1.3914274E-2,8.234663E-3],"split_indices":[32,22,2,0,0,0,0],"split_type":[0,0,0,0,0,0,0],"sum_hessian":[7.049809E4,6.5213094E4,5.285E3,2.2183656E4,4.3029438E4,3.2569688E3,2.0280312E3],"tree_param":{"num_deleted":"0","num_feature":"49","num_nodes":"7","size_leaf_vector":"1"}},{"base_weights":[-2.0302138E-1,-2.4470736E-1,4.419364E-1,-3.6178897E-3,-9.150695E-3,1.1186162E-2,2.0235253E-3],"categories":[],"categories_nodes":[],"categories_segments":[],"categories_sizes":[],"default_left":[0,0,0,0,0,0,0],"id":1,"left_children":[1,3,5,-1,-1,-1,-1],"loss_changes":[1.9025808E3,9.0147534E2,1.713064E2,0E0,0E0,0E0,0E0],"parents":[2147483647,0,0,1,1,2,2],"right_children":[2,4,6,-1,-1,-1,-1],"split_conditions":[1E0,1E0,1E0,-3.6178897E-3,-9.150695E-3,1.1186162E-2,2.0235253E-3],"split_indices":[33,6,6,0,0,0,0],"split_type":[0,0,0,0,0,0,0],"sum_hessian":[7.071531E4,6.642803E4,4.2872812E3,5.111925E4,1.5308781E4,3.184125E3,1.1031562E3],"tree_param":{"num_deleted":"0","num_feature":"49","num_nodes":"7","size_leaf_vector":"1"}},{"base_weights":[-3.025522E-1,-3.7213126E-1,-2.7672055E-1,-9.166319E-3,-5.9575653E-3,-4.908998E-3,-7.380497E-3],"categories":[],"categories_nodes":[],"categories_segments":[],"categories_sizes":[],"default_left":[0,0,0,0,0,0,0],"id":2,"left_children":[1,3,5,-1,-1,-1,-1],"loss_changes":[1.26331055E2,1.2122217E2,1.4836426E2,0E0,0E0,0E0,0E0],"parents":[2147483647,0,0,1,1,2,2],"right_children":[2,4,6,-1,-1,-1,-1],"split_conditions":[1E0,2.7E1,1E0,-9.166319E-3,-5.9575653E-3,-4.908998E-3,-7.380497E-3],"split_indices":[19,21,35,0,0,0,0],"split_type":[0,0,0,0,0,0,0],"sum_hessian":[7.08505E4,1.9145875E4,5.1704625E4,8.8370625E3,1.03088125E4,3.8648094E4,1.3056531E4],"tree_param":{"num_deleted":"0","num_feature":"49","num_nodes":"7","size_leaf_vector":"1"}},{"base_weights":[9.780953E-1,8.3763576E-1,1.6464571E0,1.416567E-2,2.218E-2,2.8608177E-2,4.61162E-2],"categories":[],"categories_nodes":[],"categories_segments":[],"categories_sizes":[],"default_left":[0,0,0,0,0,0,0],"id":3,"left_children":[1,3,5,-1,-1,-1,-1],"loss_changes":[6.623883E3,2.0437305E3,1.7146641E3,0E0,0E0,0E0,0E0],"parents":[2147483647,0,0,1,1,2,2],"right_children":[2,4,6,-1,-1,-1,-1],"split_conditions":[1E0,1E0,1E0,1.416567E-2,2.218E-2,2.8608177E-2,4.61162E-2],"split_indices":[26,38,6,0,0,0,0],"split_type":[0,0,0,0,0,0,0],"sum_hessian":[7.069541E4,5.8437094E4,1.22583125E4,3.9597906E4,1.8839188E4,9.256844E3,3.0014688E3],"tree_param":{"num_deleted":"0","num_feature":"49","num_nodes":"7","size_leaf_vector":"1"}},{"base_weights":[-5.0322235E-1,-1.1211727E-2,-4.8177987E-1,-8.988178E-3,-1.0246789E-2],"categories":[],"categories_nodes":[],"categories_segments":[],"categories_sizes":[],"default_left":[0,0,0,0,0],"id":4,"left_children":[1,-1,3,-1,-1],"loss_changes":[8.418164E1,0E0,4.863086E1,0E0,0E0],"parents":[2147483647,0,0,2,2],"right_children":[2,-1,4,-1,-1],"split_conditions":[1E0,-1.1211727E-2,1E0,-8.988178E-3,-1.0246789E-2],"split_indices":[19,0,45,0,0],"split_type":[0,0,0,0,0],"sum_hessian":[7.062453E4,1.9147844E4,5.1476688E4,2.5073781E4,2.6402906E4],"tree_param":{"num_deleted":"0","num_feature":"49","num_nodes":"5","size_leaf_vector":"1"}},{"base_weights":[-4.550895E-2,-1.21043175E-1,1.5811451E-1,-1.8280479E-3,-5.2340985E-3,4.5375004E-3,-3.393921E-3],"categories":[],"categories_nodes":[],"categories_segments":[],"categories_sizes":[],"default_left":[0,0,0,0,0,0,0],"id":5,"left_children":[1,3,5,-1,-1,-1,-1],"loss_changes":[1.0864607E3,2.1457233E2,4.3122977E2,0E0,0E0,0E0,0E0],"parents":[2147483647,0,0,1,1,2,2],"right_children":[2,4,6,-1,-1,-1,-1],"split_conditions":[1E0,1E0,1E0,-1.8280479E-3,-5.2340985E-3,4.5375004E-3,-3.393921E-3],"split_indices":[18,26,26,0,0,0,0],"split_type":[0,0,0,0,0,0,0],"sum_hessian":[7.061622E4,5.1511906E4,1.9104312E4,4.256E4,8.951906E3,1.5794406E4,3.3099062E3],"tree_param":{"num_deleted":"0","num_feature":"49","num_nodes":"7","size_leaf_vector":"1"}},{"base_weights":[1.2903837E-2,1.5531039E-1,-4.0892032E-1,4.484876E-3,-7.175909E-3,-7.394576E-3,-9.729048E-3],"categories":[],"categories_nodes":[],"categories_segments":[],"categories_sizes":[],"default_left":[0,0,0,0,0,0,0],"id":6,"left_children":[1,3,5,-1,-1,-1,-1],"loss_changes":[4.2409814E3,1.8712994E3,5.2345947E1,0E0,0E0,0E0,0E0],"parents":[2147483647,0,0,1,1,2,2],"right_children":[2,4,6,-1,-1,-1,-1],"split_conditions":[1E0,1E0,1E0,4.484876E-3,-7.175909E-3,-7.394576E-3,-9.729048E-3],"split_indices":[35,26,26,0,0,0,0],"split_type":[0,0,0,0,0,0,0],"sum_hessian":[7.057947E4,5.2770594E4,1.7808875E4,4.6536438E4,6.2341562E3,1.1867625E4,5.94125E3],"tree_param":{"num_deleted":"0","num_feature":"49","num_nodes":"7","size_leaf_vector":"1"}},{"base_weights":[1.4493513E-1,-8.554054E-2,4.2169797E-1,-3.340023E-3,2.5154038E-3,9.868295E-3,3.3361928E-3],"categories":[],"categories_nodes":[],"categories_segments":[],"categories_sizes":[],"default_left":[0,0,0,0,0,0,0],"id":7,"left_children":[1,3,5,-1,-1,-1,-1],"loss_changes":[4.5082217E3,6.6409985E2,5.8618506E2,0E0,0E0,0E0,0E0],"parents":[2147483647,0,0,1,1,2,2],"right_children":[2,4,6,-1,-1,-1,-1],"split_conditions":[1E0,1E0,1E0,-3.340023E-3,2.5154038E-3,9.868295E-3,3.3361928E-3],"split_indices":[42,10,6,0,0,0,0],"split_type":[0,0,0,0,0,0,0],"sum_hessian":[7.066041E4,3.855797E4,3.2102438E4,2.7831125E4,1.0726844E4,2.5046E4,7.0564375E3],"tree_param":{"num_deleted":"0","num_feature":"49","num_nodes":"7","size_leaf_vector":"1"}},{"base_weights":[-8.977528E-2,1.1377764E-1,-3.3453515E-1,1.0098271E-3,1.270063E-2,-7.2386106E-3,7.537679E-3],"categories":[],"categories_nodes":[],"categories_segments":[],"categories_sizes":[],"default_left":[0,0,0,0,0,0,0],"id":8,"left_children":[1,3,5,-1,-1,-1,-1],"loss_changes":[3.5174275E3,1.271315E3,6.260962E2,0E0,0E0,0E0,0E0],"parents":[2147483647,0,0,1,1,2,2],"right_children":[2,4,6,-1,-1,-1,-1],"split_conditions":[1E0,1E0,1E0,1.0098271E-3,1.270063E-2,-7.2386106E-3,7.537679E-3],"split_indices":[42,32,32,0,0,0,0],"split_type":[0,0,0,0,0,0,0],"sum_hessian":[7.058283E4,3.8538168E4,3.2044658E4,3.4375547E4,4.162622E3,3.0861166E4,1.1834913E3],"tree_param":{"num_deleted":"0","num_feature":"49","num_nodes":"7","size_leaf_vector":"1"}},{"base_weights":[-2.0191675E-1,-2.4346462E-1,4.3487537E-1,-3.6019806E-3,-9.129262E-3,5.0994437E-3,1.327955E-2],"categories":[],"categories_nodes":[],"categories_segments":[],"categories_sizes":[],"default_left":[0,0,0,0,0,0,0],"id":9,"left_children":[1,3,5,-1,-1,-1,-1],"loss_changes":[1.8659744E3,8.923496E2,1.7639838E2,0E0,0E0,0E0,0E0],"parents":[2147483647,0,0,1,1,2,2],"right_children":[2,4,6,-1,-1,-1,-1],"split_conditions":[1E0,1E0,1E0,-3.6019806E-3,-9.129262E-3,5.0994437E-3,1.327955E-2],"split_indices":[33,6,5,0,0,0,0],"split_type":[0,0,0,0,0,0,0],"sum_hessian":[7.047761E4,6.61667E4,4.310907E3,5.1010023E4,1.5156679E4,2.426567E3,1.8843402E3],"tree_param":{"num_deleted":"0","num_feature":"49","num_nodes":"7","size_leaf_vector":"1"}},{"base_weights":[-2.9878616E-1,-2.7660385E-1,-4.720706E-1,-5.320795E-3,-9.032821E-3,-9.082351E-3,-9.909398E-3],"categories":[],"categories_nodes":[],"categories_segments":[],"categories_sizes":[],"default_left":[0,0,0,0,0,0,0],"id":10,"left_children":[1,3,5,-1,-1,-1,-1],"loss_changes":[2.6893945E2,1.1409326E2,1.0958252E0,0E0,0E0,0E0,0E0],"parents":[2147483647,0,0,1,1,2,2],"right_children":[2,4,6,-1,-1,-1,-1],"split_conditions":[1E0,1E0,5.1E1,-5.320795E-3,-9.032821E-3,-9.082351E-3,-9.909398E-3],"split_indices":[40,31,0,0,0,0,0],"split_type":[0,0,0,0,0,0,0],"sum_hessian":[7.029597E4,6.2341523E4,7.9544443E3,5.8816926E4,3.524599E3,4.616514E3,3.33793E3],"tree_param":{"num_deleted":"0","num_feature":"49","num_nodes":"7","size_leaf_vector":"1"}},{"base_weights":[9.538541E-1,1.068325E0,-1.6446523E-1,2.2625891E-2,9.071097E-3,-4.3359715E-3,4.2386646E-3],"categories":[],"categories_nodes":[],"categories_segments":[],"categories_sizes":[],"default_left":[0,0,0,0,0,0,0],"id":11,"left_children":[1,3,5,-1,-1,-1,-1],"loss_changes":[9.197602E3,2.5175312E3,1.3202034E2,0E0,0E0,0E0,0E0],"parents":[2147483647,0,0,1,1,2,2],"right_children":[2,4,6,-1,-1,-1,-1],"split_conditions":[1E0,1E0,6E0,2.2625891E-2,9.071097E-3,-4.3359715E-3,4.2386646E-3],"split_indices":[39,37,22,0,0,0,0],"split_type":[0,0,0,0,0,0,0],"sum_hessian":[7.1824055E4,6.5155223E4,6.6688276E3,5.9093957E4,6.0612686E3,5.8585166E3,8.1031104E2],"tree_param":{"num_deleted":"0","num_feature":"49","num_nodes":"7","size_leaf_vector":"1"}},{"base_weights":[-5.0174737E-1,-4.798325E-1,-1.1208324E-2,-1.0205637E-2,-8.957148E-3],"categories":[],"categories_nodes":[],"categories_segments":[],"categories_sizes":[],"default_left":[0,0,0,0,0],"id":12,"left_children":[1,3,-1,-1,-1],"loss_changes":[8.7333984E1,4.7413086E1,0E0,0E0,0E0],"parents":[2147483647,0,0,1,1],"right_children":[2,4,-1,-1,-1],"split_conditions":[1E0,1E0,-1.1208324E-2,-1.0205637E-2,-8.957148E-3],"split_indices":[18,44,0,0,0],"split_type":[0,0,0,0,0],"sum_hessian":[7.000764E4,5.1035785E4,1.8971857E4,2.6064977E4,2.497081E4],"tree_param":{"num_deleted":"0","num_feature":"49","num_nodes":"5","size_leaf_vector":"1"}},{"base_weights":[-4.560209E-2,-1.1010198E-1,9.916967E-1,1.1581868E-4,-4.7686477E-3,2.4856802E-2,1.4841821E-2],"categories":[],"categories_nodes":[],"categories_segments":[],"categories_sizes":[],"default_left":[0,0,0,0,0,0,0],"id":13,"left_children":[1,3,5,-1,-1,-1,-1],"loss_changes":[4.720633E3,9.878475E2,2.4970312E2,0E0,0E0,0E0,0E0],"parents":[2147483647,0,0,1,1,2,2],"right_children":[2,4,6,-1,-1,-1,-1],"split_conditions":[1E0,3E0,2E0,1.1581868E-4,-4.7686477E-3,2.4856802E-2,1.4841821E-2],"split_indices":[28,20,46,0,0,0,0],"split_type":[0,0,0,0,0,0,0],"sum_hessian":[7.0530234E4,6.6409766E4,4.120463E3,3.4900918E4,3.1508852E4,2.0340692E3,2.0863936E3],"tree_param":{"num_deleted":"0","num_feature":"49","num_nodes":"7","size_leaf_vector":"1"}},{"base_weights":[1.744381E-2,-1.7008737E-1,1.8415678E0,-5.612938E-3,2.0242566E-3,4.2015284E-2,2.7187E-2],"categories":[],"categories_nodes":[],"categories_segments":[],"categories_sizes":[],"default_left":[0,0,0,0,0,0,0],"id":14,"left_children":[1,3,5,-1,-1,-1,-1],"loss_changes":[2.4198594E4,1.9243292E3,7.9568555E2,0E0,0E0,0E0,0E0],"parents":[2147483647,0,0,1,1,2,2],"right_children":[2,4,6,-1,-1,-1,-1],"split_conditions":[1E0,1E0,1E0,-5.612938E-3,2.0242566E-3,4.2015284E-2,2.7187E-2],"split_indices":[39,8,5,0,0,0,0],"split_type":[0,0,0,0,0,0,0],"sum_hessian":[7.07204E4,6.41359E4,6.5844976E3,4.5566438E4,1.8569463E4,4.2607437E3,2.323754E3],"tree_param":{"num_deleted":"0","num_feature":"49","num_nodes":"7","size_leaf_vector":"1"}},{"base_weights":[1.4722277E-1,3.690383E-2,1.0134515E0,-2.9527072E-3,5.5581443E-3,1.6927151E-2,2.531423E-2],"categories":[],"categories_nodes":[],"categories_segments":[],"categories_sizes":[],"default_left":[0,0,0,0,0,0,0],"id":15,"left_children":[1,3,5,-1,-1,-1,-1],"loss_changes":[6.7803037E3,2.8001194E3,3.2714648E2,0E0,0E0,0E0,0E0],"parents":[2147483647,0,0,1,1,2,2],"right_children":[2,4,6,-1,-1,-1,-1],"split_conditions":[1E0,1E0,1E0,-2.9527072E-3,5.5581443E-3,1.6927151E-2,2.531423E-2],"split_indices":[40,42,13,0,0,0,0],"split_type":[0,0,0,0,0,0,0],"sum_hessian":[7.09462E4,6.294078E4,8.0054253E3,3.5648312E4,2.7292467E4,4.8418174E3,3.163608E3],"tree_param":{"num_deleted":"0","num_feature":"49","num_nodes":"7","size_leaf_vector":"1"}},{"base_weights":[-8.991008E-2,1.09857336E-1,-3.3242294E-1,9.657329E-4,1.2322758E-2,-7.203599E-3,7.44493E-3],"categories":[],"categories_nodes":[],"categories_segments":[],"categories_sizes":[],"default_left":[0,0,0,0,0,0,0],"id":16,"left_children":[1,3,5,-1,-1,-1,-1],"loss_changes":[3.4146626E3,1.204541E3,6.2401514E2,0E0,0E0,0E0,0E0],"parents":[2147483647,0,0,1,1,2,2],"right_children":[2,4,6,-1,-1,-1,-1],"split_conditions":[1E0,1E0,1E0,9.657329E-4,1.2322758E-2,-7.203599E-3,7.44493E-3],"split_indices":[42,32,32,0,0,0,0],"split_type":[0,0,0,0,0,0,0],"sum_hessian":[7.04661E4,3.8641254E4,3.1824854E4,3.4461246E4,4.180008E3,3.0623479E4,1.2013738E3],"tree_param":{"num_deleted":"0","num_feature":"49","num_nodes":"7","size_leaf_vector":"1"}},{"base_weights":[-2.0170778E-1,-3.3903784E-1,-1.323819E-1,-6.2749367E-3,-9.920935E-3,-1.5148867E-3,-6.0726814E-3],"categories":[],"categories_nodes":[],"categories_segments":[],"categories_sizes":[],"default_left":[0,0,0,0,0,0,0],"id":17,"left_children":[1,3,5,-1,-1,-1,-1],"loss_changes":[6.669033E2,9.179346E1,4.5173553E2,0E0,0E0,0E0,0E0],"parents":[2147483647,0,0,1,1,2,2],"right_children":[2,4,6,-1,-1,-1,-1],"split_conditions":[5E0,1E0,2E0,-6.2749367E-3,-9.920935E-3,-1.5148867E-3,-6.0726814E-3],"split_indices":[22,40,2,0,0,0,0],"split_type":[0,0,0,0,0,0,0],"sum_hessian":[7.0086125E4,2.3498408E4,4.6587715E4,2.026423E4,3.2341763E3,3.5020082E4,1.1567633E4],"tree_param":{"num_deleted":"0","num_feature":"49","num_nodes":"7","size_leaf_vector":"1"}},{"base_weights":[-2.9820627E-1,-2.8400403E-1,-9.414438E-3,-5.257751E-3,-6.9623766E-3],"categories":[],"categories_nodes":[],"categories_segments":[],"categories_sizes":[],"default_left":[0,0,0,0,0],"id":18,"left_children":[1,3,-1,-1,-1],"loss_changes":[1.7025049E2,8.672217E1,0E0,0E0,0E0],"parents":[2147483647,0,0,1,1],"right_children":[2,4,-1,-1,-1],"split_conditions":[1E0,1E0,-9.414438E-3,-5.257751E-3,-6.9623766E-3],"split_indices":[31,35,0,0,0],"split_type":[0,0,0,0,0],"sum_hessian":[7.002245E4,6.4720816E4,5.3016387E3,4.872428E4,1.5996538E4],"tree_param":{"num_deleted":"0","num_feature":"49","num_nodes":"5","size_leaf_vector":"1"}},{"base_weights":[9.242127E-1,7.03968E-1,1.5684724E0,2.0773483E-2,1.0411186E-2,2.639137E-2,4.1508935E-2],"categories":[],"categories_nodes":[],"categories_segments":[],"categories_sizes":[],"default_left":[0,0,0,0,0,0,0],"id":19,"left_children":[1,3,5,-1,-1,-1,-1],"loss_changes":[1.0337738E4,3.3322754E3,2.3162422E3,0E0,0E0,0E0,0E0],"parents":[2147483647,0,0,1,1,2,2],"right_children":[2,4,6,-1,-1,-1,-1],"split_conditions":[1E0,2E0,1E0,2.0773483E-2,1.0411186E-2,2.639137E-2,4.1508935E-2],"split_indices":[35,20,6,0,0,0,0],"split_type":[0,0,0,0,0,0,0],"sum_hessian":[7.2922766E4,5.4360254E4,1.8562508E4,1.9226605E4,3.513365E4,1.2474206E4,6.088302E3],"tree_param":{"num_deleted":"0","num_feature":"49","num_nodes":"7","size_leaf_vector":"1"}},{"base_weights":[-5.004093E-1,-5.147876E-1,8.0728346E-1,-1.1243631E-2,-9.93762E-3,1.8430911E-2,9.33251E-3],"categories":[],"categories_nodes":[],"categories_segments":[],"categories_sizes":[],"default_left":[0,0,0,0,0,0,0],"id":20,"left_children":[1,3,5,-1,-1,-1,-1],"loss_changes":[1.3100703E3,5.551367E1,2.5253204E1,0E0,0E0,0E0,0E0],"parents":[2147483647,0,0,1,1,2,2],"right_children":[2,4,6,-1,-1,-1,-1],"split_conditions":[1E0,1E0,1E0,-1.1243631E-2,-9.93762E-3,1.8430911E-2,9.33251E-3],"split_indices":[36,19,6,0,0,0,0],"split_type":[0,0,0,0,0,0,0],"sum_hessian":[6.944463E4,6.8695375E4,7.492537E2,1.8754186E4,4.994119E4,5.48295E2,2.0095876E2],"tree_param":{"num_deleted":"0","num_feature":"49","num_nodes":"7","size_leaf_vector":"1"}},{"base_weights":[-4.229903E-2,-1.0516502E-1,9.554142E-1,-1.4395413E-3,-1.1299616E-2,1.3727006E-2,2.4589228E-2],"categories":[],"categories_nodes":[],"categories_segments":[],"categories_sizes":[],"default_left":[0,0,0,0,0,0,0],"id":21,"left_children":[1,3,5,-1,-1,-1,-1],"loss_changes":[4.4251475E3,1.012323E3,2.9992627E2,0E0,0E0,0E0,0E0],"parents":[2147483647,0,0,1,1,2,2],"right_children":[2,4,6,-1,-1,-1,-1],"split_conditions":[1E0,1E0,2E0,-1.4395413E-3,-1.1299616E-2,1.3727006E-2,2.4589228E-2],"split_indices":[28,30,2,0,0,0,0],"split_type":[0,0,0,0,0,0,0],"sum_hessian":[7.0525484E4,6.635349E4,4.171993E3,6.1897504E4,4.455987E3,2.12282E3,2.049173E3],"tree_param":{"num_deleted":"0","num_feature":"49","num_nodes":"7","size_leaf_vector":"1"}},{"base_weights":[1.311094E-2,4.865171E-2,-1.1313602E-2,2.4226245E-3,-4.363719E-3],"categories":[],"categories_nodes":[],"categories_segments":[],"categories_sizes":[],"default_left":[0,0,0,0,0],"id":22,"left_children":[1,3,-1,-1,-1],"loss_changes":[1.4553982E3,1.2893807E3,0E0,0E0,0E0],"parents":[2147483647,0,0,1,1],"right_children":[2,4,-1,-1,-1],"split_conditions":[1E0,6E0,-1.1313602E-2,2.4226245E-3,-4.363719E-3],"split_indices":[28,22,0,0,0],"split_type":[0,0,0,0,0],"sum_hessian":[7.072771E4,6.664455E4,4.0831611E3,5.24133E4,1.4231249E4],"tree_param":{"num_deleted":"0","num_feature":"49","num_nodes":"5","size_leaf_vector":"1"}},{"base_weights":[1.4302653E-1,8.094634E-2,8.9043605E-1,3.420477E-3,-6.555909E-4,1.4537546E-2,2.2587191E-2],"categories":[],"categories_nodes":[],"categories_segments":[],"categories_sizes":[],"default_left":[0,0,0,0,0,0,0],"id":23,"left_children":[1,3,5,-1,-1,-1,-1],"loss_changes":[3.2975872E3,6.725297E2,2.0478809E2,0E0,0E0,0E0,0E0],"parents":[2147483647,0,0,1,1,2,2],"right_children":[2,4,6,-1,-1,-1,-1],"split_conditions":[1E0,1E0,1E0,3.420477E-3,-6.555909E-4,1.4537546E-2,2.2587191E-2],"split_indices":[31,44,13,0,0,0,0],"split_type":[0,0,0,0,0,0,0],"sum_hessian":[7.107525E4,6.563469E4,5.4405654E3,3.66225E4,2.901219E4,3.2536514E3,2.1869138E3],"tree_param":{"num_deleted":"0","num_feature":"49","num_nodes":"7","size_leaf_vector":"1"}},{"base_weights":[-8.789784E-2,-4.7835905E-2,-2.0139179E-1,-2.7832922E-3,-2.866018E-5,-5.5502197E-3,-3.2768138E-3],"categories":[],"categories_nodes":[],"categories_segments":[],"categories_sizes":[],"default_left":[0,0,0,0,0,0,0],"id":24,"left_children":[1,3,5,-1,-1,-1,-1],"loss_changes":[3.1978754E2,2.204205E2,5.2001526E1,0E0,0E0,0E0,0E0],"parents":[2147483647,0,0,1,1,2,2],"right_children":[2,4,6,-1,-1,-1,-1],"split_conditions":[1E0,5E0,5E0,-2.7832922E-3,-2.866018E-5,-5.5502197E-3,-3.2768138E-3],"split_indices":[8,22,22,0,0,0,0],"split_type":[0,0,0,0,0,0,0],"sum_hessian":[7.034383E4,5.2001996E4,1.8341832E4,1.7513158E4,3.4488836E4,6.038131E3,1.23037E4],"tree_param":{"num_deleted":"0","num_feature":"49","num_nodes":"7","size_leaf_vector":"1"}},{"base_weights":[-1.9926012E-1,-2.2291842E-1,3.4603986E-1,-3.497552E-3,-7.4719083E-3,1.0587707E-2,2.5068223E-3],"categories":[],"categories_nodes":[],"categories_segments":[],"categories_sizes":[],"default_left":[0,0,0,0,0,0,0],"id":25,"left_children":[1,3,5,-1,-1,-1,-1],"loss_changes":[9.0219775E2,4.8414697E2,1.1706174E2,0E0,0E0,0E0,0E0],"parents":[2147483647,0,0,1,1,2,2],"right_children":[2,4,6,-1,-1,-1,-1],"split_conditions":[1E0,2E0,2E0,-3.497552E-3,-7.4719083E-3,1.0587707E-2,2.5068223E-3],"split_indices":[24,2,2,0,0,0,0],"split_type":[0,0,0,0,0,0,0],"sum_hessian":[6.986329E4,6.6963914E4,2.8993743E3,5.0791508E4,1.6172407E4,1.5760685E3,1.3233058E3],"tree_param":{"num_deleted":"0","num_feature":"49","num_nodes":"7","size_leaf_vector":"1"}},{"base_weights":[-2.9868066E-1,-3.3784184E-1,1.0125576E0,-7.609696E-3,-3.6104848E-3,3.7246685E-2,1.4363121E-2],"categories":[],"categories_nodes":[],"categories_segments":[],"categories_sizes":[],"default_left":[0,0,0,0,0,0,0],"id":26,"left_children":[1,3,5,-1,-1,-1,-1],"loss_changes":[3.5775776E3,4.5276318E2,4.922317E2,0E0,0E0,0E0,0E0],"parents":[2147483647,0,0,1,1,2,2],"right_children":[2,4,6,-1,-1,-1,-1],"split_conditions":[1E0,6E0,5E0,-7.609696E-3,-3.6104848E-3,3.7246685E-2,1.4363121E-2],"split_indices":[25,22,22,0,0,0,0],"split_type":[0,0,0,0,0,0,0],"sum_hessian":[6.959435E4,6.758334E4,2.0110063E3,5.315956E4,1.4423782E4,5.037362E2,1.5072701E3],"tree_param":{"num_deleted":"0","num_feature":"49","num_nodes":"7","size_leaf_vector":"1"}},{"base_weights":[9.0095997E-1,8.6288065E-1,1.325343E0,2.0509254E-2,1.4659074E-2,2.2356614E-2,3.201064E-2],"categories":[],"categories_nodes":[],"categories_segments":[],"categories_sizes":[],"default_left":[0,0,0,0,0,0,0],"id":27,"left_children":[1,3,5,-1,-1,-1,-1],"loss_changes":[1.1863555E3,1.4298477E3,3.2955664E2,0E0,0E0,0E0,0E0],"parents":[2147483647,0,0,1,1,2,2],"right_children":[2,4,6,-1,-1,-1,-1],"split_conditions":[3E0,1E0,1E0,2.0509254E-2,1.4659074E-2,2.2356614E-2,3.201064E-2],"split_indices":[2,46,6,0,0,0,0],"split_type":[0,0,0,0,0,0,0],"sum_hessian":[7.410927E4,6.8034914E4,6.0743535E3,3.0189191E4,3.7845727E4,3.491861E3,2.5824924E3],"tree_param":{"num_deleted":"0","num_feature":"49","num_nodes":"7","size_leaf_vector":"1"}},{"base_weights":[-4.993565E-1,-5.1339066E-1,7.835196E-1,-1.03818085E-2,1.05518745E-2,1.9650688E-2,1.22051835E-2],"categories":[],"categories_nodes":[],"categories_segments":[],"categories_sizes":[],"default_left":[0,0,0,0,0,0,0],"id":28,"left_children":[1,3,5,-1,-1,-1,-1],"loss_changes":[1.2449375E3,4.0729688E2,1.9858215E1,0E0,0E0,0E0,0E0],"parents":[2147483647,0,0,1,1,2,2],"right_children":[2,4,6,-1,-1,-1,-1],"split_conditions":[1E0,1E0,2.2E1,-1.03818085E-2,1.05518745E-2,1.9650688E-2,1.22051835E-2],"split_indices":[36,27,21,0,0,0,0],"split_type":[0,0,0,0,0,0,0],"sum_hessian":[6.891409E4,6.817429E4,7.398018E2,6.780803E4,3.662571E2,3.225722E2,4.172296E2],"tree_param":{"num_deleted":"0","num_feature":"49","num_nodes":"7","size_leaf_vector":"1"}},{"base_weights":[-4.086613E-2,-1.527882E-1,1.1558242E0,-4.570057E-3,7.109999E-4,2.6010191E-2,1.7691812E-2],"categories":[],"categories_nodes":[],"categories_segments":[],"categories_sizes":[],"default_left":[0,0,0,0,0,0,0],"id":29,"left_children":[1,3,5,-1,-1,-1,-1],"loss_changes":[9.449352E3,9.200476E2,2.2529492E2,0E0,0E0,0E0,0E0],"parents":[2147483647,0,0,1,1,2,2],"right_children":[2,4,6,-1,-1,-1,-1],"split_conditions":[1E0,1E0,1E0,-4.570057E-3,7.109999E-4,2.6010191E-2,1.7691812E-2],"split_indices":[37,12,10,0,0,0,0],"split_type":[0,0,0,0,0,0,0],"sum_hessian":[7.052803E4,6.4503938E4,6.0240947E3,4.600652E4,1.8497416E4,3.9037505E3,2.1203445E3],"tree_param":{"num_deleted":"0","num_feature":"49","num_nodes":"7","size_leaf_vector":"1"}},{"base_weights":[1.5999619E-2,1.574198E-1,-4.0900755E-1,4.486157E-3,-7.018106E-3,-7.430628E-3,-9.635163E-3],"categories":[],"categories_nodes":[],"categories_segments":[],"categories_sizes":[],"default_left":[0,0,0,0,0,0,0],"id":30,"left_children":[1,3,5,-1,-1,-1,-1],"loss_changes":[4.2521045E3,1.8055983E3,4.6367188E1,0E0,0E0,0E0,0E0],"parents":[2147483647,0,0,1,1,2,2],"right_children":[2,4,6,-1,-1,-1,-1],"split_conditions":[1E0,1E0,1E0,4.486157E-3,-7.018106E-3,-7.430628E-3,-9.635163E-3],"split_indices":[35,26,26,0,0,0,0],"split_type":[0,0,0,0,0,0,0],"sum_hessian":[7.072437E4,5.3071305E4,1.7653062E4,4.6904902E4,6.166404E3,1.1691479E4,5.9615845E3],"tree_param":{"num_deleted":"0","num_feature":"49","num_nodes":"7","size_leaf_vector":"1"}},{"base_weights":[1.4051491E-1,3.1788982E-2,9.705758E-1,-5.710832E-4,4.054675E-3,1.607757E-2,2.3987854E-2],"categories":[],"categories_nodes":[],"categories_segments":[],"categories_sizes":[],"default_left":[0,0,0,0,0,0,0],"id":31,"left_children":[1,3,5,-1,-1,-1,-1],"loss_changes":[6.41806E3,6.4881146E2,3.0451465E2,0E0,0E0,0E0,0E0],"parents":[2147483647,0,0,1,1,2,2],"right_children":[2,4,6,-1,-1,-1,-1],"split_conditions":[1E0,1E0,5.1E1,-5.710832E-4,4.054675E-3,1.607757E-2,2.3987854E-2],"split_indices":[40,5,0,0,0,0,0],"split_type":[0,0,0,0,0,0,0],"sum_hessian":[7.110834E4,6.2882086E4,8.226257E3,4.648227E4,1.6399814E4,4.785249E3,3.441008E3],"tree_param":{"num_deleted":"0","num_feature":"49","num_nodes":"7","size_leaf_vector":"1"}},{"base_weights":[-8.6797446E-2,-1.14446566E-1,4.289409E-1,-3.3655064E-3,6.5037137E-4,2.706635E-3,9.202418E-3],"categories":[],"categories_nodes":[],"categories_segments":[],"categories_sizes":[],"default_left":[0,0,0,0,0,0,0],"id":32,"left_children":[1,3,5,-1,-1,-1,-1],"loss_changes":[1.00141534E3,5.2715186E2,3.209369E1,0E0,0E0,0E0,0E0],"parents":[2147483647,0,0,1,1,2,2],"right_children":[2,4,6,-1,-1,-1,-1],"split_conditions":[1E0,1E0,1E0,-3.3655064E-3,6.5037137E-4,2.706635E-3,9.202418E-3],"split_indices":[23,18,46,0,0,0,0],"split_type":[0,0,0,0,0,0,0],"sum_hessian":[7.0182484E4,6.661878E4,3.5637014E3,4.875858E4,1.7860203E4,3.472452E2,3.2164563E3],"tree_param":{"num_deleted":"0","num_feature":"49","num_nodes":"7","size_leaf_vector":"1"}},{"base_weights":[-1.9705492E-1,-2.3878872E-1,4.3254036E-1,-3.4833287E-3,-9.130156E-3,1.6061336E-2,6.681907E-3],"categories":[],"categories_nodes":[],"categories_segments":[],"categories_sizes":[],"default_left":[0,0,0,0,0,0,0],"id":33,"left_children":[1,3,5,-1,-1,-1,-1],"loss_changes":[1.8304651E3,9.1799146E2,1.5532855E2,0E0,0E0,0E0,0E0],"parents":[2147483647,0,0,1,1,2,2],"right_children":[2,4,6,-1,-1,-1,-1],"split_conditions":[1E0,1E0,5E0,-3.4833287E-3,-9.130156E-3,1.6061336E-2,6.681907E-3],"split_indices":[33,6,22,0,0,0,0],"split_type":[0,0,0,0,0,0,0],"sum_hessian":[6.96153E4,6.5293418E4,4.3218774E3,5.036294E4,1.4930477E4,8.9220984E2,3.4296677E3],"tree_param":{"num_deleted":"0","num_feature":"49","num_nodes":"7","size_leaf_vector":"1"}},{"base_weights":[-2.9069576E-1,-3.5136375E-1,1.0350692E0,-7.853993E-3,-3.9380505E-3,3.9367333E-2,1.44786835E-2],"categories":[],"categories_nodes":[],"categories_segments":[],"categories_sizes":[],"default_left":[0,0,0,0,0,0,0],"id":34,"left_children":[1,3,5,-1,-1,-1,-1],"loss_changes":[5.573273E3,4.2205566E2,8.663806E2,0E0,0E0,0E0,0E0],"parents":[2147483647,0,0,1,1,2,2],"right_children":[2,4,6,-1,-1,-1,-1],"split_conditions":[1E0,6E0,5E0,-7.853993E-3,-3.9380505E-3,3.9367333E-2,1.44786835E-2],"split_indices":[34,22,22,0,0,0,0],"split_type":[0,0,0,0,0,0,0],"sum_hessian":[6.923698E4,6.621431E4,3.0226658E3,5.222324E4,1.3991074E4,7.424148E2,2.280251E3],"tree_param":{"num_deleted":"0","num_feature":"49","num_nodes":"7","size_leaf_vector":"1"}},{"base_weights":[8.793896E-1,9.2175776E-1,4.096707E-1,2.095437E-2,1.568264E-2,6.6227936E-3,1.0940428E-2],"categories":[],"categories_nodes":[],"categories_segments":[],"categories_sizes":[],"default_left":[0,0,0,0,0,0,0],"id":35,"left_children":[1,3,5,-1,-1,-1,-1],"loss_changes":[1.4921445E3,1.1868984E3,6.546362E1,0E0,0E0,0E0,0E0],"parents":[2147483647,0,0,1,1,2,2],"right_children":[2,4,6,-1,-1,-1,-1],"split_conditions":[1E0,3.1E1,1E0,2.095437E-2,1.568264E-2,6.6227936E-3,1.0940428E-2],"split_indices":[37,21,6,0,0,0,0],"split_type":[0,0,0,0,0,0,0],"sum_hessian":[7.515764E4,6.8930555E4,6.2270854E3,3.5956E4,3.297456E4,3.9835674E3,2.243518E3],"tree_param":{"num_deleted":"0","num_feature":"49","num_nodes":"7","size_leaf_vector":"1"}},{"base_weights":[-4.9679103E-1,-4.744364E-1,-1.1138469E-2,-8.85421E-3,-1.0094447E-2],"categories":[],"categories_nodes":[],"categories_segments":[],"categories_sizes":[],"default_left":[0,0,0,0,0],"id":36,"left_children":[1,3,-1,-1,-1],"loss_changes":[8.905078E1,4.5609375E1,0E0,0E0,0E0],"parents":[2147483647,0,0,1,1],"right_children":[2,4,-1,-1,-1],"split_conditions":[1E0,1E0,-1.1138469E-2,-8.85421E-3,-1.0094447E-2],"split_indices":[18,42,0,0,0],"split_type":[0,0,0,0,0],"sum_hessian":[6.820166E4,4.978329E4,1.8418367E4,2.4389916E4,2.5393373E4],"tree_param":{"num_deleted":"0","num_feature":"49","num_nodes":"5","size_leaf_vector":"1"}},{"base_weights":[-4.1781526E-2,-1.5213217E-1,1.1221182E0,-3.7368652E-3,1.3033456E-2,2.4004353E-2,1.3550644E-2],"categories":[],"categories_nodes":[],"categories_segments":[],"categories_sizes":[],"default_left":[0,0,0,0,0,0,0],"id":37,"left_children":[1,3,5,-1,-1,-1,-1],"loss_changes":[9.051727E3,1.7971843E3,2.0378711E2,0E0,0E0,0E0,0E0],"parents":[2147483647,0,0,1,1,2,2],"right_children":[2,4,6,-1,-1,-1,-1],"split_conditions":[1E0,1E0,1E0,-3.7368652E-3,1.3033456E-2,2.4004353E-2,1.3550644E-2],"split_indices":[37,28,26,0,0,0,0],"split_type":[0,0,0,0,0,0,0],"sum_hessian":[7.045267E4,6.435938E4,6.093292E3,6.1702523E4,2.6568542E3,5.168377E3,9.249147E2],"tree_param":{"num_deleted":"0","num_feature":"49","num_nodes":"7","size_leaf_vector":"1"}},{"base_weights":[1.8069346E-2,1.5871438E-1,-4.1038316E-1,5.0061527E-3,-1.13317715E-2,-7.799869E-3,-8.914506E-3],"categories":[],"categories_nodes":[],"categories_segments":[],"categories_sizes":[],"default_left":[0,0,0,0,0,0,0],"id":38,"left_children":[1,3,5,-1,-1,-1,-1],"loss_changes":[4.267686E3,3.5434849E3,1.0874268E1,0E0,0E0,0E0,0E0],"parents":[2147483647,0,0,1,1,2,2],"right_children":[2,4,6,-1,-1,-1,-1],"split_conditions":[1E0,1E0,1E0,5.0061527E-3,-1.13317715E-2,-7.799869E-3,-8.914506E-3],"split_indices":[35,37,13,0,0,0,0],"split_type":[0,0,0,0,0,0,0],"sum_hessian":[7.080073E4,5.330799E4,1.7492736E4,4.7336727E4,5.971264E3,1.11692705E4,6.3234653E3],"tree_param":{"num_deleted":"0","num_feature":"49","num_nodes":"7","size_leaf_vector":"1"}},{"base_weights":[1.4058462E-1,3.2298625E-2,9.537041E-1,-2.5808177E-4,1.5434685E-2,1.6254423E-2,2.3201382E-2],"categories":[],"categories_nodes":[],"categories_segments":[],"categories_sizes":[],"default_left":[0,0,0,0,0,0,0],"id":39,"left_children":[1,3,5,-1,-1,-1,-1],"loss_changes":[6.2761772E3,2.1030535E3,2.3429395E2,0E0,0E0,0E0,0E0],"parents":[2147483647,0,0,1,1,2,2],"right_children":[2,4,6,-1,-1,-1,-1],"split_conditions":[1E0,1E0,1E0,-2.5808177E-4,1.5434685E-2,1.6254423E-2,2.3201382E-2],"split_indices":[40,31,13,0,0,0,0],"split_type":[0,0,0,0,0,0,0],"sum_hessian":[7.1273625E4,6.290654E4,8.367088E3,5.9291777E4,3.6147617E3,5.0003594E3,3.3667288E3],"tree_param":{"num_deleted":"0","num_feature":"49","num_nodes":"7","size_leaf_vector":"1"}},{"base_weights":[-8.854678E-2,-3.072662E-2,-2.03825E-1,2.8231653E-4,-3.145501E-3,-7.5633004E-3,-3.5037159E-3],"categories":[],"categories_nodes":[],"categories_segments":[],"categories_sizes":[],"default_left":[0,0,0,0,0,0,0],"id":40,"left_children":[1,3,5,-1,-1,-1,-1],"loss_changes":[4.679237E2,2.654316E2,1.16427E2,0E0,0E0,0E0,0E0],"parents":[2147483647,0,0,1,1,2,2],"right_children":[2,4,6,-1,-1,-1,-1],"split_conditions":[7E0,1E0,4E0,2.8231653E-4,-3.145501E-3,-7.5633004E-3,-3.5037159E-3],"split_indices":[11,8,22,0,0,0,0],"split_type":[0,0,0,0,0,0,0],"sum_hessian":[7.0201234E4,4.6760305E4,2.344093E4,3.453257E4,1.2227734E4,3.2901592E3,2.015077E4],"tree_param":{"num_deleted":"0","num_feature":"49","num_nodes":"7","size_leaf_vector":"1"}},{"base_weights":[-1.9520636E-1,-1.3097624E-1,-4.1091552E-1,-5.898685E-3,-9.7004295E-4,-9.4515E-3,-7.572432E-3],"categories":[],"categories_nodes":[],"categories_segments":[],"categories_sizes":[],"default_left":[0,0,0,0,0,0,0],"id":41,"left_children":[1,3,5,-1,-1,-1,-1],"loss_changes":[9.6131177E2,7.2341675E2,2.9918701E1,0E0,0E0,0E0,0E0],"parents":[2147483647,0,0,1,1,2,2],"right_children":[2,4,6,-1,-1,-1,-1],"split_conditions":[1E0,5E0,5E0,-5.898685E-3,-9.7004295E-4,-9.4515E-3,-7.572432E-3],"split_indices":[6,22,22,0,0,0,0],"split_type":[0,0,0,0,0,0,0],"sum_hessian":[6.941248E4,5.3498656E4,1.5913826E4,1.7895914E4,3.560274E4,5.4230767E3,1.0490749E4],"tree_param":{"num_deleted":"0","num_feature":"49","num_nodes":"7","size_leaf_vector":"1"}},{"base_weights":[-2.9314622E-1,-3.5264146E-1,9.931069E-1,-6.7405086E-3,-9.380045E-3,1.6898056E-2,2.6466046E-2],"categories":[],"categories_nodes":[],"categories_segments":[],"categories_sizes":[],"default_left":[0,0,0,0,0,0,0],"id":42,"left_children":[1,3,5,-1,-1,-1,-1],"loss_changes":[5.2759526E3,1.1809131E2,1.3800464E2,0E0,0E0,0E0,0E0],"parents":[2147483647,0,0,1,1,2,2],"right_children":[2,4,6,-1,-1,-1,-1],"split_conditions":[1E0,1E0,7E0,-6.7405086E-3,-9.380045E-3,1.6898056E-2,2.6466046E-2],"split_indices":[34,40,11,0,0,0,0],"split_type":[0,0,0,0,0,0,0],"sum_hessian":[6.888757E4,6.584901E4,3.0385662E3,5.8091844E4,7.757162E3,2.1218074E3,9.16759E2],"tree_param":{"num_deleted":"0","num_feature":"49","num_nodes":"7","size_leaf_vector":"1"}},{"base_weights":[8.5253096E-1,9.543639E-1,-1.7352295E-1,1.6781747E-2,2.905789E-2,-4.5201476E-3,1.1620906E-2],"categories":[],"categories_nodes":[],"categories_segments":[],"categories_sizes":[],"default_left":[0,0,0,0,0,0,0],"id":43,"left_children":[1,3,5,-1,-1,-1,-1],"loss_changes":[7.9972227E3,3.9885273E3,2.752652E2,0E0,0E0,0E0,0E0],"parents":[2147483647,0,0,1,1,2,2],"right_children":[2,4,6,-1,-1,-1,-1],"split_conditions":[1E0,1E0,1E0,1.6781747E-2,2.905789E-2,-4.5201476E-3,1.1620906E-2],"split_indices":[39,26,26,0,0,0,0],"split_type":[0,0,0,0,0,0,0],"sum_hessian":[7.6512836E4,6.96054E4,6.9074385E3,5.6554902E4,1.3050497E4,6.4647817E3,4.4265686E2],"tree_param":{"num_deleted":"0","num_feature":"49","num_nodes":"7","size_leaf_vector":"1"}},{"base_weights":[-4.966731E-1,-5.113893E-1,8.0129915E-1,-1.0336136E-2,9.941764E-3,1.912891E-2,9.7500635E-3],"categories":[],"categories_nodes":[],"categories_segments":[],"categories_sizes":[],"default_left":[0,0,0,0,0,0,0],"id":44,"left_children":[1,3,5,-1,-1,-1,-1],"loss_changes":[1.2966641E3,3.6816406E2,3.245999E1,0E0,0E0,0E0,0E0],"parents":[2147483647,0,0,1,1,2,2],"right_children":[2,4,6,-1,-1,-1,-1],"split_conditions":[1E0,1E0,2E0,-1.0336136E-2,9.941764E-3,1.912891E-2,9.7500635E-3],"split_indices":[36,27,2,0,0,0,0],"split_type":[0,0,0,0,0,0,0],"sum_hessian":[6.7659336E4,6.690682E4,7.525192E2,6.6554164E4,3.5265042E2,4.8984918E2,2.6267007E2],"tree_param":{"num_deleted":"0","num_feature":"49","num_nodes":"7","size_leaf_vector":"1"}},{"base_weights":[-4.1043412E-2,-1.502052E-1,1.0812293E0,-2.0690693E-3,-1.12905735E-2,1.6846856E-2,3.0009383E-2],"categories":[],"categories_nodes":[],"categories_segments":[],"categories_sizes":[],"default_left":[0,0,0,0,0,0,0],"id":45,"left_children":[1,3,5,-1,-1,-1,-1],"loss_changes":[8.626239E3,1.2423684E3,6.1248926E2,0E0,0E0,0E0,0E0],"parents":[2147483647,0,0,1,1,2,2],"right_children":[2,4,6,-1,-1,-1,-1],"split_conditions":[1E0,1E0,1E0,-2.0690693E-3,-1.12905735E-2,1.6846856E-2,3.0009383E-2],"split_indices":[37,39,6,0,0,0,0],"split_type":[0,0,0,0,0,0,0],"sum_hessian":[7.038968E4,6.415781E4,6.2318726E3,5.7663617E4,6.494192E3,3.9889985E3,2.2428738E3],"tree_param":{"num_deleted":"0","num_feature":"49","num_nodes":"7","size_leaf_vector":"1"}},{"base_weights":[1.5015047E-2,1.5350495E-1,-4.0722865E-1,4.393633E-3,-7.0249103E-3,-7.368107E-3,-9.660158E-3],"categories":[],"categories_nodes":[],"categories_segments":[],"categories_sizes":[],"default_left":[0,0,0,0,0,0,0],"id":46,"left_children":[1,3,5,-1,-1,-1,-1],"loss_changes":[4.139804E3,1.7814296E3,4.9661133E1,0E0,0E0,0E0,0E0],"parents":[2147483647,0,0,1,1,2,2],"right_children":[2,4,6,-1,-1,-1,-1],"split_conditions":[1E0,1E0,1E0,4.393633E-3,-7.0249103E-3,-7.368107E-3,-9.660158E-3],"split_indices":[35,26,26,0,0,0,0],"split_type":[0,0,0,0,0,0,0],"sum_hessian":[7.077364E4,5.3298773E4,1.7474871E4,4.7125855E4,6.172917E3,1.1593759E4,5.8811123E3],"tree_param":{"num_deleted":"0","num_feature":"49","num_nodes":"7","size_leaf_vector":"1"}},{"base_weights":[1.414244E-1,3.4852512E-2,9.323625E-1,-2.9942086E-3,5.471113E-3,1.3292715E-2,2.1698112E-2],"categories":[],"categories_nodes":[],"categories_segments":[],"categories_sizes":[],"default_left":[0,0,0,0,0,0,0],"id":47,"left_children":[1,3,5,-1,-1,-1,-1],"loss_changes":[6.0249336E3,2.776081E3,3.3941406E2,0E0,0E0,0E0,0E0],"parents":[2147483647,0,0,1,1,2,2],"right_children":[2,4,6,-1,-1,-1,-1],"split_conditions":[1E0,1E0,1E0,-2.9942086E-3,5.471113E-3,1.3292715E-2,2.1698112E-2],"split_indices":[40,42,42,0,0,0,0],"split_type":[0,0,0,0,0,0,0],"sum_hessian":[7.147099E4,6.2993605E4,8.477389E3,3.552768E4,2.7465924E4,3.0964375E3,5.3809507E3],"tree_param":{"num_deleted":"0","num_feature":"49","num_nodes":"7","size_leaf_vector":"1"}},{"base_weights":[-8.467469E-2,1.1362871E-1,-3.279063E-1,1.021832E-3,1.2275517E-2,-7.0954547E-3,7.000712E-3],"categories":[],"categories_nodes":[],"categories_segments":[],"categories_sizes":[],"default_left":[0,0,0,0,0,0,0],"id":48,"left_children":[1,3,5,-1,-1,-1,-1],"loss_changes":[3.3789922E3,1.206842E3,5.7429175E2,0E0,0E0,0E0,0E0],"parents":[2147483647,0,0,1,1,2,2],"right_children":[2,4,6,-1,-1,-1,-1],"split_conditions":[1E0,1E0,1E0,1.021832E-3,1.2275517E-2,-7.0954547E-3,7.000712E-3],"split_indices":[42,32,32,0,0,0,0],"split_type":[0,0,0,0,0,0,0],"sum_hessian":[7.0036945E4,3.8584695E4,3.1452246E4,3.4306164E4,4.278532E3,3.025791E4,1.1943367E3],"tree_param":{"num_deleted":"0","num_feature":"49","num_nodes":"7","size_leaf_vector":"1"}},{"base_weights":[-1.9455501E-1,-2.6580837E-1,-1.0146881E-2,-6.5650456E-3,-3.774169E-3,-2.1119136E-3,1.4170654E-3],"categories":[],"categories_nodes":[],"categories_segments":[],"categories_sizes":[],"default_left":[0,0,0,0,0,0,0],"id":49,"left_children":[1,3,5,-1,-1,-1,-1],"loss_changes":[9.088225E2,2.3957446E2,1.4919516E2,0E0,0E0,0E0,0E0],"parents":[2147483647,0,0,1,1,2,2],"right_children":[2,4,6,-1,-1,-1,-1],"split_conditions":[1E0,3.5E1,2.5E1,-6.5650456E-3,-3.774169E-3,-2.1119136E-3,1.4170654E-3],"split_indices":[5,21,21,0,0,0,0],"split_type":[0,0,0,0,0,0,0],"sum_hessian":[6.9158195E4,4.9880484E4,1.9277707E4,2.7541662E4,2.2338822E4,8.848175E3,1.0429531E4],"tree_param":{"num_deleted":"0","num_feature":"49","num_nodes":"7","size_leaf_vector":"1"}},{"base_weights":[-2.8906998E-1,-3.4913975E-1,9.727809E-1,-6.6792457E-3,-9.257457E-3,1.5766792E-2,2.6232686E-2],"categories":[],"categories_nodes":[],"categories_segments":[],"categories_sizes":[],"default_left":[0,0,0,0,0,0,0],"id":50,"left_children":[1,3,5,-1,-1,-1,-1],"loss_changes":[5.1898477E3,1.1121094E2,1.8414893E2,0E0,0E0,0E0,0E0],"parents":[2147483647,0,0,1,1,2,2],"right_children":[2,4,6,-1,-1,-1,-1],"split_conditions":[1E0,1E0,4.9E1,-6.6792457E-3,-9.257457E-3,1.5766792E-2,2.6232686E-2],"split_indices":[34,40,0,0,0,0,0],"split_type":[0,0,0,0,0,0,0],"sum_hessian":[6.841363E4,6.531173E4,3.1019E3,5.7656895E4,7.654838E3,2.0301398E3,1.0717601E3],"tree_param":{"num_deleted":"0","num_feature":"49","num_nodes":"7","size_leaf_vector":"1"}},{"base_weights":[8.2953644E-1,6.304531E-1,1.3976421E0,1.4020852E-2,-4.666337E-3,2.3745343E-2,3.641914E-2],"categories":[],"categories_nodes":[],"categories_segments":[],"categories_sizes":[],"default_left":[0,0,0,0,0,0,0],"id":51,"left_children":[1,3,5,-1,-1,-1,-1],"loss_changes":[8.75384E3,3.500875E3,1.7680938E3,0E0,0E0,0E0,0E0],"parents":[2147483647,0,0,1,1,2,2],"right_children":[2,4,6,-1,-1,-1,-1],"split_conditions":[1E0,1E0,1E0,1.4020852E-2,-4.666337E-3,2.3745343E-2,3.641914E-2],"split_indices":[35,30,6,0,0,0,0],"split_type":[0,0,0,0,0,0,0],"sum_hessian":[7.746671E4,5.737994E4,2.0086768E4,5.3046715E4,4.333227E3,1.3443697E4,6.64307E3],"tree_param":{"num_deleted":"0","num_feature":"49","num_nodes":"7","size_leaf_vector":"1"}},{"base_weights":[-4.9477026E-1,-5.0306803E-1,5.8665645E-1,-1.1134282E-2,-9.659854E-3,1.4773925E-2,8.808113E-3],"categories":[],"categories_nodes":[],"categories_segments":[],"categories_sizes":[],"default_left":[0,0,0,0,0,0,0],"id":52,"left_children":[1,3,5,-1,-1,-1,-1],"loss_changes":[6.0514453E2,6.903906E1,8.211945E0,0E0,0E0,0E0,0E0],"parents":[2147483647,0,0,1,1,2,2],"right_children":[2,4,6,-1,-1,-1,-1],"split_conditions":[1E0,1E0,2E0,-1.1134282E-2,-9.659854E-3,1.4773925E-2,8.808113E-3],"split_indices":[27,19,2,0,0,0,0],"split_type":[0,0,0,0,0,0,0],"sum_hessian":[6.7098266E4,6.659265E4,5.0561578E2,1.806127E4,4.853138E4,2.280402E2,2.7757556E2],"tree_param":{"num_deleted":"0","num_feature":"49","num_nodes":"7","size_leaf_vector":"1"}},{"base_weights":[-4.134822E-2,-1.4853008E-1,1.0423086E0,-3.68059E-3,1.3150098E-2,1.8920166E-2,2.6100513E-2],"categories":[],"categories_nodes":[],"categories_segments":[],"categories_sizes":[],"default_left":[0,0,0,0,0,0,0],"id":53,"left_children":[1,3,5,-1,-1,-1,-1],"loss_changes":[8.182018E3,1.8353757E3,1.4806592E2,0E0,0E0,0E0,0E0],"parents":[2147483647,0,0,1,1,2,2],"right_children":[2,4,6,-1,-1,-1,-1],"split_conditions":[1E0,1E0,1E0,-3.68059E-3,1.3150098E-2,1.8920166E-2,2.6100513E-2],"split_indices":[37,28,28,0,0,0,0],"split_type":[0,0,0,0,0,0,0],"sum_hessian":[7.042123E4,6.409079E4,6.3304355E3,6.1394562E4,2.696225E3,4.666074E3,1.6643613E3],"tree_param":{"num_deleted":"0","num_feature":"49","num_nodes":"7","size_leaf_vector":"1"}},{"base_weights":[1.9639308E-2,2.1101166E-1,-7.782978E-2,4.6280283E-3,-8.428867E-3,-5.6326827E-3,-9.284471E-5],"categories":[],"categories_nodes":[],"categories_segments":[],"categories_sizes":[],"default_left":[0,0,0,0,0,0,0],"id":54,"left_children":[1,3,5,-1,-1,-1,-1],"loss_changes":[1.3216608E3,3.093069E2,7.002447E2,0E0,0E0,0E0,0E0],"parents":[2147483647,0,0,1,1,2,2],"right_children":[2,4,6,-1,-1,-1,-1],"split_conditions":[5E0,1E0,1E0,4.6280283E-3,-8.428867E-3,-5.6326827E-3,-9.284471E-5],"split_indices":[22,34,19,0,0,0,0],"split_type":[0,0,0,0,0,0,0],"sum_hessian":[7.083675E4,2.3899818E4,4.6936934E4,2.3159518E4,7.403003E2,1.2394275E4,3.454266E4],"tree_param":{"num_deleted":"0","num_feature":"49","num_nodes":"7","size_leaf_vector":"1"}},{"base_weights":[1.3939151E-1,-8.046264E-2,3.968185E-1,-2.469971E-3,1.3970303E-2,6.5798536E-3,1.8745631E-2],"categories":[],"categories_nodes":[],"categories_segments":[],"categories_sizes":[],"default_left":[0,0,0,0,0,0,0],"id":55,"left_children":[1,3,5,-1,-1,-1,-1],"loss_changes":[4.0557935E3,1.2967944E3,1.2069473E3,0E0,0E0,0E0,0E0],"parents":[2147483647,0,0,1,1,2,2],"right_children":[2,4,6,-1,-1,-1,-1],"split_conditions":[1E0,1E0,1E0,-2.469971E-3,1.3970303E-2,6.5798536E-3,1.8745631E-2],"split_indices":[42,31,31,0,0,0,0],"split_type":[0,0,0,0,0,0,0],"sum_hessian":[7.1646055E4,3.8646816E4,3.299924E4,3.663147E4,2.015351E3,2.9334027E4,3.6652087E3],"tree_param":{"num_deleted":"0","num_feature":"49","num_nodes":"7","size_leaf_vector":"1"}},{"base_weights":[-8.603068E-2,1.09857984E-1,-3.278095E-1,3.121069E-3,-9.4531116E-4,-6.8868124E-3,7.0851147E-3],"categories":[],"categories_nodes":[],"categories_segments":[],"categories_sizes":[],"default_left":[0,0,0,0,0,0,0],"id":56,"left_children":[1,3,5,-1,-1,-1,-1],"loss_changes":[3.3020957E3,2.7965872E2,3.530581E2,0E0,0E0,0E0,0E0],"parents":[2147483647,0,0,1,1,2,2],"right_children":[2,4,6,-1,-1,-1,-1],"split_conditions":[1E0,5.8E1,1E0,3.121069E-3,-9.4531116E-4,-6.8868124E-3,7.0851147E-3],"split_indices":[42,0,23,0,0,0,0],"split_type":[0,0,0,0,0,0,0],"sum_hessian":[6.970316E4,3.850884E4,3.119432E4,2.975942E4,8.749419E3,3.0460992E4,7.333273E2],"tree_param":{"num_deleted":"0","num_feature":"49","num_nodes":"7","size_leaf_vector":"1"}},{"base_weights":[-1.9319399E-1,-1.2837805E-1,-4.1208175E-1,-3.1474957E-3,1.0339762E-2,-8.419577E-3,-3.8423722E-3],"categories":[],"categories_nodes":[],"categories_segments":[],"categories_sizes":[],"default_left":[0,0,0,0,0,0,0],"id":57,"left_children":[1,3,5,-1,-1,-1,-1],"loss_changes":[9.7857715E2,9.974963E2,3.003833E1,0E0,0E0,0E0,0E0],"parents":[2147483647,0,0,1,1,2,2],"right_children":[2,4,6,-1,-1,-1,-1],"split_conditions":[1E0,1E0,1E0,-3.1474957E-3,1.0339762E-2,-8.419577E-3,-3.8423722E-3],"split_indices":[6,24,24,0,0,0,0],"split_type":[0,0,0,0,0,0,0],"sum_hessian":[6.90023E4,5.325003E4,1.5752268E4,5.0967582E4,2.2824473E3,1.5131104E4,6.211646E2],"tree_param":{"num_deleted":"0","num_feature":"49","num_nodes":"7","size_leaf_vector":"1"}},{"base_weights":[-2.8641436E-1,-3.6185357E-1,-2.5827736E-1,-9.010883E-3,-5.64637E-3,-4.4745784E-3,-7.191301E-3],"categories":[],"categories_nodes":[],"categories_segments":[],"categories_sizes":[],"default_left":[0,0,0,0,0,0,0],"id":58,"left_children":[1,3,5,-1,-1,-1,-1],"loss_changes":[1.43729E2,1.291499E2,1.7301978E2,0E0,0E0,0E0,0E0],"parents":[2147483647,0,0,1,1,2,2],"right_children":[2,4,6,-1,-1,-1,-1],"split_conditions":[1E0,2.8E1,1E0,-9.010883E-3,-5.64637E-3,-4.4745784E-3,-7.191301E-3],"split_indices":[19,21,35,0,0,0,0],"split_type":[0,0,0,0,0,0,0],"sum_hessian":[6.814263E4,1.847907E4,4.9663562E4,8.714627E3,9.764443E3,3.705611E4,1.2607453E4],"tree_param":{"num_deleted":"0","num_feature":"49","num_nodes":"7","size_leaf_vector":"1"}},{"base_weights":[8.0986696E-1,6.1877316E-1,1.3532835E0,1.3740586E-2,-4.686432E-3,3.613833E-2,2.4514565E-2],"categories":[],"categories_nodes":[],"categories_segments":[],"categories_sizes":[],"default_left":[0,0,0,0,0,0,0],"id":59,"left_children":[1,3,5,-1,-1,-1,-1],"loss_changes":[8.1484766E3,3.3865781E3,1.1598516E3,0E0,0E0,0E0,0E0],"parents":[2147483647,0,0,1,1,2,2],"right_children":[2,4,6,-1,-1,-1,-1],"split_conditions":[1E0,1E0,1E0,1.3740586E-2,-4.686432E-3,3.613833E-2,2.4514565E-2],"split_indices":[35,30,46,0,0,0,0],"split_type":[0,0,0,0,0,0,0],"sum_hessian":[7.853942E4,5.8122043E4,2.0417377E4,5.3818008E4,4.304036E3,4.452172E3,1.5965205E4],"tree_param":{"num_deleted":"0","num_feature":"49","num_nodes":"7","size_leaf_vector":"1"}},{"base_weights":[-4.939597E-1,-5.086798E-1,7.6425564E-1,-1.036261E-2,-2.5479859E-3,2.0277493E-2,1.2169118E-2],"categories":[],"categories_nodes":[],"categories_segments":[],"categories_sizes":[],"default_left":[0,0,0,0,0,0,0],"id":60,"left_children":[1,3,5,-1,-1,-1,-1],"loss_changes":[1.2364668E3,2.3639258E2,2.3915802E1,0E0,0E0,0E0,0E0],"parents":[2147483647,0,0,1,1,2,2],"right_children":[2,4,6,-1,-1,-1,-1],"split_conditions":[1E0,7E0,5E0,-1.036261E-2,-2.5479859E-3,2.0277493E-2,1.2169118E-2],"split_indices":[36,22,22,0,0,0,0],"split_type":[0,0,0,0,0,0,0],"sum_hessian":[6.6540125E4,6.577655E4,7.635745E2,6.418209E4,1.5944591E3,2.7227148E2,4.9130304E2],"tree_param":{"num_deleted":"0","num_feature":"49","num_nodes":"7","size_leaf_vector":"1"}},{"base_weights":[-3.9062332E-2,-1.4699146E-1,1.03644E0,-4.431838E-3,6.769708E-4,2.3895778E-2,1.4669955E-2],"categories":[],"categories_nodes":[],"categories_segments":[],"categories_sizes":[],"default_left":[0,0,0,0,0,0,0],"id":61,"left_children":[1,3,5,-1,-1,-1,-1],"loss_changes":[8.1569536E3,8.615857E2,2.9866992E2,0E0,0E0,0E0,0E0],"parents":[2147483647,0,0,1,1,2,2],"right_children":[2,4,6,-1,-1,-1,-1],"split_conditions":[1E0,1E0,1E0,-4.431838E-3,6.769708E-4,2.3895778E-2,1.4669955E-2],"split_indices":[37,38,5,0,0,0,0],"split_type":[0,0,0,0,0,0,0],"sum_hessian":[7.0248164E4,6.3849367E4,6.3987974E3,4.5200797E4,1.864857E4,4.182928E3,2.2158691E3],"tree_param":{"num_deleted":"0","num_feature":"49","num_nodes":"7","size_leaf_vector":"1"}},{"base_weights":[1.5930604E-2,-1.6795374E-1,1.6994277E0,-5.5316123E-3,1.8304477E-3,3.227384E-2,4.617387E-2],"categories":[],"categories_nodes":[],"categories_segments":[],"categories_sizes":[],"default_left":[0,0,0,0,0,0,0],"id":62,"left_children":[1,3,5,-1,-1,-1,-1],"loss_changes":[2.190675E4,1.7984623E3,3.2674414E2,0E0,0E0,0E0,0E0],"parents":[2147483647,0,0,1,1,2,2],"right_children":[2,4,6,-1,-1,-1,-1],"split_conditions":[1E0,1E0,3E0,-5.5316123E-3,1.8304477E-3,3.227384E-2,4.617387E-2],"split_indices":[39,12,2,0,0,0,0],"split_type":[0,0,0,0,0,0,0],"sum_hessian":[7.074616E4,6.3787773E4,6.9583833E3,4.4963594E4,1.882418E4,6.131979E3,8.264043E2],"tree_param":{"num_deleted":"0","num_feature":"49","num_nodes":"7","size_leaf_vector":"1"}},{"base_weights":[1.3260634E-1,4.452312E-2,3.5986838E-1,-4.5897946E-4,4.884776E-3,5.4237978E-3,1.0651793E-2],"categories":[],"categories_nodes":[],"categories_segments":[],"categories_sizes":[],"default_left":[0,0,0,0,0,0,0],"id":63,"left_children":[1,3,5,-1,-1,-1,-1],"loss_changes":[1.4366565E3,6.972507E2,3.05615E2,0E0,0E0,0E0,0E0],"parents":[2147483647,0,0,1,1,2,2],"right_children":[2,4,6,-1,-1,-1,-1],"split_conditions":[1E0,1E0,1E0,-4.5897946E-4,4.884776E-3,5.4237978E-3,1.0651793E-2],"split_indices":[5,7,13,0,0,0,0],"split_type":[0,0,0,0,0,0,0],"sum_hessian":[7.1766336E4,5.1728957E4,2.0037379E4,3.867262E4,1.3056336E4,1.3256787E4,6.780592E3],"tree_param":{"num_deleted":"0","num_feature":"49","num_nodes":"7","size_leaf_vector":"1"}},{"base_weights":[-8.5935794E-2,-1.3892458E-1,5.3449273E-1,-4.6864115E-3,-5.7633803E-4,1.3054874E-2,6.825448E-3],"categories":[],"categories_nodes":[],"categories_segments":[],"categories_sizes":[],"default_left":[0,0,0,0,0,0,0],"id":64,"left_children":[1,3,5,-1,-1,-1,-1],"loss_changes":[2.2971514E3,6.759879E2,1.23402466E2,0E0,0E0,0E0,0E0],"parents":[2147483647,0,0,1,1,2,2],"right_children":[2,4,6,-1,-1,-1,-1],"split_conditions":[1E0,3.2E1,2E0,-4.6864115E-3,-5.7633803E-4,1.3054874E-2,6.825448E-3],"split_indices":[32,21,2,0,0,0,0],"split_type":[0,0,0,0,0,0,0],"sum_hessian":[6.984114E4,6.4352742E4,5.488398E3,3.447378E4,2.987896E4,3.389959E3,2.0984387E3],"tree_param":{"num_deleted":"0","num_feature":"49","num_nodes":"7","size_leaf_vector":"1"}},{"base_weights":[-1.8932882E-1,-2.3163635E-1,4.3829697E-1,-3.3661807E-3,-8.980562E-3,1.5727924E-2,6.83061E-3],"categories":[],"categories_nodes":[],"categories_segments":[],"categories_sizes":[],"default_left":[0,0,0,0,0,0,0],"id":65,"left_children":[1,3,5,-1,-1,-1,-1],"loss_changes":[1.8264009E3,8.859585E2,1.4366534E2,0E0,0E0,0E0,0E0],"parents":[2147483647,0,0,1,1,2,2],"right_children":[2,4,6,-1,-1,-1,-1],"split_conditions":[1E0,1E0,5E0,-3.3661807E-3,-8.980562E-3,1.5727924E-2,6.83061E-3],"split_indices":[33,6,22,0,0,0,0],"split_type":[0,0,0,0,0,0,0],"sum_hessian":[6.873421E4,6.4399434E4,4.3347827E3,4.988533E4,1.45141045E4,9.273931E2,3.4073896E3],"tree_param":{"num_deleted":"0","num_feature":"49","num_nodes":"7","size_leaf_vector":"1"}},{"base_weights":[-2.865076E-1,-2.7292195E-1,-4.5490053E-1,-4.89314E-3,-6.9529074E-3,-8.742392E-3,-1.0174531E-2],"categories":[],"categories_nodes":[],"categories_segments":[],"categories_sizes":[],"default_left":[0,0,0,0,0,0,0],"id":66,"left_children":[1,3,5,-1,-1,-1,-1],"loss_changes":[1.5415869E2,1.3195947E2,2.6154785E0,0E0,0E0,0E0,0E0],"parents":[2147483647,0,0,1,1,2,2],"right_children":[2,4,6,-1,-1,-1,-1],"split_conditions":[1E0,1E0,1E0,-4.89314E-3,-6.9529074E-3,-8.742392E-3,-1.0174531E-2],"split_indices":[31,18,18,0,0,0,0],"split_type":[0,0,0,0,0,0,0],"sum_hessian":[6.791803E4,6.287185E4,5.046182E3,4.5647812E4,1.7224037E4,3.8617114E3,1.1844707E3],"tree_param":{"num_deleted":"0","num_feature":"49","num_nodes":"7","size_leaf_vector":"1"}},{"base_weights":[7.883357E-1,6.726001E-1,1.3168793E0,1.4762395E-2,-3.1337684E-3,2.108919E-2,3.161959E-2],"categories":[],"categories_nodes":[],"categories_segments":[],"categories_sizes":[],"default_left":[0,0,0,0,0,0,0],"id":67,"left_children":[1,3,5,-1,-1,-1,-1],"loss_changes":[4.8660977E3,3.554545E3,9.747617E2,0E0,0E0,0E0,0E0],"parents":[2147483647,0,0,1,1,2,2],"right_children":[2,4,6,-1,-1,-1,-1],"split_conditions":[1E0,1E0,2E0,1.4762395E-2,-3.1337684E-3,2.108919E-2,3.161959E-2],"split_indices":[26,30,2,0,0,0,0],"split_type":[0,0,0,0,0,0,0],"sum_hessian":[7.968345E4,6.5388094E4,1.4295359E4,6.060126E4,4.7868325E3,7.1955386E3,7.0998213E3],"tree_param":{"num_deleted":"0","num_feature":"49","num_nodes":"7","size_leaf_vector":"1"}},{"base_weights":[-4.904563E-1,-4.673033E-1,-1.1064565E-2,-9.706815E-3,-8.402511E-3],"categories":[],"categories_nodes":[],"categories_segments":[],"categories_sizes":[],"default_left":[0,0,0,0,0],"id":68,"left_children":[1,3,-1,-1,-1],"loss_changes":[9.339453E1,3.9070312E1,0E0,0E0,0E0],"parents":[2147483647,0,0,1,1],"right_children":[2,4,-1,-1,-1],"split_conditions":[1E0,1E0,-1.1064565E-2,-9.706815E-3,-8.402511E-3],"split_indices":[18,5,0,0,0],"split_type":[0,0,0,0,0],"sum_hessian":[6.6029766E4,4.8299324E4,1.7730441E4,3.4873344E4,1.3425978E4],"tree_param":{"num_deleted":"0","num_feature":"49","num_nodes":"5","size_leaf_vector":"1"}},{"base_weights":[-4.38039E-2,-1.4762732E-1,9.7871226E-1,-2.3471636E-3,-1.1289332E-2,2.1169135E-2,1.4227963E-2],"categories":[],"categories_nodes":[],"categories_segments":[],"categories_sizes":[],"default_left":[0,0,0,0,0,0,0],"id":69,"left_children":[1,3,5,-1,-1,-1,-1],"loss_changes":[7.443574E3,8.024209E2,1.3024463E2,0E0,0E0,0E0,0E0],"parents":[2147483647,0,0,1,1,2,2],"right_children":[2,4,6,-1,-1,-1,-1],"split_conditions":[1E0,1E0,1E0,-2.3471636E-3,-1.1289332E-2,2.1169135E-2,1.4227963E-2],"split_indices":[37,30,7,0,0,0,0],"split_type":[0,0,0,0,0,0,0],"sum_hessian":[7.009221E4,6.3639035E4,6.453173E3,5.9342633E4,4.296401E3,4.9476157E3,1.5055571E3],"tree_param":{"num_deleted":"0","num_feature":"49","num_nodes":"7","size_leaf_vector":"1"}},{"base_weights":[1.737356E-2,1.5189114E-1,-3.9998874E-1,4.335868E-3,-7.0040664E-3,-7.223734E-3,-9.512069E-3],"categories":[],"categories_nodes":[],"categories_segments":[],"categories_sizes":[],"default_left":[0,0,0,0,0,0,0],"id":70,"left_children":[1,3,5,-1,-1,-1,-1],"loss_changes":[3.9679841E3,1.7425013E3,4.8826904E1,0E0,0E0,0E0,0E0],"parents":[2147483647,0,0,1,1,2,2],"right_children":[2,4,6,-1,-1,-1,-1],"split_conditions":[1E0,1E0,1E0,4.335868E-3,-7.0040664E-3,-7.223734E-3,-9.512069E-3],"split_indices":[35,26,26,0,0,0,0],"split_type":[0,0,0,0,0,0,0],"sum_hessian":[7.06561E4,5.343889E4,1.7217213E4,4.732695E4,6.1119424E3,1.1416533E4,5.80068E3],"tree_param":{"num_deleted":"0","num_feature":"49","num_nodes":"7","size_leaf_vector":"1"}},{"base_weights":[1.3158469E-1,4.4635646E-2,3.555493E-1,2.7963258E-3,-1.5895609E-3,8.17747E-3,-2.9161063E-3],"categories":[],"categories_nodes":[],"categories_segments":[],"categories_sizes":[],"default_left":[0,0,0,0,0,0,0],"id":71,"left_children":[1,3,5,-1,-1,-1,-1],"loss_changes":[1.4032102E3,6.1349347E2,5.393508E2,0E0,0E0,0E0,0E0],"parents":[2147483647,0,0,1,1,2,2],"right_children":[2,4,6,-1,-1,-1,-1],"split_conditions":[2E0,1E0,1E0,2.7963258E-3,-1.5895609E-3,8.17747E-3,-2.9161063E-3],"split_indices":[46,44,33,0,0,0,0],"split_type":[0,0,0,0,0,0,0],"sum_hessian":[7.205553E4,5.191337E4,2.0142162E4,2.9380617E4,2.2532754E4,1.8207457E4,1.9347051E3],"tree_param":{"num_deleted":"0","num_feature":"49","num_nodes":"7","size_leaf_vector":"1"}},{"base_weights":[-8.563481E-2,1.0681848E-1,-3.2527918E-1,9.2693896E-4,1.1715541E-2,-7.06607E-3,7.1900366E-3],"categories":[],"categories_nodes":[],"categories_segments":[],"categories_sizes":[],"default_left":[0,0,0,0,0,0,0],"id":72,"left_children":[1,3,5,-1,-1,-1,-1],"loss_changes":[3.2166743E3,1.1201628E3,5.973894E2,0E0,0E0,0E0,0E0],"parents":[2147483647,0,0,1,1,2,2],"right_children":[2,4,6,-1,-1,-1,-1],"split_conditions":[1E0,1E0,1E0,9.2693896E-4,1.1715541E-2,-7.06607E-3,7.1900366E-3],"split_indices":[42,32,32,0,0,0,0],"split_type":[0,0,0,0,0,0,0],"sum_hessian":[6.97277E4,3.867454E4,3.105316E4,3.434876E4,4.32578E3,2.9836938E4,1.2162229E3],"tree_param":{"num_deleted":"0","num_feature":"49","num_nodes":"7","size_leaf_vector":"1"}},{"base_weights":[-1.91094E-1,-2.135138E-1,3.2267895E-1,-7.1824985E-3,-2.770941E-3,8.354577E-4,1.0518261E-2],"categories":[],"categories_nodes":[],"categories_segments":[],"categories_sizes":[],"default_left":[0,0,0,0,0,0,0],"id":73,"left_children":[1,3,5,-1,-1,-1,-1],"loss_changes":[7.892012E2,7.1557764E2,1.6341599E2,0E0,0E0,0E0,0E0],"parents":[2147483647,0,0,1,1,2,2],"right_children":[2,4,6,-1,-1,-1,-1],"split_conditions":[1E0,5E0,2E0,-7.1824985E-3,-2.770941E-3,8.354577E-4,1.0518261E-2],"split_indices":[24,22,46,0,0,0,0],"split_type":[0,0,0,0,0,0,0],"sum_hessian":[6.8445E4,6.558871E4,2.8562898E3,2.2278443E4,4.331027E4,1.2040842E3,1.6522054E3],"tree_param":{"num_deleted":"0","num_feature":"49","num_nodes":"7","size_leaf_vector":"1"}},{"base_weights":[-2.8549993E-1,-3.2494837E-1,9.7134334E-1,-7.214085E-3,-5.8308206E-3,9.81024E-3,2.1684894E-2],"categories":[],"categories_nodes":[],"categories_segments":[],"categories_sizes":[],"default_left":[0,0,0,0,0,0,0],"id":74,"left_children":[1,3,5,-1,-1,-1,-1],"loss_changes":[3.3473193E3,7.707422E1,1.0624597E2,0E0,0E0,0E0,0E0],"parents":[2147483647,0,0,1,1,2,2],"right_children":[2,4,6,-1,-1,-1,-1],"split_conditions":[1E0,1E0,1E0,-7.214085E-3,-5.8308206E-3,9.81024E-3,2.1684894E-2],"split_indices":[25,29,19,0,0,0,0],"split_type":[0,0,0,0,0,0,0],"sum_hessian":[6.743915E4,6.5394043E4,2.0451028E3,3.1539426E4,3.3854617E4,3.9905008E2,1.6460527E3],"tree_param":{"num_deleted":"0","num_feature":"49","num_nodes":"7","size_leaf_vector":"1"}},{"base_weights":[7.6880854E-1,8.6113757E-1,-1.9452585E-1,1.7829932E-2,-1.1756872E-3,-2.9862789E-3,-4.975983E-3],"categories":[],"categories_nodes":[],"categories_segments":[],"categories_sizes":[],"default_left":[0,0,0,0,0,0,0],"id":75,"left_children":[1,3,5,-1,-1,-1,-1],"loss_changes":[7.193871E3,2.061371E3,1.7002441E1,0E0,0E0,0E0,0E0],"parents":[2147483647,0,0,1,1,2,2],"right_children":[2,4,6,-1,-1,-1,-1],"split_conditions":[1E0,1E0,6E0,1.7829932E-2,-1.1756872E-3,-2.9862789E-3,-4.975983E-3],"split_indices":[39,30,11,0,0,0,0],"split_type":[0,0,0,0,0,0,0],"sum_hessian":[8.085224E4,7.378181E4,7.0704253E3,7.142498E4,2.3568362E3,3.877674E3,3.1927512E3],"tree_param":{"num_deleted":"0","num_feature":"49","num_nodes":"7","size_leaf_vector":"1"}},{"base_weights":[-4.8987538E-1,-5.050115E-1,7.726385E-1,-1.0215489E-2,1.07281925E-2,1.8697282E-2,9.015332E-3],"categories":[],"categories_nodes":[],"categories_segments":[],"categories_sizes":[],"default_left":[0,0,0,0,0,0,0],"id":76,"left_children":[1,3,5,-1,-1,-1,-1],"loss_changes":[1.2540117E3,3.9074414E2,3.6459503E1,0E0,0E0,0E0,0E0],"parents":[2147483647,0,0,1,1,2,2],"right_children":[2,4,6,-1,-1,-1,-1],"split_conditions":[1E0,1E0,2E0,-1.0215489E-2,1.07281925E-2,1.8697282E-2,9.015332E-3],"split_indices":[36,27,2,0,0,0,0],"split_type":[0,0,0,0,0,0,0],"sum_hessian":[6.54081E4,6.4639152E4,7.6894916E2,6.428849E4,3.5066373E2,4.986045E2,2.7034464E2],"tree_param":{"num_deleted":"0","num_feature":"49","num_nodes":"7","size_leaf_vector":"1"}},{"base_weights":[-3.904024E-2,-1.0179744E-1,8.871354E-1,-4.946569E-3,-5.2924384E-4,1.97468E-2,1.06548155E-2],"categories":[],"categories_nodes":[],"categories_segments":[],"categories_sizes":[],"default_left":[0,0,0,0,0,0,0],"id":77,"left_children":[1,3,5,-1,-1,-1,-1],"loss_changes":[4.0811956E3,7.2083295E2,1.5297632E2,0E0,0E0,0E0,0E0],"parents":[2147483647,0,0,1,1,2,2],"right_children":[2,4,6,-1,-1,-1,-1],"split_conditions":[1E0,5E0,1E0,-4.946569E-3,-5.2924384E-4,1.97468E-2,1.06548155E-2],"split_indices":[28,22,35,0,0,0,0],"split_type":[0,0,0,0,0,0,0],"sum_hessian":[7.018956E4,6.57437E4,4.4458594E3,2.2416723E4,4.3326984E4,3.4519614E3,9.93898E2],"tree_param":{"num_deleted":"0","num_feature":"49","num_nodes":"7","size_leaf_vector":"1"}},{"base_weights":[1.4901606E-2,1.4834882E-1,-4.0317068E-1,4.7056153E-3,-1.1293973E-2,-8.505396E-3,-7.137285E-3],"categories":[],"categories_nodes":[],"categories_segments":[],"categories_sizes":[],"default_left":[0,0,0,0,0,0,0],"id":78,"left_children":[1,3,5,-1,-1,-1,-1],"loss_changes":[3.9516306E3,3.329435E3,1.6020264E1,0E0,0E0,0E0,0E0],"parents":[2147483647,0,0,1,1,2,2],"right_children":[2,4,6,-1,-1,-1,-1],"split_conditions":[1E0,1E0,1E0,4.7056153E-3,-1.1293973E-2,-8.505396E-3,-7.137285E-3],"split_indices":[35,37,6,0,0,0,0],"split_type":[0,0,0,0,0,0,0],"sum_hessian":[7.0808984E4,5.3680734E4,1.712825E4,4.7853344E4,5.827391E3,1.1539396E4,5.5888545E3],"tree_param":{"num_deleted":"0","num_feature":"49","num_nodes":"7","size_leaf_vector":"1"}},{"base_weights":[1.3159686E-1,2.8825859E-2,8.776995E-1,-2.9032954E-4,1.4531754E-2,1.4584596E-2,2.1596007E-2],"categories":[],"categories_nodes":[],"categories_segments":[],"categories_sizes":[],"default_left":[0,0,0,0,0,0,0],"id":79,"left_children":[1,3,5,-1,-1,-1,-1],"loss_changes":[5.528206E3,1.9169232E3,2.5403564E2,0E0,0E0,0E0,0E0],"parents":[2147483647,0,0,1,1,2,2],"right_children":[2,4,6,-1,-1,-1,-1],"split_conditions":[1E0,1E0,5.1E1,-2.9032954E-4,1.4531754E-2,1.4584596E-2,2.1596007E-2],"split_indices":[40,31,0,0,0,0,0],"split_type":[0,0,0,0,0,0,0],"sum_hessian":[7.208994E4,6.3371316E4,8.71862E3,5.9674363E4,3.6969546E3,5.052775E3,3.6658447E3],"tree_param":{"num_deleted":"0","num_feature":"49","num_nodes":"7","size_leaf_vector":"1"}},{"base_weights":[-7.926552E-2,-1.3339244E-1,5.383053E-1,-1.46265E-3,-5.01256E-3,1.2516929E-2,8.5941395E-3],"categories":[],"categories_nodes":[],"categories_segments":[],"categories_sizes":[],"default_left":[0,0,0,0,0,0,0],"id":80,"left_children":[1,3,5,-1,-1,-1,-1],"loss_changes":[2.3296865E3,4.524214E2,5.0704468E1,0E0,0E0,0E0,0E0],"parents":[2147483647,0,0,1,1,2,2],"right_children":[2,4,6,-1,-1,-1,-1],"split_conditions":[1E0,7E0,4E0,-1.46265E-3,-5.01256E-3,1.2516929E-2,8.5941395E-3],"split_indices":[32,11,20,0,0,0,0],"split_type":[0,0,0,0,0,0,0],"sum_hessian":[6.966284E4,6.4056465E4,5.606382E3,4.231994E4,2.1736521E4,3.0777637E3,2.528618E3],"tree_param":{"num_deleted":"0","num_feature":"49","num_nodes":"7","size_leaf_vector":"1"}},{"base_weights":[-1.8787572E-1,-1.2365009E-1,-4.0606818E-1,-3.0254908E-3,9.577881E-3,-7.741671E-3,-1.0272409E-2],"categories":[],"categories_nodes":[],"categories_segments":[],"categories_sizes":[],"default_left":[0,0,0,0,0,0,0],"id":81,"left_children":[1,3,5,-1,-1,-1,-1],"loss_changes":[9.5688965E2,8.795238E2,2.9726318E1,0E0,0E0,0E0,0E0],"parents":[2147483647,0,0,1,1,2,2],"right_children":[2,4,6,-1,-1,-1,-1],"split_conditions":[1E0,1E0,3E0,-3.0254908E-3,9.577881E-3,-7.741671E-3,-1.0272409E-2],"split_indices":[6,24,2,0,0,0,0],"split_type":[0,0,0,0,0,0,0],"sum_hessian":[6.830901E4,5.2786734E4,1.5522272E4,5.0479902E4,2.30683E3,1.3232519E4,2.2897537E3],"tree_param":{"num_deleted":"0","num_feature":"49","num_nodes":"7","size_leaf_vector":"1"}},{"base_weights":[-2.831005E-1,-3.235662E-1,9.7644496E-1,-6.0880473E-3,-7.599186E-3,1.7013334E-2,2.4884565E-2],"categories":[],"categories_nodes":[],"categories_segments":[],"categories_sizes":[],"default_left":[0,0,0,0,0,0,0],"id":82,"left_children":[1,3,5,-1,-1,-1,-1],"loss_changes":[3.4251743E3,6.9151855E1,5.9889404E1,0E0,0E0,0E0,0E0],"parents":[2147483647,0,0,1,1,2,2],"right_children":[2,4,6,-1,-1,-1,-1],"split_conditions":[1E0,1E0,1E0,-6.0880473E-3,-7.599186E-3,1.7013334E-2,2.4884565E-2],"split_indices":[25,35,13,0,0,0,0],"split_type":[0,0,0,0,0,0,0],"sum_hessian":[6.71299E4,6.5047527E4,2.0823667E3,4.8597E4,1.6450527E4,1.4452823E3,6.3708435E2],"tree_param":{"num_deleted":"0","num_feature":"49","num_nodes":"7","size_leaf_vector":"1"}},{"base_weights":[7.5005853E-1,6.410393E-1,1.2448293E0,1.4046096E-2,-3.2910227E-3,2.1665685E-2,3.4441095E-2],"categories":[],"categories_nodes":[],"categories_segments":[],"categories_sizes":[],"default_left":[0,0,0,0,0,0,0],"id":83,"left_children":[1,3,5,-1,-1,-1,-1],"loss_changes":[4.3944766E3,3.3031055E3,1.1166426E3,0E0,0E0,0E0,0E0],"parents":[2147483647,0,0,1,1,2,2],"right_children":[2,4,6,-1,-1,-1,-1],"split_conditions":[1E0,1E0,1E0,1.4046096E-2,-3.2910227E-3,2.1665685E-2,3.4441095E-2],"split_indices":[26,30,6,0,0,0,0],"split_type":[0,0,0,0,0,0,0],"sum_hessian":[8.160837E4,6.6892125E4,1.4716244E4,6.216568E4,4.7264463E3,1.1018937E4,3.6973071E3],"tree_param":{"num_deleted":"0","num_feature":"49","num_nodes":"7","size_leaf_vector":"1"}},{"base_weights":[-4.8896855E-1,-4.9693888E-1,5.1997614E-1,-9.520457E-3,-1.1062079E-2,1.2274804E-2,3.9283843E-3],"categories":[],"categories_nodes":[],"categories_segments":[],"categories_sizes":[],"default_left":[0,0,0,0,0,0,0],"id":84,"left_children":[1,3,5,-1,-1,-1,-1],"loss_changes":[5.238457E2,7.2924805E1,1.43558655E1,0E0,0E0,0E0,0E0],"parents":[2147483647,0,0,1,1,2,2],"right_children":[2,4,6,-1,-1,-1,-1],"split_conditions":[1E0,1E0,1E0,-9.520457E-3,-1.1062079E-2,1.2274804E-2,3.9283843E-3],"split_indices":[27,18,6,0,0,0,0],"split_type":[0,0,0,0,0,0,0],"sum_hessian":[6.481043E4,6.4307496E4,5.029331E2,4.6926656E4,1.7380838E4,3.8298013E2,1.19952995E2],"tree_param":{"num_deleted":"0","num_feature":"49","num_nodes":"7","size_leaf_vector":"1"}},{"base_weights":[-3.966812E-2,1.2595226E-2,-1.1274173E-2,-1.3277574E-3,4.307676E-3],"categories":[],"categories_nodes":[],"categories_segments":[],"categories_sizes":[],"default_left":[0,0,0,0,0],"id":85,"left_children":[1,3,-1,-1,-1],"loss_changes":[1.9159075E3,1.0190958E3,0E0,0E0,0E0],"parents":[2147483647,0,0,1,1],"right_children":[2,4,-1,-1,-1],"split_conditions":[1E0,1E0,-1.1274173E-2,-1.3277574E-3,4.307676E-3],"split_indices":[39,18,0,0,0],"split_type":[0,0,0,0,0],"sum_hessian":[6.994138E4,6.3607477E4,6.333909E3,4.578258E4,1.7824898E4],"tree_param":{"num_deleted":"0","num_feature":"49","num_nodes":"5","size_leaf_vector":"1"}},{"base_weights":[1.3369712E-2,-1.0017558E-1,1.5945325E0,-1.1169002E-3,-1.1268996E-2,2.4335222E-2,3.9562725E-2],"categories":[],"categories_nodes":[],"categories_segments":[],"categories_sizes":[],"default_left":[0,0,0,0,0,0,0],"id":86,"left_children":[1,3,5,-1,-1,-1,-1],"loss_changes":[1.2696539E4,1.3547812E3,6.625654E2,0E0,0E0,0E0,0E0],"parents":[2147483647,0,0,1,1,2,2],"right_children":[2,4,6,-1,-1,-1,-1],"split_conditions":[1E0,1E0,2E0,-1.1169002E-3,-1.1268996E-2,2.4335222E-2,3.9562725E-2],"split_indices":[30,37,2,0,0,0,0],"split_type":[0,0,0,0,0,0,0],"sum_hessian":[7.070068E4,6.5972484E4,4.7282007E3,6.0221145E4,5.751337E3,2.4032295E3,2.324971E3],"tree_param":{"num_deleted":"0","num_feature":"49","num_nodes":"7","size_leaf_vector":"1"}},{"base_weights":[1.2888077E-1,-8.296295E-2,3.7297887E-1,-3.1984951E-3,2.2199084E-3,8.006151E-3,-3.6674691E-3],"categories":[],"categories_nodes":[],"categories_segments":[],"categories_sizes":[],"default_left":[0,0,0,0,0,0,0],"id":87,"left_children":[1,3,5,-1,-1,-1,-1],"loss_changes":[3.733821E3,5.773003E2,5.10812E2,0E0,0E0,0E0,0E0],"parents":[2147483647,0,0,1,1,2,2],"right_children":[2,4,6,-1,-1,-1,-1],"split_conditions":[1E0,1E0,1E0,-3.1984951E-3,2.2199084E-3,8.006151E-3,-3.6674691E-3],"split_indices":[42,10,34,0,0,0,0],"split_type":[0,0,0,0,0,0,0],"sum_hessian":[7.2190055E4,3.8652004E4,3.3538047E4,2.7673172E4,1.0978834E4,3.1970424E4,1.567622E3],"tree_param":{"num_deleted":"0","num_feature":"49","num_nodes":"7","size_leaf_vector":"1"}},{"base_weights":[-8.0232374E-2,1.107945E-1,-3.1956926E-1,9.746201E-4,4.5446116E-3,-5.682265E-3,-8.380379E-3],"categories":[],"categories_nodes":[],"categories_segments":[],"categories_sizes":[],"default_left":[0,0,0,0,0,0,0],"id":88,"left_children":[1,3,5,-1,-1,-1,-1],"loss_changes":[3.179807E3,2.794199E2,1.0766138E2,0E0,0E0,0E0,0E0],"parents":[2147483647,0,0,1,1,2,2],"right_children":[2,4,6,-1,-1,-1,-1],"split_conditions":[1E0,1E0,1E0,9.746201E-4,4.5446116E-3,-5.682265E-3,-8.380379E-3],"split_indices":[42,18,8,0,0,0,0],"split_type":[0,0,0,0,0,0,0],"sum_hessian":[6.953217E4,3.8671703E4,3.0860473E4,2.523498E4,1.3436723E4,2.2778137E4,8.0823364E3],"tree_param":{"num_deleted":"0","num_feature":"49","num_nodes":"7","size_leaf_vector":"1"}},{"base_weights":[-1.842106E-1,-1.19394965E-1,-4.0542036E-1,-4.1506425E-3,-5.633723E-4,-8.756384E-3,-7.2256117E-3],"categories":[],"categories_nodes":[],"categories_segments":[],"categories_sizes":[],"default_left":[0,0,0,0,0,0,0],"id":89,"left_children":[1,3,5,-1,-1,-1,-1],"loss_changes":[9.750759E2,4.2316125E2,2.0462158E1,0E0,0E0,0E0,0E0],"parents":[2147483647,0,0,1,1,2,2],"right_children":[2,4,6,-1,-1,-1,-1],"split_conditions":[1E0,3E1,3.8E1,-4.1506425E-3,-5.633723E-4,-8.756384E-3,-7.2256117E-3],"split_indices":[6,21,21,0,0,0,0],"split_type":[0,0,0,0,0,0,0],"sum_hessian":[6.8030875E4,5.2626445E4,1.5404432E4,2.6759928E4,2.5866516E4,8.832291E3,6.572141E3],"tree_param":{"num_deleted":"0","num_feature":"49","num_nodes":"7","size_leaf_vector":"1"}},{"base_weights":[-2.8067672E-1,-3.21439E-1,9.676948E-1,-7.3038354E-3,-3.202788E-3,3.4253526E-2,1.3967361E-2],"categories":[],"categories_nodes":[],"categories_segments":[],"categories_sizes":[],"default_left":[0,0,0,0,0,0,0],"id":90,"left_children":[1,3,5,-1,-1,-1,-1],"loss_changes":[3.4001567E3,4.5569775E2,4.1206995E2,0E0,0E0,0E0,0E0],"parents":[2147483647,0,0,1,1,2,2],"right_children":[2,4,6,-1,-1,-1,-1],"split_conditions":[1E0,6E0,5E0,-7.3038354E-3,-3.202788E-3,3.4253526E-2,1.3967361E-2],"split_indices":[25,22,22,0,0,0,0],"split_type":[0,0,0,0,0,0,0],"sum_hessian":[6.674737E4,6.464401E4,2.1033542E3,5.084073E4,1.3803282E4,5.442686E2,1.5590856E3],"tree_param":{"num_deleted":"0","num_feature":"49","num_nodes":"7","size_leaf_vector":"1"}},{"base_weights":[7.336131E-1,5.6059307E-1,1.2153566E0,1.3221269E-2,-3.979406E-3,2.0592276E-2,3.1630315E-2],"categories":[],"categories_nodes":[],"categories_segments":[],"categories_sizes":[],"default_left":[0,0,0,0,0,0,0],"id":91,"left_children":[1,3,5,-1,-1,-1,-1],"loss_changes":[6.8708555E3,4.6357305E3,1.4660684E3,0E0,0E0,0E0,0E0],"parents":[2147483647,0,0,1,1,2,2],"right_children":[2,4,6,-1,-1,-1,-1],"split_conditions":[1E0,1E0,1E0,1.3221269E-2,-3.979406E-3,2.0592276E-2,3.1630315E-2],"split_indices":[35,39,6,0,0,0,0],"split_type":[0,0,0,0,0,0,0],"sum_hessian":[8.2504234E4,6.0718566E4,2.1785666E4,5.3626484E4,7.092083E3,1.4478984E4,7.306681E3],"tree_param":{"num_deleted":"0","num_feature":"49","num_nodes":"7","size_leaf_vector":"1"}},{"base_weights":[-4.878316E-1,-4.988972E-1,-7.649559E-2,-9.590073E-3,-1.1018044E-2,3.999904E-3,-6.029415E-3],"categories":[],"categories_nodes":[],"categories_segments":[],"categories_sizes":[],"default_left":[0,0,0,0,0,0,0],"id":92,"left_children":[1,3,5,-1,-1,-1,-1],"loss_changes":[2.9168848E2,6.0378906E1,1.05901474E2,0E0,0E0,0E0,0E0],"parents":[2147483647,0,0,1,1,2,2],"right_children":[2,4,6,-1,-1,-1,-1],"split_conditions":[7E0,1E0,1E0,-9.590073E-3,-1.1018044E-2,3.999904E-3,-6.029415E-3],"split_indices":[22,18,45,0,0,0,0],"split_type":[0,0,0,0,0,0,0],"sum_hessian":[6.415774E4,6.2474934E4,1.6828058E3,4.55797E4,1.6895234E4,7.554637E2,9.2734204E2],"tree_param":{"num_deleted":"0","num_feature":"49","num_nodes":"7","size_leaf_vector":"1"}},{"base_weights":[-3.7303794E-2,-9.831413E-2,8.437126E-1,-1.3155107E-3,-1.1247375E-2,1.1667733E-2,2.2048654E-2],"categories":[],"categories_nodes":[],"categories_segments":[],"categories_sizes":[],"default_left":[0,0,0,0,0,0,0],"id":93,"left_children":[1,3,5,-1,-1,-1,-1],"loss_changes":[3.7634753E3,9.883061E2,2.9898608E2,0E0,0E0,0E0,0E0],"parents":[2147483647,0,0,1,1,2,2],"right_children":[2,4,6,-1,-1,-1,-1],"split_conditions":[1E0,1E0,2E0,-1.3155107E-3,-1.1247375E-2,1.1667733E-2,2.2048654E-2],"split_indices":[28,30,2,0,0,0,0],"split_type":[0,0,0,0,0,0,0],"sum_hessian":[6.999127E4,6.5466598E4,4.524674E3,6.1187656E4,4.2789404E3,2.2715618E3,2.253112E3],"tree_param":{"num_deleted":"0","num_feature":"49","num_nodes":"7","size_leaf_vector":"1"}},{"base_weights":[1.5416527E-2,6.633117E-2,-1.1246111E-2,1.8298356E-3,-1.118815E-2],"categories":[],"categories_nodes":[],"categories_segments":[],"categories_sizes":[],"default_left":[0,0,0,0,0],"id":94,"left_children":[1,3,-1,-1,-1],"loss_changes":[2.0864075E3,1.0267609E3,0E0,0E0,0E0],"parents":[2147483647,0,0,1,1],"right_children":[2,4,-1,-1,-1],"split_conditions":[1E0,1E0,-1.1246111E-2,1.8298356E-3,-1.118815E-2],"split_indices":[37,28,0,0,0],"split_type":[0,0,0,0,0],"sum_hessian":[7.090855E4,6.517365E4,5.734902E3,6.266256E4,2.511089E3],"tree_param":{"num_deleted":"0","num_feature":"49","num_nodes":"5","size_leaf_vector":"1"}},{"base_weights":[1.289923E-1,-8.139448E-2,3.7009132E-1,-3.738375E-3,3.8242214E-3,4.656537E-3,9.279282E-3],"categories":[],"categories_nodes":[],"categories_segments":[],"categories_sizes":[],"default_left":[0,0,0,0,0,0,0],"id":95,"left_children":[1,3,5,-1,-1,-1,-1],"loss_changes":[3.6723599E3,1.1126681E3,4.336206E2,0E0,0E0,0E0,0E0],"parents":[2147483647,0,0,1,1,2,2],"right_children":[2,4,6,-1,-1,-1,-1],"split_conditions":[1E0,2E0,1E0,-3.738375E-3,3.8242214E-3,4.656537E-3,9.279282E-3],"split_indices":[42,46,46,0,0,0,0],"split_type":[0,0,0,0,0,0,0],"sum_hessian":[7.238284E4,3.865687E4,3.372597E4,2.7871207E4,1.0785664E4,1.3711409E4,2.001456E4],"tree_param":{"num_deleted":"0","num_feature":"49","num_nodes":"7","size_leaf_vector":"1"}},{"base_weights":[-8.05448E-2,-1.3319625E-1,5.1345927E-1,-1.5362278E-3,-5.289644E-3,1.1837905E-2,8.31797E-3],"categories":[],"categories_nodes":[],"categories_segments":[],"categories_sizes":[],"default_left":[0,0,0,0,0,0,0],"id":96,"left_children":[1,3,5,-1,-1,-1,-1],"loss_changes":[2.1698179E3,4.7146655E2,4.076709E1,0E0,0E0,0E0,0E0],"parents":[2147483647,0,0,1,1,2,2],"right_children":[2,4,6,-1,-1,-1,-1],"split_conditions":[1E0,5.5E1,4E0,-1.5362278E-3,-5.289644E-3,1.1837905E-2,8.31797E-3],"split_indices":[32,0,20,0,0,0,0],"split_type":[0,0,0,0,0,0,0],"sum_hessian":[6.93464E4,6.370726E4,5.6391396E3,4.4577785E4,1.9129475E4,3.0978718E3,2.541268E3],"tree_param":{"num_deleted":"0","num_feature":"49","num_nodes":"7","size_leaf_vector":"1"}},{"base_weights":[-1.8453315E-1,-2.2672461E-1,4.3598035E-1,-3.2899438E-3,-8.860492E-3,1.563527E-2,6.8174796E-3],"categories":[],"categories_nodes":[],"categories_segments":[],"categories_sizes":[],"default_left":[0,0,0,0,0,0,0],"id":97,"left_children":[1,3,5,-1,-1,-1,-1],"loss_changes":[1.7746265E3,8.5316406E2,1.3929034E2,0E0,0E0,0E0,0E0],"parents":[2147483647,0,0,1,1,2,2],"right_children":[2,4,6,-1,-1,-1,-1],"split_conditions":[1E0,1E0,5E0,-3.2899438E-3,-8.860492E-3,1.563527E-2,6.8174796E-3],"split_indices":[33,6,22,0,0,0,0],"split_type":[0,0,0,0,0,0,0],"sum_hessian":[6.7736836E4,6.3430273E4,4.30656E3,4.927262E4,1.4157653E4,9.134139E2,3.3931465E3],"tree_param":{"num_deleted":"0","num_feature":"49","num_nodes":"7","size_leaf_vector":"1"}},{"base_weights":[-2.775474E-1,-3.175948E-1,9.219149E-1,-5.959426E-3,-9.404495E-3,1.5978774E-2,2.4705911E-2],"categories":[],"categories_nodes":[],"categories_segments":[],"categories_sizes":[],"default_left":[0,0,0,0,0,0,0],"id":98,"left_children":[1,3,5,-1,-1,-1,-1],"loss_changes":[3.1875923E3,1.9077832E2,7.278003E1,0E0,0E0,0E0,0E0],"parents":[2147483647,0,0,1,1,2,2],"right_children":[2,4,6,-1,-1,-1,-1],"split_conditions":[1E0,1E0,5.5E1,-5.959426E-3,-9.404495E-3,1.5978774E-2,2.4705911E-2],"split_indices":[25,40,0,0,0,0,0],"split_type":[0,0,0,0,0,0,0],"sum_hessian":[6.628832E4,6.415372E4,2.1346E3,5.6871344E4,7.282375E3,1.558508E3,5.7609204E2],"tree_param":{"num_deleted":"0","num_feature":"49","num_nodes":"7","size_leaf_vector":"1"}},{"base_weights":[7.1460676E-1,6.1091894E-1,1.1817639E0,8.508718E-3,1.4545475E-2,2.5987227E-2,1.932251E-2],"categories":[],"categories_nodes":[],"categories_segments":[],"categories_sizes":[],"default_left":[0,0,0,0,0,0,0],"id":99,"left_children":[1,3,5,-1,-1,-1,-1],"loss_changes":[4.0419297E3,1.4737617E3,3.7221875E2,0E0,0E0,0E0,0E0],"parents":[2147483647,0,0,1,1,2,2],"right_children":[2,4,6,-1,-1,-1,-1],"split_conditions":[1E0,1E0,1E0,8.508718E-3,1.4545475E-2,2.5987227E-2,1.932251E-2],"split_indices":[26,29,7,0,0,0,0],"split_type":[0,0,0,0,0,0,0],"sum_hessian":[8.358359E4,6.842042E4,1.5163173E4,2.639319E4,4.202723E4,9.779638E3,5.383535E3],"tree_param":{"num_deleted":"0","num_feature":"49","num_nodes":"7","size_leaf_vector":"1"}},{"base_weights":[-4.8567253E-1,-4.9423394E-1,5.753751E-1,-9.462156E-3,-1.10229645E-2,1.4770953E-2,6.9565764E-3],"categories":[],"categories_nodes":[],"categories_segments":[],"categories_sizes":[],"default_left":[0,0,0,0,0,0,0],"id":100,"left_children":[1,3,5,-1,-1,-1,-1],"loss_changes":[5.8127246E2,7.334863E1,1.6526459E1,0E0,0E0,0E0,0E0],"parents":[2147483647,0,0,1,1,2,2],"right_children":[2,4,6,-1,-1,-1,-1],"split_conditions":[1E0,1E0,3.9E1,-9.462156E-3,-1.10229645E-2,1.4770953E-2,6.9565764E-3],"split_indices":[27,18,21,0,0,0,0],"split_type":[0,0,0,0,0,0,0],"sum_hessian":[6.366523E4,6.3160938E4,5.0429227E2,4.613072E4,1.7030219E4,2.8061047E2,2.236818E2],"tree_param":{"num_deleted":"0","num_feature":"49","num_nodes":"7","size_leaf_vector":"1"}},{"base_weights":[-3.6252942E-2,-9.724319E-2,8.3645695E-1,-4.5640366E-3,3.0994418E-4,1.1999421E-2,2.1386871E-2],"categories":[],"categories_nodes":[],"categories_segments":[],"categories_sizes":[],"default_left":[0,0,0,0,0,0,0],"id":101,"left_children":[1,3,5,-1,-1,-1,-1],"loss_changes":[3.727299E3,9.663195E2,2.4550879E2,0E0,0E0,0E0,0E0],"parents":[2147483647,0,0,1,1,2,2],"right_children":[2,4,6,-1,-1,-1,-1],"split_conditions":[1E0,1E0,2E0,-4.5640366E-3,3.0994418E-4,1.1999421E-2,2.1386871E-2],"split_indices":[28,29,2,0,0,0,0],"split_type":[0,0,0,0,0,0,0],"sum_hessian":[7.000146E4,6.5437203E4,4.5642617E3,3.0267912E4,3.516929E4,2.282375E3,2.281887E3],"tree_param":{"num_deleted":"0","num_feature":"49","num_nodes":"7","size_leaf_vector":"1"}},{"base_weights":[1.4007185E-2,-9.823358E-2,1.5267043E0,3.0619995E-4,-8.706785E-3,2.2905003E-2,3.8086213E-2],"categories":[],"categories_nodes":[],"categories_segments":[],"categories_sizes":[],"default_left":[0,0,0,0,0,0,0],"id":102,"left_children":[1,3,5,-1,-1,-1,-1],"loss_changes":[1.2027963E4,2.5243672E3,6.830205E2,0E0,0E0,0E0,0E0],"parents":[2147483647,0,0,1,1,2,2],"right_children":[2,4,6,-1,-1,-1,-1],"split_conditions":[1E0,1E0,2E0,3.0619995E-4,-8.706785E-3,2.2905003E-2,3.8086213E-2],"split_indices":[30,35,2,0,0,0,0],"split_type":[0,0,0,0,0,0,0],"sum_hessian":[7.0822945E4,6.593964E4,4.883311E3,4.933292E4,1.6606715E4,2.449341E3,2.43397E3],"tree_param":{"num_deleted":"0","num_feature":"49","num_nodes":"7","size_leaf_vector":"1"}},{"base_weights":[1.2849855E-1,2.682955E-2,8.527776E-1,-2.8813877E-3,4.813931E-3,1.4414419E-2,2.0852722E-2],"categories":[],"categories_nodes":[],"categories_segments":[],"categories_sizes":[],"default_left":[0,0,0,0,0,0,0],"id":103,"left_children":[1,3,5,-1,-1,-1,-1],"loss_changes":[5.3506445E3,2.3297085E3,2.1674023E2,0E0,0E0,0E0,0E0],"parents":[2147483647,0,0,1,1,2,2],"right_children":[2,4,6,-1,-1,-1,-1],"split_conditions":[1E0,1E0,7E0,-2.8813877E-3,4.813931E-3,1.4414419E-2,2.0852722E-2],"split_indices":[40,42,11,0,0,0,0],"split_type":[0,0,0,0,0,0,0],"sum_hessian":[7.265583E4,6.3721445E4,8.934381E3,3.5420527E4,2.8300918E4,5.2975913E3,3.6367893E3],"tree_param":{"num_deleted":"0","num_feature":"49","num_nodes":"7","size_leaf_vector":"1"}},{"base_weights":[-7.7554666E-2,-1.2859395E-1,5.691695E-2,-6.224677E-3,1.0795434E-3,4.5018825E-3,-7.103951E-3],"categories":[],"categories_nodes":[],"categories_segments":[],"categories_sizes":[],"default_left":[0,0,0,0,0,0,0],"id":104,"left_children":[1,3,5,-1,-1,-1,-1],"loss_changes":[4.7576343E2,1.6755144E3,1.3229083E3,0E0,0E0,0E0,0E0],"parents":[2147483647,0,0,1,1,2,2],"right_children":[2,4,6,-1,-1,-1,-1],"split_conditions":[1E0,1E0,1E0,-6.224677E-3,1.0795434E-3,4.5018825E-3,-7.103951E-3],"split_indices":[18,44,44,0,0,0,0],"split_type":[0,0,0,0,0,0,0],"sum_hessian":[6.9298914E4,5.0233145E4,1.9065773E4,2.5108318E4,2.5124824E4,1.354345E4,5.5223223E3],"tree_param":{"num_deleted":"0","num_feature":"49","num_nodes":"7","size_leaf_vector":"1"}},{"base_weights":[-1.8317147E-1,-1.2059304E-1,-3.9921442E-1,-5.6316787E-3,-8.1575883E-4,-7.5859246E-3,-1.0242743E-2],"categories":[],"categories_nodes":[],"categories_segments":[],"categories_sizes":[],"default_left":[0,0,0,0,0,0,0],"id":105,"left_children":[1,3,5,-1,-1,-1,-1],"loss_changes":[9.130049E2,6.7319293E2,3.218091E1,0E0,0E0,0E0,0E0],"parents":[2147483647,0,0,1,1,2,2],"right_children":[2,4,6,-1,-1,-1,-1],"split_conditions":[1E0,5E0,3E0,-5.6316787E-3,-8.1575883E-4,-7.5859246E-3,-1.0242743E-2],"split_indices":[6,22,2,0,0,0,0],"split_type":[0,0,0,0,0,0,0],"sum_hessian":[6.755742E4,5.239609E4,1.5161329E4,1.7356842E4,3.503925E4,1.2925094E4,2.2362358E3],"tree_param":{"num_deleted":"0","num_feature":"49","num_nodes":"7","size_leaf_vector":"1"}},{"base_weights":[-2.7705565E-1,-2.5485322E-1,-3.4290406E-1,-4.7154757E-3,-7.7356193E-3,-6.474289E-3,-7.530711E-3],"categories":[],"categories_nodes":[],"categories_segments":[],"categories_sizes":[],"default_left":[0,0,0,0,0,0,0],"id":106,"left_children":[1,3,5,-1,-1,-1,-1],"loss_changes":[9.583447E1,1.237041E2,9.527344E0,0E0,0E0,0E0,0E0],"parents":[2147483647,0,0,1,1,2,2],"right_children":[2,4,6,-1,-1,-1,-1],"split_conditions":[1E0,1E0,1E0,-4.7154757E-3,-7.7356193E-3,-6.474289E-3,-7.530711E-3],"split_indices":[35,39,13,0,0,0,0],"split_type":[0,0,0,0,0,0,0],"sum_hessian":[6.613835E4,4.9497664E4,1.6640688E4,4.3268098E4,6.2295674E3,1.0662875E4,5.9778115E3],"tree_param":{"num_deleted":"0","num_feature":"49","num_nodes":"7","size_leaf_vector":"1"}},{"base_weights":[6.9813627E-1,5.329601E-1,1.1547741E0,1.18077155E-2,-4.68712E-3,2.1457827E-2,3.3808514E-2],"categories":[],"categories_nodes":[],"categories_segments":[],"categories_sizes":[],"default_left":[0,0,0,0,0,0,0],"id":107,"left_children":[1,3,5,-1,-1,-1,-1],"loss_changes":[6.3867734E3,2.7448652E3,9.69E2,0E0,0E0,0E0,0E0],"parents":[2147483647,0,0,1,1,2,2],"right_children":[2,4,6,-1,-1,-1,-1],"split_conditions":[1E0,1E0,3E0,1.18077155E-2,-4.68712E-3,2.1457827E-2,3.3808514E-2],"split_indices":[35,30,2,0,0,0,0],"split_type":[0,0,0,0,0,0,0],"sum_hessian":[8.474798E4,6.2251777E4,2.2496195E4,5.7919414E4,4.332363E3,1.9539334E4,2.9568604E3],"tree_param":{"num_deleted":"0","num_feature":"49","num_nodes":"7","size_leaf_vector":"1"}},{"base_weights":[-4.8526296E-1,-4.9619752E-1,-7.867216E-2,-9.3878E-3,-1.0341666E-2,4.1905823E-3,-6.277855E-3],"categories":[],"categories_nodes":[],"categories_segments":[],"categories_sizes":[],"default_left":[0,0,0,0,0,0,0],"id":108,"left_children":[1,3,5,-1,-1,-1,-1],"loss_changes":[2.801045E2,3.1969727E1,1.1347305E2,0E0,0E0,0E0,0E0],"parents":[2147483647,0,0,1,1,2,2],"right_children":[2,4,6,-1,-1,-1,-1],"split_conditions":[7E0,1E0,1E0,-9.3878E-3,-1.0341666E-2,4.1905823E-3,-6.277855E-3],"split_indices":[22,45,45,0,0,0,0],"split_type":[0,0,0,0,0,0,0],"sum_hessian":[6.3080836E4,6.1426668E4,1.6541674E3,2.7002648E4,3.442402E4,7.4385724E2,9.103102E2],"tree_param":{"num_deleted":"0","num_feature":"49","num_nodes":"7","size_leaf_vector":"1"}},{"base_weights":[-3.821242E-2,-1.434382E-1,9.5947003E-1,-3.5629158E-3,1.20711895E-2,1.5098855E-2,2.6319057E-2],"categories":[],"categories_nodes":[],"categories_segments":[],"categories_sizes":[],"default_left":[0,0,0,0,0,0,0],"id":109,"left_children":[1,3,5,-1,-1,-1,-1],"loss_changes":[7.342595E3,1.6413257E3,4.7659717E2,0E0,0E0,0E0,0E0],"parents":[2147483647,0,0,1,1,2,2],"right_children":[2,4,6,-1,-1,-1,-1],"split_conditions":[1E0,1E0,1E0,-3.5629158E-3,1.20711895E-2,1.5098855E-2,2.6319057E-2],"split_indices":[37,28,6,0,0,0,0],"split_type":[0,0,0,0,0,0,0],"sum_hessian":[6.991842E4,6.3255418E4,6.663001E3,6.0454164E4,2.8012534E3,4.2536846E3,2.4093164E3],"tree_param":{"num_deleted":"0","num_feature":"49","num_nodes":"7","size_leaf_vector":"1"}},{"base_weights":[1.5184492E-2,-1.6605943E-1,1.5774976E0,-5.4165134E-3,1.5706485E-3,3.2257017E-2,1.981416E-2],"categories":[],"categories_nodes":[],"categories_segments":[],"categories_sizes":[],"default_left":[0,0,0,0,0,0,0],"id":110,"left_children":[1,3,5,-1,-1,-1,-1],"loss_changes":[2.0062887E4,1.6271187E3,1.3681445E2,0E0,0E0,0E0,0E0],"parents":[2147483647,0,0,1,1,2,2],"right_children":[2,4,6,-1,-1,-1,-1],"split_conditions":[1E0,1E0,1E0,-5.4165134E-3,1.5706485E-3,3.2257017E-2,1.981416E-2],"split_indices":[39,8,26,0,0,0,0],"split_type":[0,0,0,0,0,0,0],"sum_hessian":[7.083434E4,6.3479074E4,7.3552695E3,4.4442082E4,1.903699E4,6.9208135E3,4.3445596E2],"tree_param":{"num_deleted":"0","num_feature":"49","num_nodes":"7","size_leaf_vector":"1"}},{"base_weights":[1.2138715E-1,1.9649282E-2,8.407667E-1,-5.7568174E-4,3.0925393E-3,1.4583003E-2,2.1157727E-2],"categories":[],"categories_nodes":[],"categories_segments":[],"categories_sizes":[],"default_left":[0,0,0,0,0,0,0],"id":111,"left_children":[1,3,5,-1,-1,-1,-1],"loss_changes":[5.3211206E3,4.1653503E2,2.1059521E2,0E0,0E0,0E0,0E0],"parents":[2147483647,0,0,1,1,2,2],"right_children":[2,4,6,-1,-1,-1,-1],"split_conditions":[1E0,1E0,5.7E1,-5.7568174E-4,3.0925393E-3,1.4583003E-2,2.1157727E-2],"split_indices":[40,10,0,0,0,0,0],"split_type":[0,0,0,0,0,0,0],"sum_hessian":[7.2696945E4,6.3698668E4,8.998276E3,4.6883547E4,1.6815121E4,5.971856E3,3.02642E3],"tree_param":{"num_deleted":"0","num_feature":"49","num_nodes":"7","size_leaf_vector":"1"}},{"base_weights":[-7.876092E-2,-1.305762E-1,5.012177E-1,-4.525554E-3,-4.1140086E-4,1.1933671E-2,6.8963002E-3],"categories":[],"categories_nodes":[],"categories_segments":[],"categories_sizes":[],"default_left":[0,0,0,0,0,0,0],"id":112,"left_children":[1,3,5,-1,-1,-1,-1],"loss_changes":[2.0779067E3,6.6806067E2,8.261719E1,0E0,0E0,0E0,0E0],"parents":[2147483647,0,0,1,1,2,2],"right_children":[2,4,6,-1,-1,-1,-1],"split_conditions":[1E0,3.2E1,2E0,-4.525554E-3,-4.1140086E-4,1.1933671E-2,6.8963002E-3],"split_indices":[32,21,2,0,0,0,0],"split_type":[0,0,0,0,0,0,0],"sum_hessian":[6.911251E4,6.3451504E4,5.6610063E3,3.3926266E4,2.9525238E4,3.4978315E3,2.1631748E3],"tree_param":{"num_deleted":"0","num_feature":"49","num_nodes":"7","size_leaf_vector":"1"}},{"base_weights":[-1.7774335E-1,-2.504289E-1,7.470515E-3,-5.3563192E-3,3.4113463E-3,-5.587433E-4,1.3172632E-2],"categories":[],"categories_nodes":[],"categories_segments":[],"categories_sizes":[],"default_left":[0,0,0,0,0,0,0],"id":113,"left_children":[1,3,5,-1,-1,-1,-1],"loss_changes":[9.0466284E2,3.5371094E2,4.3706433E2,0E0,0E0,0E0,0E0],"parents":[2147483647,0,0,1,1,2,2],"right_children":[2,4,6,-1,-1,-1,-1],"split_conditions":[1E0,1E0,1E0,-5.3563192E-3,3.4113463E-3,-5.587433E-4,1.3172632E-2],"split_indices":[5,24,24,0,0,0,0],"split_type":[0,0,0,0,0,0,0],"sum_hessian":[6.718799E4,4.8249414E4,1.8938574E4,4.6339246E4,1.9101685E3,1.7970951E4,9.676215E2],"tree_param":{"num_deleted":"0","num_feature":"49","num_nodes":"7","size_leaf_vector":"1"}},{"base_weights":[-2.7417794E-1,-2.5998706E-1,-4.5080006E-1,-6.659758E-3,-4.6534166E-3,-1.0154529E-2,-8.64839E-3],"categories":[],"categories_nodes":[],"categories_segments":[],"categories_sizes":[],"default_left":[0,0,0,0,0,0,0],"id":114,"left_children":[1,3,5,-1,-1,-1,-1],"loss_changes":[1.6376074E2,1.2073389E2,2.9109497E0,0E0,0E0,0E0,0E0],"parents":[2147483647,0,0,1,1,2,2],"right_children":[2,4,6,-1,-1,-1,-1],"split_conditions":[1E0,1E0,1E0,-6.659758E-3,-4.6534166E-3,-1.0154529E-2,-8.64839E-3],"split_indices":[31,19,19,0,0,0,0],"split_type":[0,0,0,0,0,0,0],"sum_hessian":[6.5794E4,6.0923742E4,4.870259E3,1.6559E4,4.4364742E4,1.1237289E3,3.7465298E3],"tree_param":{"num_deleted":"0","num_feature":"49","num_nodes":"7","size_leaf_vector":"1"}},{"base_weights":[6.816487E-1,5.2102673E-1,1.1188312E0,7.279117E-3,1.5864886E-2,1.8972099E-2,2.9052986E-2],"categories":[],"categories_nodes":[],"categories_segments":[],"categories_sizes":[],"default_left":[0,0,0,0,0,0,0],"id":115,"left_children":[1,3,5,-1,-1,-1,-1],"loss_changes":[6.0102656E3,2.6768496E3,1.2937871E3,0E0,0E0,0E0,0E0],"parents":[2147483647,0,0,1,1,2,2],"right_children":[2,4,6,-1,-1,-1,-1],"split_conditions":[1E0,1E0,1E0,7.279117E-3,1.5864886E-2,1.8972099E-2,2.9052986E-2],"split_indices":[35,38,6,0,0,0,0],"split_type":[0,0,0,0,0,0,0],"sum_hessian":[8.566357E4,6.266296E4,2.3000611E4,3.975025E4,2.291271E4,1.5258272E4,7.7423384E3],"tree_param":{"num_deleted":"0","num_feature":"49","num_nodes":"7","size_leaf_vector":"1"}},{"base_weights":[-4.8305488E-1,-4.9927115E-1,8.3096784E-1,-1.01885125E-2,-2.0213923E-3,2.0027515E-2,9.813845E-3],"categories":[],"categories_nodes":[],"categories_segments":[],"categories_sizes":[],"default_left":[0,0,0,0,0,0,0],"id":116,"left_children":[1,3,5,-1,-1,-1,-1],"loss_changes":[1.3347402E3,2.489248E2,3.944397E1,0E0,0E0,0E0,0E0],"parents":[2147483647,0,0,1,1,2,2],"right_children":[2,4,6,-1,-1,-1,-1],"split_conditions":[1E0,7E0,2E0,-1.01885125E-2,-2.0213923E-3,2.0027515E-2,9.813845E-3],"split_indices":[36,22,2,0,0,0,0],"split_type":[0,0,0,0,0,0,0],"sum_hessian":[6.24339E4,6.167892E4,7.549764E2,6.014245E4,1.536473E3,4.901059E2,2.6487048E2],"tree_param":{"num_deleted":"0","num_feature":"49","num_nodes":"7","size_leaf_vector":"1"}},{"base_weights":[-3.61525E-2,-1.4024474E-1,9.2560834E-1,-3.4886987E-3,1.1860185E-2,1.4214612E-2,2.5822507E-2],"categories":[],"categories_nodes":[],"categories_segments":[],"categories_sizes":[],"default_left":[0,0,0,0,0,0,0],"id":117,"left_children":[1,3,5,-1,-1,-1,-1],"loss_changes":[6.9917197E3,1.5808407E3,5.265244E2,0E0,0E0,0E0,0E0],"parents":[2147483647,0,0,1,1,2,2],"right_children":[2,4,6,-1,-1,-1,-1],"split_conditions":[1E0,1E0,1E0,-3.4886987E-3,1.1860185E-2,1.4214612E-2,2.5822507E-2],"split_indices":[37,28,6,0,0,0,0],"split_type":[0,0,0,0,0,0,0],"sum_hessian":[6.981613E4,6.3005527E4,6.8106025E3,6.0205867E4,2.7996614E3,4.307678E3,2.5029243E3],"tree_param":{"num_deleted":"0","num_feature":"49","num_nodes":"7","size_leaf_vector":"1"}},{"base_weights":[1.3778907E-2,-1.6450292E-1,1.5088769E0,-5.4213936E-3,1.6270081E-3,4.0785506E-2,2.676835E-2],"categories":[],"categories_nodes":[],"categories_segments":[],"categories_sizes":[],"default_left":[0,0,0,0,0,0,0],"id":118,"left_children":[1,3,5,-1,-1,-1,-1],"loss_changes":[1.8896656E4,1.6597538E3,6.5558594E2,0E0,0E0,0E0,0E0],"parents":[2147483647,0,0,1,1,2,2],"right_children":[2,4,6,-1,-1,-1,-1],"split_conditions":[1E0,1E0,1E0,-5.4213936E-3,1.6270081E-3,4.0785506E-2,2.676835E-2],"split_indices":[39,8,46,0,0,0,0],"split_type":[0,0,0,0,0,0,0],"sum_hessian":[7.087448E4,6.333146E4,7.5430127E3,4.4180223E4,1.9151238E4,1.8079115E3,5.735101E3],"tree_param":{"num_deleted":"0","num_feature":"49","num_nodes":"7","size_leaf_vector":"1"}},{"base_weights":[1.22930974E-1,2.4217991E-2,8.1014884E-1,-4.0148132E-4,1.4298103E-2,2.6749207E-2,1.5229413E-2],"categories":[],"categories_nodes":[],"categories_segments":[],"categories_sizes":[],"default_left":[0,0,0,0,0,0,0],"id":119,"left_children":[1,3,5,-1,-1,-1,-1],"loss_changes":[4.946314E3,1.9509656E3,2.2489014E2,0E0,0E0,0E0,0E0],"parents":[2147483647,0,0,1,1,2,2],"right_children":[2,4,6,-1,-1,-1,-1],"split_conditions":[1E0,1E0,4E0,-4.0148132E-4,1.4298103E-2,2.6749207E-2,1.5229413E-2],"split_indices":[40,31,22,0,0,0,0],"split_type":[0,0,0,0,0,0,0],"sum_hessian":[7.290723E4,6.375912E4,9.148102E3,5.992593E4,3.8331921E3,7.507507E2,8.397352E3],"tree_param":{"num_deleted":"0","num_feature":"49","num_nodes":"7","size_leaf_vector":"1"}},{"base_weights":[-7.8169815E-2,1.08886644E-1,-3.1757337E-1,3.1112235E-3,-1.016355E-3,-7.8047495E-3,-5.3341645E-3],"categories":[],"categories_nodes":[],"categories_segments":[],"categories_sizes":[],"default_left":[0,0,0,0,0,0,0],"id":120,"left_children":[1,3,5,-1,-1,-1,-1],"loss_changes":[3.0887197E3,2.8872092E2,1.1077344E2,0E0,0E0,0E0,0E0],"parents":[2147483647,0,0,1,1,2,2],"right_children":[2,4,6,-1,-1,-1,-1],"split_conditions":[1E0,5.8E1,1E0,3.1112235E-3,-1.016355E-3,-7.8047495E-3,-5.3341645E-3],"split_indices":[42,0,46,0,0,0,0],"split_type":[0,0,0,0,0,0,0],"sum_hessian":[6.895465E4,3.871241E4,3.0242242E4,2.9957434E4,8.754975E3,1.2425257E4,1.7816986E4],"tree_param":{"num_deleted":"0","num_feature":"49","num_nodes":"7","size_leaf_vector":"1"}},{"base_weights":[-1.7772259E-1,-3.201947E-1,-1.0682876E-1,-7.261562E-3,-4.2214924E-3,-3.9488585E-3,-6.084683E-4],"categories":[],"categories_nodes":[],"categories_segments":[],"categories_sizes":[],"default_left":[0,0,0,0,0,0,0],"id":121,"left_children":[1,3,5,-1,-1,-1,-1],"loss_changes":[6.786448E2,1.0373071E2,3.1082E2,0E0,0E0,0E0,0E0],"parents":[2147483647,0,0,1,1,2,2],"right_children":[2,4,6,-1,-1,-1,-1],"split_conditions":[5E0,2E0,3.5E1,-7.261562E-3,-4.2214924E-3,-3.9488585E-3,-6.084683E-4],"split_indices":[22,46,21,0,0,0,0],"split_type":[0,0,0,0,0,0,0],"sum_hessian":[6.721381E4,2.2321049E4,4.4892766E4,1.6007101E4,6.313948E3,2.0529559E4,2.4363207E4],"tree_param":{"num_deleted":"0","num_feature":"49","num_nodes":"7","size_leaf_vector":"1"}},{"base_weights":[-2.7328187E-1,-3.3587518E-1,9.8819214E-1,-7.1814233E-3,1.3962542E-2,3.605563E-2,1.3930292E-2],"categories":[],"categories_nodes":[],"categories_segments":[],"categories_sizes":[],"default_left":[0,0,0,0,0,0,0],"id":122,"left_children":[1,3,5,-1,-1,-1,-1],"loss_changes":[5.165418E3,1.4965908E3,7.223562E2,0E0,0E0,0E0,0E0],"parents":[2147483647,0,0,1,1,2,2],"right_children":[2,4,6,-1,-1,-1,-1],"split_conditions":[1E0,1E0,5E0,-7.1814233E-3,1.3962542E-2,3.605563E-2,1.3930292E-2],"split_indices":[34,25,22,0,0,0,0],"split_type":[0,0,0,0,0,0,0],"sum_hessian":[6.536627E4,6.2283168E4,3.083102E3,6.0922996E4,1.360172E3,7.99229E2,2.283873E3],"tree_param":{"num_deleted":"0","num_feature":"49","num_nodes":"7","size_leaf_vector":"1"}},{"base_weights":[6.685576E-1,5.124693E-1,1.0912267E0,1.5335084E-2,7.3655234E-3,1.8446162E-2,2.8439147E-2],"categories":[],"categories_nodes":[],"categories_segments":[],"categories_sizes":[],"default_left":[0,0,0,0,0,0,0],"id":123,"left_children":[1,3,5,-1,-1,-1,-1],"loss_changes":[5.697074E3,2.3124707E3,1.2887559E3,0E0,0E0,0E0,0E0],"parents":[2147483647,0,0,1,1,2,2],"right_children":[2,4,6,-1,-1,-1,-1],"split_conditions":[1E0,2E0,1E0,1.5335084E-2,7.3655234E-3,1.8446162E-2,2.8439147E-2],"split_indices":[35,20,6,0,0,0,0],"split_type":[0,0,0,0,0,0,0],"sum_hessian":[8.642849E4,6.3135266E4,2.3293227E4,2.2830479E4,4.030479E4,1.5443466E4,7.8497617E3],"tree_param":{"num_deleted":"0","num_feature":"49","num_nodes":"7","size_leaf_vector":"1"}},{"base_weights":[-4.8127267E-1,-4.9697578E-1,7.8191507E-1,-1.01436805E-2,-2.0089028E-3,1.88847E-2,9.170455E-3],"categories":[],"categories_nodes":[],"categories_segments":[],"categories_sizes":[],"default_left":[0,0,0,0,0,0,0],"id":124,"left_children":[1,3,5,-1,-1,-1,-1],"loss_changes":[1.2352754E3,2.4771582E2,3.5886932E1,0E0,0E0,0E0,0E0],"parents":[2147483647,0,0,1,1,2,2],"right_children":[2,4,6,-1,-1,-1,-1],"split_conditions":[1E0,7E0,2E0,-1.01436805E-2,-2.0089028E-3,1.88847E-2,9.170455E-3],"split_indices":[36,22,2,0,0,0,0],"split_type":[0,0,0,0,0,0,0],"sum_hessian":[6.206861E4,6.131248E4,7.5613E2,5.9770953E4,1.541527E3,4.9065723E2,2.654728E2],"tree_param":{"num_deleted":"0","num_feature":"49","num_nodes":"7","size_leaf_vector":"1"}},{"base_weights":[-3.442212E-2,-1.0883093E-1,1.6109315E-1,-1.3341772E-3,-4.7070743E-3,5.1635145E-3,-2.754019E-3],"categories":[],"categories_nodes":[],"categories_segments":[],"categories_sizes":[],"default_left":[0,0,0,0,0,0,0],"id":125,"left_children":[1,3,5,-1,-1,-1,-1],"loss_changes":[1.0153957E3,2.692594E2,5.584946E2,0E0,0E0,0E0,0E0],"parents":[2147483647,0,0,1,1,2,2],"right_children":[2,4,6,-1,-1,-1,-1],"split_conditions":[1E0,1E0,1E0,-1.3341772E-3,-4.7070743E-3,5.1635145E-3,-2.754019E-3],"split_indices":[18,35,35,0,0,0,0],"split_type":[0,0,0,0,0,0,0],"sum_hessian":[6.9773914E4,5.0542848E4,1.9231062E4,3.793033E4,1.2612521E4,1.451597E4,4.715093E3],"tree_param":{"num_deleted":"0","num_feature":"49","num_nodes":"7","size_leaf_vector":"1"}},{"base_weights":[1.8766457E-2,-9.279345E-2,1.4575225E0,3.8014754E-4,-8.628181E-3,3.0895343E-2,1.592866E-2],"categories":[],"categories_nodes":[],"categories_segments":[],"categories_sizes":[],"default_left":[0,0,0,0,0,0,0],"id":126,"left_children":[1,3,5,-1,-1,-1,-1],"loss_changes":[1.1380617E4,2.4912324E3,2.819746E2,0E0,0E0,0E0,0E0],"parents":[2147483647,0,0,1,1,2,2],"right_children":[2,4,6,-1,-1,-1,-1],"split_conditions":[1E0,1E0,6E0,3.8014754E-4,-8.628181E-3,3.0895343E-2,1.592866E-2],"split_indices":[30,35,22,0,0,0,0],"split_type":[0,0,0,0,0,0,0],"sum_hessian":[7.088554E4,6.5793336E4,5.092204E3,4.9469438E4,1.63239E4,4.4867197E3,6.054845E2],"tree_param":{"num_deleted":"0","num_feature":"49","num_nodes":"7","size_leaf_vector":"1"}},{"base_weights":[1.1764702E-1,-8.618455E-2,3.47709E-1,-3.7503962E-3,3.5155618E-3,5.3107166E-3,1.086171E-2],"categories":[],"categories_nodes":[],"categories_segments":[],"categories_sizes":[],"default_left":[0,0,0,0,0,0,0],"id":127,"left_children":[1,3,5,-1,-1,-1,-1],"loss_changes":[3.4259768E3,1.0287761E3,5.495513E2,0E0,0E0,0E0,0E0],