{"learner":{"attributes":{"best_iteration":"13","best_score":"1.9938595780822341"},"feature_names":["b_height_inches","balls","batter_pct_CH","batter_pct_CU","batter_pct_FC","batter_pct_FF","batter_pct_FS","batter_pct_FT","batter_pct_SI","batter_pct_SL","batter_total_pitches","count_category_ahead","count_category_behind","count_category_even","count_category_first_pitch","count_category_full_count","fouls","inning","is_first_pitch","on_1b_flag","on_2b_flag","on_3b_flag","outs","p_throws_L","p_throws_R","pcount_at_bat","pcount_pitcher","pitcher_count_pct_CH","pitcher_count_pct_CU","pitcher_count_pct_FC","pitcher_count_pct_FF","pitcher_count_pct_FS","pitcher_count_pct_FT","pitcher_count_pct_SI","pitcher_count_pct_SL","pitcher_hand_pct_CH","pitcher_hand_pct_CU","pitcher_hand_pct_FC","pitcher_hand_pct_FF","pitcher_hand_pct_FS","pitcher_hand_pct_FT","pitcher_hand_pct_SI","pitcher_hand_pct_SL","pitcher_n_types","pitcher_pct_CH","pitcher_pct_CU","pitcher_pct_FC","pitcher_pct_FF","pitcher_pct_FS","pitcher_pct_FT","pitcher_pct_SI","pitcher_pct_SL","pitcher_total_pitches","prev_pitch_type_2_CH","prev_pitch_type_2_CU","prev_pitch_type_2_FC","prev_pitch_type_2_FF","prev_pitch_type_2_FS","prev_pitch_type_2_FT","prev_pitch_type_2_NONE","prev_pitch_type_2_SI","prev_pitch_type_2_SL","prev_pitch_type_CH","prev_pitch_type_CU","prev_pitch_type_FC","prev_pitch_type_FF","prev_pitch_type_FS","prev_pitch_type_FT","prev_pitch_type_NONE","prev_pitch_type_SI","prev_pitch_type_SL","runners_on","same_hand","score_diff","stand_L","stand_R","strikes","top"],"feature_types":["int","int","float","float","float","float","float","float","float","float","int","int","int","int","int","int","int","int","int","int","int","int","int","int","int","int","int","float","float","float","float","float","float","float","float","float","float","float","float","float","float","float","float","int","float","float","float","float","float","float","float","float","int","int","int","int","int","int","int","int","int","int","int","int","int","int","int","int","int","int","int","int","int","int","int","int","int","int"],"gradient_booster":{"model":{"gbtree_model_param":{"num_parallel_tree":"1","num_trees":"912"},"iteration_indptr":[0,8,16,24,32,40,48,56,64,72,80,88,96,104,112,120,128,136,144,152,160,168,176,184,192,200,208,216,224,232,240,248,256,264,272,280,288,296,304,312,320,328,336,344,352,360,368,376,384,392,400,408,416,424,432,440,448,456,464,472,480,488,496,504,512,520,528,536,544,552,560,568,576,584,592,600,608,616,624,632,640,648,656,664,672,680,688,696,704,712,720,728,736,744,752,760,768,776,784,792,800,808,816,824,832,840,848,856,864,872,880,888,896,904,912],"tree_info":[0,1,2,3,4,5,6,7,0,1,2,3,4,5,6,7,0,1,2,3,4,5,6,7,0,1,2,3,4,5,6,7,0,1,2,3,4,5,6,7,0,1,2,3,4,5,6,7,0,1,2,3,4,5,6,7,0,1,2,3,4,5,6,7,0,1,2,3,4,5,6,7,0,1,2,3,4,5,6,7,0,1,2,3,4,5,6,7,0,1,2,3,4,5,6,7,0,1,2,3,4,5,6,7,0,1,2,3,4,5,6,7,0,1,2,3,4,5,6,7,0,1,2,3,4,5,6,7,0,1,2,3,4,5,6,7,0,1,2,3,4,5,6,7,0,1,2,3,4,5,6,7,0,1,2,3,4,5,6,7,0,1,2,3,4,5,6,7,0,1,2,3,4,5,6,7,0,1,2,3,4,5,6,7,0,1,2,3,4,5,6,7,0,1,2,3,4,5,6,7,0,1,2,3,4,5,6,7,0,1,2,3,4,5,6,7,0,1,2,3,4,5,6,7,0,1,2,3,4,5,6,7,0,1,2,3,4,5,6,7,0,1,2,3,4,5,6,7,0,1,2,3,4,5,6,7,0,1,2,3,4,5,6,7,0,1,2,3,4,5,6,7,0,1,2,3,4,5,6,7,0,1,2,3,4,5,6,7,0,1,2,3,4,5,6,7,0,1,2,3,4,5,6,7,0,1,2,3,4,5,6,7,0,1,2,3,4,5,6,7,0,1,2,3,4,5,6,7,0,1,2,3,4,5,6,7,0,1,2,3,4,5,6,7,0,1,2,3,4,5,6,7,0,1,2,3,4,5,6,7,0,1,2,3,4,5,6,7,0,1,2,3,4,5,6,7,0,1,2,3,4,5,6,7,0,1,2,3,4,5,6,7,0,1,2,3,4,5,6,7,0,1,2,3,4,5,6,7,0,1,2,3,4,5,6,7,0,1,2,3,4,5,6,7,0,1,2,3,4,5,6,7,0,1,2,3,4,5,6,7,0,1,2,3,4,5,6,7,0,1,2,3,4,5,6,7,0,1,2,3,4,5,6,7,0,1,2,3,4,5,6,7,0,1,2,3,4,5,6,7,0,1,2,3,4,5,6,7,0,1,2,3,4,5,6,7,0,1,2,3,4,5,6,7,0,1,2,3,4,5,6,7,0,1,2,3,4,5,6,7,0,1,2,3,4,5,6,7,0,1,2,3,4,5,6,7,0,1,2,3,4,5,6,7,0,1,2,3,4,5,6,7,0,1,2,3,4,5,6,7,0,1,2,3,4,5,6,7,0,1,2,3,4,5,6,7,0,1,2,3,4,5,6,7,0,1,2,3,4,5,6,7,0,1,2,3,4,5,6,7,0,1,2,3,4,5,6,7,0,1,2,3,4,5,6,7,0,1,2,3,4,5,6,7,0,1,2,3,4,5,6,7,0,1,2,3,4,5,6,7,0,1,2,3,4,5,6,7,0,1,2,3,4,5,6,7,0,1,2,3,4,5,6,7,0,1,2,3,4,5,6,7,0,1,2,3,4,5,6,7,0,1,2,3,4,5,6,7,0,1,2,3,4,5,6,7,0,1,2,3,4,5,6,7,0,1,2,3,4,5,6,7,0,1,2,3,4,5,6,7,0,1,2,3,4,5,6,7,0,1,2,3,4,5,6,7,0,1,2,3,4,5,6,7,0,1,2,3,4,5,6,7,0,1,2,3,4,5,6,7,0,1,2,3,4,5,6,7,0,1,2,3,4,5,6,7,0,1,2,3,4,5,6,7,0,1,2,3,4,5,6,7,0,1,2,3,4,5,6,7,0,1,2,3,4,5,6,7,0,1,2,3,4,5,6,7,0,1,2,3,4,5,6,7,0,1,2,3,4,5,6,7,0,1,2,3,4,5,6,7,0,1,2,3,4,5,6,7,0,1,2,3,4,5,6,7,0,1,2,3,4,5,6,7,0,1,2,3,4,5,6,7,0,1,2,3,4,5,6,7,0,1,2,3,4,5,6,7,0,1,2,3,4,5,6,7,0,1,2,3,4,5,6,7,0,1,2,3,4,5,6,7],"trees":[{"base_weights":[-9.141092E-2,-3.8701218E-1,4.581725E-1,-5.094496E-1,-1.3883607E-1,1.8549593E-1,9.3564826E-1,-5.539022E-1,-4.0707853E-1,-3.4145668E-1,-1.9066162E-2,-1.6204454E-1,3.308259E-1,8.038846E-1,1.5345428E0,-2.8349606E-2,-2.5467431E-2,-2.640074E-2,-1.8604202E-2,-2.4654023E-2,-1.3002589E-2,-6.5897717E-3,4.10534E-3,-2.3053398E-2,-3.6138233E-3,7.235732E-3,2.2491707E-2,3.3405084E-2,4.9084324E-2,7.052201E-2,1.15413405E-1],"categories":[],"categories_nodes":[],"categories_segments":[],"categories_sizes":[],"default_left":[0,0,0,0,0,0,0,0,0,0,0,0,0,0,0,0,0,0,0,0,0,0,0,0,0,0,0,0,0,0,0],"id":0,"left_children":[1,3,5,7,9,11,13,15,17,19,21,23,25,27,29,-1,-1,-1,-1,-1,-1,-1,-1,-1,-1,-1,-1,-1,-1,-1,-1],"loss_changes":[1.3361336E4,1.6249722E3,3.74494E3,1.6274121E2,4.287874E2,9.248748E2,8.238535E2,1.4271484E1,4.5705933E1,8.089264E1,1.26677185E2,1.4491086E2,2.859115E2,2.063003E2,1.7769043E2,0E0,0E0,0E0,0E0,0E0,0E0,0E0,0E0,0E0,0E0,0E0,0E0,0E0,0E0,0E0,0E0],"parents":[2147483647,0,0,1,1,2,2,3,3,4,4,5,5,6,6,7,7,8,8,9,9,10,10,11,11,12,12,13,13,14,14],"right_children":[2,4,6,8,10,12,14,16,18,20,22,24,26,28,30,-1,-1,-1,-1,-1,-1,-1,-1,-1,-1,-1,-1,-1,-1,-1,-1],"split_conditions":[1.3671875E-1,5.3537283E-2,2E-1,2.0021075E-2,7.084469E-2,9.615385E-2,3.5661766E-1,7.352941E-3,2.3952097E-2,2.9411765E-2,9.723698E-2,4E-2,1.0063336E-1,2.5714287E-1,5.2459013E-1,-2.8349606E-2,-2.5467431E-2,-2.640074E-2,-1.8604202E-2,-2.4654023E-2,-1.3002589E-2,-6.5897717E-3,4.10534E-3,-2.3053398E-2,-3.6138233E-3,7.235732E-3,2.2491707E-2,3.3405084E-2,4.9084324E-2,7.052201E-2,1.15413405E-1],"split_indices":[35,35,27,35,27,27,27,35,27,27,2,27,2,27,27,0,0,0,0,0,0,0,0,0,0,0,0,0,0,0,0],"split_type":[0,0,0,0,0,0,0,0,0,0,0,0,0,0,0,0,0,0,0,0,0,0,0,0,0,0,0,0,0,0,0],"sum_hessian":[8.2243E4,5.3478906E4,2.8764094E4,3.5810688E4,1.7668219E4,1.8309375E4,1.0454719E4,2.49655E4,1.08451875E4,6.5631562E3,1.11050625E4,5.39875E3,1.2910625E4,8.571281E3,1.8834375E3,1.9287188E4,5.6783125E3,2.43075E3,8.4144375E3,2.2909688E3,4.2721875E3,5.2524062E3,5.8526562E3,1.2455625E3,4.1531875E3,5.0365E3,7.874125E3,4.8625938E3,3.7086875E3,1.6255312E3,2.5790625E2],"tree_param":{"num_deleted":"0","num_feature":"78","num_nodes":"31","size_leaf_vector":"1"}},{"base_weights":[-2.0428316E-1,-4.5746624E-1,2.5905427E-1,-5.4886216E-1,-2.2124428E-1,4.0091422E-1,-2.085205E-1,-5.682347E-1,-4.4438905E-1,-3.074613E-1,2.4762566E-3,2.929841E-1,1.0971822E0,-2.6470575E-1,5.6367093E-1,-2.854894E-2,-2.6564945E-2,-2.094538E-2,-2.656591E-2,-1.1786174E-2,-2.3078827E-2,-3.6524795E-3,1.434842E-2,7.975529E-3,2.5566343E-2,6.7356996E-2,2.968373E-2,-1.5882848E-2,3.2375385E-3,1.5543507E-2,4.200627E-2],"categories":[],"categories_nodes":[],"categories_segments":[],"categories_sizes":[],"default_left":[0,0,0,0,0,0,0,0,0,0,0,0,0,0,0,0,0,0,0,0,0,0,0,0,0,0,0,0,0,0,0],"id":1,"left_children":[1,3,5,7,9,11,13,15,17,19,21,23,25,27,29,-1,-1,-1,-1,-1,-1,-1,-1,-1,-1,-1,-1,-1,-1,-1,-1],"loss_changes":[9.673039E3,1.1510615E3,1.9327283E3,7.755762E1,2.8694946E2,1.6796067E3,2.9443076E2,2.9824219E0,1.3108643E1,1.186131E2,8.896035E1,5.6401E2,3.767473E2,1.1033542E2,3.1913483E1,0E0,0E0,0E0,0E0,0E0,0E0,0E0,0E0,0E0,0E0,0E0,0E0,0E0,0E0,0E0,0E0],"parents":[2147483647,0,0,1,1,2,2,3,3,4,4,5,5,6,6,7,7,8,8,9,9,10,10,11,11,12,12,13,13,14,14],"right_children":[2,4,6,8,10,12,14,16,18,20,22,24,26,28,30,-1,-1,-1,-1,-1,-1,-1,-1,-1,-1,-1,-1,-1,-1,-1,-1],"split_conditions":[1.0612245E-1,4.017857E-2,1E0,1.4134276E-2,1E0,2.407809E-1,2.8956833E-1,3.338898E-3,1E0,1E0,9.601182E-2,1.7198582E-1,1E0,1E0,1E0,-2.854894E-2,-2.6564945E-2,-2.094538E-2,-2.656591E-2,-1.1786174E-2,-2.3078827E-2,-3.6524795E-3,1.434842E-2,7.975529E-3,2.5566343E-2,6.7356996E-2,2.968373E-2,-1.5882848E-2,3.2375385E-3,1.5543507E-2,4.200627E-2],"split_indices":[36,36,12,36,11,36,36,36,12,12,36,36,14,63,71,0,0,0,0,0,0,0,0,0,0,0,0,0,0,0,0],"split_type":[0,0,0,0,0,0,0,0,0,0,0,0,0,0,0,0,0,0,0,0,0,0,0,0,0,0,0,0,0,0,0],"sum_hessian":[8.2455625E4,5.3319875E4,2.913575E4,3.844422E4,1.4875656E4,2.2353844E4,6.7819062E3,3.2426844E4,6.017375E3,1.0737344E4,4.1383125E3,1.9355E4,2.9988438E3,6.3225312E3,4.59375E2,3.0170875E4,2.2559688E3,4.6578438E3,1.3595312E3,7.3285625E3,3.4087812E3,3.27075E3,8.675625E2,1.2013094E4,7.3419062E3,2.002875E3,9.9596875E2,5.4470938E3,8.754375E2,2.410625E2,2.183125E2],"tree_param":{"num_deleted":"0","num_feature":"78","num_nodes":"31","size_leaf_vector":"1"}},{"base_weights":[-3.0179074E-1,1.5062341E-1,-4.3875283E-1,6.54747E-2,1.1782953E0,-4.56645E-1,7.4680644E-1,1.7675523E-1,-4.411171E-1,1.501192E0,5.4667586E-1,-3.739629E-1,-5.007907E-1,1.3255072E0,5.4267037E-1,1.7804876E-2,-1.754136E-2,-1.3523573E-2,-2.4931183E-2,1.160105E-1,5.4678407E-2,3.1442847E-2,3.1502768E-3,-1.9631388E-2,8.098411E-3,-2.5433049E-2,-8.668366E-3,9.991064E-2,4.0780142E-2,3.7764143E-2,1.5315145E-2],"categories":[],"categories_nodes":[],"categories_segments":[],"categories_sizes":[],"default_left":[0,0,0,0,0,0,0,0,0,0,0,0,0,0,0,0,0,0,0,0,0,0,0,0,0,0,0,0,0,0,0],"id":2,"left_children":[1,3,5,7,9,11,13,15,17,19,21,23,25,27,29,-1,-1,-1,-1,-1,-1,-1,-1,-1,-1,-1,-1,-1,-1,-1,-1],"loss_changes":[5.111706E3,1.6774938E3,1.3435879E3,9.981939E2,2.9833862E2,2.2751562E2,1.1054425E2,1.3737158E3,3.1160217E1,3.2131934E2,1.9746445E1,2.173103E2,1.0470508E2,8.237689E1,3.4843277E1,0E0,0E0,0E0,0E0,0E0,0E0,0E0,0E0,0E0,0E0,0E0,0E0,0E0,0E0,0E0,0E0],"parents":[2147483647,0,0,1,1,2,2,3,3,4,4,5,5,6,6,7,7,8,8,9,9,10,10,11,11,12,12,13,13,14,14],"right_children":[2,4,6,8,10,12,14,16,18,20,22,24,26,28,30,-1,-1,-1,-1,-1,-1,-1,-1,-1,-1,-1,-1,-1,-1,-1,-1],"split_conditions":[1.1376564E-2,1E0,1E0,4.7366238E-1,8.293839E-2,1.6221683E-1,1.4568846E-1,2.433372E-1,1E0,6.377551E-2,3.1914893E-1,1.5599021E-1,2.0124224E-1,5.925926E-2,4.873477E-2,1.7804876E-2,-1.754136E-2,-1.3523573E-2,-2.4931183E-2,1.160105E-1,5.4678407E-2,3.1442847E-2,3.1502768E-3,-1.9631388E-2,8.098411E-3,-2.5433049E-2,-8.668366E-3,9.991064E-2,4.0780142E-2,3.7764143E-2,1.5315145E-2],"split_indices":[51,55,55,47,40,51,47,49,24,45,32,51,45,33,49,0,0,0,0,0,0,0,0,0,0,0,0,0,0,0,0],"split_type":[0,0,0,0,0,0,0,0,0,0,0,0,0,0,0,0,0,0,0,0,0,0,0,0,0,0,0,0,0,0,0],"sum_hessian":[8.249325E4,1.9170156E4,6.3323094E4,1.7704312E4,1.4658438E3,6.238225E4,9.4084375E2,1.451625E4,3.1880625E3,9.690625E2,4.9678125E2,2.1717062E4,4.0665188E4,2.4390625E2,6.969375E2,1.08338125E4,3.6824375E3,8.05E2,2.3830625E3,3.2046875E2,6.4859375E2,4.24375E2,7.240625E1,2.0986438E4,7.30625E2,3.9710125E4,9.550625E2,1.0390625E2,1.4E2,3.6575E2,3.311875E2],"tree_param":{"num_deleted":"0","num_feature":"78","num_nodes":"31","size_leaf_vector":"1"}},{"base_weights":[9.785258E-1,1.9834523E-1,1.8783218E0,-2.6801068E-1,6.290111E-1,1.5320646E0,2.69875E0,-4.7673935E-1,-3.7009064E-2,3.9933065E-1,8.2462597E-1,1.2956979E0,1.8241177E0,2.4354076E0,3.3934302E0,-2.7310977E-2,-1.819307E-2,-4.614565E-3,2.1116575E-2,1.68924E-2,3.1770986E-2,3.9039705E-2,5.8045007E-2,5.8001764E-2,7.475617E-2,8.778884E-2,1.1342146E-1,1.1522746E-1,1.3492985E-1,1.5747544E-1,1.8750775E-1],"categories":[],"categories_nodes":[],"categories_segments":[],"categories_sizes":[],"default_left":[0,0,0,0,0,0,0,0,0,0,0,0,0,0,0,0,0,0,0,0,0,0,0,0,0,0,0,0,0,0,0],"id":3,"left_children":[1,3,5,7,9,11,13,15,17,19,21,23,25,27,29,-1,-1,-1,-1,-1,-1,-1,-1,-1,-1,-1,-1,-1,-1,-1,-1],"loss_changes":[5.781904E4,8.860383E3,1.0861719E4,1.0212396E3,1.0301328E3,1.8545703E3,2.068211E3,8.7065186E1,2.5536856E2,1.529386E2,1.8164746E2,4.005879E2,3.613047E2,2.7736328E2,2.5945312E2,0E0,0E0,0E0,0E0,0E0,0E0,0E0,0E0,0E0,0E0,0E0,0E0,0E0,0E0,0E0,0E0],"parents":[2147483647,0,0,1,1,2,2,3,3,4,4,5,5,6,6,7,7,8,8,9,9,10,10,11,11,12,12,13,13,14,14],"right_children":[2,4,6,8,10,12,14,16,18,20,22,24,26,28,30,-1,-1,-1,-1,-1,-1,-1,-1,-1,-1,-1,-1,-1,-1,-1,-1],"split_conditions":[3.5185185E-1,1.6470589E-1,5.8518517E-1,7.1428575E-2,2.5914633E-1,4.6341464E-1,7.647059E-1,2.5E-2,1E0,1E0,3.9096045E-1,3.453402E-1,3.883495E-1,6.770833E-1,8.684211E-1,-2.7310977E-2,-1.819307E-2,-4.614565E-3,2.1116575E-2,1.68924E-2,3.1770986E-2,3.9039705E-2,5.8045007E-2,5.8001764E-2,7.475617E-2,8.778884E-2,1.1342146E-1,1.1522746E-1,1.3492985E-1,1.5747544E-1,1.8750775E-1],"split_indices":[30,30,30,30,30,30,30,30,65,65,5,5,5,30,30,0,0,0,0,0,0,0,0,0,0,0,0,0,0,0,0],"split_type":[0,0,0,0,0,0,0,0,0,0,0,0,0,0,0,0,0,0,0,0,0,0,0,0,0,0,0,0,0,0,0],"sum_hessian":[8.236244E4,4.4114E4,3.8248438E4,2.1179594E4,2.2934406E4,2.6898812E4,1.1349625E4,1.1125625E4,1.0053969E4,1.0550094E4,1.23843125E4,1.486975E4,1.20290625E4,8.233094E3,3.1165312E3,6.8842812E3,4.2413438E3,8.974656E3,1.0793125E3,8.372219E3,2.177875E3,1.0959156E4,1.4251562E3,8.8536875E3,6.0160625E3,1.0429781E4,1.5992812E3,5.5055E3,2.7275938E3,1.85675E3,1.2597812E3],"tree_param":{"num_deleted":"0","num_feature":"78","num_nodes":"31","size_leaf_vector":"1"}},{"base_weights":[-5.03472E-1,-5.5810195E-1,3.955084E-1,-5.702403E-1,-2.7247182E-1,1.7580332E-1,7.44073E-1,-5.7038766E-1,1.889117E-1,-2.9758006E-1,2.5355756E-1,1.7242918E-2,5.9392893E-1,4.2805272E-1,9.7159696E-1,-2.8564239E-2,-2.5225896E-2,-1.1042945E-2,4.2487048E-2,-1.7753383E-2,-7.5215558E-3,-4.599816E-3,2.7564103E-2,-1.9775087E-3,2.5609931E-2,1.7182935E-2,3.8050316E-2,1.7206086E-2,5.3066947E-2,3.9224327E-2,7.4314885E-2],"categories":[],"categories_nodes":[],"categories_segments":[],"categories_sizes":[],"default_left":[0,0,0,0,0,0,0,0,0,0,0,0,0,0,0,0,0,0,0,0,0,0,0,0,0,0,0,0,0,0,0],"id":4,"left_children":[1,3,5,7,9,11,13,15,17,19,21,23,25,27,29,-1,-1,-1,-1,-1,-1,-1,-1,-1,-1,-1,-1,-1,-1,-1,-1],"loss_changes":[4.0483984E3,2.6925977E2,3.6154175E2,8.447266E0,4.1938416E1,1.9213014E2,1.308482E2,4.1171875E0,4.3087335E0,2.5541351E1,1.4961865E1,5.9116398E1,3.3056763E1,4.034781E1,1.0097833E2,0E0,0E0,0E0,0E0,0E0,0E0,0E0,0E0,0E0,0E0,0E0,0E0,0E0,0E0,0E0,0E0],"parents":[2147483647,0,0,1,1,2,2,3,3,4,4,5,5,6,6,7,7,8,8,9,9,10,10,11,11,12,12,13,13,14,14],"right_children":[2,4,6,8,10,12,14,16,18,20,22,24,26,28,30,-1,-1,-1,-1,-1,-1,-1,-1,-1,-1,-1,-1,-1,-1,-1,-1],"split_conditions":[1.1461539E-1,3.8043477E-2,2.2964509E-1,1E0,1E0,1E0,1E0,9.825327E-3,2.138158E-1,1E0,6.418919E-2,1E0,1.5930788E-1,3.448276E-1,3.0670926E-1,-2.8564239E-2,-2.5225896E-2,-1.1042945E-2,4.2487048E-2,-1.7753383E-2,-7.5215558E-3,-4.599816E-3,2.7564103E-2,-1.9775087E-3,2.5609931E-2,1.7182935E-2,3.8050316E-2,1.7206086E-2,5.3066947E-2,3.9224327E-2,7.4314885E-2],"split_indices":[39,39,39,66,66,11,76,39,9,11,39,66,39,39,39,0,0,0,0,0,0,0,0,0,0,0,0,0,0,0,0],"split_type":[0,0,0,0,0,0,0,0,0,0,0,0,0,0,0,0,0,0,0,0,0,0,0,0,0,0,0,0,0,0,0],"sum_hessian":[8.2427625E4,7.770591E4,4.7217188E3,7.453731E4,3.1685938E3,2.897125E3,1.8245938E3,7.452309E4,1.421875E1,3.0246562E3,1.439375E2,2.1013125E3,7.958125E2,7.6496875E2,1.059625E3,7.351422E4,1.008875E3,9.1875E0,5.03125E0,2.1739375E3,8.5071875E2,6.69375E1,7.7E1,1.8858438E3,2.1546875E2,3.198125E2,4.76E2,6.768125E2,8.815625E1,7.7896875E2,2.8065625E2],"tree_param":{"num_deleted":"0","num_feature":"78","num_nodes":"31","size_leaf_vector":"1"}},{"base_weights":[-4.4269223E-2,-4.0937322E-1,9.9302137E-1,-5.3659624E-1,-3.4726884E-2,7.1135956E-1,1.907975E0,-5.653015E-1,-3.708486E-1,-8.857519E-2,4.2543003E-1,4.777935E-1,9.6738374E-1,1.6974504E0,2.7939932E0,-2.8548166E-2,-2.5062358E-2,-1.9499084E-2,1.9095059E-3,-9.815634E-3,2.6677835E-3,1.1899347E-2,3.1644076E-2,1.9700808E-2,4.3048672E-2,4.2468037E-2,6.827017E-2,7.466674E-2,9.814384E-2,1.2999582E-1,1.7192586E-1],"categories":[],"categories_nodes":[],"categories_segments":[],"categories_sizes":[],"default_left":[0,0,0,0,0,0,0,0,0,0,0,0,0,0,0,0,0,0,0,0,0,0,0,0,0,0,0,0,0,0,0],"id":5,"left_children":[1,3,5,7,9,11,13,15,17,19,21,23,25,27,29,-1,-1,-1,-1,-1,-1,-1,-1,-1,-1,-1,-1,-1,-1,-1,-1],"loss_changes":[3.1202281E4,2.9045781E3,5.526324E3,2.1623047E2,3.8284647E2,9.803662E2,9.3689453E2,1.3775391E1,5.2594177E1,2.1151126E2,6.2791412E1,2.7507104E2,3.6637354E2,2.1819727E2,1.12101074E2,0E0,0E0,0E0,0E0,0E0,0E0,0E0,0E0,0E0,0E0,0E0,0E0,0E0,0E0,0E0,0E0],"parents":[2147483647,0,0,1,1,2,2,3,3,4,4,5,5,6,6,7,7,8,8,9,9,10,10,11,11,12,12,13,13,14,14],"right_children":[2,4,6,8,10,12,14,16,18,20,22,24,26,28,30,-1,-1,-1,-1,-1,-1,-1,-1,-1,-1,-1,-1,-1,-1,-1,-1],"split_conditions":[1.8796992E-1,6.4935066E-2,4.1666666E-1,2.2727273E-2,1E0,2.8244275E-1,6.101695E-1,6.2305294E-3,1E0,1.1949685E-1,1.2957317E-1,1E0,1E0,5E-1,8.076923E-1,-2.8548166E-2,-2.5062358E-2,-1.9499084E-2,1.9095059E-3,-9.815634E-3,2.6677835E-3,1.1899347E-2,3.1644076E-2,1.9700808E-2,4.3048672E-2,4.2468037E-2,6.827017E-2,7.466674E-2,9.814384E-2,1.2999582E-1,1.7192586E-1],"split_indices":[32,32,32,32,67,32,32,32,67,32,32,67,67,32,32,0,0,0,0,0,0,0,0,0,0,0,0,0,0,0,0],"split_type":[0,0,0,0,0,0,0,0,0,0,0,0,0,0,0,0,0,0,0,0,0,0,0,0,0,0,0,0,0,0,0],"sum_hessian":[8.238694E4,6.09385E4,2.1448438E4,4.5490375E4,1.5448125E4,1.6401219E4,5.0472188E3,3.8773E4,6.717375E3,1.3830469E4,1.6176562E3,8.578281E3,7.8229375E3,4.0805625E3,9.6665625E2,3.5616875E4,3.156125E3,6.41725E3,3.00125E2,7.8620938E3,5.968375E3,8.509375E2,7.6671875E2,7.0409062E3,1.537375E3,6.0361875E3,1.78675E3,2.3104375E3,1.770125E3,7.468125E2,2.1984375E2],"tree_param":{"num_deleted":"0","num_feature":"78","num_nodes":"31","size_leaf_vector":"1"}},{"base_weights":[1.3609721E-2,-4.8679596E-1,1.812557E0,-5.641005E-1,2.522065E-1,1.2903322E0,2.5507178E0,-5.7099617E-1,-3.063026E-1,5.5875146E-4,4.220654E-1,1.0082537E0,1.6451957E0,2.2398422E0,3.1119196E0,-2.8554201E-2,-1.5384616E-2,-1.6223017E-2,-5.6331363E-3,-2.3928012E-3,1.5500094E-2,1.4278411E-2,2.601919E-2,4.099391E-2,5.803172E-2,7.486854E-2,9.206608E-2,1.0647323E-1,1.2632051E-1,1.436247E-1,1.7391227E-1],"categories":[],"categories_nodes":[],"categories_segments":[],"categories_sizes":[],"default_left":[0,0,0,0,0,0,0,0,0,0,0,0,0,0,0,0,0,0,0,0,0,0,0,0,0,0,0,0,0,0,0],"id":6,"left_children":[1,3,5,7,9,11,13,15,17,19,21,23,25,27,29,-1,-1,-1,-1,-1,-1,-1,-1,-1,-1,-1,-1,-1,-1,-1,-1],"loss_changes":[7.415674E4,3.6820547E3,6.907617E3,1.0355078E2,2.609182E2,1.0495488E3,1.288793E3,1.1386719E0,5.3155518E0,3.688226E1,4.875824E1,1.670708E2,1.3203516E2,1.4591211E2,2.2199805E2,0E0,0E0,0E0,0E0,0E0,0E0,0E0,0E0,0E0,0E0,0E0,0E0,0E0,0E0,0E0,0E0],"parents":[2147483647,0,0,1,1,2,2,3,3,4,4,5,5,6,6,7,7,8,8,9,9,10,10,11,11,12,12,13,13,14,14],"right_children":[2,4,6,8,10,12,14,16,18,20,22,24,26,28,30,-1,-1,-1,-1,-1,-1,-1,-1,-1,-1,-1,-1,-1,-1,-1,-1],"split_conditions":[2.7173913E-1,8.755761E-2,5.520362E-1,2.8846154E-2,1.6483517E-1,4.2156863E-1,7.05036E-1,1E0,1E0,1E0,2.1487603E-1,3.3953488E-1,1.3477431E-1,6.5217394E-1,8.1395346E-1,-2.8554201E-2,-1.5384616E-2,-1.6223017E-2,-5.6331363E-3,-2.3928012E-3,1.5500094E-2,1.4278411E-2,2.601919E-2,4.099391E-2,5.803172E-2,7.486854E-2,9.206608E-2,1.0647323E-1,1.2632051E-1,1.436247E-1,1.7391227E-1],"split_indices":[33,33,33,33,33,33,33,69,69,69,33,33,8,33,33,0,0,0,0,0,0,0,0,0,0,0,0,0,0,0,0],"split_type":[0,0,0,0,0,0,0,0,0,0,0,0,0,0,0,0,0,0,0,0,0,0,0,0,0,0,0,0,0,0,0],"sum_hessian":[8.237578E4,6.4449E4,1.7926781E4,5.8345875E4,6.103125E3,1.0500656E4,7.426125E3,5.6824688E4,1.5211875E3,2.4598438E3,3.6432812E3,5.8524375E3,4.6482188E3,4.7820938E3,2.6440312E3,5.6804562E4,2.0125E1,1.3901562E3,1.3103125E2,2.1277812E3,3.320625E2,1.5270938E3,2.1161875E3,2.6199688E3,3.2324688E3,2.6554062E3,1.9928125E3,3.4584375E3,1.3236562E3,1.6043125E3,1.0397188E3],"tree_param":{"num_deleted":"0","num_feature":"78","num_nodes":"31","size_leaf_vector":"1"}},{"base_weights":[1.4795926E-1,-2.6893944E-1,9.136883E-1,-4.6365893E-1,1.654318E-1,6.542742E-1,1.6848004E0,-5.4432625E-1,-2.6589274E-1,-2.353759E-1,2.9157883E-1,3.713217E-1,9.609447E-1,1.4460015E0,2.3434713E0,-2.8405333E-2,-2.278104E-2,-2.3112573E-2,-1.1471003E-2,-2.5051499E-2,-5.675327E-3,2.8361806E-3,2.1728018E-2,7.210064E-3,2.5989247E-2,4.0014997E-2,5.6433618E-2,5.977073E-2,8.6042166E-2,1.0521014E-1,1.5094084E-1],"categories":[],"categories_nodes":[],"categories_segments":[],"categories_sizes":[],"default_left":[0,0,0,0,0,0,0,0,0,0,0,0,0,0,0,0,0,0,0,0,0,0,0,0,0,0,0,0,0,0,0],"id":7,"left_children":[1,3,5,7,9,11,13,15,17,19,21,23,25,27,29,-1,-1,-1,-1,-1,-1,-1,-1,-1,-1,-1,-1,-1,-1,-1,-1],"loss_changes":[2.6320898E4,4.515462E3,5.8130703E3,5.879204E2,8.3558105E2,1.886998E3,1.1473457E3,5.496924E1,7.639172E1,1.2803316E2,4.220586E2,3.8143274E2,2.803203E2,3.6791992E2,3.0794238E2,0E0,0E0,0E0,0E0,0E0,0E0,0E0,0E0,0E0,0E0,0E0,0E0,0E0,0E0,0E0,0E0],"parents":[2147483647,0,0,1,1,2,2,3,3,4,4,5,5,6,6,7,7,8,8,9,9,10,10,11,11,12,12,13,13,14,14],"right_children":[2,4,6,8,10,12,14,16,18,20,22,24,26,28,30,-1,-1,-1,-1,-1,-1,-1,-1,-1,-1,-1,-1,-1,-1,-1,-1],"split_conditions":[1.9101124E-1,1.3851352E-1,3.809524E-1,5.291723E-2,8.3333336E-2,2.5689656E-1,5.365854E-1,1.7857144E-2,4.61285E-2,3.6585364E-2,2.00542E-1,1.4440155E-1,3.233533E-1,3.233533E-1,6.666667E-1,-2.8405333E-2,-2.278104E-2,-2.3112573E-2,-1.1471003E-2,-2.5051499E-2,-5.675327E-3,2.8361806E-3,2.1728018E-2,7.210064E-3,2.5989247E-2,4.0014997E-2,5.6433618E-2,5.977073E-2,8.6042166E-2,1.0521014E-1,1.5094084E-1],"split_indices":[34,42,34,42,34,42,34,34,34,34,42,42,42,42,34,0,0,0,0,0,0,0,0,0,0,0,0,0,0,0,0],"split_type":[0,0,0,0,0,0,0,0,0,0,0,0,0,0,0,0,0,0,0,0,0,0,0,0,0,0,0,0,0,0,0],"sum_hessian":[8.244906E4,5.3384625E4,2.9064438E4,3.6860688E4,1.6523938E4,2.1749438E4,7.315E3,2.6180219E4,1.0680469E4,3.9554375E3,1.25685E4,1.13133125E4,1.0436125E4,5.3709688E3,1.9440312E3,2.064125E4,5.5389688E3,1.67125E3,9.009219E3,1.2429375E3,2.7125E3,4.7567188E3,7.8117812E3,4.4727812E3,6.8405312E3,5.3335625E3,5.1025625E3,2.81225E3,2.5587188E3,1.4385E3,5.0553125E2],"tree_param":{"num_deleted":"0","num_feature":"78","num_nodes":"31","size_leaf_vector":"1"}},{"base_weights":[-8.835752E-2,-3.4790084E-1,4.5343986E-1,-5.110015E-1,-1.4171161E-1,7.3339313E-1,4.5854323E-2,-5.5964464E-1,-4.049293E-1,5.6955375E-2,-3.978489E-1,5.8035755E-1,1.2318387E0,-9.183464E-2,8.296736E-1,-2.8406871E-2,-2.560041E-2,-1.5355653E-2,-2.5642032E-2,-3.397606E-3,9.068071E-3,-2.269247E-2,-1.775021E-2,2.1599574E-2,3.4922156E-2,5.4609776E-2,8.147023E-2,-9.882528E-3,6.1740945E-3,3.1048039E-2,7.7706166E-2],"categories":[],"categories_nodes":[],"categories_segments":[],"categories_sizes":[],"default_left":[0,0,0,0,0,0,0,0,0,0,0,0,0,0,0,0,0,0,0,0,0,0,0,0,0,0,0,0,0,0,0],"id":8,"left_children":[1,3,5,7,9,11,13,15,17,19,21,23,25,27,29,-1,-1,-1,-1,-1,-1,-1,-1,-1,-1,-1,-1,-1,-1,-1,-1],"loss_changes":[1.154988E4,1.8674712E3,3.035457E3,1.5975293E2,1.2481543E3,1.2022539E3,1.1692274E3,8.308105E0,1.0277893E2,2.1468047E2,2.5546143E1,2.1112427E2,2.038374E2,2.0998758E2,2.4379443E2,0E0,0E0,0E0,0E0,0E0,0E0,0E0,0E0,0E0,0E0,0E0,0E0,0E0,0E0,0E0,0E0],"parents":[2147483647,0,0,1,1,2,2,3,3,4,4,5,5,6,6,7,7,8,8,9,9,10,10,11,11,12,12,13,13,14,14],"right_children":[2,4,6,8,10,12,14,16,18,20,22,24,26,28,30,-1,-1,-1,-1,-1,-1,-1,-1,-1,-1,-1,-1,-1,-1,-1,-1],"split_conditions":[1.3761468E-1,5.4320987E-2,1E0,1.7857144E-2,1E0,2.6903552E-1,3.1132075E-1,5.91716E-3,1E0,9.356725E-2,8.791209E-2,1.8060201E-1,3.875E-1,2.1428572E-1,4.4516128E-1,-2.8406871E-2,-2.560041E-2,-1.5355653E-2,-2.5642032E-2,-3.397606E-3,9.068071E-3,-2.269247E-2,-1.775021E-2,2.1599574E-2,3.4922156E-2,5.4609776E-2,8.147023E-2,-9.882528E-3,6.1740945E-3,3.1048039E-2,7.7706166E-2],"split_indices":[27,27,72,27,72,27,27,27,72,27,27,27,27,27,27,0,0,0,0,0,0,0,0,0,0,0,0,0,0,0,0],"split_type":[0,0,0,0,0,0,0,0,0,0,0,0,0,0,0,0,0,0,0,0,0,0,0,0,0,0,0,0,0,0,0],"sum_hessian":[8.213334E4,5.553172E4,2.6601627E4,3.1004738E4,2.452698E4,1.5769456E4,1.0832172E4,2.1253795E4,9.750943E3,1.3813576E4,1.0713404E4,1.2066802E4,3.7026538E3,9.214412E3,1.6177593E3,1.802866E4,3.225135E3,5.1167285E3,4.634215E3,6.893123E3,6.9204536E3,4.6395957E3,6.073809E3,5.3498057E3,6.716996E3,2.7429514E3,9.597023E2,6.178239E3,3.0361738E3,1.2573701E3,3.6038925E2],"tree_param":{"num_deleted":"0","num_feature":"78","num_nodes":"31","size_leaf_vector":"1"}},{"base_weights":[-1.9818276E-1,-4.4875565E-1,4.843524E-1,-5.4639447E-1,-1.9504131E-1,2.9987308E-1,1.2272519E0,-5.66008E-1,-4.4747743E-1,-2.9226613E-1,-1.110687E-1,1.4408527E-1,4.968736E-1,1.0440391E0,2.0234957E0,-2.8453654E-2,-2.6490182E-2,-2.3916095E-2,-2.0855904E-2,-1.6749626E-2,-1.1981474E-2,-4.0336563E-3,-1.4624481E-2,8.849931E-3,-3.82804E-3,2.0518184E-2,3.0764012E-2,4.723729E-2,6.485024E-2,9.126471E-2,1.2790179E-1],"categories":[],"categories_nodes":[],"categories_segments":[],"categories_sizes":[],"default_left":[0,0,0,0,0,0,0,0,0,0,0,0,0,0,0,0,0,0,0,0,0,0,0,0,0,0,0,0,0,0,0],"id":9,"left_children":[1,3,5,7,9,11,13,15,17,19,21,23,25,27,29,-1,-1,-1,-1,-1,-1,-1,-1,-1,-1,-1,-1,-1,-1,-1,-1],"loss_changes":[1.3975832E4,1.480626E3,3.007101E3,8.348535E1,1.355935E2,5.394758E2,6.346592E2,3.694336E0,6.49292E0,1.723236E1,4.913839E1,7.131738E1,7.926599E1,8.795679E1,8.172241E1,0E0,0E0,0E0,0E0,0E0,0E0,0E0,0E0,0E0,0E0,0E0,0E0,0E0,0E0,0E0,0E0],"parents":[2147483647,0,0,1,1,2,2,3,3,4,4,5,5,6,6,7,7,8,8,9,9,10,10,11,11,12,12,13,13,14,14],"right_children":[2,4,6,8,10,12,14,16,18,20,22,24,26,28,30,-1,-1,-1,-1,-1,-1,-1,-1,-1,-1,-1,-1,-1,-1,-1,-1],"split_conditions":[1.25E-1,4.2372882E-2,3E-1,1.3513514E-2,7.9222724E-2,1.929499E-1,4.8387095E-1,3.937008E-3,2.5316456E-2,6.231454E-2,2.769231E-1,2.8070176E-1,2.4225353E-1,3.9261746E-1,6.376812E-1,-2.8453654E-2,-2.6490182E-2,-2.3916095E-2,-2.0855904E-2,-1.6749626E-2,-1.1981474E-2,-4.0336563E-3,-1.4624481E-2,8.849931E-3,-3.82804E-3,2.0518184E-2,3.0764012E-2,4.723729E-2,6.485024E-2,9.126471E-2,1.2790179E-1],"split_indices":[28,28,28,28,28,28,28,28,28,28,42,42,28,28,28,0,0,0,0,0,0,0,0,0,0,0,0,0,0,0,0],"split_type":[0,0,0,0,0,0,0,0,0,0,0,0,0,0,0,0,0,0,0,0,0,0,0,0,0,0,0,0,0,0,0],"sum_hessian":[8.1715875E4,5.977249E4,2.1943387E4,4.3161258E4,1.661123E4,1.757941E4,4.363975E3,3.6015344E4,7.1459136E3,7.6970186E3,8.914212E3,9.817484E3,7.7619272E3,3.5495483E3,8.1442676E2,3.3190633E4,2.8247117E3,3.5373174E3,3.6085962E3,4.245492E3,3.4515264E3,7.6362637E3,1.2779482E3,8.543295E3,1.2741892E3,4.4876436E3,3.2742834E3,2.5524167E3,9.971317E2,5.9735046E2,2.170763E2],"tree_param":{"num_deleted":"0","num_feature":"78","num_nodes":"31","size_leaf_vector":"1"}},{"base_weights":[-2.9634476E-1,-4.99795E-1,7.089272E-1,-5.537846E-1,-1.4061773E-1,4.344727E-1,1.7429785E0,-5.657245E-1,-4.464705E-1,-1.6903405E-1,2.4335676E-1,2.724144E-1,7.298523E-1,1.4627786E0,2.498104E0,-2.8452072E-2,-2.6333792E-2,-2.2618074E-2,-7.1799606E-3,-1.2174799E-2,-1.5798323E-3,2.4685342E-2,9.465939E-3,8.054032E-3,1.7949825E-2,3.1556215E-2,4.4528093E-2,6.1087735E-2,8.252343E-2,1.6149084E-1,1.1850335E-1],"categories":[],"categories_nodes":[],"categories_segments":[],"categories_sizes":[],"default_left":[0,0,0,0,0,0,0,0,0,0,0,0,0,0,0,0,0,0,0,0,0,0,0,0,0,0,0,0,0,0,0],"id":10,"left_children":[1,3,5,7,9,11,13,15,17,19,21,23,25,27,29,-1,-1,-1,-1,-1,-1,-1,-1,-1,-1,-1,-1,-1,-1,-1,-1],"loss_changes":[1.6642848E4,1.312293E3,3.8864165E3,7.513086E1,9.6548035E1,5.179961E2,6.0413477E2,6.5585938E0,1.0453125E1,8.42776E1,8.157139E0,6.733966E1,6.027881E1,9.2870605E1,6.5046875E1,0E0,0E0,0E0,0E0,0E0,0E0,0E0,0E0,0E0,0E0,0E0,0E0,0E0,0E0,0E0,0E0],"parents":[2147483647,0,0,1,1,2,2,3,3,4,4,5,5,6,6,7,7,8,8,9,9,10,10,11,11,12,12,13,13,14,14],"right_children":[2,4,6,8,10,12,14,16,18,20,22,24,26,28,30,-1,-1,-1,-1,-1,-1,-1,-1,-1,-1,-1,-1,-1,-1,-1,-1],"split_conditions":[1.4397906E-1,4.893964E-2,3.7691522E-1,1.4851485E-2,1E0,2.3649907E-1,5.775076E-1,4.8348107E-3,1E0,9.984872E-2,1.7988065E-1,1.7746478E-1,2.9498714E-1,4.549266E-1,3E0,-2.8452072E-2,-2.6333792E-2,-2.2618074E-2,-7.1799606E-3,-1.2174799E-2,-1.5798323E-3,2.4685342E-2,9.465939E-3,8.054032E-3,1.7949825E-2,3.1556215E-2,4.4528093E-2,6.1087735E-2,8.252343E-2,1.6149084E-1,1.1850335E-1],"split_indices":[37,37,37,37,64,37,37,37,64,37,47,37,37,37,43,0,0,0,0,0,0,0,0,0,0,0,0,0,0,0,0],"split_type":[0,0,0,0,0,0,0,0,0,0,0,0,0,0,0,0,0,0,0,0,0,0,0,0,0,0,0,0,0,0,0],"sum_hessian":[8.137131E4,6.767544E4,1.3695873E4,5.8831633E4,8.843803E3,1.0824334E4,2.8715393E3,5.293749E4,5.8941475E3,8.23493E3,6.088724E2,6.9907964E3,3.8335376E3,2.09653E3,7.750093E2,4.878034E4,4.157147E3,5.781207E3,1.1294048E2,5.340656E3,2.8942744E3,1.0664864E2,5.0222372E2,3.0595095E3,3.9312866E3,2.3777515E3,1.4557863E3,9.2114386E2,1.1753862E3,1.1180973E2,6.631996E2],"tree_param":{"num_deleted":"0","num_feature":"78","num_nodes":"31","size_leaf_vector":"1"}},{"base_weights":[9.118147E-1,1.5542649E-1,1.6483837E0,-2.7750784E-1,5.536752E-1,1.3184845E0,2.2632127E0,-4.920152E-1,-6.7149095E-2,3.3776155E-1,7.183438E-1,1.076798E0,1.5056154E0,2.0504696E0,2.817394E0,-2.7851034E-2,-2.003679E-2,-5.7677994E-3,1.8447636E-2,1.4044647E-2,2.8246632E-2,3.83101E-2,1.9726016E-2,5.2011777E-2,7.921053E-2,6.915935E-2,8.429429E-2,9.8560534E-2,1.1971115E-1,1.3424425E-1,1.5898137E-1],"categories":[],"categories_nodes":[],"categories_segments":[],"categories_sizes":[],"default_left":[0,0,0,0,0,0,0,0,0,0,0,0,0,0,0,0,0,0,0,0,0,0,0,0,0,0,0,0,0,0,0],"id":11,"left_children":[1,3,5,7,9,11,13,15,17,19,21,23,25,27,29,-1,-1,-1,-1,-1,-1,-1,-1,-1,-1,-1,-1,-1,-1,-1,-1],"loss_changes":[4.7865094E4,7.3084614E3,8.82568E3,9.164303E2,7.847461E2,1.2796523E3,1.7860703E3,5.944409E1,2.1564247E2,1.23278564E2,1.9380322E2,2.2777344E2,3.500078E2,2.9460156E2,1.9369922E2,0E0,0E0,0E0,0E0,0E0,0E0,0E0,0E0,0E0,0E0,0E0,0E0,0E0,0E0,0E0,0E0],"parents":[2147483647,0,0,1,1,2,2,3,3,4,4,5,5,6,6,7,7,8,8,9,9,10,10,11,11,12,12,13,13,14,14],"right_children":[2,4,6,8,10,12,14,16,18,20,22,24,26,28,30,-1,-1,-1,-1,-1,-1,-1,-1,-1,-1,-1,-1,-1,-1,-1,-1],"split_conditions":[3.3660132E-1,1.5508021E-1,5.591398E-1,5.882353E-2,2.44713E-1,4.2666668E-1,7.3493975E-1,1.8181818E-2,1E0,1E0,1E0,4.0487805E-1,3.4610122E-1,3.7373096E-1,8.909091E-1,-2.7851034E-2,-2.003679E-2,-5.7677994E-3,1.8447636E-2,1.4044647E-2,2.8246632E-2,3.83101E-2,1.9726016E-2,5.2011777E-2,7.921053E-2,6.915935E-2,8.429429E-2,9.8560534E-2,1.1971115E-1,1.3424425E-1,1.5898137E-1],"split_indices":[30,30,30,30,30,30,30,30,65,65,67,5,5,5,30,0,0,0,0,0,0,0,0,0,0,0,0,0,0,0,0],"split_type":[0,0,0,0,0,0,0,0,0,0,0,0,0,0,0,0,0,0,0,0,0,0,0,0,0,0,0,0,0,0,0],"sum_hessian":[8.591282E4,4.238676E4,4.3526062E4,2.0309115E4,2.2077645E4,2.8328799E4,1.5197262E4,1.005474E4,1.0254376E4,9.553775E3,1.2523869E4,1.23653E4,1.5963499E4,1.098497E4,4.2122925E3,5.86957E3,4.185171E3,9.234343E3,1.02003284E3,7.6427676E3,1.9110073E3,1.0910089E4,1.6137799E3,1.1537031E4,8.282691E2,9.512133E3,6.451366E3,8.93221E3,2.0527595E3,3.0902542E3,1.1220382E3],"tree_param":{"num_deleted":"0","num_feature":"78","num_nodes":"31","size_leaf_vector":"1"}},{"base_weights":[-4.9946064E-1,-5.564701E-1,3.5441086E-1,-5.682247E-1,-2.7452245E-1,1.02999605E-1,6.119561E-1,-2.8449615E-2,-5.120093E-1,-3.2882637E-1,-1.595647E-1,-7.4364424E-2,5.5796677E-1,4.8272967E-1,9.5716E-1,-4.436853E-3,-2.5734637E-2,-1.807556E-2,-1.1495382E-2,-1.3524382E-2,5.489729E-3,-8.87671E-3,2.9674664E-3,1.3440077E-2,3.995208E-2,1.4814787E-2,3.0814264E-2,2.7449561E-2,6.2091794E-2],"categories":[],"categories_nodes":[],"categories_segments":[],"categories_sizes":[],"default_left":[0,0,0,0,0,0,0,0,0,0,0,0,0,0,0,0,0,0,0,0,0,0,0,0,0,0,0,0,0],"id":12,"left_children":[1,3,5,7,9,11,13,-1,15,17,19,21,23,25,27,-1,-1,-1,-1,-1,-1,-1,-1,-1,-1,-1,-1,-1,-1],"loss_changes":[3.9231855E3,2.502168E2,3.2656512E2,2.8359375E0,1.8834381E1,2.0612267E2,1.10688416E2,0E0,1.0751953E0,6.5572815E0,2.9088928E1,2.5371471E1,4.9729156E1,4.500894E1,7.805939E1,0E0,0E0,0E0,0E0,0E0,0E0,0E0,0E0,0E0,0E0,0E0,0E0,0E0,0E0],"parents":[2147483647,0,0,1,1,2,2,3,3,4,4,5,5,6,6,8,8,9,9,10,10,11,11,12,12,13,13,14,14],"right_children":[2,4,6,8,10,12,14,-1,16,18,20,22,24,26,28,-1,-1,-1,-1,-1,-1,-1,-1,-1,-1,-1,-1,-1,-1],"split_conditions":[9.4339624E-2,3.0039527E-2,2.1390374E-1,4.761905E-3,7.283142E-2,1E0,2.8534704E-1,-2.8449615E-2,-9E0,1.0050251E-1,2E0,1E0,2E0,1E0,1E0,-4.436853E-3,-2.5734637E-2,-1.807556E-2,-1.1495382E-2,-1.3524382E-2,5.489729E-3,-8.87671E-3,2.9674664E-3,1.3440077E-2,3.995208E-2,1.4814787E-2,3.0814264E-2,2.7449561E-2,6.2091794E-2],"split_indices":[39,39,39,39,39,11,39,0,73,28,76,76,76,76,76,0,0,0,0,0,0,0,0,0,0,0,0,0,0],"split_type":[0,0,0,0,0,0,0,0,0,0,0,0,0,0,0,0,0,0,0,0,0,0,0,0,0,0,0,0,0],"sum_hessian":[8.058827E4,7.5544805E4,5.0434673E3,7.252035E4,3.02445E3,2.5528342E3,2.4906328E3,7.153452E4,9.858324E2,2.052858E3,9.7159204E2,1.8373859E3,7.1544836E2,1.8139736E3,6.7665924E2,6.425112E0,9.794072E2,1.5410188E3,5.118391E2,6.881894E2,2.8340265E2,1.036965E3,8.004209E2,3.262418E2,3.8920657E2,7.584503E2,1.0555233E3,2.7922885E2,3.974304E2],"tree_param":{"num_deleted":"0","num_feature":"78","num_nodes":"29","size_leaf_vector":"1"}},{"base_weights":[-4.4628188E-2,-4.1204178E-1,9.0533435E-1,-5.3664684E-1,-5.16024E-2,6.0684276E-1,1.5736619E0,-5.634654E-1,-3.769325E-1,-1.0076999E-1,3.7060598E-1,4.2232528E-1,8.3146924E-1,1.3502817E0,2.183859E0,-2.8431809E-2,-2.5110543E-2,-1.9874461E-2,2.8021247E-3,-1.0800533E-2,6.645573E-4,1.1150259E-2,2.8181592E-2,1.7254686E-2,3.8763624E-2,3.619323E-2,6.008E-2,6.228829E-2,8.211772E-2,9.667789E-2,1.3198794E-1],"categories":[],"categories_nodes":[],"categories_segments":[],"categories_sizes":[],"default_left":[0,0,0,0,0,0,0,0,0,0,0,0,0,0,0,0,0,0,0,0,0,0,0,0,0,0,0,0,0,0,0],"id":13,"left_children":[1,3,5,7,9,11,13,15,17,19,21,23,25,27,29,-1,-1,-1,-1,-1,-1,-1,-1,-1,-1,-1,-1,-1,-1,-1,-1],"loss_changes":[2.8665291E4,2.659831E3,4.5684746E3,1.8829297E2,3.158884E2,6.559868E2,9.608887E2,1.16484375E1,5.6365845E1,1.7914777E2,4.509642E1,2.367716E2,2.8352002E2,1.5604492E2,2.1094238E2,0E0,0E0,0E0,0E0,0E0,0E0,0E0,0E0,0E0,0E0,0E0,0E0,0E0,0E0,0E0,0E0],"parents":[2147483647,0,0,1,1,2,2,3,3,4,4,5,5,6,6,7,7,8,8,9,9,10,10,11,11,12,12,13,13,14,14],"right_children":[2,4,6,8,10,12,14,16,18,20,22,24,26,28,30,-1,-1,-1,-1,-1,-1,-1,-1,-1,-1,-1,-1,-1,-1,-1,-1],"split_conditions":[1.8181819E-1,6.25E-2,3.7815127E-1,2.189781E-2,1E0,2.7118644E-1,5.5813956E-1,6.2305294E-3,1E0,1.08333334E-1,1.2957317E-1,1E0,1E0,1E0,7.027027E-1,-2.8431809E-2,-2.5110543E-2,-1.9874461E-2,2.8021247E-3,-1.0800533E-2,6.645573E-4,1.1150259E-2,2.8181592E-2,1.7254686E-2,3.8763624E-2,3.619323E-2,6.008E-2,6.228829E-2,8.211772E-2,9.667789E-2,1.3198794E-1],"split_indices":[32,32,32,32,67,32,32,32,67,32,32,67,67,67,32,0,0,0,0,0,0,0,0,0,0,0,0,0,0,0,0],"split_type":[0,0,0,0,0,0,0,0,0,0,0,0,0,0,0,0,0,0,0,0,0,0,0,0,0,0,0,0,0,0,0],"sum_hessian":[8.2126586E4,5.922205E4,2.2904533E4,4.400789E4,1.521416E4,1.5834406E4,7.0701274E3,3.7678535E4,6.3293545E3,1.3627906E4,1.5862544E3,8.69492E3,7.139486E3,5.1778423E3,1.8922852E3,3.4737883E4,2.940654E3,6.0425493E3,2.8680505E2,6.7784575E3,6.8494487E3,9.00118E2,6.861365E2,7.135512E3,1.5594077E3,5.5336846E3,1.6058014E3,3.8171653E3,1.3606772E3,1.2249795E3,6.6730566E2],"tree_param":{"num_deleted":"0","num_feature":"78","num_nodes":"31","size_leaf_vector":"1"}},{"base_weights":[1.6834911E-2,-4.8559293E-1,1.5646206E0,-5.6385463E-1,2.3443602E-1,1.1707957E0,1.9894428E0,-2.8439512E-2,-2.5764814E-1,4.191889E-3,4.0835306E-1,9.443061E-1,1.4436607E0,2.1585639E0,1.520599E0,-1.3737875E-2,1.1824067E-2,4.1000163E-3,-9.420536E-3,2.5836432E-2,5.420524E-3,5.3552993E-2,3.0088738E-2,8.983576E-2,5.9020497E-2,9.770435E-2,1.255947E-1,6.920282E-2,9.697502E-2],"categories":[],"categories_nodes":[],"categories_segments":[],"categories_sizes":[],"default_left":[0,0,0,0,0,0,0,0,0,0,0,0,0,0,0,0,0,0,0,0,0,0,0,0,0,0,0,0,0],"id":14,"left_children":[1,3,5,7,9,11,13,-1,15,17,19,21,23,25,27,-1,-1,-1,-1,-1,-1,-1,-1,-1,-1,-1,-1,-1,-1],"loss_changes":[6.421451E4,3.5129854E3,3.38325E3,8.483008E1,2.4475229E2,6.477637E2,7.684961E2,0E0,7.6210365E0,3.944686E1,1.13132385E2,2.4867285E2,4.4048047E2,5.1171484E2,1.450957E2,0E0,0E0,0E0,0E0,0E0,0E0,0E0,0E0,0E0,0E0,0E0,0E0,0E0,0E0],"parents":[2147483647,0,0,1,1,2,2,3,3,4,4,5,5,6,6,8,8,9,9,10,10,11,11,12,12,13,13,14,14],"right_children":[2,4,6,8,10,12,14,-1,16,18,20,22,24,26,28,-1,-1,-1,-1,-1,-1,-1,-1,-1,-1,-1,-1,-1,-1],"split_conditions":[2.5830814E-1,8.3550915E-2,5.0183153E-1,2.5E-2,1.801629E-1,4.2335767E-1,1E0,-2.8439512E-2,1.6E-1,2E0,2E0,1E0,1E0,6.3338304E-1,6.744186E-1,-1.3737875E-2,1.1824067E-2,4.1000163E-3,-9.420536E-3,2.5836432E-2,5.420524E-3,5.3552993E-2,3.0088738E-2,8.983576E-2,5.9020497E-2,9.770435E-2,1.255947E-1,6.920282E-2,9.697502E-2],"split_indices":[50,50,50,50,50,50,11,0,7,76,76,11,76,50,50,0,0,0,0,0,0,0,0,0,0,0,0,0,0],"split_type":[0,0,0,0,0,0,0,0,0,0,0,0,0,0,0,0,0,0,0,0,0,0,0,0,0,0,0,0,0],"sum_hessian":[8.257303E4,6.23381E4,2.023493E4,5.622688E4,6.111222E3,1.0502503E4,9.732428E3,5.533412E4,8.9276086E2,2.6301975E3,3.4810247E3,5.7413765E3,4.7611265E3,7.1497646E3,2.582663E3,8.6331244E2,2.944842E1,1.87379E3,7.5640753E2,2.5565618E3,9.2446277E2,4.1890796E3,1.5522969E3,2.0311958E3,2.7299307E3,4.532991E3,2.6167737E3,1.9510228E3,6.3164026E2],"tree_param":{"num_deleted":"0","num_feature":"78","num_nodes":"29","size_leaf_vector":"1"}},{"base_weights":[1.4432313E-1,-3.2589686E-1,7.347097E-1,-5.1748675E-1,-3.4469396E-2,5.2102286E-1,1.2416126E0,-5.5861855E-1,-3.6126596E-1,-1.5124348E-1,2.7205342E-1,4.0573245E-1,8.140135E-1,1.0573002E0,1.7136215E0,-2.8308576E-2,-2.4608491E-2,-2.1436881E-2,-8.714719E-3,-1.30110225E-2,-2.6946596E-3,2.0389862E-3,1.9874057E-2,1.2326593E-2,2.961244E-2,3.1598832E-2,4.7803868E-2,5.8007773E-2,3.3871166E-2,6.731386E-2,9.815224E-2],"categories":[],"categories_nodes":[],"categories_segments":[],"categories_sizes":[],"default_left":[0,0,0,0,0,0,0,0,0,0,0,0,0,0,0,0,0,0,0,0,0,0,0,0,0,0,0,0,0,0,0],"id":15,"left_children":[1,3,5,7,9,11,13,15,17,19,21,23,25,27,29,-1,-1,-1,-1,-1,-1,-1,-1,-1,-1,-1,-1,-1,-1,-1,-1],"loss_changes":[2.3035377E4,2.5789443E3,3.9841504E3,1.7886914E2,6.558638E2,8.738804E2,9.471953E2,1.0791992E1,7.32334E1,1.4074872E2,1.4661581E2,5.513877E2,1.883628E2,3.0584375E2,2.7789062E2,0E0,0E0,0E0,0E0,0E0,0E0,0E0,0E0,0E0,0E0,0E0,0E0,0E0,0E0,0E0,0E0],"parents":[2147483647,0,0,1,1,2,2,3,3,4,4,5,5,6,6,7,7,8,8,9,9,10,10,11,11,12,12,13,13,14,14],"right_children":[2,4,6,8,10,12,14,16,18,20,22,24,26,28,30,-1,-1,-1,-1,-1,-1,-1,-1,-1,-1,-1,-1,-1,-1,-1,-1],"split_conditions":[1.6804408E-1,6.466362E-2,3.3173996E-1,2.631579E-2,2E0,2E0,4.4575936E-1,1.0309278E-2,1E0,1.1560045E-1,1.05294116E-1,2.545969E-1,2.3793103E-1,1E0,1E0,-2.8308576E-2,-2.4608491E-2,-2.1436881E-2,-8.714719E-3,-1.30110225E-2,-2.6946596E-3,2.0389862E-3,1.9874057E-2,1.2326593E-2,2.961244E-2,3.1598832E-2,4.7803868E-2,5.8007773E-2,3.3871166E-2,6.731386E-2,9.815224E-2],"split_indices":[42,42,42,42,76,76,42,42,11,42,42,42,42,12,76,0,0,0,0,0,0,0,0,0,0,0,0,0,0,0,0],"split_type":[0,0,0,0,0,0,0,0,0,0,0,0,0,0,0,0,0,0,0,0,0,0,0,0,0,0,0,0,0,0,0],"sum_hessian":[8.297514E4,4.6188355E4,3.6786785E4,2.7867178E4,1.832118E4,2.5879295E4,1.090749E4,2.2057121E4,5.8100557E3,1.3267318E4,5.0538604E3,1.8573213E4,7.306083E3,7.8467095E3,3.0607808E3,1.9799105E4,2.2580164E3,4.2684316E3,1.5416241E3,6.2590586E3,7.00826E3,1.7775659E3,3.2762944E3,1.0021612E4,8.551601E3,3.204882E3,4.101201E3,6.1732026E3,1.6735066E3,1.240379E3,1.8204016E3],"tree_param":{"num_deleted":"0","num_feature":"78","num_nodes":"31","size_leaf_vector":"1"}},{"base_weights":[-8.7597065E-2,-3.6156312E-1,2.4660727E-1,-5.1963574E-1,-2.0412101E-1,3.9082676E-1,-9.042796E-2,-5.553896E-1,-4.2877886E-1,-3.0603302E-1,-7.368819E-2,2.8479415E-1,7.717693E-1,2.3064299E-2,-3.2295483E-1,-2.8266162E-2,-2.6416132E-2,-2.1965709E-2,1.5645077E-3,-1.6213246E-2,5.123813E-3,-1.4980044E-3,-1.6962565E-2,7.877975E-3,2.0099103E-2,4.430419E-2,2.1844363E-2,-5.886964E-3,1.1929957E-2,-1.7013963E-2,4.608478E-3],"categories":[],"categories_nodes":[],"categories_segments":[],"categories_sizes":[],"default_left":[0,0,0,0,0,0,0,0,0,0,0,0,0,0,0,0,0,0,0,0,0,0,0,0,0,0,0,0,0,0,0],"id":16,"left_children":[1,3,5,7,9,11,13,15,17,19,21,23,25,27,29,-1,-1,-1,-1,-1,-1,-1,-1,-1,-1,-1,-1,-1,-1,-1,-1],"loss_changes":[7.479949E3,1.1171504E3,1.7888376E3,7.253027E1,2.9896722E2,1.0408154E3,2.9106808E2,4.022461E0,3.0696045E1,9.4075195E1,1.1457355E2,3.0057336E2,2.1441895E2,2.2498685E2,2.6048218E1,0E0,0E0,0E0,0E0,0E0,0E0,0E0,0E0,0E0,0E0,0E0,0E0,0E0,0E0,0E0,0E0],"parents":[2147483647,0,0,1,1,2,2,3,3,4,4,5,5,6,6,7,7,8,8,9,9,10,10,11,11,12,12,13,13,14,14],"right_children":[2,4,6,8,10,12,14,16,18,20,22,24,26,28,30,-1,-1,-1,-1,-1,-1,-1,-1,-1,-1,-1,-1,-1,-1,-1,-1],"split_conditions":[1.083691E-1,4.347826E-2,1.8024692E-1,1.6494846E-2,1.5337423E-2,2.3763292E-1,2.9027113E-1,3.8639877E-3,1E0,1E0,2.642857E-1,1.615053E-1,1E0,2.2943723E-1,1E0,-2.8266162E-2,-2.6416132E-2,-2.1965709E-2,1.5645077E-3,-1.6213246E-2,5.123813E-3,-1.4980044E-3,-1.6962565E-2,7.877975E-3,2.0099103E-2,4.430419E-2,2.1844363E-2,-5.886964E-3,1.1929957E-2,-1.7013963E-2,4.608478E-3],"split_indices":[44,44,42,44,6,44,42,44,62,62,42,44,14,51,62,0,0,0,0,0,0,0,0,0,0,0,0,0,0,0,0],"split_type":[0,0,0,0,0,0,0,0,0,0,0,0,0,0,0,0,0,0,0,0,0,0,0,0,0,0,0,0,0,0,0],"sum_hessian":[8.169195E4,4.489166E4,3.6800297E4,2.2399828E4,2.2491832E4,2.5772096E4,1.1028201E4,1.6070633E4,6.3291953E3,1.262562E4,9.866212E3,2.016192E4,5.6101763E3,7.4116206E3,3.61658E3,1.1741549E4,4.3290845E3,6.187549E3,1.4164613E2,1.2086405E4,5.392145E2,8.472267E3,1.3939458E3,9.667715E3,1.0494204E4,4.181235E3,1.4289415E3,4.483267E3,2.9283538E3,3.4718687E3,1.4471143E2],"tree_param":{"num_deleted":"0","num_feature":"78","num_nodes":"31","size_leaf_vector":"1"}},{"base_weights":[-1.9659607E-1,-4.3938142E-1,4.7583273E-1,-5.410689E-1,-1.7668861E-1,3.0286783E-1,1.1508685E0,-5.631115E-1,-4.3835807E-1,-2.723815E-1,-8.224909E-2,1.5235004E-1,4.9610013E-1,9.943048E-1,1.7839712E0,-2.8341044E-2,-2.6083788E-2,-2.360499E-2,-1.9967321E-2,-1.7008368E-2,-1.0791926E-2,-8.617776E-3,-6.606321E-4,1.5489324E-3,1.41541315E-2,1.8862551E-2,3.2356832E-2,4.3833133E-2,5.8145035E-2,8.0927044E-2,1.1169862E-1],"categories":[],"categories_nodes":[],"categories_segments":[],"categories_sizes":[],"default_left":[0,0,0,0,0,0,0,0,0,0,0,0,0,0,0,0,0,0,0,0,0,0,0,0,0,0,0,0,0,0,0],"id":17,"left_children":[1,3,5,7,9,11,13,15,17,19,21,23,25,27,29,-1,-1,-1,-1,-1,-1,-1,-1,-1,-1,-1,-1,-1,-1,-1,-1],"loss_changes":[1.3200511E4,1.5868359E3,2.504084E3,9.671777E1,1.498175E2,4.9658228E2,4.3185352E2,5.1240234E0,9.778442E0,3.1490234E1,5.1916718E1,1.5232353E2,1.339668E2,6.8590576E1,6.0859863E1,0E0,0E0,0E0,0E0,0E0,0E0,0E0,0E0,0E0,0E0,0E0,0E0,0E0,0E0,0E0,0E0],"parents":[2147483647,0,0,1,1,2,2,3,3,4,4,5,5,6,6,7,7,8,8,9,9,10,10,11,11,12,12,13,13,14,14],"right_children":[2,4,6,8,10,12,14,16,18,20,22,24,26,28,30,-1,-1,-1,-1,-1,-1,-1,-1,-1,-1,-1,-1,-1,-1,-1,-1],"split_conditions":[1.3095239E-1,4.477612E-2,3.0769232E-1,1.369863E-2,8.695652E-2,2.0114942E-1,4.8387095E-1,3.937008E-3,2.9239766E-2,7.78781E-2,7.731629E-2,8.035714E-2,8.25E-2,3.75E-1,6.376812E-1,-2.8341044E-2,-2.6083788E-2,-2.360499E-2,-1.9967321E-2,-1.7008368E-2,-1.0791926E-2,-8.617776E-3,-6.606321E-4,1.5489324E-3,1.41541315E-2,1.8862551E-2,3.2356832E-2,4.3833133E-2,5.8145035E-2,8.0927044E-2,1.1169862E-1],"split_indices":[28,28,28,28,28,28,28,28,28,3,3,3,3,28,28,0,0,0,0,0,0,0,0,0,0,0,0,0,0,0,0],"split_type":[0,0,0,0,0,0,0,0,0,0,0,0,0,0,0,0,0,0,0,0,0,0,0,0,0,0,0,0,0,0,0],"sum_hessian":[8.085552E4,5.940666E4,2.1448863E4,4.28273E4,1.657936E4,1.7075139E4,4.373726E3,3.525648E4,7.570819E3,8.234098E3,8.345262E3,9.599455E3,7.475683E3,3.508627E3,8.6509894E2,3.2347973E4,2.9085093E3,4.0536543E3,3.5171643E3,3.742469E3,4.491628E3,3.619539E3,4.725723E3,4.978594E3,4.620861E3,4.185585E3,3.2900977E3,2.070254E3,1.4383729E3,6.359182E2,2.2918073E2],"tree_param":{"num_deleted":"0","num_feature":"78","num_nodes":"31","size_leaf_vector":"1"}},{"base_weights":[-2.9146722E-1,1.4308058E-1,-4.2955828E-1,6.386533E-2,1.0196947E0,-4.4773543E-1,6.778073E-1,1.8087031E-1,-3.8073674E-1,1.6961464E0,7.2747743E-1,-5.018895E-1,-2.7445477E-1,1.2541709E0,5.082527E-1,1.7426156E-2,-1.7523803E-2,-2.221142E-2,4.211554E-2,1.0638038E-1,6.863572E-2,7.222903E-2,3.2199316E-2,-1.4340605E-2,-2.5610222E-2,9.717944E-3,-1.5346638E-2,8.947948E-2,3.3641923E-2,3.4233835E-2,1.5412629E-2],"categories":[],"categories_nodes":[],"categories_segments":[],"categories_sizes":[],"default_left":[0,0,0,0,0,0,0,0,0,0,0,0,0,0,0,0,0,0,0,0,0,0,0,0,0,0,0,0,0,0,0],"id":18,"left_children":[1,3,5,7,9,11,13,15,17,19,21,23,25,27,29,-1,-1,-1,-1,-1,-1,-1,-1,-1,-1,-1,-1,-1,-1,-1,-1],"loss_changes":[4.8167383E3,1.3441327E3,1.2263857E3,9.23652E2,3.1586804E2,5.6222656E2,9.5534454E1,1.2522495E3,2.876305E2,6.450696E1,6.624628E1,1.0114551E2,2.1736328E2,6.8211E1,2.6679214E1,0E0,0E0,0E0,0E0,0E0,0E0,0E0,0E0,0E0,0E0,0E0,0E0,0E0,0E0,0E0,0E0],"parents":[2147483647,0,0,1,1,2,2,3,3,4,4,5,5,6,6,7,7,8,8,9,9,10,10,11,11,12,12,13,13,14,14],"right_children":[2,4,6,8,10,12,14,16,18,20,22,24,26,28,30,-1,-1,-1,-1,-1,-1,-1,-1,-1,-1,-1,-1,-1,-1,-1,-1],"split_conditions":[1.1376564E-2,1E0,1E0,4.524952E-1,5E0,6E0,5E0,2.7155173E-1,6E0,4E0,5E-3,4.423077E-2,1.4568846E-1,1.4568846E-1,4.951691E-2,1.7426156E-2,-1.7523803E-2,-2.221142E-2,4.211554E-2,1.0638038E-1,6.863572E-2,7.222903E-2,3.2199316E-2,-1.4340605E-2,-2.5610222E-2,9.717944E-3,-1.5346638E-2,8.947948E-2,3.3641923E-2,3.4233835E-2,1.5412629E-2],"split_indices":[51,55,55,47,43,43,43,40,43,43,47,51,47,47,40,0,0,0,0,0,0,0,0,0,0,0,0,0,0,0,0],"split_type":[0,0,0,0,0,0,0,0,0,0,0,0,0,0,0,0,0,0,0,0,0,0,0,0,0,0,0,0,0,0,0],"sum_hessian":[8.026735E4,1.9356352E4,6.0911E4,1.775316E4,1.6031918E3,5.992789E4,9.83107E2,1.4054943E4,3.6982166E3,4.821837E2,1.121008E3,4.5657113E4,1.427078E4,2.2201584E2,7.610912E2,1.068417E4,3.3707732E3,3.5163123E3,1.8190433E2,2.0420036E2,2.7798334E2,1.1520583E2,1.00580225E3,2.0907688E3,4.3566344E4,9.242602E2,1.33465205E4,1.1448992E2,1.0752591E2,4.0309225E2,3.579989E2],"tree_param":{"num_deleted":"0","num_feature":"78","num_nodes":"31","size_leaf_vector":"1"}},{"base_weights":[8.504413E-1,9.4340676E-1,-1.385608E-1,8.3535963E-1,1.4006985E0,-1.9427565E-1,6.4966613E-1,9.1101986E-1,2.9671472E-1,1.1411519E0,1.6597718E0,-2.0568472E-1,4.3520257E-1,9.244958E-1,5.331303E-1,3.337599E-2,5.426345E-2,2.6438592E-2,1.2081965E-3,6.183309E-2,4.7139503E-2,9.130566E-2,6.3471034E-2,-1.249731E-2,-4.428353E-3,6.9036156E-2,1.3830989E-2,5.8951773E-2,2.7632752E-2,3.052404E-2,-3.736261E-3],"categories":[],"categories_nodes":[],"categories_segments":[],"categories_sizes":[],"default_left":[0,0,0,0,0,0,0,0,0,0,0,0,0,0,0,0,0,0,0,0,0,0,0,0,0,0,0,0,0,0,0],"id":19,"left_children":[1,3,5,7,9,11,13,15,17,19,21,23,25,27,29,-1,-1,-1,-1,-1,-1,-1,-1,-1,-1,-1,-1,-1,-1,-1,-1],"loss_changes":[8.195328E3,4.0244375E3,3.3649823E2,2.685664E3,1.0450547E3,5.1471863E1,1.5709412E1,2.4512148E3,5.134753E2,1.4625E2,5.034922E2,3.6408966E1,1.8763775E1,1.3476959E1,1.685984E1,0E0,0E0,0E0,0E0,0E0,0E0,0E0,0E0,0E0,0E0,0E0,0E0,0E0,0E0,0E0,0E0],"parents":[2147483647,0,0,1,1,2,2,3,3,4,4,5,5,6,6,7,7,8,8,9,9,10,10,11,11,12,12,13,13,14,14],"right_children":[2,4,6,8,10,12,14,16,18,20,22,24,26,28,30,-1,-1,-1,-1,-1,-1,-1,-1,-1,-1,-1,-1,-1,-1,-1,-1],"split_conditions":[1E0,1E0,1E0,3.4117648E-1,2E0,2.878E3,4.477612E-2,4.4247787E-3,4.413013E-1,8.900524E-2,1.8903592E-1,1.2330456E-3,3.4351144E-2,2.276E3,2.3076923E-1,3.337599E-2,5.426345E-2,2.6438592E-2,1.2081965E-3,6.183309E-2,4.7139503E-2,9.130566E-2,6.3471034E-2,-1.249731E-2,-4.428353E-3,6.9036156E-2,1.3830989E-2,5.8951773E-2,2.7632752E-2,3.052404E-2,-3.736261E-3],"split_indices":[69,56,56,32,1,52,34,32,32,32,34,46,34,52,27,0,0,0,0,0,0,0,0,0,0,0,0,0,0,0,0],"split_type":[0,0,0,0,0,0,0,0,0,0,0,0,0,0,0,0,0,0,0,0,0,0,0,0,0,0,0,0,0,0,0],"sum_hessian":[8.913245E4,8.147401E4,7.6584497E3,6.590505E4,1.5568957E4,7.1535625E3,5.0488724E2,5.778732E4,8.117728E3,7.7800728E3,7.7888843E3,7.026876E3,1.2668633E2,1.4827443E2,3.5661282E2,2.4105928E4,3.368139E4,4.3840713E3,3.7336567E3,5.247975E3,2.5320974E3,5.4589644E3,2.3299202E3,5.0987905E3,1.9280854E3,1.70891E1,1.0959723E2,8.67321E1,6.1542336E1,3.163522E2,4.0260597E1],"tree_param":{"num_deleted":"0","num_feature":"78","num_nodes":"31","size_leaf_vector":"1"}},{"base_weights":[-4.9593514E-1,-5.538547E-1,3.4512734E-1,-5.6535316E-1,-2.5632322E-1,1.7708579E-1,6.856155E-1,-5.6643677E-1,-4.6144396E-1,-3.154151E-1,-1.0403725E-1,-9.7853266E-2,3.6024442E-1,6.257784E-1,1.357467E0,-2.8335208E-2,-2.6468629E-2,-2.3283927E-2,-4.3253945E-3,-2.162386E-2,-1.3991514E-2,-9.8768035E-3,1.1058704E-2,-1.1592741E-2,3.4943544E-3,1.1760691E-2,2.950336E-2,3.336185E-2,-1.2682515E-2,7.5676374E-2,3.4088016E-2],"categories":[],"categories_nodes":[],"categories_segments":[],"categories_sizes":[],"default_left":[0,0,0,0,0,0,0,0,0,0,0,0,0,0,0,0,0,0,0,0,0,0,0,0,0,0,0,0,0,0,0],"id":20,"left_children":[1,3,5,7,9,11,13,15,17,19,21,23,25,27,29,-1,-1,-1,-1,-1,-1,-1,-1,-1,-1,-1,-1,-1,-1,-1,-1],"loss_changes":[3.8425488E3,2.5231445E2,2.906754E2,7.7382812E0,2.469226E1,1.7146745E2,6.665387E1,3.9648438E-1,1.1325226E0,8.122711E0,2.344461E1,3.062851E1,5.857794E1,5.6450806E1,1.33582E1,0E0,0E0,0E0,0E0,0E0,0E0,0E0,0E0,0E0,0E0,0E0,0E0,0E0,0E0,0E0,0E0],"parents":[2147483647,0,0,1,1,2,2,3,3,4,4,5,5,6,6,7,7,8,8,9,9,10,10,11,11,12,12,13,13,14,14],"right_children":[2,4,6,8,10,12,14,16,18,20,22,24,26,28,30,-1,-1,-1,-1,-1,-1,-1,-1,-1,-1,-1,-1,-1,-1,-1,-1],"split_conditions":[1.0784314E-1,4.347826E-2,2.3580034E-1,1.0869565E-2,2E0,1E0,4.1836736E-1,4.761905E-3,1E0,5.235602E-2,8.590604E-2,5.691057E-2,1.8991417E-1,8.2608694E-1,6.4360905E-1,-2.8335208E-2,-2.6468629E-2,-2.3283927E-2,-4.3253945E-3,-2.162386E-2,-1.3991514E-2,-9.8768035E-3,1.1058704E-2,-1.1592741E-2,3.4943544E-3,1.1760691E-2,2.950336E-2,3.336185E-2,-1.2682515E-2,7.5676374E-2,3.4088016E-2],"split_indices":[39,39,39,39,76,76,39,39,57,39,39,36,39,33,30,0,0,0,0,0,0,0,0,0,0,0,0,0,0,0,0],"split_type":[0,0,0,0,0,0,0,0,0,0,0,0,0,0,0,0,0,0,0,0,0,0,0,0,0,0,0,0,0,0,0],"sum_hessian":[7.887481E4,7.379339E4,5.0814243E3,7.104681E4,2.7465771E3,3.4033062E3,1.678118E3,7.030912E4,7.376952E2,1.9779841E3,7.6859314E2,1.3609111E3,2.0423951E3,1.5426559E3,1.3546216E2,6.979134E4,5.177752E2,7.292173E2,8.477921E0,4.585048E2,1.5194792E3,5.9726965E2,1.7132347E2,7.563272E2,6.045839E2,1.3240791E3,7.18316E2,1.4734355E3,6.922043E1,1.0903879E2,2.6423368E1],"tree_param":{"num_deleted":"0","num_feature":"78","num_nodes":"31","size_leaf_vector":"1"}},{"base_weights":[-4.0975872E-2,-4.1115838E-1,7.943101E-1,-5.375876E-1,-7.227483E-2,5.864602E-1,1.4038298E0,-5.596736E-1,-3.821215E-1,-1.1495461E-1,4.00487E-1,3.8062248E-1,8.062826E-1,1.1833708E0,1.7770683E0,-2.8266272E-2,-2.5145734E-2,-1.9825002E-2,3.3488676E-3,-1.1110511E-2,-2.3127363E-4,1.25202015E-2,3.3023927E-2,1.5679039E-2,3.630513E-2,4.5034762E-2,2.199528E-2,6.2780455E-2,3.89282E-2,9.687156E-2,6.5988645E-2],"categories":[],"categories_nodes":[],"categories_segments":[],"categories_sizes":[],"default_left":[0,0,0,0,0,0,0,0,0,0,0,0,0,0,0,0,0,0,0,0,0,0,0,0,0,0,0,0,0,0,0],"id":21,"left_children":[1,3,5,7,9,11,13,15,17,19,21,23,25,27,29,-1,-1,-1,-1,-1,-1,-1,-1,-1,-1,-1,-1,-1,-1,-1,-1],"loss_changes":[2.5360725E4,2.4348945E3,3.190041E3,1.4190332E2,3.116398E2,8.4961035E2,5.248447E2,1.134082E1,3.329315E1,1.6761714E2,4.9738388E1,2.2449243E2,3.1376807E2,1.1684033E2,1.7168457E2,0E0,0E0,0E0,0E0,0E0,0E0,0E0,0E0,0E0,0E0,0E0,0E0,0E0,0E0,0E0,0E0],"parents":[2147483647,0,0,1,1,2,2,3,3,4,4,5,5,6,6,7,7,8,8,9,9,10,10,11,11,12,12,13,13,14,14],"right_children":[2,4,6,8,10,12,14,16,18,20,22,24,26,28,30,-1,-1,-1,-1,-1,-1,-1,-1,-1,-1,-1,-1,-1,-1,-1,-1],"split_conditions":[1.6888888E-1,5.7971016E-2,3.8037136E-1,2.1582734E-2,1E0,2.7155173E-1,5.081301E-1,7.843138E-3,1E0,1.0217755E-1,1E0,1E0,1E0,1E0,1E0,-2.8266272E-2,-2.5145734E-2,-1.9825002E-2,3.3488676E-3,-1.1110511E-2,-2.3127363E-4,1.25202015E-2,3.3023927E-2,1.5679039E-2,3.630513E-2,4.5034762E-2,2.199528E-2,6.2780455E-2,3.89282E-2,9.687156E-2,6.5988645E-2],"split_indices":[40,40,40,40,67,40,40,40,67,40,12,67,65,65,11,0,0,0,0,0,0,0,0,0,0,0,0,0,0,0,0],"split_type":[0,0,0,0,0,0,0,0,0,0,0,0,0,0,0,0,0,0,0,0,0,0,0,0,0,0,0,0,0,0,0],"sum_hessian":[8.20162E4,5.6830527E4,2.5185678E4,4.1388793E4,1.5441733E4,1.8782645E4,6.403033E3,3.623808E4,5.150715E3,1.4163815E4,1.277918E3,9.701277E3,9.081368E3,4.028004E3,2.3750295E3,3.2948266E4,3.289813E3,4.991037E3,1.5967773E2,7.1814307E3,6.982385E3,8.11458E2,4.664599E2,8.126255E3,1.575022E3,7.219499E3,1.8618693E3,3.4162664E3,6.117374E2,1.7560035E3,6.190261E2],"tree_param":{"num_deleted":"0","num_feature":"78","num_nodes":"31","size_leaf_vector":"1"}},{"base_weights":[1.3176793E-2,-4.9107528E-1,1.4087799E0,-5.604061E-1,2.0019409E-1,9.7831047E-1,1.7469363E0,-5.662955E-1,-2.612147E-1,1.2776802E-2,3.2409835E-1,1.224749E0,7.867801E-1,1.8938159E0,1.3312027E0,-2.8333008E-2,-2.1864397E-2,-1.0208001E-2,-1.9644877E-2,4.7652028E-3,-9.893057E-3,2.0725554E-2,3.3260768E-3,5.143888E-2,7.3629506E-2,2.3989683E-2,4.575312E-2,8.455133E-2,1.0817838E-1,5.8531858E-2,8.254101E-2],"categories":[],"categories_nodes":[],"categories_segments":[],"categories_sizes":[],"default_left":[0,0,0,0,0,0,0,0,0,0,0,0,0,0,0,0,0,0,0,0,0,0,0,0,0,0,0,0,0,0,0],"id":22,"left_children":[1,3,5,7,9,11,13,15,17,19,21,23,25,27,29,-1,-1,-1,-1,-1,-1,-1,-1,-1,-1,-1,-1,-1,-1,-1,-1],"loss_changes":[5.8040117E4,2.9036943E3,3.1847344E3,9.6875E1,1.2825377E2,4.5370703E2,7.46E2,2.2910156E0,7.9197464E0,3.824891E1,7.7404236E1,2.0300049E2,2.1312451E2,4.917129E2,1.6247412E2,0E0,0E0,0E0,0E0,0E0,0E0,0E0,0E0,0E0,0E0,0E0,0E0,0E0,0E0,0E0,0E0],"parents":[2147483647,0,0,1,1,2,2,3,3,4,4,5,5,6,6,7,7,8,8,9,9,10,10,11,11,12,12,13,13,14,14],"right_children":[2,4,6,8,10,12,14,16,18,20,22,24,26,28,30,-1,-1,-1,-1,-1,-1,-1,-1,-1,-1,-1,-1,-1,-1,-1,-1],"split_conditions":[2.4738675E-1,8.469945E-2,4.8891032E-1,4.0816326E-2,1.6075157E-1,1E0,1E0,1.4285714E-2,2E0,2E0,2E0,3.9568347E-1,3.432624E-1,6.114519E-1,6.4529914E-1,-2.8333008E-2,-2.1864397E-2,-1.0208001E-2,-1.9644877E-2,4.7652028E-3,-9.893057E-3,2.0725554E-2,3.3260768E-3,5.143888E-2,7.3629506E-2,2.3989683E-2,4.575312E-2,8.455133E-2,1.0817838E-1,5.8531858E-2,8.254101E-2],"split_indices":[41,41,41,41,41,76,11,41,76,76,76,41,41,41,41,0,0,0,0,0,0,0,0,0,0,0,0,0,0,0,0],"split_type":[0,0,0,0,0,0,0,0,0,0,0,0,0,0,0,0,0,0,0,0,0,0,0,0,0,0,0,0,0,0,0],"sum_hessian":[8.2472336E4,6.058333E4,2.1889006E4,5.506116E4,5.5221675E3,9.631767E3,1.2257238E4,5.399736E4,1.0637985E3,2.1982314E3,3.3239363E3,4.2097563E3,5.4220107E3,9.054653E3,3.202585E3,5.384179E4,1.5557233E2,7.4399536E2,3.198031E2,1.5798134E3,6.18418E2,2.4598784E3,8.6405786E2,2.3537578E3,1.8559985E3,1.5993706E3,3.82264E3,5.173029E3,3.8816245E3,2.1347947E3,1.0677904E3],"tree_param":{"num_deleted":"0","num_feature":"78","num_nodes":"31","size_leaf_vector":"1"}},{"base_weights":[1.3741426E-1,-2.6701736E-1,8.010713E-1,-5.213559E-1,1.10716615E-2,5.7554096E-1,1.393298E0,-5.589396E-1,-3.5627416E-1,1.8587136E-1,-1.8601495E-1,7.441093E-1,3.6058703E-1,1.2062624E0,1.8427957E0,-2.829187E-2,-2.4645323E-2,-1.3102016E-2,-2.1750772E-2,-2.2788171E-4,1.5659641E-2,-3.8118225E-3,-1.3847127E-2,2.0742347E-2,4.2419177E-2,4.8414215E-2,1.2284701E-2,6.658729E-2,4.512712E-2,8.433111E-2,1.166824E-1],"categories":[],"categories_nodes":[],"categories_segments":[],"categories_sizes":[],"default_left":[0,0,0,0,0,0,0,0,0,0,0,0,0,0,0,0,0,0,0,0,0,0,0,0,0,0,0,0,0,0,0],"id":23,"left_children":[1,3,5,7,9,11,13,15,17,19,21,23,25,27,29,-1,-1,-1,-1,-1,-1,-1,-1,-1,-1,-1,-1,-1,-1,-1,-1],"loss_changes":[2.2391484E4,3.6663118E3,4.21834E3,1.6777979E2,8.531333E2,8.287207E2,7.3014453E2,9.765137E0,3.71615E1,3.1820102E2,1.1616751E2,4.3986816E2,7.019889E2,2.3335449E2,1.9213672E2,0E0,0E0,0E0,0E0,0E0,0E0,0E0,0E0,0E0,0E0,0E0,0E0,0E0,0E0,0E0,0E0],"parents":[2147483647,0,0,1,1,2,2,3,3,4,4,5,5,6,6,7,7,8,8,9,9,10,10,11,11,12,12,13,13,14,14],"right_children":[2,4,6,8,10,12,14,16,18,20,22,24,26,28,30,-1,-1,-1,-1,-1,-1,-1,-1,-1,-1,-1,-1,-1,-1,-1,-1],"split_conditions":[1.8903592E-1,6.451613E-2,3.7007874E-1,2.5252525E-2,1.0915819E-1,1E0,5.2112675E-1,8E-3,9.3596056E-2,1.2284069E-1,1E0,1E0,1E0,8.8482454E-2,6.666667E-1,-2.829187E-2,-2.4645323E-2,-1.3102016E-2,-2.1750772E-2,-2.2788171E-4,1.5659641E-2,-3.8118225E-3,-1.3847127E-2,2.0742347E-2,4.2419177E-2,4.8414215E-2,1.2284701E-2,6.658729E-2,4.512712E-2,8.433111E-2,1.166824E-1],"split_indices":[34,34,34,34,35,74,34,34,35,34,74,24,24,35,34,0,0,0,0,0,0,0,0,0,0,0,0,0,0,0,0],"split_type":[0,0,0,0,0,0,0,0,0,0,0,0,0,0,0,0,0,0,0,0,0,0,0,0,0,0,0,0,0,0,0],"sum_hessian":[8.34228E4,5.1835137E4,3.158766E4,2.7073238E4,2.4761898E4,2.2877484E4,8.710176E3,2.2050656E4,5.0225825E3,1.3122961E4,1.1638937E4,1.2820837E4,1.0056647E4,6.1534243E3,2.5567515E3,1.9958242E4,2.092414E3,2.2883362E3,2.734246E3,5.258709E3,7.864252E3,5.2737188E3,6.365218E3,3.0848667E3,9.73597E3,1.5978419E3,8.458806E3,4.351992E3,1.8014321E3,1.9429897E3,6.137616E2],"tree_param":{"num_deleted":"0","num_feature":"78","num_nodes":"31","size_leaf_vector":"1"}},{"base_weights":[-8.395519E-2,-3.8864982E-1,3.842886E-1,-5.142873E-1,-1.8215723E-1,1.0942384E-1,7.3956347E-1,-5.520348E-1,-4.3156484E-1,-4.4935647E-1,-1.1508078E-1,-1.6482711E-1,2.5074065E-1,5.838026E-1,1.0628247E0,-2.8115068E-2,-2.5813842E-2,-2.202001E-2,-1.2168944E-3,-2.711652E-2,-1.9180361E-2,-1.0748293E-2,-1.4631709E-3,-1.9292476E-2,-2.7408814E-3,3.3422664E-3,1.7017534E-2,1.6040342E-2,3.284834E-2,4.5880582E-2,6.9779485E-2],"categories":[],"categories_nodes":[],"categories_segments":[],"categories_sizes":[],"default_left":[0,0,0,0,0,0,0,0,0,0,0,0,0,0,0,0,0,0,0,0,0,0,0,0,0,0,0,0,0,0,0],"id":24,"left_children":[1,3,5,7,9,11,13,15,17,19,21,23,25,27,29,-1,-1,-1,-1,-1,-1,-1,-1,-1,-1,-1,-1,-1,-1,-1,-1],"loss_changes":[1.16151875E4,1.2794023E3,3.1338828E3,9.5506836E1,3.3434937E2,7.0134863E2,7.042339E2,7.4379883E0,3.4573975E1,2.2676392E1,1.27845764E2,1.4961182E2,1.9677228E2,1.8160645E2,2.1861572E2,0E0,0E0,0E0,0E0,0E0,0E0,0E0,0E0,0E0,0E0,0E0,0E0,0E0,0E0,0E0,0E0],"parents":[2147483647,0,0,1,1,2,2,3,3,4,4,5,5,6,6,7,7,8,8,9,9,10,10,11,11,12,12,13,13,14,14],"right_children":[2,4,6,8,10,12,14,16,18,20,22,24,26,28,30,-1,-1,-1,-1,-1,-1,-1,-1,-1,-1,-1,-1,-1,-1,-1,-1],"split_conditions":[1.2582782E-1,4.3824703E-2,1.8181819E-1,1.5712682E-2,3.787879E-2,9.356725E-2,2.9166666E-1,4.608295E-3,1E0,1.3513514E-2,9.723698E-2,5.108359E-2,9.723698E-2,8.676976E-2,4E-1,-2.8115068E-2,-2.5813842E-2,-2.202001E-2,-1.2168944E-3,-2.711652E-2,-1.9180361E-2,-1.0748293E-2,-1.4631709E-3,-1.9292476E-2,-2.7408814E-3,3.3422664E-3,1.7017534E-2,1.6040342E-2,3.284834E-2,4.5880582E-2,6.9779485E-2],"split_indices":[35,35,27,35,27,27,27,35,62,27,2,27,2,2,27,0,0,0,0,0,0,0,0,0,0,0,0,0,0,0,0],"split_type":[0,0,0,0,0,0,0,0,0,0,0,0,0,0,0,0,0,0,0,0,0,0,0,0,0,0,0,0,0,0,0],"sum_hessian":[8.141014E4,4.931812E4,3.2092014E4,3.0661238E4,1.8656885E4,1.8094324E4,1.399769E4,2.1050088E4,9.611149E3,3.7425854E3,1.4914299E4,6.153049E3,1.1941275E4,9.448035E3,4.549656E3,1.6343074E4,4.7070146E3,9.406971E3,2.0417902E2,1.5473207E3,2.1952646E3,6.8915444E3,8.022754E3,2.0439658E3,4.109083E3,3.9129556E3,8.02832E3,2.057507E3,7.390528E3,3.1700547E3,1.379601E3],"tree_param":{"num_deleted":"0","num_feature":"78","num_nodes":"31","size_leaf_vector":"1"}},{"base_weights":[-1.9089344E-1,-4.4385168E-1,4.363581E-1,-5.43717E-1,-1.9982958E-1,2.492941E-1,9.937974E-1,-5.626268E-1,-4.5260906E-1,-3.0396503E-1,-1.1545725E-1,1.1517674E-1,4.2135838E-1,8.499155E-1,1.5510601E0,-2.8227363E-2,-2.6408512E-2,-2.4321733E-2,-2.0823188E-2,-1.7828919E-2,-1.3009846E-2,-1.8584695E-2,-4.440382E-3,1.177146E-3,1.2829862E-2,1.4270522E-2,2.6835328E-2,3.7276577E-2,5.239392E-2,7.0642486E-2,1.0207206E-1],"categories":[],"categories_nodes":[],"categories_segments":[],"categories_sizes":[],"default_left":[0,0,0,0,0,0,0,0,0,0,0,0,0,0,0,0,0,0,0,0,0,0,0,0,0,0,0,0,0,0,0],"id":25,"left_children":[1,3,5,7,9,11,13,15,17,19,21,23,25,27,29,-1,-1,-1,-1,-1,-1,-1,-1,-1,-1,-1,-1,-1,-1,-1,-1],"loss_changes":[1.2714656E4,1.3914814E3,2.4011685E3,6.955469E1,1.4568024E2,3.9789368E2,4.6260254E2,1.921875E0,8.318848E0,1.6999268E1,6.2539658E1,1.2559277E2,1.1829053E2,9.429199E1,7.750659E1,0E0,0E0,0E0,0E0,0E0,0E0,0E0,0E0,0E0,0E0,0E0,0E0,0E0,0E0,0E0,0E0],"parents":[2147483647,0,0,1,1,2,2,3,3,4,4,5,5,6,6,7,7,8,8,9,9,10,10,11,11,12,12,13,13,14,14],"right_children":[2,4,6,8,10,12,14,16,18,20,22,24,26,28,30,-1,-1,-1,-1,-1,-1,-1,-1,-1,-1,-1,-1,-1,-1,-1,-1],"split_conditions":[1.2261581E-1,4E-2,2.764706E-1,1.1111111E-2,7.54717E-2,1.86722E-1,4.534413E-1,4.9261083E-3,2.2900764E-2,7.78781E-2,4.602821E-2,8.4075175E-2,7.846952E-2,8.810127E-2,6.376812E-1,-2.8227363E-2,-2.6408512E-2,-2.4321733E-2,-2.0823188E-2,-1.7828919E-2,-1.3009846E-2,-1.8584695E-2,-4.440382E-3,1.177146E-3,1.2829862E-2,1.4270522E-2,2.6835328E-2,3.7276577E-2,5.239392E-2,7.0642486E-2,1.0207206E-1],"split_indices":[28,28,28,28,28,28,28,28,28,3,36,3,3,3,28,0,0,0,0,0,0,0,0,0,0,0,0,0,0,0,0],"split_type":[0,0,0,0,0,0,0,0,0,0,0,0,0,0,0,0,0,0,0,0,0,0,0,0,0,0,0,0,0,0,0],"sum_hessian":[8.013127E4,5.710303E4,2.302824E4,4.0519363E4,1.6583666E4,1.7243246E4,5.7849946E3,3.3550656E4,6.9687075E3,7.421353E3,9.1623125E3,9.69109E3,7.5521553E3,4.599863E3,1.1851318E3,3.176481E4,1.785847E3,3.593432E3,3.3752754E3,3.3668896E3,4.0544636E3,8.619261E2,8.300386E3,5.881392E3,3.8096982E3,3.4681313E3,4.0840237E3,3.0148997E3,1.5849629E3,9.2758093E2,2.575509E2],"tree_param":{"num_deleted":"0","num_feature":"78","num_nodes":"31","size_leaf_vector":"1"}},{"base_weights":[-2.8891516E-1,-3.483461E-1,9.01846E-1,9.806883E-3,-4.5286977E-1,1.1029118E0,4.731448E-1,-6.0856186E-2,8.1606895E-1,-3.222106E-1,-4.800835E-1,1.3502834E0,6.9205E-1,7.198007E-1,2.803377E-1,3.9268495E-4,-2.4837308E-2,2.0902582E-2,6.520613E-2,-1.1468901E-2,-2.1438826E-2,-2.4298582E-2,-9.257572E-3,1.0520046E-1,5.1145222E-2,5.562548E-2,2.6150852E-2,4.3738488E-2,1.6061712E-2,2.975587E-2,1.1494776E-2],"categories":[],"categories_nodes":[],"categories_segments":[],"categories_sizes":[],"default_left":[0,0,0,0,0,0,0,0,0,0,0,0,0,0,0,0,0,0,0,0,0,0,0,0,0,0,0,0,0,0,0],"id":26,"left_children":[1,3,5,7,9,11,13,15,17,19,21,23,25,27,29,-1,-1,-1,-1,-1,-1,-1,-1,-1,-1,-1,-1,-1,-1,-1,-1],"loss_changes":[5.6084243E3,2.825629E3,3.2422168E2,9.7159247E2,2.0760059E2,2.5964478E2,5.7084747E1,4.696047E2,2.6639557E2,9.956885E1,8.3881836E1,3.9247754E2,6.804343E1,3.2322113E1,1.0624317E1,0E0,0E0,0E0,0E0,0E0,0E0,0E0,0E0,0E0,0E0,0E0,0E0,0E0,0E0,0E0,0E0],"parents":[2147483647,0,0,1,1,2,2,3,3,4,4,5,5,6,6,7,7,8,8,9,9,10,10,11,11,12,12,13,13,14,14],"right_children":[2,4,6,8,10,12,14,16,18,20,22,24,26,28,30,-1,-1,-1,-1,-1,-1,-1,-1,-1,-1,-1,-1,-1,-1,-1,-1],"split_conditions":[1E0,1.1376564E-2,8.293839E-2,2.657E3,1.15384616E-1,7.6612905E-2,8.3333336E-2,2.553939E-1,3.5174112E-4,1.6039395E-1,2.1128608E-1,2.2700912E-1,5.2083335E-3,2.382E3,1.4740369E-1,3.9268495E-4,-2.4837308E-2,2.0902582E-2,6.520613E-2,-1.1468901E-2,-2.1438826E-2,-2.4298582E-2,-9.257572E-3,1.0520046E-1,5.1145222E-2,5.562548E-2,2.6150852E-2,4.3738488E-2,1.6061712E-2,2.975587E-2,1.1494776E-2],"split_indices":[64,51,40,52,51,41,35,45,48,44,45,38,38,52,38,0,0,0,0,0,0,0,0,0,0,0,0,0,0,0,0],"split_type":[0,0,0,0,0,0,0,0,0,0,0,0,0,0,0,0,0,0,0,0,0,0,0,0,0,0,0,0,0,0,0],"sum_hessian":[7.924534E4,7.54789E4,3.7664485E3,1.7051703E4,5.8427195E4,2.562863E3,1.2035854E3,1.5678519E4,1.3731848E3,1.0073738E4,4.8353457E4,1.5982832E3,9.6457996E2,5.2685394E2,6.7673145E2,1.3544469E4,2.1340496E3,7.5738184E2,6.15803E2,5.385462E3,4.688276E3,4.7406367E4,9.470874E2,4.8234702E2,1.1159362E3,2.7498618E2,6.8959375E2,3.784945E2,1.4835947E2,9.1974556E1,5.847569E2],"tree_param":{"num_deleted":"0","num_feature":"78","num_nodes":"31","size_leaf_vector":"1"}},{"base_weights":[7.992507E-1,5.946228E-2,1.2838877E0,-3.1491014E-1,3.8408026E-1,1.0233341E0,1.6508911E0,-4.8688626E-1,-1.2282934E-1,1.8966071E-1,5.416962E-1,1.2141445E0,8.828891E-1,1.5500858E0,2.05646E0,-2.7331887E-2,-1.9913485E-2,-7.1653724E-3,1.3653211E-2,8.012491E-3,2.3771552E-2,2.3661328E-2,3.53624E-2,5.169597E-2,6.941297E-2,3.895719E-2,5.5525232E-2,8.800277E-2,7.003253E-2,1.1322055E-1,9.553081E-2],"categories":[],"categories_nodes":[],"categories_segments":[],"categories_sizes":[],"default_left":[0,0,0,0,0,0,0,0,0,0,0,0,0,0,0,0,0,0,0,0,0,0,0,0,0,0,0,0,0,0,0],"id":27,"left_children":[1,3,5,7,9,11,13,15,17,19,21,23,25,27,29,-1,-1,-1,-1,-1,-1,-1,-1,-1,-1,-1,-1,-1,-1,-1,-1],"loss_changes":[3.314423E4,4.4470254E3,5.3393516E3,5.6131006E2,6.004678E2,8.743594E2,9.4483594E2,4.7256348E1,6.513248E1,7.368692E1,1.2234912E2,4.3309766E2,4.4356543E2,5.8040234E2,1.3558398E2,0E0,0E0,0E0,0E0,0E0,0E0,0E0,0E0,0E0,0E0,0E0,0E0,0E0,0E0,0E0,0E0],"parents":[2147483647,0,0,1,1,2,2,3,3,4,4,5,5,6,6,7,7,8,8,9,9,10,10,11,11,12,12,13,13,14,14],"right_children":[2,4,6,8,10,12,14,16,18,20,22,24,26,28,30,-1,-1,-1,-1,-1,-1,-1,-1,-1,-1,-1,-1,-1,-1,-1,-1],"split_conditions":[3.034483E-1,1.4102565E-1,5.083848E-1,5.732484E-2,2.2700912E-1,1E0,6.666667E-1,2.1186441E-2,1E0,1E0,3.5894495E-1,3.956786E-1,4.3888888E-1,1E0,1E0,-2.7331887E-2,-1.9913485E-2,-7.1653724E-3,1.3653211E-2,8.012491E-3,2.3771552E-2,2.3661328E-2,3.53624E-2,5.169597E-2,6.941297E-2,3.895719E-2,5.5525232E-2,8.800277E-2,7.003253E-2,1.1322055E-1,9.553081E-2],"split_indices":[38,38,38,38,38,76,38,38,56,56,5,38,38,76,76,0,0,0,0,0,0,0,0,0,0,0,0,0,0,0,0],"split_type":[0,0,0,0,0,0,0,0,0,0,0,0,0,0,0,0,0,0,0,0,0,0,0,0,0,0,0,0,0,0,0],"sum_hessian":[9.2444266E4,3.65906E4,5.5853668E4,1.6993047E4,1.9597553E4,3.2666154E4,2.3187514E4,8.964925E3,8.028122E3,8.775348E3,1.0822205E4,1.3846501E4,1.8819652E4,1.8575377E4,4.612137E3,5.3514424E3,3.613483E3,7.633887E3,3.9423483E2,7.957898E3,8.1745E2,7.658589E3,3.1636162E3,6.8072734E3,7.0392275E3,1.2930473E4,5.8891797E3,7.7188857E3,1.0856491E4,1.8952607E3,2.7168765E3],"tree_param":{"num_deleted":"0","num_feature":"78","num_nodes":"31","size_leaf_vector":"1"}},{"base_weights":[-4.930719E-1,-5.511168E-1,3.817007E-1,-5.6345946E-1,-2.6643407E-1,1.7821954E-1,1.0419585E0,-5.644291E-1,-4.5876673E-1,-3.7649044E-1,-8.822287E-2,4.87312E-1,-1.463467E-1,8.641453E-1,1.697551E0,-2.8232722E-2,-2.682431E-2,-2.3689426E-2,-3.4697955E-3,-2.043549E-2,-1.1204243E-2,-9.601142E-3,3.7545455E-3,1.3790615E-2,3.4462526E-2,-9.344491E-3,2.0093156E-2,2.7078932E-2,5.5906545E-2,2.3249684E-2,8.747342E-2],"categories":[],"categories_nodes":[],"categories_segments":[],"categories_sizes":[],"default_left":[0,0,0,0,0,0,0,0,0,0,0,0,0,0,0,0,0,0,0,0,0,0,0,0,0,0,0,0,0,0,0],"id":28,"left_children":[1,3,5,7,9,11,13,15,17,19,21,23,25,27,29,-1,-1,-1,-1,-1,-1,-1,-1,-1,-1,-1,-1,-1,-1,-1,-1],"loss_changes":[3.9162656E3,2.5398438E2,6.446486E2,6.7753906E0,5.895015E1,3.682647E2,1.3031946E2,1.3085938E-1,3.7191772E0,9.036163E0,1.9499954E1,8.010968E1,3.9882854E1,7.2419556E1,1.4554871E1,0E0,0E0,0E0,0E0,0E0,0E0,0E0,0E0,0E0,0E0,0E0,0E0,0E0,0E0,0E0,0E0],"parents":[2147483647,0,0,1,1,2,2,3,3,4,4,5,5,6,6,7,7,8,8,9,9,10,10,11,11,12,12,13,13,14,14],"right_children":[2,4,6,8,10,12,14,16,18,20,22,24,26,28,30,-1,-1,-1,-1,-1,-1,-1,-1,-1,-1,-1,-1,-1,-1,-1,-1],"split_conditions":[1.09433964E-1,3.2967035E-2,2.7272728E-1,1.2987013E-2,1.7419705E-2,1E0,4.6E-1,2.9850747E-3,1E0,9.090909E-2,7.174888E-2,1.5966387E-1,1E0,1.3847675E-2,5.988024E-3,-2.8232722E-2,-2.682431E-2,-2.3689426E-2,-3.4697955E-3,-2.043549E-2,-1.1204243E-2,-9.601142E-3,3.7545455E-3,1.3790615E-2,3.4462526E-2,-9.344491E-3,2.0093156E-2,2.7078932E-2,5.5906545E-2,2.3249684E-2,8.747342E-2],"split_indices":[31,31,31,31,6,72,31,31,66,31,31,31,66,6,6,0,0,0,0,0,0,0,0,0,0,0,0,0,0,0,0],"split_type":[0,0,0,0,0,0,0,0,0,0,0,0,0,0,0,0,0,0,0,0,0,0,0,0,0,0,0,0,0,0,0],"sum_hessian":[7.7123E4,7.232434E4,4.798659E3,6.931802E4,3.0063162E3,3.6691536E3,1.1295059E3,6.867754E4,6.4048425E2,1.8578605E3,1.1484556E3,1.8791199E3,1.7900336E3,8.90341E2,2.3916484E2,6.810914E4,5.6839996E2,6.1648376E2,2.400054E1,1.5322522E3,3.2560828E2,7.020601E2,4.463955E2,9.189873E2,9.6013257E2,1.6673807E3,1.2265283E2,3.9359726E2,4.9674374E2,1.0069285E1,2.2909557E2],"tree_param":{"num_deleted":"0","num_feature":"78","num_nodes":"31","size_leaf_vector":"1"}},{"base_weights":[-3.9467365E-2,-4.143818E-1,7.8290004E-1,-5.400964E-1,-9.311576E-2,5.3199154E-1,1.3456849E0,-5.609433E-1,-3.9816976E-1,-2.1614069E-1,3.1733964E-2,3.6393553E-1,7.352865E-1,1.1846335E0,1.8230475E0,-2.8220112E-2,-2.5699679E-2,-2.2455404E-2,-1.783009E-2,-8.562204E-3,-1.517384E-2,-1.7656013E-3,7.608296E-3,2.1551412E-2,8.254007E-3,4.0315118E-2,2.284197E-2,5.367548E-2,6.846545E-2,8.3873056E-2,1.0968071E-1],"categories":[],"categories_nodes":[],"categories_segments":[],"categories_sizes":[],"default_left":[0,0,0,0,0,0,0,0,0,0,0,0,0,0,0,0,0,0,0,0,0,0,0,0,0,0,0,0,0,0,0],"id":29,"left_children":[1,3,5,7,9,11,13,15,17,19,21,23,25,27,29,-1,-1,-1,-1,-1,-1,-1,-1,-1,-1,-1,-1,-1,-1,-1,-1],"loss_changes":[2.5260855E4,2.272794E3,3.622079E3,1.1945117E2,2.4313199E2,6.060337E2,6.06001E2,5.4365234E0,1.0815735E1,3.1210205E1,6.3446793E1,1.2957251E2,1.5842188E2,1.1997461E2,1.0388037E2,0E0,0E0,0E0,0E0,0E0,0E0,0E0,0E0,0E0,0E0,0E0,0E0,0E0,0E0,0E0,0E0],"parents":[2147483647,0,0,1,1,2,2,3,3,4,4,5,5,6,6,7,7,8,8,9,9,10,10,11,11,12,12,13,13,14,14],"right_children":[2,4,6,8,10,12,14,16,18,20,22,24,26,28,30,-1,-1,-1,-1,-1,-1,-1,-1,-1,-1,-1,-1,-1,-1,-1,-1],"split_conditions":[1.6842106E-1,5.277402E-2,3.7815127E-1,1.8867925E-2,1.0169491E-1,2.6190478E-1,5.744681E-1,4.4247787E-3,3.254438E-2,1E0,1.21476166E-1,1E0,1E0,4.7147146E-1,7.5E-1,-2.8220112E-2,-2.5699679E-2,-2.2455404E-2,-1.783009E-2,-8.562204E-3,-1.517384E-2,-1.7656013E-3,7.608296E-3,2.1551412E-2,8.254007E-3,4.0315118E-2,2.284197E-2,5.367548E-2,6.846545E-2,8.3873056E-2,1.0968071E-1],"split_indices":[32,32,32,32,32,32,32,32,32,65,7,65,65,32,32,0,0,0,0,0,0,0,0,0,0,0,0,0,0,0,0],"split_type":[0,0,0,0,0,0,0,0,0,0,0,0,0,0,0,0,0,0,0,0,0,0,0,0,0,0,0,0,0,0,0],"sum_hessian":[8.192928E4,5.627445E4,2.565483E4,4.044661E4,1.5827842E4,1.7745314E4,7.9095156E3,3.526392E4,5.1826855E3,7.971813E3,7.856029E3,9.716146E3,8.0291694E3,5.916802E3,1.9927139E3,3.2833926E4,2.4299978E3,2.3244482E3,2.8582375E3,5.2671216E3,2.7046917E3,5.0470044E3,2.8090242E3,7.2641084E3,2.4520376E3,6.3960176E3,1.6331517E3,3.6982705E3,2.218531E3,1.434616E3,5.580979E2],"tree_param":{"num_deleted":"0","num_feature":"78","num_nodes":"31","size_leaf_vector":"1"}},{"base_weights":[1.4524207E-2,7.713832E-1,-5.324992E-1,1.2371889E0,-1.3983625E-1,-5.433749E-1,1.1806693E0,1.2900696E0,-2.8237998E-2,7.663606E-2,-3.9263135E-1,-1.967718E-1,-5.62246E-1,2.0140243E0,7.5454134E-1,7.313975E-2,5.073848E-2,-1.9347858E-4,3.750633E-2,-2.0927113E-2,2.635542E-2,3.728808E-2,-2.8232342E-2,-2.5490357E-2,-2.8142894E-2,1.03377305E-1,5.991546E-2,5.5551108E-2,1.7206281E-2],"categories":[],"categories_nodes":[],"categories_segments":[],"categories_sizes":[],"default_left":[0,0,0,0,0,0,0,0,0,0,0,0,0,0,0,0,0,0,0,0,0,0,0,0,0,0,0,0,0],"id":30,"left_children":[1,3,5,7,9,11,13,15,-1,17,19,21,23,25,27,-1,-1,-1,-1,-1,-1,-1,-1,-1,-1,-1,-1,-1,-1],"loss_changes":[3.4125816E4,1.467785E4,8.920928E2,2.181207E3,6.402023E2,3.1086523E2,1.0577359E2,1.055625E3,0E0,3.417379E2,1.2882855E2,8.521595E2,1.1591797E0,1.959198E0,2.9099876E1,0E0,0E0,0E0,0E0,0E0,0E0,0E0,0E0,0E0,0E0,0E0,0E0,0E0,0E0],"parents":[2147483647,0,0,1,1,2,2,3,3,4,4,5,5,6,6,7,7,9,9,10,10,11,11,12,12,13,13,14,14],"right_children":[2,4,6,8,10,12,14,16,-1,18,20,22,24,26,28,-1,-1,-1,-1,-1,-1,-1,-1,-1,-1,-1,-1,-1,-1],"split_conditions":[7.9713034E-4,2.898815E-1,1E0,4E-1,4.8492792E-1,6.476684E-3,1.3140604E-3,1.037037E-1,-2.8237998E-2,1E0,1E0,3.084112E-1,1.3E2,7.393484E-2,1.4483628E-1,7.313975E-2,5.073848E-2,-1.9347858E-4,3.750633E-2,-2.0927113E-2,2.635542E-2,3.728808E-2,-2.8232342E-2,-2.5490357E-2,-2.8142894E-2,1.03377305E-1,5.991546E-2,5.5551108E-2,1.7206281E-2],"split_indices":[49,38,69,46,38,49,49,38,0,69,69,38,52,4,44,0,0,0,0,0,0,0,0,0,0,0,0,0,0],"split_type":[0,0,0,0,0,0,0,0,0,0,0,0,0,0,0,0,0,0,0,0,0,0,0,0,0,0,0,0,0],"sum_hessian":[8.242361E4,3.4579355E4,4.784425E4,2.2881977E4,1.1697381E4,4.7543113E4,3.0113586E2,2.2229895E4,6.520818E2,6.3017734E3,5.3956074E3,2.4554568E3,4.5087656E4,1.0062424E2,2.0051161E2,1.3657044E4,8.57285E3,5.629809E3,6.719644E2,5.248298E3,1.4730997E2,6.890397E2,1.766417E3,5.2961676E2,4.455804E4,9.2988335E1,7.6359015E0,1.0639313E2,9.4118484E1],"tree_param":{"num_deleted":"0","num_feature":"78","num_nodes":"29","size_leaf_vector":"1"}},{"base_weights":[1.3288401E-1,-3.223147E-1,6.4796394E-1,-5.1942575E-1,-4.7118653E-2,4.4208127E-1,1.0171173E0,-5.564096E-1,-3.8550192E-1,-1.6163072E-1,2.4498059E-1,2.4120432E-1,5.789228E-1,9.177926E-1,1.5515033E0,-2.8126916E-2,-2.5298823E-2,-2.2338418E-2,-1.1038432E-2,-1.34885255E-2,-3.0037651E-3,3.5213938E-3,2.1081528E-2,5.7526757E-3,2.119688E-2,2.0189723E-2,3.4454178E-2,4.0284824E-2,5.889851E-2,6.290247E-2,8.703048E-2],"categories":[],"categories_nodes":[],"categories_segments":[],"categories_sizes":[],"default_left":[0,0,0,0,0,0,0,0,0,0,0,0,0,0,0,0,0,0,0,0,0,0,0,0,0,0,0,0,0,0,0],"id":31,"left_children":[1,3,5,7,9,11,13,15,17,19,21,23,25,27,29,-1,-1,-1,-1,-1,-1,-1,-1,-1,-1,-1,-1,-1,-1,-1,-1],"loss_changes":[1.9622307E4,2.4099238E3,2.983588E3,1.2800098E2,6.202633E2,6.9275635E2,7.44666E2,5.984375E0,5.6470276E1,1.4627759E2,1.6100214E2,2.3543652E2,2.889619E2,3.448252E2,1.199917E2,0E0,0E0,0E0,0E0,0E0,0E0,0E0,0E0,0E0,0E0,0E0,0E0,0E0,0E0,0E0,0E0],"parents":[2147483647,0,0,1,1,2,2,3,3,4,4,5,5,6,6,7,7,8,8,9,9,10,10,11,11,12,12,13,13,14,14],"right_children":[2,4,6,8,10,12,14,16,18,20,22,24,26,28,30,-1,-1,-1,-1,-1,-1,-1,-1,-1,-1,-1,-1,-1,-1,-1,-1],"split_conditions":[1.6460305E-1,5.994152E-2,3.1034482E-1,1.8410042E-2,2E0,1E0,4.881356E-1,6.3660475E-3,1E0,1.1341543E-1,1.5599021E-1,2.545969E-1,2.2105263E-1,1E0,1E0,-2.8126916E-2,-2.5298823E-2,-2.2338418E-2,-1.1038432E-2,-1.34885255E-2,-3.0037651E-3,3.5213938E-3,2.1081528E-2,5.7526757E-3,2.119688E-2,2.0189723E-2,3.4454178E-2,4.0284824E-2,5.889851E-2,6.290247E-2,8.703048E-2],"split_indices":[42,42,42,42,76,76,42,42,11,42,51,42,42,11,76,0,0,0,0,0,0,0,0,0,0,0,0,0,0,0,0],"split_type":[0,0,0,0,0,0,0,0,0,0,0,0,0,0,0,0,0,0,0,0,0,0,0,0,0,0,0,0,0,0,0],"sum_hessian":[8.3688266E4,4.4426766E4,3.9261504E4,2.5885332E4,1.8541432E4,2.5205943E4,1.405556E4,2.0281357E4,5.603975E3,1.3320015E4,5.221417E3,1.0214419E4,1.4991524E4,1.18548545E4,2.2007056E3,1.807473E4,2.206626E3,4.0835408E3,1.5204342E3,6.450083E3,6.869931E3,2.6270024E3,2.5944148E3,6.0437305E3,4.170689E3,5.790588E3,9.200937E3,8.288076E3,3.5667783E3,8.6541364E2,1.335292E3],"tree_param":{"num_deleted":"0","num_feature":"78","num_nodes":"31","size_leaf_vector":"1"}},{"base_weights":[-8.018663E-2,-3.963834E-1,3.5682848E-1,-5.111192E-1,-1.8635432E-1,2.0596673E-1,6.767235E-1,-5.526029E-1,-4.295374E-1,-2.8455934E-1,-1.05488464E-1,9.154113E-2,3.0508748E-1,5.65213E-1,9.0763426E-1,-2.803128E-2,-2.6197458E-2,-2.185165E-2,-4.070412E-3,-1.4937393E-2,6.9448486E-4,-2.7526254E-3,-1.250946E-2,-1.5722003E-2,5.438358E-3,1.8436365E-2,6.0734497E-3,3.2181073E-2,1.6948678E-2,3.2429967E-2,5.426833E-2],"categories":[],"categories_nodes":[],"categories_segments":[],"categories_sizes":[],"default_left":[0,0,0,0,0,0,0,0,0,0,0,0,0,0,0,0,0,0,0,0,0,0,0,0,0,0,0,0,0,0,0],"id":32,"left_children":[1,3,5,7,9,11,13,15,17,19,21,23,25,27,29,-1,-1,-1,-1,-1,-1,-1,-1,-1,-1,-1,-1,-1,-1,-1,-1],"loss_changes":[1.1180263E4,1.131144E3,1.6390391E3,1.02504395E2,1.3168835E2,2.6176953E2,2.7974902E2,4.3325195E0,2.6679688E1,3.1718872E1,6.638236E1,7.497168E1,1.4447888E2,1.3003125E2,1.6240674E2,0E0,0E0,0E0,0E0,0E0,0E0,0E0,0E0,0E0,0E0,0E0,0E0,0E0,0E0,0E0,0E0],"parents":[2147483647,0,0,1,1,2,2,3,3,4,4,5,5,6,6,7,7,8,8,9,9,10,10,11,11,12,12,13,13,14,14],"right_children":[2,4,6,8,10,12,14,16,18,20,22,24,26,28,30,-1,-1,-1,-1,-1,-1,-1,-1,-1,-1,-1,-1,-1,-1,-1,-1],"split_conditions":[1.1893584E-1,4.706685E-2,2.333887E-1,1.4450867E-2,7.901235E-2,1.743215E-1,3.2332957E-1,4.237288E-3,1E0,1E0,1E0,6.4404435E-2,1E0,1E0,1E0,-2.803128E-2,-2.6197458E-2,-2.185165E-2,-4.070412E-3,-1.4937393E-2,6.9448486E-4,-2.7526254E-3,-1.250946E-2,-1.5722003E-2,5.438358E-3,1.8436365E-2,6.0734497E-3,3.2181073E-2,1.6948678E-2,3.2429967E-2,5.426833E-2],"split_indices":[35,35,35,35,35,35,35,35,62,62,14,2,14,14,76,0,0,0,0,0,0,0,0,0,0,0,0,0,0,0,0],"split_type":[0,0,0,0,0,0,0,0,0,0,0,0,0,0,0,0,0,0,0,0,0,0,0,0,0,0,0,0,0,0,0],"sum_hessian":[8.090721E4,4.6942586E4,3.3964625E4,3.0357371E4,1.6585217E4,2.3081219E4,1.0883406E4,2.0120488E4,1.0236884E4,7.48851E3,9.096706E3,1.0714387E4,1.2366832E4,7.3415186E3,3.541888E3,1.5704764E4,4.415724E3,1.0020867E4,2.1601653E2,7.148656E3,3.398541E2,6.746552E3,2.3501545E3,4.3541125E2,1.0278976E4,9.183084E3,3.1837483E3,5.4506333E3,1.8908851E3,1.4431809E3,2.0987068E3],"tree_param":{"num_deleted":"0","num_feature":"78","num_nodes":"31","size_leaf_vector":"1"}},{"base_weights":[-1.8714803E-1,-4.4558278E-1,4.0311798E-1,-5.396977E-1,-2.0069502E-1,2.0952567E-1,8.6710125E-1,-5.6039953E-1,-4.4506714E-1,-2.8479904E-1,-1.19239375E-1,1.0879935E-1,3.7607783E-1,7.4581176E-1,1.4323292E0,-2.81164E-2,-2.6094262E-2,-2.2717567E-2,-1.4707497E-2,-1.5240148E-2,-1.2675665E-3,-1.658888E-2,-3.954585E-3,-5.386452E-3,7.401284E-3,9.235998E-3,2.2268428E-2,3.126127E-2,4.580428E-2,6.116891E-2,8.638904E-2],"categories":[],"categories_nodes":[],"categories_segments":[],"categories_sizes":[],"default_left":[0,0,0,0,0,0,0,0,0,0,0,0,0,0,0,0,0,0,0,0,0,0,0,0,0,0,0,0,0,0,0],"id":33,"left_children":[1,3,5,7,9,11,13,15,17,19,21,23,25,27,29,-1,-1,-1,-1,-1,-1,-1,-1,-1,-1,-1,-1,-1,-1,-1,-1],"loss_changes":[1.2113344E4,1.2727539E3,2.1717944E3,7.790527E1,1.05015564E2,2.8621082E2,4.8694824E2,2.1376953E0,9.906738E0,3.9143555E1,6.645694E1,9.0337425E1,8.5174255E1,1.1980884E2,7.545996E1,0E0,0E0,0E0,0E0,0E0,0E0,0E0,0E0,0E0,0E0,0E0,0E0,0E0,0E0,0E0,0E0],"parents":[2147483647,0,0,1,1,2,2,3,3,4,4,5,5,6,6,7,7,8,8,9,9,10,10,11,11,12,12,13,13,14,14],"right_children":[2,4,6,8,10,12,14,16,18,20,22,24,26,28,30,-1,-1,-1,-1,-1,-1,-1,-1,-1,-1,-1,-1,-1,-1,-1,-1],"split_conditions":[1.1888112E-1,4.1722745E-2,2.5528702E-1,1.1111111E-2,7.7586204E-2,1.8958333E-1,4.534413E-1,6.012024E-3,1E0,1E0,6.25E-2,8.396561E-2,3E0,3.3904108E-1,5.647668E-1,-2.81164E-2,-2.6094262E-2,-2.2717567E-2,-1.4707497E-2,-1.5240148E-2,-1.2675665E-3,-1.658888E-2,-3.954585E-3,-5.386452E-3,7.401284E-3,9.235998E-3,2.2268428E-2,3.126127E-2,4.580428E-2,6.116891E-2,8.638904E-2],"split_indices":[28,28,28,28,28,28,28,28,63,63,36,36,17,28,28,0,0,0,0,0,0,0,0,0,0,0,0,0,0,0,0],"split_type":[0,0,0,0,0,0,0,0,0,0,0,0,0,0,0,0,0,0,0,0,0,0,0,0,0,0,0,0,0,0,0],"sum_hessian":[7.9406016E4,5.5226555E4,2.4179465E4,3.9893527E4,1.5333028E4,1.706198E4,7.1174854E3,3.2728725E4,7.1648022E3,7.542649E3,7.790379E3,1.0633048E4,6.428932E3,5.8619233E3,1.255562E3,3.1155117E4,1.5736069E3,6.7476836E3,4.171186E2,7.002563E3,5.400862E2,1.2366104E3,6.553769E3,1.6305737E3,9.002475E3,1.7100391E3,4.718893E3,3.4343904E3,2.4275332E3,7.3845123E2,5.171108E2],"tree_param":{"num_deleted":"0","num_feature":"78","num_nodes":"31","size_leaf_vector":"1"}},{"base_weights":[-2.8040165E-1,-4.9663445E-1,6.208509E-1,-5.493932E-1,-1.5701956E-1,3.68871E-1,1.3853488E0,-5.6049633E-1,-4.5275685E-1,-1.830892E-1,2.0584352E-1,2.2961898E-1,6.0400116E-1,1.0964495E0,1.7588899E0,-2.8183261E-2,-2.6482238E-2,-2.2909593E-2,-7.970651E-3,-1.2342709E-2,-2.2990506E-3,1.4493314E-2,6.3944963E-4,6.7865537E-3,1.5924934E-2,2.3998342E-2,3.6299754E-2,5.082904E-2,6.9259346E-2,9.184319E-2,5.066454E-2],"categories":[],"categories_nodes":[],"categories_segments":[],"categories_sizes":[],"default_left":[0,0,0,0,0,0,0,0,0,0,0,0,0,0,0,0,0,0,0,0,0,0,0,0,0,0,0,0,0,0,0],"id":34,"left_children":[1,3,5,7,9,11,13,15,17,19,21,23,25,27,29,-1,-1,-1,-1,-1,-1,-1,-1,-1,-1,-1,-1,-1,-1,-1,-1],"loss_changes":[1.5222229E4,1.1286455E3,2.9111177E3,5.8248047E1,8.017857E1,3.7211072E2,4.0237305E2,4.482422E0,8.893799E0,6.9095215E1,9.215076E0,5.95542E1,6.362915E1,4.7371094E1,9.303125E1,0E0,0E0,0E0,0E0,0E0,0E0,0E0,0E0,0E0,0E0,0E0,0E0,0E0,0E0,0E0,0E0],"parents":[2147483647,0,0,1,1,2,2,3,3,4,4,5,5,6,6,7,7,8,8,9,9,10,10,11,11,12,12,13,13,14,14],"right_children":[2,4,6,8,10,12,14,16,18,20,22,24,26,28,30,-1,-1,-1,-1,-1,-1,-1,-1,-1,-1,-1,-1,-1,-1,-1,-1],"split_conditions":[1.3478261E-1,4.3254375E-2,3.4473684E-1,1.2269938E-2,1E0,2.2222222E-1,5E-1,2.754821E-3,1E0,9.612403E-2,1.7246485E-1,1.7377049E-1,2.6867118E-1,1E0,1E0,-2.8183261E-2,-2.6482238E-2,-2.2909593E-2,-7.970651E-3,-1.2342709E-2,-2.2990506E-3,1.4493314E-2,6.3944963E-4,6.7865537E-3,1.5924934E-2,2.3998342E-2,3.6299754E-2,5.082904E-2,6.9259346E-2,9.184319E-2,5.066454E-2],"split_indices":[37,37,37,37,64,37,37,37,64,37,44,37,37,12,65,0,0,0,0,0,0,0,0,0,0,0,0,0,0,0,0],"split_type":[0,0,0,0,0,0,0,0,0,0,0,0,0,0,0,0,0,0,0,0,0,0,0,0,0,0,0,0,0,0,0],"sum_hessian":[7.810804E4,6.2994535E4,1.51135E4,5.4523723E4,8.470812E3,1.1368051E4,3.7454487E3,4.8900457E4,5.6232686E3,7.9034863E3,5.6732495E2,7.140929E3,4.227122E3,2.1142266E3,1.6312222E3,4.4329934E4,4.570522E3,5.5204263E3,1.0284264E2,5.3940654E3,2.509421E3,3.9493616E2,1.7238876E2,3.4738552E3,3.667074E3,2.098479E3,2.128643E3,1.6596625E3,4.5456415E2,1.4754572E3,1.5576508E2],"tree_param":{"num_deleted":"0","num_feature":"78","num_nodes":"31","size_leaf_vector":"1"}},{"base_weights":[7.518901E-1,1.0452134E-2,1.1337458E0,-3.3488894E-1,3.000908E-1,8.906319E-1,1.4740884E0,-4.958476E-1,-1.6150212E-1,9.533296E-2,4.4096527E-1,7.4694383E-1,1.0322691E0,1.372182E0,1.7533349E0,-2.7849315E-2,-2.1217799E-2,-1.347522E-2,-4.270193E-3,3.2718715E-3,2.2064662E-2,1.9222146E-2,3.049678E-2,3.9759193E-2,2.0048534E-2,4.9118165E-2,6.460658E-2,7.330019E-2,5.592488E-2,9.355395E-2,7.139347E-2],"categories":[],"categories_nodes":[],"categories_segments":[],"categories_sizes":[],"default_left":[0,0,0,0,0,0,0,0,0,0,0,0,0,0,0,0,0,0,0,0,0,0,0,0,0,0,0,0,0,0,0],"id":35,"left_children":[1,3,5,7,9,11,13,15,17,19,21,23,25,27,29,-1,-1,-1,-1,-1,-1,-1,-1,-1,-1,-1,-1,-1,-1,-1,-1],"loss_changes":[2.6944047E4,3.2361355E3,5.196211E3,4.117799E2,5.0751245E2,7.45E2,7.423867E2,3.3212646E1,5.8380127E1,7.415982E1,9.931885E1,3.0333594E2,2.3801953E2,4.5485547E2,2.653496E2,0E0,0E0,0E0,0E0,0E0,0E0,0E0,0E0,0E0,0E0,0E0,0E0,0E0,0E0,0E0,0E0],"parents":[2147483647,0,0,1,1,2,2,3,3,4,4,5,5,6,6,7,7,8,8,9,9,10,10,11,11,12,12,13,13,14,14],"right_children":[2,4,6,8,10,12,14,16,18,20,22,24,26,28,30,-1,-1,-1,-1,-1,-1,-1,-1,-1,-1,-1,-1,-1,-1,-1,-1],"split_conditions":[2.8088644E-1,1.2354714E-1,4.9068323E-1,4.5592707E-2,1.9752322E-1,3.8957816E-1,6.3322884E-1,1.4367816E-2,8.258747E-2,1E0,3.620178E-1,1E0,3.783086E-1,1E0,1E0,-2.7849315E-2,-2.1217799E-2,-1.347522E-2,-4.270193E-3,3.2718715E-3,2.2064662E-2,1.9222146E-2,3.049678E-2,3.9759193E-2,2.0048534E-2,4.9118165E-2,6.460658E-2,7.330019E-2,5.592488E-2,9.355395E-2,7.139347E-2],"split_indices":[47,47,47,47,47,47,47,47,47,56,5,67,5,11,11,0,0,0,0,0,0,0,0,0,0,0,0,0,0,0,0],"split_type":[0,0,0,0,0,0,0,0,0,0,0,0,0,0,0,0,0,0,0,0,0,0,0,0,0,0,0,0,0,0,0],"sum_hessian":[9.516656E4,3.2351545E4,6.281501E4,1.4756712E4,1.7594834E4,3.664344E4,2.6171572E4,7.6516567E3,7.105055E3,7.172071E3,1.0422764E4,1.8193145E4,1.8450297E4,1.917858E4,6.9929917E3,4.1208086E3,3.530848E3,2.935836E3,4.169219E3,6.602699E3,5.693712E2,7.8126304E3,2.6101328E3,1.5965704E4,2.2274404E3,1.5481836E4,2.9684612E3,1.39971455E4,5.181435E3,5.131728E3,1.8612637E3],"tree_param":{"num_deleted":"0","num_feature":"78","num_nodes":"31","size_leaf_vector":"1"}},{"base_weights":[-4.8801008E-1,-5.0324076E-1,6.9367063E-1,-5.0878793E-1,4.3766454E-1,5.575724E-1,8.973125E-1,-5.550984E-1,-4.9148163E-1,-5.8003917E-2,5.2296853E-1,2.4109061E-1,6.4612365E-1,1.2069874E0,5.2848744E-1,-2.812389E-2,-2.6865855E-2,-2.5943145E-2,-2.307347E-2,5.3534578E-3,-1.574768E-2,3.636172E-2,1.5611093E-2,4.816922E-3,3.4114853E-2,3.525427E-2,6.093106E-3,6.905841E-2,3.8161546E-2,-1.1821525E-3,3.1067315E-2],"categories":[],"categories_nodes":[],"categories_segments":[],"categories_sizes":[],"default_left":[0,0,0,0,0,0,0,0,0,0,0,0,0,0,0,0,0,0,0,0,0,0,0,0,0,0,0,0,0,0,0],"id":36,"left_children":[1,3,5,7,9,11,13,15,17,19,21,23,25,27,29,-1,-1,-1,-1,-1,-1,-1,-1,-1,-1,-1,-1,-1,-1,-1,-1],"loss_changes":[1.3569551E3,3.886328E2,2.6094757E1,5.9021484E1,1.8495094E1,1.6037506E1,4.307962E1,2.338379E0,4.402539E1,2.7916026E0,1.581617E1,8.104088E0,1.3851898E1,1.4967804E1,9.062637E0,0E0,0E0,0E0,0E0,0E0,0E0,0E0,0E0,0E0,0E0,0E0,0E0,0E0,0E0,0E0,0E0],"parents":[2147483647,0,0,1,1,2,2,3,3,4,4,5,5,6,6,7,7,8,8,9,9,10,10,11,11,12,12,13,13,14,14],"right_children":[2,4,6,8,10,12,14,16,18,20,22,24,26,28,30,-1,-1,-1,-1,-1,-1,-1,-1,-1,-1,-1,-1,-1,-1,-1,-1],"split_conditions":[1E0,1E0,1E0,1E0,1.0763711E-2,1.2743126E-2,1.923077E-2,1.10091746E-1,1.4322917E-2,2.1459227E-3,2.8490028E-3,8.5670575E-2,1.6827853E-1,2.8490028E-3,1.1220196E-2,-2.812389E-2,-2.6865855E-2,-2.5943145E-2,-2.307347E-2,5.3534578E-3,-1.574768E-2,3.636172E-2,1.5611093E-2,4.816922E-3,3.4114853E-2,3.525427E-2,6.093106E-3,6.905841E-2,3.8161546E-2,-1.1821525E-3,3.1067315E-2],"split_indices":[66,57,11,24,6,6,28,36,6,29,46,3,36,46,6,0,0,0,0,0,0,0,0,0,0,0,0,0,0,0,0],"split_type":[0,0,0,0,0,0,0,0,0,0,0,0,0,0,0,0,0,0,0,0,0,0,0,0,0,0,0,0,0,0,0],"sum_hessian":[7.5375125E4,7.441654E4,9.585805E2,7.398084E4,4.356997E2,5.7681854E2,3.8176196E2,2.0117277E4,5.3863566E4,6.402064E1,3.7167908E2,1.2692207E2,4.4989645E2,2.0628629E2,1.7547568E2,1.4195411E4,5.921865E3,2.815783E4,2.5705736E4,3.9334282E1,2.4686354E1,1.8749706E2,1.8418202E2,9.648528E1,3.0436792E1,4.0410352E2,4.5792934E1,1.4662247E2,5.966382E1,2.5370485E1,1.501052E2],"tree_param":{"num_deleted":"0","num_feature":"78","num_nodes":"31","size_leaf_vector":"1"}},{"base_weights":[-3.9560832E-2,-4.1717944E-1,7.243272E-1,-5.373956E-1,-1.0481253E-1,4.705453E-1,1.2018113E0,-5.5818063E-1,-3.9047047E-1,-1.4738762E-1,2.8709555E-1,3.4726882E-1,6.9084144E-1,1.0147719E0,1.5389693E0,-2.8103113E-2,-2.5113126E-2,-2.0329127E-2,-2.036498E-3,-1.2751388E-2,-2.5967157E-3,8.909556E-3,2.3444898E-2,1.370827E-2,3.415944E-2,3.101033E-2,4.7622565E-2,4.605296E-2,6.365527E-2,6.975285E-2,9.114315E-2],"categories":[],"categories_nodes":[],"categories_segments":[],"categories_sizes":[],"default_left":[0,0,0,0,0,0,0,0,0,0,0,0,0,0,0,0,0,0,0,0,0,0,0,0,0,0,0,0,0,0,0],"id":37,"left_children":[1,3,5,7,9,11,13,15,17,19,21,23,25,27,29,-1,-1,-1,-1,-1,-1,-1,-1,-1,-1,-1,-1,-1,-1,-1,-1],"loss_changes":[2.3525379E4,2.0493691E3,3.2686865E3,1.20131836E2,2.5313118E2,4.7821387E2,5.8884375E2,7.211914E0,2.7524536E1,1.4056906E2,2.9351196E1,2.7726733E2,1.1620239E2,1.4468018E2,1.3385986E2,0E0,0E0,0E0,0E0,0E0,0E0,0E0,0E0,0E0,0E0,0E0,0E0,0E0,0E0,0E0,0E0],"parents":[2147483647,0,0,1,1,2,2,3,3,4,4,5,5,6,6,7,7,8,8,9,9,10,10,11,11,12,12,13,13,14,14],"right_children":[2,4,6,8,10,12,14,16,18,20,22,24,26,28,30,-1,-1,-1,-1,-1,-1,-1,-1,-1,-1,-1,-1,-1,-1,-1,-1],"split_conditions":[1.6161616E-1,5.277402E-2,3.575419E-1,1.9704433E-2,1E0,2.7737227E-1,5.0840336E-1,6.2305294E-3,1E0,9.52381E-2,1.25E-1,1E0,1E0,1E0,6.6086954E-1,-2.8103113E-2,-2.5113126E-2,-2.0329127E-2,-2.036498E-3,-1.2751388E-2,-2.5967157E-3,8.909556E-3,2.3444898E-2,1.370827E-2,3.415944E-2,3.101033E-2,4.7622565E-2,4.605296E-2,6.365527E-2,6.975285E-2,9.114315E-2],"split_indices":[32,32,32,32,67,32,32,32,67,32,32,67,67,67,32,0,0,0,0,0,0,0,0,0,0,0,0,0,0,0,0],"split_type":[0,0,0,0,0,0,0,0,0,0,0,0,0,0,0,0,0,0,0,0,0,0,0,0,0,0,0,0,0,0,0],"sum_hessian":[8.15535E4,5.4575324E4,2.697818E4,3.9408152E4,1.5167172E4,1.7616846E4,9.361335E3,3.4521676E4,4.886475E3,1.3681501E4,1.4856715E3,1.1297438E4,6.3194062E3,6.0236865E3,3.337649E3,3.2272398E4,2.2492766E3,4.67112E3,2.1535469E2,6.429479E3,7.252022E3,9.303484E2,5.5532306E2,9.279775E3,2.0176636E3,4.9785625E3,1.3408438E3,4.4235635E3,1.600123E3,2.2188015E3,1.1188473E3],"tree_param":{"num_deleted":"0","num_feature":"78","num_nodes":"31","size_leaf_vector":"1"}},{"base_weights":[1.4617355E-2,-5.112164E-1,1.1866248E0,-5.589781E-1,2.9498238E-2,7.872222E-1,1.6112689E0,-5.6238794E-1,-3.5075915E-1,-1.4939669E-1,1.3341081E-1,5.57358E-1,9.8381484E-1,1.4403495E0,1.9616357E0,-2.813162E-2,-2.4447907E-2,-1.9585561E-2,-1.4592774E-2,-4.175508E-3,-1.2501103E-2,1.8788519E-3,1.0270457E-2,2.2194274E-2,3.3925112E-2,4.389696E-2,5.463341E-2,6.6971086E-2,7.8354836E-2,9.398156E-2,1.15642585E-1],"categories":[],"categories_nodes":[],"categories_segments":[],"categories_sizes":[],"default_left":[0,0,0,0,0,0,0,0,0,0,0,0,0,0,0,0,0,0,0,0,0,0,0,0,0,0,0,0,0,0,0],"id":38,"left_children":[1,3,5,7,9,11,13,15,17,19,21,23,25,27,29,-1,-1,-1,-1,-1,-1,-1,-1,-1,-1,-1,-1,-1,-1,-1,-1],"loss_changes":[5.0827336E4,1.4702959E3,4.3309023E3,3.694336E1,8.593273E1,5.94354E2,7.385039E2,6.484375E-1,1.9252472E0,1.1240555E1,2.01675E1,8.315503E1,8.080469E1,1.0438672E2,1.1247461E2,0E0,0E0,0E0,0E0,0E0,0E0,0E0,0E0,0E0,0E0,0E0,0E0,0E0,0E0,0E0,0E0],"parents":[2147483647,0,0,1,1,2,2,3,3,4,4,5,5,6,6,7,7,8,8,9,9,10,10,11,11,12,12,13,13,14,14],"right_children":[2,4,6,8,10,12,14,16,18,20,22,24,26,28,30,-1,-1,-1,-1,-1,-1,-1,-1,-1,-1,-1,-1,-1,-1,-1,-1],"split_conditions":[2.1052632E-1,6.818182E-2,5.0364965E-1,1.8181818E-2,1.25E-1,3.5643566E-1,6.930693E-1,9.259259E-3,4.6875E-2,1E0,1.5789473E-1,2.8834355E-1,4.2857143E-1,5.974026E-1,8.674699E-1,-2.813162E-2,-2.4447907E-2,-1.9585561E-2,-1.4592774E-2,-4.175508E-3,-1.2501103E-2,1.8788519E-3,1.0270457E-2,2.2194274E-2,3.3925112E-2,4.389696E-2,5.463341E-2,6.6971086E-2,7.8354836E-2,9.398156E-2,1.15642585E-1],"split_indices":[33,33,33,33,33,33,33,33,33,73,33,33,33,33,33,0,0,0,0,0,0,0,0,0,0,0,0,0,0,0,0],"split_type":[0,0,0,0,0,0,0,0,0,0,0,0,0,0,0,0,0,0,0,0,0,0,0,0,0,0,0,0,0,0,0],"sum_hessian":[8.247229E4,5.693041E4,2.554188E4,5.2309816E4,4.6205938E3,1.3163602E4,1.2378278E4,5.1465305E4,8.445121E2,1.6975941E3,2.9229998E3,6.070066E3,7.093536E3,8.323123E3,4.0551555E3,5.128791E4,1.7739572E2,4.9483432E2,3.4967773E2,1.0269847E3,6.706094E2,1.254591E3,1.6684088E3,3.1366829E3,2.9333828E3,3.6005469E3,3.4929895E3,4.6399424E3,3.6831804E3,3.2927012E3,7.6245435E2],"tree_param":{"num_deleted":"0","num_feature":"78","num_nodes":"31","size_leaf_vector":"1"}},{"base_weights":[1.3181554E-1,-3.49179E-1,5.884866E-1,-5.2402264E-1,-9.3906626E-2,3.755727E-1,9.1600895E-1,-5.534961E-1,-3.861584E-1,-1.8539533E-1,1.4713755E-1,2.7445948E-1,6.23561E-1,7.6704943E-1,1.2235192E0,-2.7989624E-2,-2.47149E-2,-2.1929516E-2,-1.2157237E-2,-5.8996277E-3,-1.6386172E-2,-7.795712E-4,1.5043377E-2,7.2398144E-3,2.1083584E-2,2.3181474E-2,3.7524533E-2,4.0007126E-2,2.6510376E-3,6.698714E-2,3.7225284E-2],"categories":[],"categories_nodes":[],"categories_segments":[],"categories_sizes":[],"default_left":[0,0,0,0,0,0,0,0,0,0,0,0,0,0,0,0,0,0,0,0,0,0,0,0,0,0,0,0,0,0,0],"id":39,"left_children":[1,3,5,7,9,11,13,15,17,19,21,23,25,27,29,-1,-1,-1,-1,-1,-1,-1,-1,-1,-1,-1,-1,-1,-1,-1,-1],"loss_changes":[1.8482617E4,1.8290225E3,3.00958E3,9.861377E1,3.674257E2,6.557849E2,7.7795996E2,7.1904297E0,3.204016E1,1.15817566E2,1.1468325E2,3.546847E2,1.5344775E2,2.7069873E2,3.07833E2,0E0,0E0,0E0,0E0,0E0,0E0,0E0,0E0,0E0,0E0,0E0,0E0,0E0,0E0,0E0,0E0],"parents":[2147483647,0,0,1,1,2,2,3,3,4,4,5,5,6,6,7,7,8,8,9,9,10,10,11,11,12,12,13,13,14,14],"right_children":[2,4,6,8,10,12,14,16,18,20,22,24,26,28,30,-1,-1,-1,-1,-1,-1,-1,-1,-1,-1,-1,-1,-1,-1,-1,-1],"split_conditions":[1.5434606E-1,5.2595627E-2,2.9968455E-1,2.1333333E-2,1E0,1E0,4.1248304E-1,8.510638E-3,1E0,1E0,1.05294116E-1,2.2799423E-1,2.155477E-1,7.089202E-1,4.947183E-1,-2.7989624E-2,-2.47149E-2,-2.1929516E-2,-1.2157237E-2,-5.8996277E-3,-1.6386172E-2,-7.795712E-4,1.5043377E-2,7.2398144E-3,2.1083584E-2,2.3181474E-2,3.7524533E-2,4.0007126E-2,2.6510376E-3,6.698714E-2,3.7225284E-2],"split_indices":[42,42,42,42,11,11,42,42,11,12,42,42,42,30,30,0,0,0,0,0,0,0,0,0,0,0,0,0,0,0,0],"split_type":[0,0,0,0,0,0,0,0,0,0,0,0,0,0,0,0,0,0,0,0,0,0,0,0,0,0,0,0,0,0,0],"sum_hessian":[8.414142E4,4.097949E4,4.316193E4,2.4320562E4,1.6658928E4,2.6158867E4,1.7003062E4,2.0034453E4,4.286108E3,1.2075778E4,4.58315E3,1.858375E4,7.5751167E3,1.1456818E4,5.546244E3,1.8100799E4,1.9336556E3,3.134768E3,1.1513398E3,8.196136E3,3.8796423E3,2.226847E3,2.3563032E3,9.881871E3,8.70188E3,3.3538767E3,4.2212397E3,1.0949234E4,5.0758377E2,4.461862E3,1.0843823E3],"tree_param":{"num_deleted":"0","num_feature":"78","num_nodes":"31","size_leaf_vector":"1"}},{"base_weights":[-8.054634E-2,-3.3411407E-1,3.824895E-1,-5.046453E-1,-1.3755482E-1,5.988899E-1,4.045287E-2,-5.5007315E-1,-3.9628726E-1,4.2659737E-2,-3.84511E-1,4.607635E-1,9.085776E-1,-8.2448356E-2,6.837287E-1,-2.7997091E-2,-2.4971506E-2,-1.5216291E-2,-2.5127575E-2,-4.319836E-3,7.126181E-3,-2.1580365E-2,-1.647183E-2,1.5661096E-2,2.710773E-2,4.1351E-2,6.095798E-2,-1.1389515E-2,3.0043903E-3,2.8477773E-2,6.4203374E-2],"categories":[],"categories_nodes":[],"categories_segments":[],"categories_sizes":[],"default_left":[0,0,0,0,0,0,0,0,0,0,0,0,0,0,0,0,0,0,0,0,0,0,0,0,0,0,0,0,0,0,0],"id":40,"left_children":[1,3,5,7,9,11,13,15,17,19,21,23,25,27,29,-1,-1,-1,-1,-1,-1,-1,-1,-1,-1,-1,-1,-1,-1,-1,-1],"loss_changes":[9.462572E3,1.74548E3,2.1107773E3,1.3703809E2,1.0767295E3,7.467422E2,8.738245E2,9.538086E0,8.037317E1,1.8028287E2,2.6331787E1,1.4490918E2,1.3543457E2,1.9226474E2,1.207912E2,0E0,0E0,0E0,0E0,0E0,0E0,0E0,0E0,0E0,0E0,0E0,0E0,0E0,0E0,0E0,0E0],"parents":[2147483647,0,0,1,1,2,2,3,3,4,4,5,5,6,6,7,7,8,8,9,9,10,10,11,11,12,12,13,13,14,14],"right_children":[2,4,6,8,10,12,14,16,18,20,22,24,26,28,30,-1,-1,-1,-1,-1,-1,-1,-1,-1,-1,-1,-1,-1,-1,-1,-1],"split_conditions":[1.3580246E-1,5.263158E-2,1E0,2E-2,1E0,2.4679486E-1,3.1132075E-1,5.91716E-3,1E0,8.6419754E-2,4E1,1.0063336E-1,3.875E-1,1.9021739E-1,4.71831E-1,-2.7997091E-2,-2.4971506E-2,-1.5216291E-2,-2.5127575E-2,-4.319836E-3,7.126181E-3,-2.1580365E-2,-1.647183E-2,1.5661096E-2,2.710773E-2,4.1351E-2,6.095798E-2,-1.1389515E-2,3.0043903E-3,2.8477773E-2,6.4203374E-2],"split_indices":[27,27,72,27,72,27,27,27,72,27,26,2,27,27,27,0,0,0,0,0,0,0,0,0,0,0,0,0,0,0,0],"split_type":[0,0,0,0,0,0,0,0,0,0,0,0,0,0,0,0,0,0,0,0,0,0,0,0,0,0,0,0,0,0,0],"sum_hessian":[8.0591516E4,5.207466E4,2.8516854E4,2.7882633E4,2.4192027E4,1.7465805E4,1.1051048E4,1.9643316E4,8.239316E3,1.3986387E4,1.0205642E4,1.2080271E4,5.3855327E3,9.2791E3,1.7719489E3,1.6431338E4,3.211979E3,4.41898E3,3.8203367E3,6.1014604E3,7.884926E3,5.497597E3,4.7080444E3,4.2965522E3,7.783719E3,4.2683457E3,1.1171873E3,4.594034E3,4.6850654E3,1.4904431E3,2.8150577E2],"tree_param":{"num_deleted":"0","num_feature":"78","num_nodes":"31","size_leaf_vector":"1"}},{"base_weights":[-1.8218166E-1,-4.4233897E-1,3.8033184E-1,-5.322974E-1,-1.8464006E-1,2.212503E-1,9.072211E-1,-5.5467004E-1,-4.1231972E-1,-2.856999E-1,-1.2856743E-1,9.559934E-2,3.8450733E-1,7.5026846E-1,1.2638597E0,-2.8023258E-2,-2.5160903E-2,-2.1086385E-2,-1.3093123E-2,-1.5069373E-2,-4.3877577E-3,-1.7248562E-2,-4.903667E-3,-1.1498958E-3,9.479235E-3,1.1492263E-2,2.3233052E-2,2.550819E-2,3.9908353E-2,5.5877306E-2,7.8733005E-2],"categories":[],"categories_nodes":[],"categories_segments":[],"categories_sizes":[],"default_left":[0,0,0,0,0,0,0,0,0,0,0,0,0,0,0,0,0,0,0,0,0,0,0,0,0,0,0,0,0,0,0],"id":41,"left_children":[1,3,5,7,9,11,13,15,17,19,21,23,25,27,29,-1,-1,-1,-1,-1,-1,-1,-1,-1,-1,-1,-1,-1,-1,-1,-1],"loss_changes":[1.1503469E4,1.2459033E3,2.0833875E3,1.0671094E2,7.878247E1,3.9166406E2,3.2172314E2,9.728516E0,8.758179E0,1.5384003E1,5.901126E1,1.20291016E2,1.02839966E2,4.5656982E1,7.828247E1,0E0,0E0,0E0,0E0,0E0,0E0,0E0,0E0,0E0,0E0,0E0,0E0,0E0,0E0,0E0,0E0],"parents":[2147483647,0,0,1,1,2,2,3,3,4,4,5,5,6,6,7,7,8,8,9,9,10,10,11,11,12,12,13,13,14,14],"right_children":[2,4,6,8,10,12,14,16,18,20,22,24,26,28,30,-1,-1,-1,-1,-1,-1,-1,-1,-1,-1,-1,-1,-1,-1,-1,-1],"split_conditions":[1.1764706E-1,4.477612E-2,2.857143E-1,1.7045455E-2,7.067138E-2,1.86722E-1,4.1333333E-1,4.9261083E-3,1E0,1E0,5.529954E-2,7.78781E-2,7.399577E-2,6.623735E-2,5.647668E-1,-2.8023258E-2,-2.5160903E-2,-2.1086385E-2,-1.3093123E-2,-1.5069373E-2,-4.3877577E-3,-1.7248562E-2,-4.903667E-3,-1.1498958E-3,9.479235E-3,1.1492263E-2,2.3233052E-2,2.550819E-2,3.9908353E-2,5.5877306E-2,7.8733005E-2],"split_indices":[28,28,28,28,28,28,28,28,63,63,36,3,3,3,28,0,0,0,0,0,0,0,0,0,0,0,0,0,0,0,0],"split_type":[0,0,0,0,0,0,0,0,0,0,0,0,0,0,0,0,0,0,0,0,0,0,0,0,0,0,0,0,0,0,0],"sum_hessian":[7.86046E4,5.3747223E4,2.485738E4,3.9839016E4,1.3908207E4,1.9093867E4,5.7635146E3,3.3574613E4,6.264402E3,4.961675E3,8.946532E3,1.0790519E4,8.303349E3,4.0043499E3,1.7591647E3,3.016697E4,3.4076438E3,5.894049E3,3.7035345E2,4.596842E3,3.648329E2,1.1037026E3,7.84283E3,4.7709536E3,6.0195645E3,2.835644E3,5.4677046E3,6.679117E2,3.3364382E3,1.1992135E3,5.599512E2],"tree_param":{"num_deleted":"0","num_feature":"78","num_nodes":"31","size_leaf_vector":"1"}},{"base_weights":[-2.7752772E-1,-4.988924E-1,6.06014E-1,-5.46708E-1,-1.6395637E-1,3.4421042E-1,1.3109756E0,-5.5853295E-1,-4.2522866E-1,-2.6389903E-1,-7.958876E-2,1.8684922E-1,5.2852523E-1,1.0101062E0,1.6764548E0,-2.8074061E-2,-2.5623132E-2,-2.154271E-2,-8.845369E-3,-1.3998292E-2,7.154923E-3,-8.785617E-3,-1.4207558E-3,5.335965E-3,1.3603744E-2,1.8138578E-2,3.1561624E-2,4.374491E-2,5.9790272E-2,7.613003E-2,1.02356985E-1],"categories":[],"categories_nodes":[],"categories_segments":[],"categories_sizes":[],"default_left":[0,0,0,0,0,0,0,0,0,0,0,0,0,0,0,0,0,0,0,0,0,0,0,0,0,0,0,0,0,0,0],"id":42,"left_children":[1,3,5,7,9,11,13,15,17,19,21,23,25,27,29,-1,-1,-1,-1,-1,-1,-1,-1,-1,-1,-1,-1,-1,-1,-1,-1],"loss_changes":[1.5075401E4,9.8701074E2,2.8496567E3,7.7240234E1,6.4915665E1,3.2654517E2,4.581172E2,6.385742E0,6.61322E0,2.3089325E1,2.0543964E1,4.147003E1,8.80625E1,5.6602295E1,1.044751E2,0E0,0E0,0E0,0E0,0E0,0E0,0E0,0E0,0E0,0E0,0E0,0E0,0E0,0E0,0E0,0E0],"parents":[2147483647,0,0,1,1,2,2,3,3,4,4,5,5,6,6,7,7,8,8,9,9,10,10,11,11,12,12,13,13,14,14],"right_children":[2,4,6,8,10,12,14,16,18,20,22,24,26,28,30,-1,-1,-1,-1,-1,-1,-1,-1,-1,-1,-1,-1,-1,-1,-1,-1],"split_conditions":[1.3170731E-1,4.6153847E-2,3.3333334E-1,1.5789473E-2,8E-2,2.0955883E-1,5E-1,5.181347E-3,1E0,1E0,5.3171642E-2,1.6974169E-1,5.7044674E-2,6.443769E-2,6.987952E-1,-2.8074061E-2,-2.5623132E-2,-2.154271E-2,-8.845369E-3,-1.3998292E-2,7.154923E-3,-8.785617E-3,-1.4207558E-3,5.335965E-3,1.3603744E-2,1.8138578E-2,3.1561624E-2,4.374491E-2,5.9790272E-2,7.613003E-2,1.02356985E-1],"split_indices":[29,29,29,29,29,29,29,29,55,55,4,29,4,4,29,0,0,0,0,0,0,0,0,0,0,0,0,0,0,0,0],"split_type":[0,0,0,0,0,0,0,0,0,0,0,0,0,0,0,0,0,0,0,0,0,0,0,0,0,0,0,0,0,0,0],"sum_hessian":[7.707599E4,6.16344E4,1.5441595E4,5.3934113E4,7.7002856E3,1.1261038E4,4.1805566E3,4.9146516E4,4.7875977E3,3.5238145E3,4.176471E3,6.0757773E3,5.1852607E3,2.2950183E3,1.8855381E3,4.6180043E4,2.9664739E3,4.680822E3,1.0677573E2,3.39029E3,1.3352441E2,1.4501342E3,2.7263372E3,3.1326675E3,2.9431099E3,1.9855005E3,3.1997603E3,1.3313624E3,9.636559E2,1.3360945E3,5.4944366E2],"tree_param":{"num_deleted":"0","num_feature":"78","num_nodes":"31","size_leaf_vector":"1"}},{"base_weights":[7.0469993E-1,6.035699E-2,1.1564511E0,-3.0575502E-1,3.5759494E-1,8.944927E-1,1.5108562E0,-4.8365304E-1,-1.1956134E-1,1.907426E-1,4.7096705E-1,7.3049134E-1,1.0178055E0,1.3828157E0,1.8869123E0,-2.7302092E-2,-1.9107653E-2,-8.257453E-3,1.4773369E-2,7.211547E-3,2.0039376E-2,2.0749426E-2,3.128807E-2,4.086544E-2,3.1719293E-2,6.429295E-2,4.8975073E-2,7.891937E-2,6.6132665E-2,8.796458E-2,1.0140852E-1],"categories":[],"categories_nodes":[],"categories_segments":[],"categories_sizes":[],"default_left":[0,0,0,0,0,0,0,0,0,0,0,0,0,0,0,0,0,0,0,0,0,0,0,0,0,0,0,0,0,0,0],"id":43,"left_children":[1,3,5,7,9,11,13,15,17,19,21,23,25,27,29,-1,-1,-1,-1,-1,-1,-1,-1,-1,-1,-1,-1,-1,-1,-1,-1],"loss_changes":[2.8579793E4,4.403881E3,5.357164E3,6.0058606E2,4.224087E2,6.7047266E2,1.1784805E3,5.8512207E1,1.6770992E2,8.823831E1,1.149707E2,1.18364746E2,1.9323633E2,2.1326172E2,1.0869922E2,0E0,0E0,0E0,0E0,0E0,0E0,0E0,0E0,0E0,0E0,0E0,0E0,0E0,0E0,0E0,0E0],"parents":[2147483647,0,0,1,1,2,2,3,3,4,4,5,5,6,6,7,7,8,8,9,9,10,10,11,11,12,12,13,13,14,14],"right_children":[2,4,6,8,10,12,14,16,18,20,22,24,26,28,30,-1,-1,-1,-1,-1,-1,-1,-1,-1,-1,-1,-1,-1,-1,-1,-1],"split_conditions":[3.0935252E-1,1.3793103E-1,5.2363634E-1,5.6E-2,2.2222222E-1,4E-1,7.2396487E-1,2.0558003E-2,1E0,1E0,1E0,3.8E1,2E0,9E0,8.333333E-1,-2.7302092E-2,-1.9107653E-2,-8.257453E-3,1.4773369E-2,7.211547E-3,2.0039376E-2,2.0749426E-2,3.128807E-2,4.086544E-2,3.1719293E-2,6.429295E-2,4.8975073E-2,7.891937E-2,6.6132665E-2,8.796458E-2,1.0140852E-1],"split_indices":[30,30,30,30,30,30,30,30,65,65,65,26,17,26,30,0,0,0,0,0,0,0,0,0,0,0,0,0,0,0,0],"split_type":[0,0,0,0,0,0,0,0,0,0,0,0,0,0,0,0,0,0,0,0,0,0,0,0,0,0,0,0,0,0,0],"sum_hessian":[9.818369E4,4.0466516E4,5.771717E4,1.8132473E4,2.2334043E4,3.318903E4,2.4528145E4,9.27199E3,8.860482E3,9.036905E3,1.3297138E4,1.4247425E4,1.8941605E4,1.830149E4,6.2266543E3,5.739638E3,3.5323523E3,7.9840933E3,8.763894E2,7.3999673E3,1.6369382E3,9.768292E3,3.528845E3,7.4814844E3,6.765941E3,2.3642065E3,1.6577398E4,4.299557E3,1.4001933E4,3.2783005E3,2.9483538E3],"tree_param":{"num_deleted":"0","num_feature":"78","num_nodes":"31","size_leaf_vector":"1"}},{"base_weights":[-4.8498383E-1,-5.475546E-1,3.355429E-1,-5.5952436E-1,-2.7124858E-1,1.028682E-1,5.490193E-1,