{"learner":{"attributes":{"best_iteration":"39","best_score":"1.987155678603143"},"feature_names":["at_bat_num","b_height_inches","balls","bases_loaded","batter_pct_CH","batter_pct_CU","batter_pct_FC","batter_pct_FF","batter_pct_FS","batter_pct_FT","batter_pct_SI","batter_pct_SL","close_game","count_category_ahead","count_category_behind","count_category_even","count_category_first_pitch","count_category_full_count","fouls","inning","is_first_pitch","late_inning","on_1b_flag","on_2b_flag","on_3b_flag","outs","p_throws_L","p_throws_R","pcount_at_bat","pcount_pitcher","pitcher_count_pct_CH","pitcher_count_pct_CU","pitcher_count_pct_FC","pitcher_count_pct_FF","pitcher_count_pct_FS","pitcher_count_pct_FT","pitcher_count_pct_SI","pitcher_count_pct_SL","pitcher_hand_count_pct_CH","pitcher_hand_count_pct_CU","pitcher_hand_count_pct_FC","pitcher_hand_count_pct_FF","pitcher_hand_count_pct_FS","pitcher_hand_count_pct_FT","pitcher_hand_count_pct_SI","pitcher_hand_count_pct_SL","pitcher_hand_pct_CH","pitcher_hand_pct_CU","pitcher_hand_pct_FC","pitcher_hand_pct_FF","pitcher_hand_pct_FS","pitcher_hand_pct_FT","pitcher_hand_pct_SI","pitcher_hand_pct_SL","pitcher_n_types","pitcher_pct_CH","pitcher_pct_CU","pitcher_pct_FC","pitcher_pct_FF","pitcher_pct_FS","pitcher_pct_FT","pitcher_pct_SI","pitcher_pct_SL","prev_pitch_type_2_CH","prev_pitch_type_2_CU","prev_pitch_type_2_FC","prev_pitch_type_2_FF","prev_pitch_type_2_FS","prev_pitch_type_2_FT","prev_pitch_type_2_NONE","prev_pitch_type_2_SI","prev_pitch_type_2_SL","prev_pitch_type_CH","prev_pitch_type_CU","prev_pitch_type_FC","prev_pitch_type_FF","prev_pitch_type_FS","prev_pitch_type_FT","prev_pitch_type_NONE","prev_pitch_type_SI","prev_pitch_type_SL","runners_on","same_hand","score_diff","stand_L","stand_R","strikes","top","total_runs"],"feature_types":["int","int","int","int","float","float","float","float","float","float","float","float","int","int","int","int","int","int","int","int","int","int","int","int","int","int","int","int","int","int","float","float","float","float","float","float","float","float","float","float","float","float","float","float","float","float","float","float","float","float","float","float","float","float","int","float","float","float","float","float","float","float","float","int","int","int","int","int","int","int","int","int","int","int","int","int","int","int","int","int","int","int","int","int","int","int","int","int","int"],"gradient_booster":{"model":{"gbtree_model_param":{"num_parallel_tree":"1","num_trees":"1120"},"iteration_indptr":[0,8,16,24,32,40,48,56,64,72,80,88,96,104,112,120,128,136,144,152,160,168,176,184,192,200,208,216,224,232,240,248,256,264,272,280,288,296,304,312,320,328,336,344,352,360,368,376,384,392,400,408,416,424,432,440,448,456,464,472,480,488,496,504,512,520,528,536,544,552,560,568,576,584,592,600,608,616,624,632,640,648,656,664,672,680,688,696,704,712,720,728,736,744,752,760,768,776,784,792,800,808,816,824,832,840,848,856,864,872,880,888,896,904,912,920,928,936,944,952,960,968,976,984,992,1000,1008,1016,1024,1032,1040,1048,1056,1064,1072,1080,1088,1096,1104,1112,1120],"tree_info":[0,1,2,3,4,5,6,7,0,1,2,3,4,5,6,7,0,1,2,3,4,5,6,7,0,1,2,3,4,5,6,7,0,1,2,3,4,5,6,7,0,1,2,3,4,5,6,7,0,1,2,3,4,5,6,7,0,1,2,3,4,5,6,7,0,1,2,3,4,5,6,7,0,1,2,3,4,5,6,7,0,1,2,3,4,5,6,7,0,1,2,3,4,5,6,7,0,1,2,3,4,5,6,7,0,1,2,3,4,5,6,7,0,1,2,3,4,5,6,7,0,1,2,3,4,5,6,7,0,1,2,3,4,5,6,7,0,1,2,3,4,5,6,7,0,1,2,3,4,5,6,7,0,1,2,3,4,5,6,7,0,1,2,3,4,5,6,7,0,1,2,3,4,5,6,7,0,1,2,3,4,5,6,7,0,1,2,3,4,5,6,7,0,1,2,3,4,5,6,7,0,1,2,3,4,5,6,7,0,1,2,3,4,5,6,7,0,1,2,3,4,5,6,7,0,1,2,3,4,5,6,7,0,1,2,3,4,5,6,7,0,1,2,3,4,5,6,7,0,1,2,3,4,5,6,7,0,1,2,3,4,5,6,7,0,1,2,3,4,5,6,7,0,1,2,3,4,5,6,7,0,1,2,3,4,5,6,7,0,1,2,3,4,5,6,7,0,1,2,3,4,5,6,7,0,1,2,3,4,5,6,7,0,1,2,3,4,5,6,7,0,1,2,3,4,5,6,7,0,1,2,3,4,5,6,7,0,1,2,3,4,5,6,7,0,1,2,3,4,5,6,7,0,1,2,3,4,5,6,7,0,1,2,3,4,5,6,7,0,1,2,3,4,5,6,7,0,1,2,3,4,5,6,7,0,1,2,3,4,5,6,7,0,1,2,3,4,5,6,7,0,1,2,3,4,5,6,7,0,1,2,3,4,5,6,7,0,1,2,3,4,5,6,7,0,1,2,3,4,5,6,7,0,1,2,3,4,5,6,7,0,1,2,3,4,5,6,7,0,1,2,3,4,5,6,7,0,1,2,3,4,5,6,7,0,1,2,3,4,5,6,7,0,1,2,3,4,5,6,7,0,1,2,3,4,5,6,7,0,1,2,3,4,5,6,7,0,1,2,3,4,5,6,7,0,1,2,3,4,5,6,7,0,1,2,3,4,5,6,7,0,1,2,3,4,5,6,7,0,1,2,3,4,5,6,7,0,1,2,3,4,5,6,7,0,1,2,3,4,5,6,7,0,1,2,3,4,5,6,7,0,1,2,3,4,5,6,7,0,1,2,3,4,5,6,7,0,1,2,3,4,5,6,7,0,1,2,3,4,5,6,7,0,1,2,3,4,5,6,7,0,1,2,3,4,5,6,7,0,1,2,3,4,5,6,7,0,1,2,3,4,5,6,7,0,1,2,3,4,5,6,7,0,1,2,3,4,5,6,7,0,1,2,3,4,5,6,7,0,1,2,3,4,5,6,7,0,1,2,3,4,5,6,7,0,1,2,3,4,5,6,7,0,1,2,3,4,5,6,7,0,1,2,3,4,5,6,7,0,1,2,3,4,5,6,7,0,1,2,3,4,5,6,7,0,1,2,3,4,5,6,7,0,1,2,3,4,5,6,7,0,1,2,3,4,5,6,7,0,1,2,3,4,5,6,7,0,1,2,3,4,5,6,7,0,1,2,3,4,5,6,7,0,1,2,3,4,5,6,7,0,1,2,3,4,5,6,7,0,1,2,3,4,5,6,7,0,1,2,3,4,5,6,7,0,1,2,3,4,5,6,7,0,1,2,3,4,5,6,7,0,1,2,3,4,5,6,7,0,1,2,3,4,5,6,7,0,1,2,3,4,5,6,7,0,1,2,3,4,5,6,7,0,1,2,3,4,5,6,7,0,1,2,3,4,5,6,7,0,1,2,3,4,5,6,7,0,1,2,3,4,5,6,7,0,1,2,3,4,5,6,7,0,1,2,3,4,5,6,7,0,1,2,3,4,5,6,7,0,1,2,3,4,5,6,7,0,1,2,3,4,5,6,7,0,1,2,3,4,5,6,7,0,1,2,3,4,5,6,7,0,1,2,3,4,5,6,7,0,1,2,3,4,5,6,7,0,1,2,3,4,5,6,7,0,1,2,3,4,5,6,7,0,1,2,3,4,5,6,7,0,1,2,3,4,5,6,7,0,1,2,3,4,5,6,7,0,1,2,3,4,5,6,7,0,1,2,3,4,5,6,7,0,1,2,3,4,5,6,7,0,1,2,3,4,5,6,7,0,1,2,3,4,5,6,7,0,1,2,3,4,5,6,7,0,1,2,3,4,5,6,7,0,1,2,3,4,5,6,7,0,1,2,3,4,5,6,7,0,1,2,3,4,5,6,7,0,1,2,3,4,5,6,7,0,1,2,3,4,5,6,7,0,1,2,3,4,5,6,7,0,1,2,3,4,5,6,7,0,1,2,3,4,5,6,7,0,1,2,3,4,5,6,7,0,1,2,3,4,5,6,7,0,1,2,3,4,5,6,7],"trees":[{"base_weights":[-9.1643736E-2,-3.8040113E-1,6.8646836E-1,-1.0490468E-2,-1.793827E-3,9.332182E-3,2.6181635E-2],"categories":[],"categories_nodes":[],"categories_segments":[],"categories_sizes":[],"default_left":[0,0,0,0,0,0,0],"id":0,"left_children":[1,3,5,-1,-1,-1,-1],"loss_changes":[1.5844767E4,2.1543682E3,2.6066855E3,0E0,0E0,0E0,0E0],"parents":[2147483647,0,0,1,1,2,2],"right_children":[2,4,6,-1,-1,-1,-1],"split_conditions":[1.6129032E-1,5.5555556E-2,3.2258064E-1,-1.0490468E-2,-1.793827E-3,9.332182E-3,2.6181635E-2],"split_indices":[38,38,38,0,0,0,0],"split_type":[0,0,0,0,0,0,0],"sum_hessian":[7.049809E4,5.1420906E4,1.9077188E4,3.4372406E4,1.70485E4,1.41115625E4,4.965625E3],"tree_param":{"num_deleted":"0","num_feature":"89","num_nodes":"7","size_leaf_vector":"1"}},{"base_weights":[-2.0302138E-1,-4.506941E-1,5.106511E-1,-1.0982249E-2,-3.9494466E-3,6.5295408E-3,2.6997272E-2],"categories":[],"categories_nodes":[],"categories_segments":[],"categories_sizes":[],"default_left":[0,0,0,0,0,0,0],"id":1,"left_children":[1,3,5,-1,-1,-1,-1],"loss_changes":[1.2503511E4,1.307541E3,2.812587E3,0E0,0E0,0E0,0E0],"parents":[2147483647,0,0,1,1,2,2],"right_children":[2,4,6,-1,-1,-1,-1],"split_conditions":[1.2839879E-1,4.2372882E-2,3.12E-1,-1.0982249E-2,-3.9494466E-3,6.5295408E-3,2.6997272E-2],"split_indices":[31,31,31,0,0,0,0],"split_type":[0,0,0,0,0,0,0],"sum_hessian":[7.071531E4,5.2499562E4,1.821575E4,3.7797375E4,1.47021875E4,1.49489375E4,3.2668125E3],"tree_param":{"num_deleted":"0","num_feature":"89","num_nodes":"7","size_leaf_vector":"1"}},{"base_weights":[-3.025522E-1,-4.9320507E-1,8.216373E-1,-1.1106504E-2,-2.1255068E-3,1.0107766E-2,3.7239704E-2],"categories":[],"categories_nodes":[],"categories_segments":[],"categories_sizes":[],"default_left":[0,0,0,0,0,0,0],"id":2,"left_children":[1,3,5,-1,-1,-1,-1],"loss_changes":[1.519158E4,1.4558057E3,3.3723296E3,0E0,0E0,0E0,0E0],"parents":[2147483647,0,0,1,1,2,2],"right_children":[2,4,6,-1,-1,-1,-1],"split_conditions":[1.5517241E-1,5.237316E-2,3.7619048E-1,-1.1106504E-2,-2.1255068E-3,1.0107766E-2,3.7239704E-2],"split_indices":[32,32,32,0,0,0,0],"split_type":[0,0,0,0,0,0,0],"sum_hessian":[7.08505E4,6.0581938E4,1.02685625E4,5.219747E4,8.384469E3,7.8861562E3,2.3824062E3],"tree_param":{"num_deleted":"0","num_feature":"89","num_nodes":"7","size_leaf_vector":"1"}},{"base_weights":[9.780953E-1,1.292881E0,-1.24280125E-1,3.0052377E-2,2.0875335E-2,3.3425991E-3,-5.942469E-3],"categories":[],"categories_nodes":[],"categories_segments":[],"categories_sizes":[],"default_left":[0,0,0,0,0,0,0],"id":3,"left_children":[1,3,5,-1,-1,-1,-1],"loss_changes":[2.4537227E4,2.8580469E3,7.9200903E2,0E0,0E0,0E0,0E0],"parents":[2147483647,0,0,1,1,2,2],"right_children":[2,4,6,-1,-1,-1,-1],"split_conditions":[2.707775E-1,4E-2,4.7435272E-1,3.0052377E-2,2.0875335E-2,3.3425991E-3,-5.942469E-3],"split_indices":[52,39,61,0,0,0,0],"split_type":[0,0,0,0,0,0,0],"sum_hessian":[7.069541E4,5.4990906E4,1.57045E4,2.9827656E4,2.516325E4,5.8469688E3,9.857531E3],"tree_param":{"num_deleted":"0","num_feature":"89","num_nodes":"7","size_leaf_vector":"1"}},{"base_weights":[-5.0322235E-1,-1.7294404E-1,-5.6341547E-1,-6.343363E-3,-2.9552271E-5,-1.0909934E-2,-1.1365026E-2],"categories":[],"categories_nodes":[],"categories_segments":[],"categories_sizes":[],"default_left":[0,0,0,0,0,0,0],"id":4,"left_children":[1,3,5,-1,-1,-1,-1],"loss_changes":[1.4032754E3,2.696244E2,2.0761719E0,0E0,0E0,0E0,0E0],"parents":[2147483647,0,0,1,1,2,2],"right_children":[2,4,6,-1,-1,-1,-1],"split_conditions":[3.9177276E-3,1E0,1.2903225E-1,-6.343363E-3,-2.9552271E-5,-1.0909934E-2,-1.1365026E-2],"split_indices":[55,84,41,0,0,0,0],"split_type":[0,0,0,0,0,0,0],"sum_hessian":[7.062453E4,1.0893094E4,5.9731438E4,5.9119375E3,4.9811562E3,1.2936E4,4.6795438E4],"tree_param":{"num_deleted":"0","num_feature":"89","num_nodes":"7","size_leaf_vector":"1"}},{"base_weights":[-4.550895E-2,-3.8884327E-1,1.1635611E0,-1.0527795E-2,1.1021812E-3,1.6500328E-2,4.1039474E-2],"categories":[],"categories_nodes":[],"categories_segments":[],"categories_sizes":[],"default_left":[0,0,0,0,0,0,0],"id":5,"left_children":[1,3,5,-1,-1,-1,-1],"loss_changes":[2.9322545E4,3.3596592E3,4.681783E3,0E0,0E0,0E0,0E0],"parents":[2147483647,0,0,1,1,2,2],"right_children":[2,4,6,-1,-1,-1,-1],"split_conditions":[2.0889749E-1,7.878788E-2,4.347826E-1,-1.0527795E-2,1.1021812E-3,1.6500328E-2,4.1039474E-2],"split_indices":[43,43,43,0,0,0,0],"split_type":[0,0,0,0,0,0,0],"sum_hessian":[7.061622E4,5.5003812E4,1.5612406E4,4.1991906E4,1.3011906E4,1.13185625E4,4.2938438E3],"tree_param":{"num_deleted":"0","num_feature":"89","num_nodes":"7","size_leaf_vector":"1"}},{"base_weights":[1.2903837E-2,-4.8668537E-1,1.8087746E0,-1.1278698E-2,5.028746E-3,2.5836999E-2,5.0743196E-2],"categories":[],"categories_nodes":[],"categories_segments":[],"categories_sizes":[],"default_left":[0,0,0,0,0,0,0],"id":6,"left_children":[1,3,5,-1,-1,-1,-1],"loss_changes":[6.3341508E4,3.1508467E3,5.7526016E3,0E0,0E0,0E0,0E0],"parents":[2147483647,0,0,1,1,2,2],"right_children":[2,4,6,-1,-1,-1,-1],"split_conditions":[2.7173913E-1,8.755761E-2,5.520362E-1,-1.1278698E-2,5.028746E-3,2.5836999E-2,5.0743196E-2],"split_indices":[36,36,36,0,0,0,0],"split_type":[0,0,0,0,0,0,0],"sum_hessian":[7.057947E4,5.5224094E4,1.5355375E4,4.999422E4,5.229875E3,8.997625E3,6.35775E3],"tree_param":{"num_deleted":"0","num_feature":"89","num_nodes":"7","size_leaf_vector":"1"}},{"base_weights":[1.4493513E-1,-2.4809688E-1,9.4729483E-1,-9.133329E-3,3.8133536E-3,1.3660823E-2,3.38572E-2],"categories":[],"categories_nodes":[],"categories_segments":[],"categories_sizes":[],"default_left":[0,0,0,0,0,0,0],"id":7,"left_children":[1,3,5,-1,-1,-1,-1],"loss_changes":[2.2288479E4,4.3424873E3,4.566701E3,0E0,0E0,0E0,0E0],"parents":[2147483647,0,0,1,1,2,2],"right_children":[2,4,6,-1,-1,-1,-1],"split_conditions":[2.0437956E-1,1.3851352E-1,3.8679245E-1,-9.133329E-3,3.8133536E-3,1.3660823E-2,3.38572E-2],"split_indices":[37,53,37,0,0,0,0],"split_type":[0,0,0,0,0,0,0],"sum_hessian":[7.066041E4,4.7432656E4,2.322775E4,3.2149688E4,1.5282969E4,1.7163562E4,6.0641875E3],"tree_param":{"num_deleted":"0","num_feature":"89","num_nodes":"7","size_leaf_vector":"1"}},{"base_weights":[-8.976893E-2,-4.0638998E-1,4.1682836E-1,-1.036162E-2,-3.7540137E-3,3.151909E-3,1.820614E-2],"categories":[],"categories_nodes":[],"categories_segments":[],"categories_sizes":[],"default_left":[0,0,0,0,0,0,0],"id":8,"left_children":[1,3,5,-1,-1,-1,-1],"loss_changes":[1.1324442E4,1.0602192E3,3.472418E3,0E0,0E0,0E0,0E0],"parents":[2147483647,0,0,1,1,2,2],"right_children":[2,4,6,-1,-1,-1,-1],"split_conditions":[1.2084592E-1,4.7505938E-2,2E-1,-1.036162E-2,-3.7540137E-3,3.151909E-3,1.820614E-2],"split_indices":[46,46,30,0,0,0,0],"split_type":[0,0,0,0,0,0,0],"sum_hessian":[7.0580984E4,4.343579E4,2.7145197E4,2.8742479E4,1.469331E4,1.7805076E4,9.340121E3],"tree_param":{"num_deleted":"0","num_feature":"89","num_nodes":"7","size_leaf_vector":"1"}},{"base_weights":[-2.0190522E-1,-4.4603518E-1,5.9856874E-1,-1.0822932E-2,-2.966931E-3,7.841715E-3,2.8406313E-2],"categories":[],"categories_nodes":[],"categories_segments":[],"categories_sizes":[],"default_left":[0,0,0,0,0,0,0],"id":9,"left_children":[1,3,5,-1,-1,-1,-1],"loss_changes":[1.3776763E4,1.5286338E3,2.7901855E3,0E0,0E0,0E0,0E0],"parents":[2147483647,0,0,1,1,2,2],"right_children":[2,4,6,-1,-1,-1,-1],"split_conditions":[1.4035088E-1,5.172414E-2,3.3333334E-1,-1.0822932E-2,-2.966931E-3,7.841715E-3,2.8406313E-2],"split_indices":[39,39,39,0,0,0,0],"split_type":[0,0,0,0,0,0,0],"sum_hessian":[7.047468E4,5.4007734E4,1.6466945E4,4.092426E4,1.3083475E4,1.3171957E4,3.2949888E3],"tree_param":{"num_deleted":"0","num_feature":"89","num_nodes":"7","size_leaf_vector":"1"}},{"base_weights":[-2.9878798E-1,-5.005839E-1,7.097414E-1,-1.1098718E-2,-2.7703329E-3,8.680967E-3,3.5055492E-2],"categories":[],"categories_nodes":[],"categories_segments":[],"categories_sizes":[],"default_left":[0,0,0,0,0,0,0],"id":10,"left_children":[1,3,5,-1,-1,-1,-1],"loss_changes":[1.4311704E4,1.1522012E3,3.3642568E3,0E0,0E0,0E0,0E0],"parents":[2147483647,0,0,1,1,2,2],"right_children":[2,4,6,-1,-1,-1,-1],"split_conditions":[1.4397906E-1,4.893964E-2,3.7691522E-1,-1.1098718E-2,-2.7703329E-3,8.680967E-3,3.5055492E-2],"split_indices":[48,48,48,0,0,0,0],"split_type":[0,0,0,0,0,0,0],"sum_hessian":[7.029442E4,5.8578523E4,1.1715896E4,5.0928074E4,7.6504473E3,9.2777705E3,2.438126E3],"tree_param":{"num_deleted":"0","num_feature":"89","num_nodes":"7","size_leaf_vector":"1"}},{"base_weights":[9.539029E-1,9.987521E-2,1.6282592E0,-6.2300777E-3,9.629342E-3,2.5649948E-2,4.385339E-2],"categories":[],"categories_nodes":[],"categories_segments":[],"categories_sizes":[],"default_left":[0,0,0,0,0,0,0],"id":11,"left_children":[1,3,5,-1,-1,-1,-1],"loss_changes":[4.1367453E4,4.9783984E3,7.804711E3,0E0,0E0,0E0,0E0],"parents":[2147483647,0,0,1,1,2,2],"right_children":[2,4,6,-1,-1,-1,-1],"split_conditions":[3.173759E-1,1.460084E-1,5.212121E-1,-6.2300777E-3,9.629342E-3,2.5649948E-2,4.385339E-2],"split_indices":[49,49,49,0,0,0,0],"split_type":[0,0,0,0,0,0,0],"sum_hessian":[7.182143E4,3.1694246E4,4.0127188E4,1.5252725E4,1.6441521E4,2.4903719E4,1.5223468E4],"tree_param":{"num_deleted":"0","num_feature":"89","num_nodes":"7","size_leaf_vector":"1"}},{"base_weights":[-5.0173986E-1,-5.577582E-1,3.7290537E-1,-1.1391118E-2,-5.485441E-3,2.1387688E-3,1.2880531E-2],"categories":[],"categories_nodes":[],"categories_segments":[],"categories_sizes":[],"default_left":[0,0,0,0,0,0,0],"id":12,"left_children":[1,3,5,-1,-1,-1,-1],"loss_changes":[3.4324941E3,2.1851953E2,3.036311E2,0E0,0E0,0E0,0E0],"parents":[2147483647,0,0,1,1,2,2],"right_children":[2,4,6,-1,-1,-1,-1],"split_conditions":[1.0784314E-1,3.0039527E-2,2.1390374E-1,-1.1391118E-2,-5.485441E-3,2.1387688E-3,1.2880531E-2],"split_indices":[50,50,50,0,0,0,0],"split_type":[0,0,0,0,0,0,0],"sum_hessian":[7.000393E4,6.579367E4,4.210259E3,6.315527E4,2.6383982E3,2.1323708E3,2.077888E3],"tree_param":{"num_deleted":"0","num_feature":"89","num_nodes":"7","size_leaf_vector":"1"}},{"base_weights":[-4.561477E-2,-3.9078942E-1,1.1070477E0,-1.0618615E-2,7.324845E-4,1.5874866E-2,3.8736913E-2],"categories":[],"categories_nodes":[],"categories_segments":[],"categories_sizes":[],"default_left":[0,0,0,0,0,0,0],"id":13,"left_children":[1,3,5,-1,-1,-1,-1],"loss_changes":[2.806997E4,3.2521553E3,4.2114766E3,0E0,0E0,0E0,0E0],"parents":[2147483647,0,0,1,1,2,2],"right_children":[2,4,6,-1,-1,-1,-1],"split_conditions":[2.0512821E-1,7.2E-2,4.347826E-1,-1.0618615E-2,7.324845E-4,1.5874866E-2,3.8736913E-2],"split_indices":[43,43,43,0,0,0,0],"split_type":[0,0,0,0,0,0,0],"sum_hessian":[7.052976E4,5.428135E4,1.6248407E4,4.0876312E4,1.3405039E4,1.1809207E4,4.4392007E3],"tree_param":{"num_deleted":"0","num_feature":"89","num_nodes":"7","size_leaf_vector":"1"}},{"base_weights":[1.7379327E-2,-4.905109E-1,1.6721135E0,-1.1282042E-2,4.777031E-3,2.3406949E-2,4.2391576E-2],"categories":[],"categories_nodes":[],"categories_segments":[],"categories_sizes":[],"default_left":[0,0,0,0,0,0,0],"id":14,"left_children":[1,3,5,-1,-1,-1,-1],"loss_changes":[5.945405E4,2.9067236E3,3.7053906E3,0E0,0E0,0E0,0E0],"parents":[2147483647,0,0,1,1,2,2],"right_children":[2,4,6,-1,-1,-1,-1],"split_conditions":[2.623225E-1,8.469945E-2,5E-1,-1.1282042E-2,4.777031E-3,2.3406949E-2,4.2391576E-2],"split_indices":[52,52,52,0,0,0,0],"split_type":[0,0,0,0,0,0,0],"sum_hessian":[7.072322E4,5.4119324E4,1.6603895E4,4.916131E4,4.9580137E3,7.844078E3,8.759817E3],"tree_param":{"num_deleted":"0","num_feature":"89","num_nodes":"7","size_leaf_vector":"1"}},{"base_weights":[1.472183E-1,-2.872026E-1,8.54075E-1,-1.0322315E-2,2.525168E-4,1.218489E-2,3.1930514E-2],"categories":[],"categories_nodes":[],"categories_segments":[],"categories_sizes":[],"default_left":[0,0,0,0,0,0,0],"id":15,"left_children":[1,3,5,-1,-1,-1,-1],"loss_changes":[2.179096E4,3.01684E3,4.9002383E3,0E0,0E0,0E0,0E0],"parents":[2147483647,0,0,1,1,2,2],"right_children":[2,4,6,-1,-1,-1,-1],"split_conditions":[1.8103448E-1,6.985294E-2,3.736842E-1,-1.0322315E-2,2.525168E-4,1.218489E-2,3.1930514E-2],"split_indices":[37,37,37,0,0,0,0],"split_type":[0,0,0,0,0,0,0],"sum_hessian":[7.094539E4,4.3944105E4,2.7001285E4,2.4914875E4,1.902923E4,2.0319072E4,6.6822124E3],"tree_param":{"num_deleted":"0","num_feature":"89","num_nodes":"7","size_leaf_vector":"1"}},{"base_weights":[-8.988945E-2,6.498331E-2,-3.1144482E-1,2.6130164E-3,-1.0686972E-2,-4.0508285E-3,-8.74609E-3],"categories":[],"categories_nodes":[],"categories_segments":[],"categories_sizes":[],"default_left":[0,0,0,0,0,0,0],"id":16,"left_children":[1,3,5,-1,-1,-1,-1],"loss_changes":[2.418246E3,1.6334178E3,3.9653784E2,0E0,0E0,0E0,0E0],"parents":[2147483647,0,0,1,1,2,2],"right_children":[2,4,6,-1,-1,-1,-1],"split_conditions":[1.7713854E-1,4.887218E-2,2.8716215E-1,2.6130164E-3,-1.0686972E-2,-4.0508285E-3,-8.74609E-3],"split_indices":[53,50,53,0,0,0,0],"split_type":[0,0,0,0,0,0,0],"sum_hessian":[7.046042E4,4.1475246E4,2.8985172E4,3.7386688E4,4.088559E3,1.5553338E4,1.3431834E4],"tree_param":{"num_deleted":"0","num_feature":"89","num_nodes":"7","size_leaf_vector":"1"}},{"base_weights":[-2.0168492E-1,-4.441889E-1,4.9694657E-1,-1.0895657E-2,-3.5696425E-3,6.1918288E-3,2.4170792E-2],"categories":[],"categories_nodes":[],"categories_segments":[],"categories_sizes":[],"default_left":[0,0,0,0,0,0,0],"id":17,"left_children":[1,3,5,-1,-1,-1,-1],"loss_changes":[1.1876627E4,1.3898125E3,2.404626E3,0E0,0E0,0E0,0E0],"parents":[2147483647,0,0,1,1,2,2],"right_children":[2,4,6,-1,-1,-1,-1],"split_conditions":[1.3095239E-1,4.477612E-2,3E-1,-1.0895657E-2,-3.5696425E-3,6.1918288E-3,2.4170792E-2],"split_indices":[31,31,31,0,0,0,0],"split_type":[0,0,0,0,0,0,0],"sum_hessian":[7.007827E4,5.2023793E4,1.8054484E4,3.7729332E4,1.4294459E4,1.4303002E4,3.751483E3],"tree_param":{"num_deleted":"0","num_feature":"89","num_nodes":"7","size_leaf_vector":"1"}},{"base_weights":[-2.98212E-1,-4.828036E-1,8.452424E-1,-1.1036798E-2,-1.5751912E-3,1.1654369E-2,3.8860433E-2],"categories":[],"categories_nodes":[],"categories_segments":[],"categories_sizes":[],"default_left":[0,0,0,0,0,0,0],"id":18,"left_children":[1,3,5,-1,-1,-1,-1],"loss_changes":[1.4784658E4,1.6815352E3,2.794793E3,0E0,0E0,0E0,0E0],"parents":[2147483647,0,0,1,1,2,2],"right_children":[2,4,6,-1,-1,-1,-1],"split_conditions":[1.7105263E-1,5.5555556E-2,4.3243244E-1,-1.1036798E-2,-1.5751912E-3,1.1654369E-2,3.8860433E-2],"split_indices":[32,32,32,0,0,0,0],"split_type":[0,0,0,0,0,0,0],"sum_hessian":[7.001618E4,6.028926E4,9.726918E3,5.1488164E4,8.801101E3,7.8620815E3,1.8648369E3],"tree_param":{"num_deleted":"0","num_feature":"89","num_nodes":"7","size_leaf_vector":"1"}},{"base_weights":[9.242535E-1,1.6891804E-1,1.8070828E0,-5.975464E-3,1.146974E-2,2.9376484E-2,5.197101E-2],"categories":[],"categories_nodes":[],"categories_segments":[],"categories_sizes":[],"default_left":[0,0,0,0,0,0,0],"id":19,"left_children":[1,3,5,-1,-1,-1,-1],"loss_changes":[4.8627676E4,7.4402427E3,8.963953E3,0E0,0E0,0E0,0E0],"parents":[2147483647,0,0,1,1,2,2],"right_children":[2,4,6,-1,-1,-1,-1],"split_conditions":[3.548387E-1,1.5258856E-1,6.018519E-1,-5.975464E-3,1.146974E-2,2.9376484E-2,5.197101E-2],"split_indices":[41,41,41,0,0,0,0],"split_type":[0,0,0,0,0,0,0],"sum_hessian":[7.291798E4,3.930291E4,3.361507E4,1.8230564E4,2.1072344E4,2.357018E4,1.0044892E4],"tree_param":{"num_deleted":"0","num_feature":"89","num_nodes":"7","size_leaf_vector":"1"}},{"base_weights":[-5.003957E-1,-5.147437E-1,7.7969795E-1,-7.0570773E-3,-1.12462975E-2,2.1640884E-2,1.1928541E-2],"categories":[],"categories_nodes":[],"categories_segments":[],"categories_sizes":[],"default_left":[0,0,0,0,0,0,0],"id":20,"left_children":[1,3,5,-1,-1,-1,-1],"loss_changes":[1.2795215E3,5.269629E2,3.6420563E1,0E0,0E0,0E0,0E0],"parents":[2147483647,0,0,1,1,2,2],"right_children":[2,4,6,-1,-1,-1,-1],"split_conditions":[1E0,9.009009E-3,5E0,-7.0570773E-3,-1.12462975E-2,2.1640884E-2,1.1928541E-2],"split_indices":[76,30,54,0,0,0,0],"split_type":[0,0,0,0,0,0,0],"sum_hessian":[6.9436516E4,6.867277E4,7.637442E2,1.5615551E4,5.3057223E4,2.6972766E2,4.9401654E2],"tree_param":{"num_deleted":"0","num_feature":"89","num_nodes":"7","size_leaf_vector":"1"}},{"base_weights":[-4.2326413E-2,-4.0545636E-1,9.4907945E-1,-1.0682687E-2,-6.4466475E-4,1.2869586E-2,3.2949153E-2],"categories":[],"categories_nodes":[],"categories_segments":[],"categories_sizes":[],"default_left":[0,0,0,0,0,0,0],"id":21,"left_children":[1,3,5,-1,-1,-1,-1],"loss_changes":[2.5395547E4,2.4793672E3,4.0255059E3,0E0,0E0,0E0,0E0],"parents":[2147483647,0,0,1,1,2,2],"right_children":[2,4,6,-1,-1,-1,-1],"split_conditions":[1.8796992E-1,6.4935066E-2,3.8114753E-1,-1.0682687E-2,-6.4466475E-4,1.2869586E-2,3.2949153E-2],"split_indices":[35,35,35,0,0,0,0],"split_type":[0,0,0,0,0,0,0],"sum_hessian":[7.05207E4,5.1619527E4,1.8901178E4,3.8382047E4,1.3237481E4,1.316123E4,5.739947E3],"tree_param":{"num_deleted":"0","num_feature":"89","num_nodes":"7","size_leaf_vector":"1"}},{"base_weights":[1.30383745E-2,-4.9156544E-1,1.5898178E0,-1.1240793E-2,4.737845E-3,2.1296998E-2,3.9550375E-2],"categories":[],"categories_nodes":[],"categories_segments":[],"categories_sizes":[],"default_left":[0,0,0,0,0,0,0],"id":22,"left_children":[1,3,5,-1,-1,-1,-1],"loss_changes":[5.6285477E4,2.752583E3,3.4695664E3,0E0,0E0,0E0,0E0],"parents":[2147483647,0,0,1,1,2,2],"right_children":[2,4,6,-1,-1,-1,-1],"split_conditions":[2.516129E-1,9.84081E-2,4.827586E-1,-1.1240793E-2,4.737845E-3,2.1296998E-2,3.9550375E-2],"split_indices":[52,52,52,0,0,0,0],"split_type":[0,0,0,0,0,0,0],"sum_hessian":[7.072178E4,5.3581434E4,1.7140346E4,4.8857066E4,4.7243677E3,7.2971196E3,9.843226E3],"tree_param":{"num_deleted":"0","num_feature":"89","num_nodes":"7","size_leaf_vector":"1"}},{"base_weights":[1.4306532E-1,-3.3947733E-1,9.8315895E-1,-1.0364127E-2,2.0576236E-4,1.4298217E-2,3.5373036E-2],"categories":[],"categories_nodes":[],"categories_segments":[],"categories_sizes":[],"default_left":[0,0,0,0,0,0,0],"id":23,"left_children":[1,3,5,-1,-1,-1,-1],"loss_changes":[2.8816828E4,2.8227437E3,5.4518438E3,0E0,0E0,0E0,0E0],"parents":[2147483647,0,0,1,1,2,2],"right_children":[2,4,6,-1,-1,-1,-1],"split_conditions":[1.9090909E-1,6.896552E-2,4.1121495E-1,-1.0364127E-2,2.0576236E-4,1.4298217E-2,3.5373036E-2],"split_indices":[45,45,45,0,0,0,0],"split_type":[0,0,0,0,0,0,0],"sum_hessian":[7.1067555E4,4.514348E4,2.5924074E4,2.9873434E4,1.5270046E4,1.9338889E4,6.585185E3],"tree_param":{"num_deleted":"0","num_feature":"89","num_nodes":"7","size_leaf_vector":"1"}},{"base_weights":[-8.784094E-2,1.1027412E-1,-3.2990184E-1,3.462303E-3,-1.0808652E-2,-6.930935E-3,6.882416E-3],"categories":[],"categories_nodes":[],"categories_segments":[],"categories_sizes":[],"default_left":[0,0,0,0,0,0,0],"id":24,"left_children":[1,3,5,-1,-1,-1,-1],"loss_changes":[3.3737397E3,1.5830348E3,3.5641846E2,0E0,0E0,0E0,0E0],"parents":[2147483647,0,0,1,1,2,2],"right_children":[2,4,6,-1,-1,-1,-1],"split_conditions":[1E0,4.887218E-2,1E0,3.462303E-3,-1.0808652E-2,-6.930935E-3,6.882416E-3],"split_indices":[82,50,63,0,0,0,0],"split_type":[0,0,0,0,0,0,0],"sum_hessian":[7.033329E4,3.868057E4,3.1652717E4,3.5280727E4,3.3998438E3,3.0894635E4,7.580811E2],"tree_param":{"num_deleted":"0","num_feature":"89","num_nodes":"7","size_leaf_vector":"1"}},{"base_weights":[-1.9921295E-1,-4.4172862E-1,5.8564216E-1,-1.085007E-2,-3.0002326E-3,7.5557106E-3,2.6024027E-2],"categories":[],"categories_nodes":[],"categories_segments":[],"categories_sizes":[],"default_left":[0,0,0,0,0,0,0],"id":25,"left_children":[1,3,5,-1,-1,-1,-1],"loss_changes":[1.3298975E4,1.5682002E3,2.4483223E3,0E0,0E0,0E0,0E0],"parents":[2147483647,0,0,1,1,2,2],"right_children":[2,4,6,-1,-1,-1,-1],"split_conditions":[1.4285715E-1,4.8780486E-2,3.2051283E-1,-1.085007E-2,-3.0002326E-3,7.5557106E-3,2.6024027E-2],"split_indices":[39,39,39,0,0,0,0],"split_type":[0,0,0,0,0,0,0],"sum_hessian":[6.98461E4,5.3361945E4,1.6484158E4,3.965452E4,1.3707424E4,1.2785491E4,3.6986677E3],"tree_param":{"num_deleted":"0","num_feature":"89","num_nodes":"7","size_leaf_vector":"1"}},{"base_weights":[-2.9868102E-1,-4.9787107E-1,7.9168165E-1,-1.1151285E-2,-2.9828625E-3,9.505904E-3,3.553249E-2],"categories":[],"categories_nodes":[],"categories_segments":[],"categories_sizes":[],"default_left":[0,0,0,0,0,0,0],"id":26,"left_children":[1,3,5,-1,-1,-1,-1],"loss_changes":[1.5117707E4,1.2241299E3,3.3423472E3,0E0,0E0,0E0,0E0],"parents":[2147483647,0,0,1,1,2,2],"right_children":[2,4,6,-1,-1,-1,-1],"split_conditions":[1.5697674E-1,4E-2,3.8961038E-1,-1.1151285E-2,-2.9828625E-3,9.505904E-3,3.553249E-2],"split_indices":[40,40,40,0,0,0,0],"split_type":[0,0,0,0,0,0,0],"sum_hessian":[6.9577945E4,5.883522E4,1.0742725E4,5.023099E4,8.604231E3,8.1421147E3,2.6006099E3],"tree_param":{"num_deleted":"0","num_feature":"89","num_nodes":"7","size_leaf_vector":"1"}},{"base_weights":[9.010844E-1,1.9281761E-1,1.7605624E0,-5.3708106E-3,1.2587217E-2,2.8464347E-2,4.8344877E-2],"categories":[],"categories_nodes":[],"categories_segments":[],"categories_sizes":[],"default_left":[0,0,0,0,0,0,0],"id":27,"left_children":[1,3,5,-1,-1,-1,-1],"loss_changes":[4.5107414E4,8.1862227E3,7.381828E3,0E0,0E0,0E0,0E0],"parents":[2147483647,0,0,1,1,2,2],"right_children":[2,4,6,-1,-1,-1,-1],"split_conditions":[3.639053E-1,1.7073171E-1,5.9090906E-1,-5.3708106E-3,1.2587217E-2,2.8464347E-2,4.8344877E-2],"split_indices":[41,41,41,0,0,0,0],"split_type":[0,0,0,0,0,0,0],"sum_hessian":[7.409524E4,4.062763E4,3.3467613E4,1.9754283E4,2.0873348E4,2.2130559E4,1.1337056E4],"tree_param":{"num_deleted":"0","num_feature":"89","num_nodes":"7","size_leaf_vector":"1"}},{"base_weights":[-4.9932835E-1,-5.502228E-1,7.35678E-1,-1.1313619E-2,-2.982526E-3,9.243795E-3,3.01388E-2],"categories":[],"categories_nodes":[],"categories_segments":[],"categories_sizes":[],"default_left":[0,0,0,0,0,0,0],"id":28,"left_children":[1,3,5,-1,-1,-1,-1],"loss_changes":[4.335289E3,4.0952734E2,5.692135E2,0E0,0E0,0E0,0E0],"parents":[2147483647,0,0,1,1,2,2],"right_children":[2,4,6,-1,-1,-1,-1],"split_conditions":[1.4782609E-1,4.639175E-2,3.4579438E-1,-1.1313619E-2,-2.982526E-3,9.243795E-3,3.01388E-2],"split_indices":[42,42,42,0,0,0,0],"split_type":[0,0,0,0,0,0,0],"sum_hessian":[6.889841E4,6.617681E4,2.7215947E3,6.371707E4,2.4597422E3,2.0209586E3,7.0063617E2],"tree_param":{"num_deleted":"0","num_feature":"89","num_nodes":"7","size_leaf_vector":"1"}},{"base_weights":[-4.0907297E-2,1.8703164E-1,-5.557352E-1,1.364454E-2,-3.3668866E-3,-9.11729E-3,-1.1346801E-2],"categories":[],"categories_nodes":[],"categories_segments":[],"categories_sizes":[],"default_left":[0,0,0,0,0,0,0],"id":29,"left_children":[1,3,5,-1,-1,-1,-1],"loss_changes":[8.277213E3,8.6049375E3,2.25E1,0E0,0E0,0E0,0E0],"parents":[2147483647,0,0,1,1,2,2],"right_children":[2,4,6,-1,-1,-1,-1],"split_conditions":[8.839779E-3,3.7518036E-1,1.4194465E-1,1.364454E-2,-3.3668866E-3,-9.11729E-3,-1.1346801E-2],"split_indices":[61,49,61,0,0,0,0],"split_type":[0,0,0,0,0,0,0],"sum_hessian":[7.051596E4,4.8880566E4,2.1635398E4,2.0418875E4,2.8461691E4,2.294235E3,1.9341164E4],"tree_param":{"num_deleted":"0","num_feature":"89","num_nodes":"7","size_leaf_vector":"1"}},{"base_weights":[1.5805572E-2,1.2429482E0,-3.4807724E-1,2.6644979E-2,-3.2231202E-3,4.1299853E-3,-9.026313E-3],"categories":[],"categories_nodes":[],"categories_segments":[],"categories_sizes":[],"default_left":[0,0,0,0,0,0,0],"id":30,"left_children":[1,3,5,-1,-1,-1,-1],"loss_changes":[3.1584598E4,2.0305645E3,3.1244385E3,0E0,0E0,0E0,0E0],"parents":[2147483647,0,0,1,1,2,2],"right_children":[2,4,6,-1,-1,-1,-1],"split_conditions":[1.3943662E-1,4E-1,2.5581396E-1,2.6644979E-2,-3.2231202E-3,4.1299853E-3,-9.026313E-3],"split_indices":[58,57,58,0,0,0,0],"split_type":[0,0,0,0,0,0,0],"sum_hessian":[7.071277E4,1.6167167E4,5.454561E4,1.5200903E4,9.662634E2,8.558897E3,4.598671E4],"tree_param":{"num_deleted":"0","num_feature":"89","num_nodes":"7","size_leaf_vector":"1"}},{"base_weights":[1.4056799E-1,-3.1932008E-1,9.930062E-1,-1.0075379E-2,1.2715443E-3,1.5037324E-2,3.518759E-2],"categories":[],"categories_nodes":[],"categories_segments":[],"categories_sizes":[],"default_left":[0,0,0,0,0,0,0],"id":31,"left_children":[1,3,5,-1,-1,-1,-1],"loss_changes":[2.7877357E4,3.262724E3,4.5919824E3,0E0,0E0,0E0,0E0],"parents":[2147483647,0,0,1,1,2,2],"right_children":[2,4,6,-1,-1,-1,-1],"split_conditions":[2.0689656E-1,7.988165E-2,4.3137255E-1,-1.0075379E-2,1.2715443E-3,1.5037324E-2,3.518759E-2],"split_indices":[45,45,45,0,0,0,0],"split_type":[0,0,0,0,0,0,0],"sum_hessian":[7.1092875E4,4.6183344E4,2.4909531E4,3.1166629E4,1.5016713E4,1.8962709E4,5.9468223E3],"tree_param":{"num_deleted":"0","num_feature":"89","num_nodes":"7","size_leaf_vector":"1"}},{"base_weights":[-8.6698085E-2,-3.732017E-1,6.6406375E-1,-1.0277227E-2,-1.4630461E-3,8.602672E-3,2.3759102E-2],"categories":[],"categories_nodes":[],"categories_segments":[],"categories_sizes":[],"default_left":[0,0,0,0,0,0,0],"id":32,"left_children":[1,3,5,-1,-1,-1,-1],"loss_changes":[1.5096771E4,2.1435498E3,2.370794E3,0E0,0E0,0E0,0E0],"parents":[2147483647,0,0,1,1,2,2],"right_children":[2,4,6,-1,-1,-1,-1],"split_conditions":[1.6304348E-1,6.158358E-2,3.0496454E-1,-1.0277227E-2,-1.4630461E-3,8.602672E-3,2.3759102E-2],"split_indices":[38,38,38,0,0,0,0],"split_type":[0,0,0,0,0,0,0],"sum_hessian":[7.016469E4,5.07881E4,1.9376584E4,3.4573383E4,1.6214722E4,1.3407861E4,5.9687227E3],"tree_param":{"num_deleted":"0","num_feature":"89","num_nodes":"7","size_leaf_vector":"1"}},{"base_weights":[-1.9702484E-1,-4.414089E-1,5.6862175E-1,-1.0772964E-2,-2.922847E-3,7.175053E-3,2.4980456E-2],"categories":[],"categories_nodes":[],"categories_segments":[],"categories_sizes":[],"default_left":[0,0,0,0,0,0,0],"id":33,"left_children":[1,3,5,-1,-1,-1,-1],"loss_changes":[1.3025959E4,1.5142422E3,2.4009302E3,0E0,0E0,0E0,0E0],"parents":[2147483647,0,0,1,1,2,2],"right_children":[2,4,6,-1,-1,-1,-1],"split_conditions":[1.4035088E-1,5.0847456E-2,3.1578946E-1,-1.0772964E-2,-2.922847E-3,7.175053E-3,2.4980456E-2],"split_indices":[39,39,39,0,0,0,0],"split_type":[0,0,0,0,0,0,0],"sum_hessian":[6.95925E4,5.2757312E4,1.6835186E4,3.9681027E4,1.3076284E4,1.2878192E4,3.956994E3],"tree_param":{"num_deleted":"0","num_feature":"89","num_nodes":"7","size_leaf_vector":"1"}},{"base_weights":[-2.9076478E-1,-4.991449E-1,7.7621907E-1,-1.1079198E-2,-2.801589E-3,9.722585E-3,3.5682958E-2],"categories":[],"categories_nodes":[],"categories_segments":[],"categories_sizes":[],"default_left":[0,0,0,0,0,0,0],"id":34,"left_children":[1,3,5,-1,-1,-1,-1],"loss_changes":[1.539672E4,1.139335E3,3.2998901E3,0E0,0E0,0E0,0E0],"parents":[2147483647,0,0,1,1,2,2],"right_children":[2,4,6,-1,-1,-1,-1],"split_conditions":[1.5083799E-1,4.761905E-2,4.025974E-1,-1.1079198E-2,-2.801589E-3,9.722585E-3,3.5682958E-2],"split_indices":[40,40,40,0,0,0,0],"split_type":[0,0,0,0,0,0,0],"sum_hessian":[6.922166E4,5.7916066E4,1.1305589E4,5.0240863E4,7.6752046E3,8.790451E3,2.5151375E3],"tree_param":{"num_deleted":"0","num_feature":"89","num_nodes":"7","size_leaf_vector":"1"}},{"base_weights":[8.794798E-1,1.5488996E-1,1.5937746E0,-5.2616405E-3,1.1021202E-2,2.6408765E-2,4.5539048E-2],"categories":[],"categories_nodes":[],"categories_segments":[],"categories_sizes":[],"default_left":[0,0,0,0,0,0,0],"id":35,"left_children":[1,3,5,-1,-1,-1,-1],"loss_changes":[3.8890945E4,6.1804146E3,7.0362188E3,0E0,0E0,0E0,0E0],"parents":[2147483647,0,0,1,1,2,2],"right_children":[2,4,6,-1,-1,-1,-1],"split_conditions":[3.4080717E-1,1.6666667E-1,5.9322035E-1,-5.2616405E-3,1.1021202E-2,2.6408765E-2,4.5539048E-2],"split_indices":[33,33,33,0,0,0,0],"split_type":[0,0,0,0,0,0,0],"sum_hessian":[7.5136086E4,3.7305285E4,3.78308E4,1.8154781E4,1.9150504E4,2.7041107E4,1.0789694E4],"tree_param":{"num_deleted":"0","num_feature":"89","num_nodes":"7","size_leaf_vector":"1"}},{"base_weights":[-4.9676022E-1,-5.4950213E-1,7.0059097E-1,-1.128293E-2,-2.5520944E-3,8.742332E-3,2.7236106E-2],"categories":[],"categories_nodes":[],"categories_segments":[],"categories_sizes":[],"default_left":[0,0,0,0,0,0,0],"id":36,"left_children":[1,3,5,-1,-1,-1,-1],"loss_changes":[4.3101523E3,4.0285352E2,4.9602515E2,0E0,0E0,0E0,0E0],"parents":[2147483647,0,0,1,1,2,2],"right_children":[2,4,6,-1,-1,-1,-1],"split_conditions":[1.3793103E-1,5.5555556E-2,3.2894737E-1,-1.128293E-2,-2.5520944E-3,8.742332E-3,2.7236106E-2],"split_indices":[42,42,42,0,0,0,0],"split_type":[0,0,0,0,0,0,0],"sum_hessian":[6.818103E4,6.5309633E4,2.8714023E3,6.3115473E4,2.1941572E3,2.065123E3,8.062794E2],"tree_param":{"num_deleted":"0","num_feature":"89","num_nodes":"7","size_leaf_vector":"1"}},{"base_weights":[-4.1782577E-2,-4.012237E-1,1.0080503E0,-1.0647961E-2,-2.2252768E-4,1.3435889E-2,3.338346E-2],"categories":[],"categories_nodes":[],"categories_segments":[],"categories_sizes":[],"default_left":[0,0,0,0,0,0,0],"id":37,"left_children":[1,3,5,-1,-1,-1,-1],"loss_changes":[2.6584896E4,2.6854512E3,3.9833906E3,0E0,0E0,0E0,0E0],"parents":[2147483647,0,0,1,1,2,2],"right_children":[2,4,6,-1,-1,-1,-1],"split_conditions":[1.9444445E-1,6.7073174E-2,3.9772728E-1,-1.0647961E-2,-2.2252768E-4,1.3435889E-2,3.338346E-2],"split_indices":[43,43,43,0,0,0,0],"split_type":[0,0,0,0,0,0,0],"sum_hessian":[7.043026E4,5.2471336E4,1.7958924E4,3.926456E4,1.3206775E4,1.1917624E4,6.0413003E3],"tree_param":{"num_deleted":"0","num_feature":"89","num_nodes":"7","size_leaf_vector":"1"}},{"base_weights":[1.7748905E-2,8.461198E-1,-5.403951E-1,2.8708978E-2,-2.553987E-3,-3.8960937E-3,-1.1303263E-2],"categories":[],"categories_nodes":[],"categories_segments":[],"categories_sizes":[],"default_left":[0,0,0,0,0,0,0],"id":38,"left_children":[1,3,5,-1,-1,-1,-1],"loss_changes":[3.273722E4,1.635973E4,3.6099707E2,0E0,0E0,0E0,0E0],"parents":[2147483647,0,0,1,1,2,2],"right_children":[2,4,6,-1,-1,-1,-1],"split_conditions":[1.0542963E-3,2.857143E-1,8.169935E-3,2.8708978E-2,-2.553987E-3,-3.8960937E-3,-1.1303263E-2],"split_indices":[51,49,51,0,0,0,0],"split_type":[0,0,0,0,0,0,0],"sum_hessian":[7.078623E4,2.8493041E4,4.2293184E4,1.7747807E4,1.0745234E4,2.8343262E3,3.9458855E4],"tree_param":{"num_deleted":"0","num_feature":"89","num_nodes":"7","size_leaf_vector":"1"}},{"base_weights":[1.406093E-1,-3.0506393E-1,7.440801E-1,-1.0344869E-2,-2.8903355E-4,1.1479654E-2,2.6453882E-2],"categories":[],"categories_nodes":[],"categories_segments":[],"categories_sizes":[],"default_left":[0,0,0,0,0,0,0],"id":39,"left_children":[1,3,5,-1,-1,-1,-1],"loss_changes":[1.916816E4,2.5278828E3,2.9720625E3,0E0,0E0,0E0,0E0],"parents":[2147483647,0,0,1,1,2,2],"right_children":[2,4,6,-1,-1,-1,-1],"split_conditions":[1.8024692E-1,6.466362E-2,3.529412E-1,-1.0344869E-2,-2.8903355E-4,1.1479654E-2,2.6453882E-2],"split_indices":[53,53,53,0,0,0,0],"split_type":[0,0,0,0,0,0,0],"sum_hessian":[7.12517E4,4.098704E4,3.0264666E4,2.3685887E4,1.7301154E4,2.3404326E4,6.86034E3],"tree_param":{"num_deleted":"0","num_feature":"89","num_nodes":"7","size_leaf_vector":"1"}},{"base_weights":[-8.840611E-2,-3.9569774E-1,3.9856315E-1,-1.02797635E-2,-3.5138314E-3,5.3195893E-3,1.6797837E-2],"categories":[],"categories_nodes":[],"categories_segments":[],"categories_sizes":[],"default_left":[0,0,0,0,0,0,0],"id":40,"left_children":[1,3,5,-1,-1,-1,-1],"loss_changes":[1.0503666E4,1.1190425E3,1.586835E3,0E0,0E0,0E0,0E0],"parents":[2147483647,0,0,1,1,2,2],"right_children":[2,4,6,-1,-1,-1,-1],"split_conditions":[1.25E-1,4.7505938E-2,2.642369E-1,-1.02797635E-2,-3.5138314E-3,5.3195893E-3,1.6797837E-2],"split_indices":[46,46,46,0,0,0,0],"split_type":[0,0,0,0,0,0,0],"sum_hessian":[7.0171625E4,4.3024066E4,2.7147553E4,2.7971373E4,1.5052694E4,2.0888322E4,6.2592305E3],"tree_param":{"num_deleted":"0","num_feature":"89","num_nodes":"7","size_leaf_vector":"1"}},{"base_weights":[-1.9514285E-1,-4.6463367E-1,2.208259E-1,-1.08840605E-2,-4.5204815E-3,1.8092303E-3,1.2749614E-2],"categories":[],"categories_nodes":[],"categories_segments":[],"categories_sizes":[],"default_left":[0,0,0,0,0,0,0],"id":41,"left_children":[1,3,5,-1,-1,-1,-1],"loss_changes":[7.7790283E3,7.982529E2,1.4814935E3,0E0,0E0,0E0,0E0],"parents":[2147483647,0,0,1,1,2,2],"right_children":[2,4,6,-1,-1,-1,-1],"split_conditions":[9.890611E-2,4.017857E-2,2.0808081E-1,-1.08840605E-2,-4.5204815E-3,1.8092303E-3,1.2749614E-2],"split_indices":[47,47,47,0,0,0,0],"split_type":[0,0,0,0,0,0,0],"sum_hessian":[6.937466E4,4.209906E4,2.7275598E4,3.1561432E4,1.0537625E4,2.078461E4,6.490989E3],"tree_param":{"num_deleted":"0","num_feature":"89","num_nodes":"7","size_leaf_vector":"1"}},{"base_weights":[-2.931776E-1,5.8427025E-2,-4.421142E-1,3.0380148E-3,-6.2579857E-3,-1.00123E-2,-5.1227068E-3],"categories":[],"categories_nodes":[],"categories_segments":[],"categories_sizes":[],"default_left":[0,0,0,0,0,0,0],"id":42,"left_children":[1,3,5,-1,-1,-1,-1],"loss_changes":[3.6062246E3,7.1195026E2,5.2499805E2,0E0,0E0,0E0,0E0],"parents":[2147483647,0,0,1,1,2,2],"right_children":[2,4,6,-1,-1,-1,-1],"split_conditions":[3.125E-2,2.8125E-1,6E0,3.0380148E-3,-6.2579857E-3,-1.00123E-2,-5.1227068E-3],"split_indices":[37,43,54,0,0,0,0],"split_type":[0,0,0,0,0,0,0],"sum_hessian":[6.884978E4,2.0488139E4,4.836164E4,1.6372587E4,4.115551E3,3.6776457E4,1.1585182E4],"tree_param":{"num_deleted":"0","num_feature":"89","num_nodes":"7","size_leaf_vector":"1"}},{"base_weights":[8.528322E-1,1.087724E0,-5.9951633E-2,2.5726585E-2,9.611465E-3,5.0391965E-3,-4.432877E-3],"categories":[],"categories_nodes":[],"categories_segments":[],"categories_sizes":[],"default_left":[0,0,0,0,0,0,0],"id":43,"left_children":[1,3,5,-1,-1,-1,-1],"loss_changes":[1.6398047E4,7.3284766E3,7.90457E2,0E0,0E0,0E0,0E0],"parents":[2147483647,0,0,1,1,2,2],"right_children":[2,4,6,-1,-1,-1,-1],"split_conditions":[2.5555557E-1,2.4324325E-1,4.1975307E-1,2.5726585E-2,9.611465E-3,5.0391965E-3,-4.432877E-3],"split_indices":[44,51,44,0,0,0,0],"split_type":[0,0,0,0,0,0,0],"sum_hessian":[7.6468484E4,6.0816355E4,1.5652131E4,4.5817715E4,1.4998637E4,5.341861E3,1.031027E4],"tree_param":{"num_deleted":"0","num_feature":"89","num_nodes":"7","size_leaf_vector":"1"}},{"base_weights":[-4.9663648E-1,-5.444576E-1,7.7649254E-1,-1.1274254E-2,-2.3394078E-3,1.0292542E-2,2.752067E-2],"categories":[],"categories_nodes":[],"categories_segments":[],"categories_sizes":[],"default_left":[0,0,0,0,0,0,0],"id":44,"left_children":[1,3,5,-1,-1,-1,-1],"loss_changes":[4.122289E3,5.359922E2,3.780077E2,0E0,0E0,0E0,0E0],"parents":[2147483647,0,0,1,1,2,2],"right_children":[2,4,6,-1,-1,-1,-1],"split_conditions":[1.6571428E-1,4.639175E-2,3.4579438E-1,-1.1274254E-2,-2.3394078E-3,1.0292542E-2,2.752067E-2],"split_indices":[42,42,42,0,0,0,0],"split_type":[0,0,0,0,0,0,0],"sum_hessian":[6.762951E4,6.5186695E4,2.4428127E3,6.2374027E4,2.812669E3,1.7131381E3,7.2967474E2],"tree_param":{"num_deleted":"0","num_feature":"89","num_nodes":"7","size_leaf_vector":"1"}},{"base_weights":[-4.117515E-2,-3.7629402E-1,1.0406301E0,-1.056571E-2,6.058123E-4,1.648274E-2,3.89145E-2],"categories":[],"categories_nodes":[],"categories_segments":[],"categories_sizes":[],"default_left":[0,0,0,0,0,0,0],"id":45,"left_children":[1,3,5,-1,-1,-1,-1],"loss_changes":[2.5518443E4,3.3211802E3,3.24608E3,0E0,0E0,0E0,0E0],"parents":[2147483647,0,0,1,1,2,2],"right_children":[2,4,6,-1,-1,-1,-1],"split_conditions":[2.1348314E-1,6.930693E-2,5E-1,-1.056571E-2,6.058123E-4,1.648274E-2,3.89145E-2],"split_indices":[43,43,43,0,0,0,0],"split_type":[0,0,0,0,0,0,0],"sum_hessian":[7.036843E4,5.373046E4,1.6637963E4,3.9107945E4,1.462252E4,1.344186E4,3.196103E3],"tree_param":{"num_deleted":"0","num_feature":"89","num_nodes":"7","size_leaf_vector":"1"}},{"base_weights":[1.4648976E-2,-4.9821198E-1,1.5189121E0,-1.1227816E-2,2.8246164E-3,2.1170352E-2,4.316874E-2],"categories":[],"categories_nodes":[],"categories_segments":[],"categories_sizes":[],"default_left":[0,0,0,0,0,0,0],"id":46,"left_children":[1,3,5,-1,-1,-1,-1],"loss_changes":[5.458893E4,2.1325967E3,5.2742188E3,0E0,0E0,0E0,0E0],"parents":[2147483647,0,0,1,1,2,2],"right_children":[2,4,6,-1,-1,-1,-1],"split_conditions":[2.4324325E-1,8.163265E-2,5.52381E-1,-1.1227816E-2,2.8246164E-3,2.1170352E-2,4.316874E-2],"split_indices":[44,44,44,0,0,0,0],"split_type":[0,0,0,0,0,0,0],"sum_hessian":[7.07391E4,5.275842E4,1.7980682E4,4.8015562E4,4.74286E3,1.0469926E4,7.510756E3],"tree_param":{"num_deleted":"0","num_feature":"89","num_nodes":"7","size_leaf_vector":"1"}},{"base_weights":[1.4144999E-1,-3.4055144E-1,9.2377645E-1,-1.0299779E-2,-3.1458705E-5,1.3219924E-2,3.1401206E-2],"categories":[],"categories_nodes":[],"categories_segments":[],"categories_sizes":[],"default_left":[0,0,0,0,0,0,0],"id":47,"left_children":[1,3,5,-1,-1,-1,-1],"loss_changes":[2.694592E4,2.6146694E3,4.616133E3,0E0,0E0,0E0,0E0],"parents":[2147483647,0,0,1,1,2,2],"right_children":[2,4,6,-1,-1,-1,-1],"split_conditions":[1.8881118E-1,6.896552E-2,4E-1,-1.0299779E-2,-3.1458705E-5,1.3219924E-2,3.1401206E-2],"split_indices":[45,45,45,0,0,0,0],"split_type":[0,0,0,0,0,0,0],"sum_hessian":[7.144062E4,4.420871E4,2.723191E4,2.918499E4,1.5023719E4,1.937445E4,7.8574595E3],"tree_param":{"num_deleted":"0","num_feature":"89","num_nodes":"7","size_leaf_vector":"1"}},{"base_weights":[-8.457292E-2,-3.990966E-2,-4.773353E-1,-2.7552368E-3,1.9075425E-3,-7.3451423E-3,-1.04400525E-2],"categories":[],"categories_nodes":[],"categories_segments":[],"categories_sizes":[],"default_left":[0,0,0,0,0,0,0],"id":48,"left_children":[1,3,5,-1,-1,-1,-1],"loss_changes":[1.2280259E3,8.3251117E2,3.3229126E1,0E0,0E0,0E0,0E0],"parents":[2147483647,0,0,1,1,2,2],"right_children":[2,4,6,-1,-1,-1,-1],"split_conditions":[6.756757E-3,1.0733591E-1,3.68053E-4,-2.7552368E-3,1.9075425E-3,-7.3451423E-3,-1.04400525E-2],"split_indices":[34,4,56,0,0,0,0],"split_type":[0,0,0,0,0,0,0],"sum_hessian":[7.000557E4,6.2867555E4,7.138013E3,3.648092E4,2.6386633E4,2.0870088E3,5.051004E3],"tree_param":{"num_deleted":"0","num_feature":"89","num_nodes":"7","size_leaf_vector":"1"}},{"base_weights":[-1.9448562E-1,-4.7347176E-1,1.9750021E-1,-1.10040475E-2,-5.1732603E-3,1.0081438E-3,1.0918422E-2],"categories":[],"categories_nodes":[],"categories_segments":[],"categories_sizes":[],"default_left":[0,0,0,0,0,0,0],"id":49,"left_children":[1,3,5,-1,-1,-1,-1],"loss_changes":[7.5600767E3,6.6421387E2,1.4730569E3,0E0,0E0,0E0,0E0],"parents":[2147483647,0,0,1,1,2,2],"right_children":[2,4,6,-1,-1,-1,-1],"split_conditions":[9.400324E-2,3.25511E-2,1.9495213E-1,-1.10040475E-2,-5.1732603E-3,1.0081438E-3,1.0918422E-2],"split_indices":[47,47,47,0,0,0,0],"split_type":[0,0,0,0,0,0,0],"sum_hessian":[6.91125E4,4.037472E4,2.873778E4,2.9736938E4,1.0637781E4,2.0215033E4,8.522744E3],"tree_param":{"num_deleted":"0","num_feature":"89","num_nodes":"7","size_leaf_vector":"1"}},{"base_weights":[-2.891109E-1,-4.9834695E-1,6.766524E-1,-1.1054998E-2,-3.1745892E-3,8.453838E-3,3.174751E-2],"categories":[],"categories_nodes":[],"categories_segments":[],"categories_sizes":[],"default_left":[0,0,0,0,0,0,0],"id":50,"left_children":[1,3,5,-1,-1,-1,-1],"loss_changes":[1.3821914E4,1.0377148E3,2.8107495E3,0E0,0E0,0E0,0E0],"parents":[2147483647,0,0,1,1,2,2],"right_children":[2,4,6,-1,-1,-1,-1],"split_conditions":[1.4117648E-1,4.347826E-2,3.846154E-1,-1.1054998E-2,-3.1745892E-3,8.453838E-3,3.174751E-2],"split_indices":[32,32,32,0,0,0,0],"split_type":[0,0,0,0,0,0,0],"sum_hessian":[6.837408E4,5.6202453E4,1.2171623E4,4.843709E4,7.7653623E3,9.529036E3,2.6425862E3],"tree_param":{"num_deleted":"0","num_feature":"89","num_nodes":"7","size_leaf_vector":"1"}},{"base_weights":[8.29925E-1,1.1616294E-1,1.4618481E0,-6.187659E-3,9.130738E-3,2.2713913E-2,3.914758E-2],"categories":[],"categories_nodes":[],"categories_segments":[],"categories_sizes":[],"default_left":[0,0,0,0,0,0,0],"id":51,"left_children":[1,3,5,-1,-1,-1,-1],"loss_changes":[3.4917684E4,5.268884E3,6.6143047E3,0E0,0E0,0E0,0E0],"parents":[2147483647,0,0,1,1,2,2],"right_children":[2,4,6,-1,-1,-1,-1],"split_conditions":[3.2865733E-1,1.3953489E-1,5.392157E-1,-6.187659E-3,9.130738E-3,2.2713913E-2,3.914758E-2],"split_indices":[33,33,33,0,0,0,0],"split_type":[0,0,0,0,0,0,0],"sum_hessian":[7.7409234E4,3.635633E4,4.105291E4,1.6157116E4,2.019921E4,2.4777545E4,1.6275364E4],"tree_param":{"num_deleted":"0","num_feature":"89","num_nodes":"7","size_leaf_vector":"1"}},{"base_weights":[-4.9473035E-1,-5.489619E-1,6.5212065E-1,-1.1276417E-2,-3.7247883E-3,7.935784E-3,2.578459E-2],"categories":[],"categories_nodes":[],"categories_segments":[],"categories_sizes":[],"default_left":[0,0,0,0,0,0,0],"id":52,"left_children":[1,3,5,-1,-1,-1,-1],"loss_changes":[4.175043E3,3.4414844E2,4.8826453E2,0E0,0E0,0E0,0E0],"parents":[2147483647,0,0,1,1,2,2],"right_children":[2,4,6,-1,-1,-1,-1],"split_conditions":[1.3564669E-1,4E-2,3.207547E-1,-1.1276417E-2,-3.7247883E-3,7.935784E-3,2.578459E-2],"split_indices":[42,42,42,0,0,0,0],"split_type":[0,0,0,0,0,0,0],"sum_hessian":[6.706021E4,6.4037273E4,3.022939E3,6.151188E4,2.525396E3,2.169647E3,8.532922E2],"tree_param":{"num_deleted":"0","num_feature":"89","num_nodes":"7","size_leaf_vector":"1"}},{"base_weights":[-4.1458398E-2,-4.0484965E-1,9.1986585E-1,-1.0794669E-2,-1.0701743E-3,1.2968171E-2,3.2454845E-2],"categories":[],"categories_nodes":[],"categories_segments":[],"categories_sizes":[],"default_left":[0,0,0,0,0,0,0],"id":53,"left_children":[1,3,5,-1,-1,-1,-1],"loss_changes":[2.4593918E4,2.4208086E3,3.6743164E3,0E0,0E0,0E0,0E0],"parents":[2147483647,0,0,1,1,2,2],"right_children":[2,4,6,-1,-1,-1,-1],"split_conditions":[1.875E-1,5.6338027E-2,4.2E-1,-1.0794669E-2,-1.0701743E-3,1.2968171E-2,3.2454845E-2],"split_indices":[43,43,43,0,0,0,0],"split_type":[0,0,0,0,0,0,0],"sum_hessian":[7.038107E4,5.107859E4,1.9302486E4,3.690498E4,1.4173609E4,1.3938526E4,5.363959E3],"tree_param":{"num_deleted":"0","num_feature":"89","num_nodes":"7","size_leaf_vector":"1"}},{"base_weights":[1.909419E-2,1.1440268E0,-3.4125006E-1,2.8785119E-2,-1.1308493E-2,1.8275747E-3,-1.1135389E-2],"categories":[],"categories_nodes":[],"categories_segments":[],"categories_sizes":[],"default_left":[0,0,0,0,0,0,0],"id":54,"left_children":[1,3,5,-1,-1,-1,-1],"loss_changes":[2.8702168E4,8.677676E3,5.0007944E3,0E0,0E0,0E0,0E0],"parents":[2147483647,0,0,1,1,2,2],"right_children":[2,4,6,-1,-1,-1,-1],"split_conditions":[1.3943662E-1,1.4925373E-2,3.267974E-3,2.8785119E-2,-1.1308493E-2,1.8275747E-3,-1.1135389E-2],"split_indices":[58,35,35,0,0,0,0],"split_type":[0,0,0,0,0,0,0],"sum_hessian":[7.078646E4,1.7168285E4,5.361817E4,1.4641261E4,2.5270247E3,1.7830797E4,3.5787375E4],"tree_param":{"num_deleted":"0","num_feature":"89","num_nodes":"7","size_leaf_vector":"1"}},{"base_weights":[1.3940996E-1,-3.3353597E-1,9.008131E-1,-1.0187525E-2,3.5311672E-4,1.3755561E-2,3.25237E-2],"categories":[],"categories_nodes":[],"categories_segments":[],"categories_sizes":[],"default_left":[0,0,0,0,0,0,0],"id":55,"left_children":[1,3,5,-1,-1,-1,-1],"loss_changes":[2.5791123E4,2.7284692E3,4.2293594E3,0E0,0E0,0E0,0E0],"parents":[2147483647,0,0,1,1,2,2],"right_children":[2,4,6,-1,-1,-1,-1],"split_conditions":[1.9090909E-1,7.317073E-2,4.375E-1,-1.0187525E-2,3.5311672E-4,1.3755561E-2,3.25237E-2],"split_indices":[45,45,45,0,0,0,0],"split_type":[0,0,0,0,0,0,0],"sum_hessian":[7.160327E4,4.417165E4,2.7431621E4,2.9431107E4,1.4740543E4,2.1219217E4,6.2124053E3],"tree_param":{"num_deleted":"0","num_feature":"89","num_nodes":"7","size_leaf_vector":"1"}},{"base_weights":[-8.581941E-2,-3.40494E-1,2.8642577E-1,-1.0200276E-2,-3.5480696E-3,3.2808254E-3,1.2435199E-2],"categories":[],"categories_nodes":[],"categories_segments":[],"categories_sizes":[],"default_left":[0,0,0,0,0,0,0],"id":56,"left_children":[1,3,5,-1,-1,-1,-1],"loss_changes":[6.6056562E3,1.142898E3,1.1606917E3,0E0,0E0,0E0,0E0],"parents":[2147483647,0,0,1,1,2,2],"right_children":[2,4,6,-1,-1,-1,-1],"split_conditions":[1.1946533E-1,4.644809E-2,2.152824E-1,-1.0200276E-2,-3.5480696E-3,3.2808254E-3,1.2435199E-2],"split_indices":[55,55,55,0,0,0,0],"split_type":[0,0,0,0,0,0,0],"sum_hessian":[6.96586E4,4.1361586E4,2.8297016E4,2.0270607E4,2.109098E4,2.074189E4,7.5551265E3],"tree_param":{"num_deleted":"0","num_feature":"89","num_nodes":"7","size_leaf_vector":"1"}},{"base_weights":[-1.9312103E-1,-4.4728988E-1,5.160398E-1,-1.08014485E-2,-3.4191536E-3,6.5215304E-3,2.4147036E-2],"categories":[],"categories_nodes":[],"categories_segments":[],"categories_sizes":[],"default_left":[0,0,0,0,0,0,0],"id":57,"left_children":[1,3,5,-1,-1,-1,-1],"loss_changes":[1.2431588E4,1.3007217E3,2.3859692E3,0E0,0E0,0E0,0E0],"parents":[2147483647,0,0,1,1,2,2],"right_children":[2,4,6,-1,-1,-1,-1],"split_conditions":[1.322314E-1,4.6875E-2,3.2051283E-1,-1.08014485E-2,-3.4191536E-3,6.5215304E-3,2.4147036E-2],"split_indices":[39,39,39,0,0,0,0],"split_type":[0,0,0,0,0,0,0],"sum_hessian":[6.894708E4,5.0758516E4,1.8188562E4,3.7992453E4,1.2766064E4,1.4279472E4,3.9090903E3],"tree_param":{"num_deleted":"0","num_feature":"89","num_nodes":"7","size_leaf_vector":"1"}},{"base_weights":[-2.864757E-1,-3.4646225E-1,9.097439E-1,4.2153356E-4,-9.060603E-3,2.2210088E-2,9.1540525E-3],"categories":[],"categories_nodes":[],"categories_segments":[],"categories_sizes":[],"default_left":[0,0,0,0,0,0,0],"id":58,"left_children":[1,3,5,-1,-1,-1,-1],"loss_changes":[4.8898037E3,2.5403345E3,2.902859E2,0E0,0E0,0E0,0E0],"parents":[2147483647,0,0,1,1,2,2],"right_children":[2,4,6,-1,-1,-1,-1],"split_conditions":[1E0,1.1376564E-2,8.293839E-2,4.2153356E-4,-9.060603E-3,2.2210088E-2,9.1540525E-3],"split_indices":[74,62,51,0,0,0,0],"split_type":[0,0,0,0,0,0,0],"sum_hessian":[6.808989E4,6.4845215E4,3.2446755E3,1.4577458E4,5.0267758E4,2.236732E3,1.0079435E3],"tree_param":{"num_deleted":"0","num_feature":"89","num_nodes":"7","size_leaf_vector":"1"}},{"base_weights":[8.103725E-1,9.357561E-2,1.4496078E0,-6.4892005E-3,8.757659E-3,2.2928523E-2,3.9997526E-2],"categories":[],"categories_nodes":[],"categories_segments":[],"categories_sizes":[],"default_left":[0,0,0,0,0,0,0],"id":59,"left_children":[1,3,5,-1,-1,-1,-1],"loss_changes":[3.5953645E4,5.32714E3,6.896953E3,0E0,0E0,0E0,0E0],"parents":[2147483647,0,0,1,1,2,2],"right_children":[2,4,6,-1,-1,-1,-1],"split_conditions":[3.3009708E-1,1.4148681E-1,5.7014924E-1,-6.4892005E-3,8.757659E-3,2.2928523E-2,3.9997526E-2],"split_indices":[41,41,41,0,0,0,0],"split_type":[0,0,0,0,0,0,0],"sum_hessian":[7.8459766E4,3.699144E4,4.1468324E4,1.6707209E4,2.0284232E4,2.6756896E4,1.4711429E4],"tree_param":{"num_deleted":"0","num_feature":"89","num_nodes":"7","size_leaf_vector":"1"}},{"base_weights":[-4.939317E-1,-5.085754E-1,7.05859E-1,-1.0358465E-2,-2.8657203E-3,1.6305786E-2,9.180143E-3],"categories":[],"categories_nodes":[],"categories_segments":[],"categories_sizes":[],"default_left":[0,0,0,0,0,0,0],"id":60,"left_children":[1,3,5,-1,-1,-1,-1],"loss_changes":[1.1720566E3,2.2363867E2,1.8033508E1,0E0,0E0,0E0,0E0],"parents":[2147483647,0,0,1,1,2,2],"right_children":[2,4,6,-1,-1,-1,-1],"split_conditions":[1E0,7E0,4.6875E-2,-1.0358465E-2,-2.8657203E-3,1.6305786E-2,9.180143E-3],"split_indices":[76,54,39,0,0,0,0],"split_type":[0,0,0,0,0,0,0],"sum_hessian":[6.649616E4,6.570004E4,7.961198E2,6.405663E4,1.6434075E3,5.356409E2,2.604789E2],"tree_param":{"num_deleted":"0","num_feature":"89","num_nodes":"7","size_leaf_vector":"1"}},{"base_weights":[-3.9168376E-2,-4.2051813E-1,8.636025E-1,-1.0849428E-2,-1.6721477E-3,1.0679169E-2,2.8626913E-2],"categories":[],"categories_nodes":[],"categories_segments":[],"categories_sizes":[],"default_left":[0,0,0,0,0,0,0],"id":61,"left_children":[1,3,5,-1,-1,-1,-1],"loss_changes":[2.417097E4,2.027542E3,3.8945684E3,0E0,0E0,0E0,0E0],"parents":[2147483647,0,0,1,1,2,2],"right_children":[2,4,6,-1,-1,-1,-1],"split_conditions":[1.7142858E-1,5.392157E-2,3.7254903E-1,-1.0849428E-2,-1.6721477E-3,1.0679169E-2,2.8626913E-2],"split_indices":[43,43,43,0,0,0,0],"split_type":[0,0,0,0,0,0,0],"sum_hessian":[7.018849E4,4.934813E4,2.0840363E4,3.6228293E4,1.3119837E4,1.3197191E4,7.6431733E3],"tree_param":{"num_deleted":"0","num_feature":"89","num_nodes":"7","size_leaf_vector":"1"}},{"base_weights":[1.53529495E-2,-5.0211513E-1,1.3783448E0,-1.1211574E-2,2.300581E-3,1.7957801E-2,3.7102483E-2],"categories":[],"categories_nodes":[],"categories_segments":[],"categories_sizes":[],"default_left":[0,0,0,0,0,0,0],"id":62,"left_children":[1,3,5,-1,-1,-1,-1],"loss_changes":[4.985413E4,1.8491787E3,4.4390156E3,0E0,0E0,0E0,0E0],"parents":[2147483647,0,0,1,1,2,2],"right_children":[2,4,6,-1,-1,-1,-1],"split_conditions":[2.3404256E-1,7.7738516E-2,5E-1,-1.1211574E-2,2.300581E-3,1.7957801E-2,3.7102483E-2],"split_indices":[36,36,36,0,0,0,0],"split_type":[0,0,0,0,0,0,0],"sum_hessian":[7.066471E4,5.1223656E4,1.9441055E4,4.6791867E4,4.43179E3,9.697565E3,9.743488E3],"tree_param":{"num_deleted":"0","num_feature":"89","num_nodes":"7","size_leaf_vector":"1"}},{"base_weights":[1.3284504E-1,-3.3428377E-1,8.6685735E-1,-1.0044257E-2,4.9778406E-4,1.1736938E-2,2.764328E-2],"categories":[],"categories_nodes":[],"categories_segments":[],"categories_sizes":[],"default_left":[0,0,0,0,0,0,0],"id":63,"left_children":[1,3,5,-1,-1,-1,-1],"loss_changes":[2.458641E4,2.643231E3,4.015629E3,0E0,0E0,0E0,0E0],"parents":[2147483647,0,0,1,1,2,2],"right_children":[2,4,6,-1,-1,-1,-1],"split_conditions":[1.8881118E-1,7.692308E-2,3.7209302E-1,-1.0044257E-2,4.9778406E-4,1.1736938E-2,2.764328E-2],"split_indices":[45,45,45,0,0,0,0],"split_type":[0,0,0,0,0,0,0],"sum_hessian":[7.168749E4,4.3811254E4,2.7876238E4,2.9850738E4,1.3960515E4,1.80756E4,9.80064E3],"tree_param":{"num_deleted":"0","num_feature":"89","num_nodes":"7","size_leaf_vector":"1"}},{"base_weights":[-8.566507E-2,-3.3173254E-1,4.5711213E-1,-1.0162626E-2,-2.5566644E-3,1.4293966E-2,1.403844E-3],"categories":[],"categories_nodes":[],"categories_segments":[],"categories_sizes":[],"default_left":[0,0,0,0,0,0,0],"id":64,"left_children":[1,3,5,-1,-1,-1,-1],"loss_changes":[9.323277E3,1.7268423E3,2.1697627E3,0E0,0E0,0E0,0E0],"parents":[2147483647,0,0,1,1,2,2],"right_children":[2,4,6,-1,-1,-1,-1],"split_conditions":[1.4328358E-1,5.3097345E-2,1E0,-1.0162626E-2,-2.5566644E-3,1.4293966E-2,1.403844E-3],"split_indices":[30,30,82,0,0,0,0],"split_type":[0,0,0,0,0,0,0],"sum_hessian":[6.978466E4,4.8019125E4,2.1765531E4,2.5737768E4,2.2281357E4,1.3061536E4,8.703995E3],"tree_param":{"num_deleted":"0","num_feature":"89","num_nodes":"7","size_leaf_vector":"1"}},{"base_weights":[-1.8924725E-1,-4.5372942E-1,4.810545E-1,-1.0849829E-2,-3.8853951E-3,5.3693266E-3,2.1384306E-2],"categories":[],"categories_nodes":[],"categories_segments":[],"categories_sizes":[],"default_left":[0,0,0,0,0,0,0],"id":65,"left_children":[1,3,5,-1,-1,-1,-1],"loss_changes":[1.2176708E4,1.1331387E3,2.4271733E3,0E0,0E0,0E0,0E0],"parents":[2147483647,0,0,1,1,2,2],"right_children":[2,4,6,-1,-1,-1,-1],"split_conditions":[1.25E-1,4.1666668E-2,2.8879312E-1,-1.0849829E-2,-3.8853951E-3,5.3693266E-3,2.1384306E-2],"split_indices":[39,39,39,0,0,0,0],"split_type":[0,0,0,0,0,0,0],"sum_hessian":[6.866289E4,4.923814E4,1.942475E4,3.6679168E4,1.2558974E4,1.4278436E4,5.146315E3],"tree_param":{"num_deleted":"0","num_feature":"89","num_nodes":"7","size_leaf_vector":"1"}},{"base_weights":[-2.8654101E-1,-4.8991835E-1,6.235488E-1,-1.0935764E-2,-2.621712E-3,8.283365E-3,3.0357737E-2],"categories":[],"categories_nodes":[],"categories_segments":[],"categories_sizes":[],"default_left":[0,0,0,0,0,0,0],"id":66,"left_children":[1,3,5,-1,-1,-1,-1],"loss_changes":[1.2563209E4,1.131248E3,2.315517E3,0E0,0E0,0E0,0E0],"parents":[2147483647,0,0,1,1,2,2],"right_children":[2,4,6,-1,-1,-1,-1],"split_conditions":[1.4530271E-1,5.3097345E-2,3.9285713E-1,-1.0935764E-2,-2.621712E-3,8.283365E-3,3.0357737E-2],"split_indices":[57,57,57,0,0,0,0],"split_type":[0,0,0,0,0,0,0],"sum_hessian":[6.784911E4,5.5460086E4,1.2389021E4,4.786839E4,7.5916953E3,1.0050623E4,2.3383994E3],"tree_param":{"num_deleted":"0","num_feature":"89","num_nodes":"7","size_leaf_vector":"1"}},{"base_weights":[7.892545E-1,-8.349925E-3,1.2178376E0,-7.5422963E-3,5.4231426E-3,1.826778E-2,3.1490803E-2],"categories":[],"categories_nodes":[],"categories_segments":[],"categories_sizes":[],"default_left":[0,0,0,0,0,0,0],"id":67,"left_children":[1,3,5,-1,-1,-1,-1],"loss_changes":[2.7200793E4,2.868718E3,5.6065625E3,0E0,0E0,0E0,0E0],"parents":[2147483647,0,0,1,1,2,2],"right_children":[2,4,6,-1,-1,-1,-1],"split_conditions":[2.7879387E-1,1.14969134E-1,4.7962382E-1,-7.5422963E-3,5.4231426E-3,1.826778E-2,3.1490803E-2],"split_indices":[49,49,49,0,0,0,0],"split_type":[0,0,0,0,0,0,0],"sum_hessian":[7.9561484E4,2.7812146E4,5.1749336E4,1.1989898E4,1.5822248E4,2.793888E4,2.3810455E4],"tree_param":{"num_deleted":"0","num_feature":"89","num_nodes":"7","size_leaf_vector":"1"}},{"base_weights":[-4.9041742E-1,-1.4963937E-1,-5.559167E-1,-4.3393844E-3,1.46556115E-2,-1.0677693E-2,-1.1218771E-2],"categories":[],"categories_nodes":[],"categories_segments":[],"categories_sizes":[],"default_left":[0,0,0,0,0,0,0],"id":68,"left_children":[1,3,5,-1,-1,-1,-1],"loss_changes":[1.4720869E3,6.344758E2,3.1289062E0,0E0,0E0,0E0,0E0],"parents":[2147483647,0,0,1,1,2,2],"right_children":[2,4,6,-1,-1,-1,-1],"split_conditions":[3.9177276E-3,1E0,1.1904762E-1,-4.3393844E-3,1.46556115E-2,-1.0677693E-2,-1.1218771E-2],"split_indices":[55,76,33,0,0,0,0],"split_type":[0,0,0,0,0,0,0],"sum_hessian":[6.597882E4,1.0642277E4,5.5336543E4,9.894829E3,7.474479E2,1.0471042E4,4.48655E4],"tree_param":{"num_deleted":"0","num_feature":"89","num_nodes":"7","size_leaf_vector":"1"}},{"base_weights":[-4.38489E-2,-4.125781E-1,7.0826274E-1,-1.0659782E-2,-1.7208661E-3,1.0297175E-2,2.477126E-2],"categories":[],"categories_nodes":[],"categories_segments":[],"categories_sizes":[],"default_left":[0,0,0,0,0,0,0],"id":69,"left_children":[1,3,5,-1,-1,-1,-1],"loss_changes":[1.941943E4,1.8469961E3,2.3562861E3,0E0,0E0,0E0,0E0],"parents":[2147483647,0,0,1,1,2,2],"right_children":[2,4,6,-1,-1,-1,-1],"split_conditions":[1.7196652E-1,5.667276E-2,3.6021507E-1,-1.0659782E-2,-1.7208661E-3,1.0297175E-2,2.477126E-2],"split_indices":[60,60,60,0,0,0,0],"split_type":[0,0,0,0,0,0,0],"sum_hessian":[7.000342E4,4.697704E4,2.3026383E4,3.4316402E4,1.2660635E4,1.6887213E4,6.139169E3],"tree_param":{"num_deleted":"0","num_feature":"89","num_nodes":"7","size_leaf_vector":"1"}},{"base_weights":[1.6657852E-2,-5.0341326E-1,1.3263066E0,-1.11955255E-2,2.1577168E-3,1.8395703E-2,3.706507E-2],"categories":[],"categories_nodes":[],"categories_segments":[],"categories_sizes":[],"default_left":[0,0,0,0,0,0,0],"id":70,"left_children":[1,3,5,-1,-1,-1,-1],"loss_changes":[4.8062996E4,1.7408643E3,4.2795156E3,0E0,0E0,0E0,0E0],"parents":[2147483647,0,0,1,1,2,2],"right_children":[2,4,6,-1,-1,-1,-1],"split_conditions":[2.2857143E-1,7.7738516E-2,5.3497165E-1,-1.11955255E-2,2.1577168E-3,1.8395703E-2,3.706507E-2],"split_indices":[36,36,36,0,0,0,0],"split_type":[0,0,0,0,0,0,0],"sum_hessian":[7.054584E4,5.0498625E4,2.0047217E4,4.6236375E4,4.2622495E3,1.1332238E4,8.714979E3],"tree_param":{"num_deleted":"0","num_feature":"89","num_nodes":"7","size_leaf_vector":"1"}},{"base_weights":[1.3166067E-1,-3.0179703E-1,6.7223996E-1,-1.0335588E-2,-5.113646E-4,1.0743695E-2,2.4717059E-2],"categories":[],"categories_nodes":[],"categories_segments":[],"categories_sizes":[],"default_left":[0,0,0,0,0,0,0],"id":71,"left_children":[1,3,5,-1,-1,-1,-1],"loss_changes":[1.6868256E4,2.3725671E3,2.43183E3,0E0,0E0,0E0,0E0],"parents":[2147483647,0,0,1,1,2,2],"right_children":[2,4,6,-1,-1,-1,-1],"split_conditions":[1.7713854E-1,6.0606062E-2,3.7433156E-1,-1.0335588E-2,-5.113646E-4,1.0743695E-2,2.4717059E-2],"split_indices":[53,53,53,0,0,0,0],"split_type":[0,0,0,0,0,0,0],"sum_hessian":[7.197E4,3.9944973E4,3.2025031E4,2.2457848E4,1.7487123E4,2.585023E4,6.174801E3],"tree_param":{"num_deleted":"0","num_feature":"89","num_nodes":"7","size_leaf_vector":"1"}},{"base_weights":[-8.5304335E-2,-3.9250034E-1,5.702547E-1,-1.0566922E-2,-2.8737166E-3,7.3132184E-3,2.1295203E-2],"categories":[],"categories_nodes":[],"categories_segments":[],"categories_sizes":[],"default_left":[0,0,0,0,0,0,0],"id":72,"left_children":[1,3,5,-1,-1,-1,-1],"loss_changes":[1.4032048E4,1.6028433E3,2.2455098E3,0E0,0E0,0E0,0E0],"parents":[2147483647,0,0,1,1,2,2],"right_children":[2,4,6,-1,-1,-1,-1],"split_conditions":[1.4666666E-1,4.6511628E-2,3E-1,-1.0566922E-2,-2.8737166E-3,7.3132184E-3,2.1295203E-2],"split_indices":[38,38,38,0,0,0,0],"split_type":[0,0,0,0,0,0,0],"sum_hessian":[6.965657E4,4.7433277E4,2.2223297E4,3.067458E4,1.6758695E4,1.5731879E4,6.491418E3],"tree_param":{"num_deleted":"0","num_feature":"89","num_nodes":"7","size_leaf_vector":"1"}},{"base_weights":[-1.9100443E-1,-4.3823636E-1,5.0991154E-1,-1.08512575E-2,-3.4396332E-3,6.676147E-3,2.3643931E-2],"categories":[],"categories_nodes":[],"categories_segments":[],"categories_sizes":[],"default_left":[0,0,0,0,0,0,0],"id":73,"left_children":[1,3,5,-1,-1,-1,-1],"loss_changes":[1.1849399E4,1.403083E3,2.1071494E3,0E0,0E0,0E0,0E0],"parents":[2147483647,0,0,1,1,2,2],"right_children":[2,4,6,-1,-1,-1,-1],"split_conditions":[1.3636364E-1,4.137931E-2,3.3333334E-1,-1.08512575E-2,-3.4396332E-3,6.676147E-3,2.3643931E-2],"split_indices":[39,39,39,0,0,0,0],"split_type":[0,0,0,0,0,0,0],"sum_hessian":[6.8356586E4,5.0535207E4,1.7821379E4,3.6301008E4,1.4234197E4,1.413397E4,3.68741E3],"tree_param":{"num_deleted":"0","num_feature":"89","num_nodes":"7","size_leaf_vector":"1"}},{"base_weights":[-2.8559476E-1,-3.4497884E-1,8.6373657E-1,2.4557818E-4,-9.007955E-3,2.8091578E-2,1.50423115E-2],"categories":[],"categories_nodes":[],"categories_segments":[],"categories_sizes":[],"default_left":[0,0,0,0,0,0,0],"id":74,"left_children":[1,3,5,-1,-1,-1,-1],"loss_changes":[4.600977E3,2.4128647E3,1.8941748E2,0E0,0E0,0E0,0E0],"parents":[2147483647,0,0,1,1,2,2],"right_children":[2,4,6,-1,-1,-1,-1],"split_conditions":[1E0,1.1376564E-2,1.010101E-2,2.4557818E-4,-9.007955E-3,2.8091578E-2,1.50423115E-2],"split_indices":[74,62,41,0,0,0,0],"split_type":[0,0,0,0,0,0,0],"sum_hessian":[6.735797E4,6.4055332E4,3.302636E3,1.4596749E4,4.9458586E4,5.451861E2,2.75745E3],"tree_param":{"num_deleted":"0","num_feature":"89","num_nodes":"7","size_leaf_vector":"1"}},{"base_weights":[7.69622E-1,7.869186E-2,1.2987555E0,-6.712624E-3,7.5572636E-3,1.9763261E-2,3.4196034E-2],"categories":[],"categories_nodes":[],"categories_segments":[],"categories_sizes":[],"default_left":[0,0,0,0,0,0,0],"id":75,"left_children":[1,3,5,-1,-1,-1,-1],"loss_changes":[2.9511258E4,4.3421416E3,5.8193047E3,0E0,0E0,0E0,0E0],"parents":[2147483647,0,0,1,1,2,2],"right_children":[2,4,6,-1,-1,-1,-1],"split_conditions":[3.1343284E-1,1.2871288E-1,5.1878357E-1,-6.712624E-3,7.5572636E-3,1.9763261E-2,3.4196034E-2],"split_indices":[33,33,33,0,0,0,0],"split_type":[0,0,0,0,0,0,0],"sum_hessian":[8.071412E4,3.5010156E4,4.570396E4,1.4679402E4,2.0330756E4,2.605242E4,1.9651541E4],"tree_param":{"num_deleted":"0","num_feature":"89","num_nodes":"7","size_leaf_vector":"1"}},{"base_weights":[-4.8981678E-1,-2.2957513E-1,-5.4696363E-1,6.7225884E-4,-7.7208825E-3,-8.692918E-3,-1.109064E-2],"categories":[],"categories_nodes":[],"categories_segments":[],"categories_sizes":[],"default_left":[0,0,0,0,0,0,0],"id":76,"left_children":[1,3,5,-1,-1,-1,-1],"loss_changes":[9.706748E2,4.8541492E2,4.3135742E1,0E0,0E0,0E0,0E0],"parents":[2147483647,0,0,1,1,2,2],"right_children":[2,4,6,-1,-1,-1,-1],"split_conditions":[1.3568521E-3,1E0,6.22084E-3,6.7225884E-4,-7.7208825E-3,-8.692918E-3,-1.109064E-2],"split_indices":[46,82,46,0,0,0,0],"split_type":[0,0,0,0,0,0,0],"sum_hessian":[6.534304E4,1.1774266E4,5.3568773E4,4.3929585E3,7.381307E3,3.4186548E3,5.0150117E4],"tree_param":{"num_deleted":"0","num_feature":"89","num_nodes":"7","size_leaf_vector":"1"}},{"base_weights":[-3.9127007E-2,-4.099164E-1,7.033413E-1,-1.06542315E-2,-1.6420475E-3,9.976542E-3,2.3702916E-2],"categories":[],"categories_nodes":[],"categories_segments":[],"categories_sizes":[],"default_left":[0,0,0,0,0,0,0],"id":77,"left_children":[1,3,5,-1,-1,-1,-1],"loss_changes":[1.9300057E4,1.8816436E3,2.2949092E3,0E0,0E0,0E0,0E0],"parents":[2147483647,0,0,1,1,2,2],"right_children":[2,4,6,-1,-1,-1,-1],"split_conditions":[1.7196652E-1,5.667276E-2,3.529412E-1,-1.06542315E-2,-1.6420475E-3,9.976542E-3,2.3702916E-2],"split_indices":[60,60,60,0,0,0,0],"split_type":[0,0,0,0,0,0,0],"sum_hessian":[7.008523E4,4.674514E4,2.3340088E4,3.400211E4,1.2743029E4,1.6399328E4,6.94076E3],"tree_param":{"num_deleted":"0","num_feature":"89","num_nodes":"7","size_leaf_vector":"1"}},{"base_weights":[1.4059775E-2,-5.131296E-1,1.2458985E0,-1.1219214E-2,7.1609044E-4,1.5491457E-2,3.3520944E-2],"categories":[],"categories_nodes":[],"categories_segments":[],"categories_sizes":[],"default_left":[0,0,0,0,0,0,0],"id":78,"left_children":[1,3,5,-1,-1,-1,-1],"loss_changes":[4.5899258E4,1.2997686E3,4.281574E3,0E0,0E0,0E0,0E0],"parents":[2147483647,0,0,1,1,2,2],"right_children":[2,4,6,-1,-1,-1,-1],"split_conditions":[2.1052632E-1,6.25E-2,4.7863248E-1,-1.1219214E-2,7.1609044E-4,1.5491457E-2,3.3520944E-2],"split_indices":[36,36,36,0,0,0,0],"split_type":[0,0,0,0,0,0,0],"sum_hessian":[7.0658305E4,4.948575E4,2.1172557E4,4.5519234E4,3.9665146E3,1.0116092E4,1.1056465E4],"tree_param":{"num_deleted":"0","num_feature":"89","num_nodes":"7","size_leaf_vector":"1"}},{"base_weights":[1.3180003E-1,-3.296157E-1,8.403598E-1,-1.0450115E-2,-3.584028E-4,1.1087746E-2,2.5762882E-2],"categories":[],"categories_nodes":[],"categories_segments":[],"categories_sizes":[],"default_left":[0,0,0,0,0,0,0],"id":79,"left_children":[1,3,5,-1,-1,-1,-1],"loss_changes":[2.3537889E4,2.621463E3,3.6286523E3,0E0,0E0,0E0,0E0],"parents":[2147483647,0,0,1,1,2,2],"right_children":[2,4,6,-1,-1,-1,-1],"split_conditions":[1.9090909E-1,5.7971016E-2,3.6363637E-1,-1.0450115E-2,-3.584028E-4,1.1087746E-2,2.5762882E-2],"split_indices":[45,45,45,0,0,0,0],"split_type":[0,0,0,0,0,0,0],"sum_hessian":[7.197591E4,4.359324E4,2.8382666E4,2.692449E4,1.6668748E4,1.7334537E4,1.104813E4],"tree_param":{"num_deleted":"0","num_feature":"89","num_nodes":"7","size_leaf_vector":"1"}},{"base_weights":[-7.898791E-2,-3.2293046E-1,2.8949326E-1,-1.0052962E-2,-3.0740874E-3,3.3778707E-3,1.2336897E-2],"categories":[],"categories_nodes":[],"categories_segments":[],"categories_sizes":[],"default_left":[0,0,0,0,0,0,0],"id":80,"left_children":[1,3,5,-1,-1,-1,-1],"loss_changes":[6.256993E3,1.2729316E3,1.0936123E3,0E0,0E0,0E0,0E0],"parents":[2147483647,0,0,1,1,2,2],"right_children":[2,4,6,-1,-1,-1,-1],"split_conditions":[1.2355737E-1,4.8695654E-2,2.1600592E-1,-1.0052962E-2,-3.0740874E-3,3.3778707E-3,1.2336897E-2],"split_indices":[55,55,55,0,0,0,0],"split_type":[0,0,0,0,0,0,0],"sum_hessian":[6.9588195E4,4.187035E4,2.7717846E4,2.0296168E4,2.1574182E4,2.0266584E4,7.4512617E3],"tree_param":{"num_deleted":"0","num_feature":"89","num_nodes":"7","size_leaf_vector":"1"}},{"base_weights":[-1.8781723E-1,6.758332E-2,-2.7545643E-1,4.509702E-3,-6.4370185E-3,-4.6329624E-3,-8.895992E-3],"categories":[],"categories_nodes":[],"categories_segments":[],"categories_sizes":[],"default_left":[0,0,0,0,0,0,0],"id":81,"left_children":[1,3,5,-1,-1,-1,-1],"loss_changes":[1.5270552E3,1.0728785E3,3.7575977E2,0E0,0E0,0E0,0E0],"parents":[2147483647,0,0,1,1,2,2],"right_children":[2,4,6,-1,-1,-1,-1],"split_conditions":[3.2467532E-3,1E0,1E0,4.509702E-3,-6.4370185E-3,-4.6329624E-3,-8.895992E-3],"split_indices":[37,14,14,0,0,0,0],"split_type":[0,0,0,0,0,0,0],"sum_hessian":[6.820525E4,1.7425545E4,5.0779707E4,1.2401418E4,5.0241255E3,4.036194E4,1.0417767E4],"tree_param":{"num_deleted":"0","num_feature":"89","num_nodes":"7","size_leaf_vector":"1"}},{"base_weights":[-2.8311768E-1,1.332676E-1,-4.2112622E-1,4.76906E-3,-8.498987E-3,-9.661208E-3,-4.629742E-3],"categories":[],"categories_nodes":[],"categories_segments":[],"categories_sizes":[],"default_left":[0,0,0,0,0,0,0],"id":82,"left_children":[1,3,5,-1,-1,-1,-1],"loss_changes":[3.8526465E3,9.812663E2,5.9023926E2,0E0,0E0,0E0,0E0],"parents":[2147483647,0,0,1,1,2,2],"right_children":[2,4,6,-1,-1,-1,-1],"split_conditions":[1.1376564E-2,4.7366238E-1,6E0,4.76906E-3,-8.498987E-3,-9.661208E-3,-4.629742E-3],"split_indices":[62,58,54,0,0,0,0],"split_type":[0,0,0,0,0,0,0],"sum_hessian":[6.70239E4,1.6684742E4,5.0339156E4,1.4044123E4,2.6406196E3,3.793463E4,1.2404528E4],"tree_param":{"num_deleted":"0","num_feature":"89","num_nodes":"7","size_leaf_vector":"1"}},{"base_weights":[7.5149274E-1,4.109896E-3,1.2550808E0,-7.234989E-3,6.3074767E-3,1.8949585E-2,3.393391E-2],"categories":[],"categories_nodes":[],"categories_segments":[],"categories_sizes":[],"default_left":[0,0,0,0,0,0,0],"id":83,"left_children":[1,3,5,-1,-1,-1,-1],"loss_changes":[3.0644008E4,3.7347769E3,6.591711E3,0E0,0E0,0E0,0E0],"parents":[2147483647,0,0,1,1,2,2],"right_children":[2,4,6,-1,-1,-1,-1],"split_conditions":[3E-1,1.25E-1,5.254237E-1,-7.234989E-3,6.3074767E-3,1.8949585E-2,3.393391E-2],"split_indices":[41,41,41,0,0,0,0],"split_type":[0,0,0,0,0,0,0],"sum_hessian":[8.140939E4,3.2776043E4,4.8633348E4,1.5065935E4,1.7710107E4,2.8684771E4,1.9948574E4],"tree_param":{"num_deleted":"0","num_feature":"89","num_nodes":"7","size_leaf_vector":"1"}},{"base_weights":[-4.888866E-1,-5.4866266E-1,5.6614935E-1,-1.1219847E-2,-4.485436E-3,5.0831917E-3,2.1469792E-2],"categories":[],"categories_nodes":[],"categories_segments":[],"categories_sizes":[],"default_left":[0,0,0,0,0,0,0],"id":84,"left_children":[1,3,5,-1,-1,-1,-1],"loss_changes":[4.0861807E3,2.4382812E2,5.475383E2,0E0,0E0,0E0,0E0],"parents":[2147483647,0,0,1,1,2,2],"right_children":[2,4,6,-1,-1,-1,-1],"split_conditions":[1.1445783E-1,3.3898305E-2,2.733813E-1,-1.1219847E-2,-4.485436E-3,5.0831917E-3,2.1469792E-2],"split_indices":[42,42,42,0,0,0,0],"split_type":[0,0,0,0,0,0,0],"sum_hessian":[6.4732996E4,6.1266562E4,3.466431E3,5.9016133E4,2.2504307E3,2.1557554E3,1.3106757E3],"tree_param":{"num_deleted":"0","num_feature":"89","num_nodes":"7","size_leaf_vector":"1"}},{"base_weights":[-3.9802335E-2,-4.1327205E-1,7.393581E-1,-1.0771828E-2,-1.8683944E-3,1.0036636E-2,2.5515566E-2],"categories":[],"categories_nodes":[],"categories_segments":[],"categories_sizes":[],"default_left":[0,0,0,0,0,0,0],"id":85,"left_children":[1,3,5,-1,-1,-1,-1],"loss_changes":[2.0322201E4,1.8917817E3,2.876793E3,0E0,0E0,0E0,0E0],"parents":[2147483647,0,0,1,1,2,2],"right_children":[2,4,6,-1,-1,-1,-1],"split_conditions":[1.6666667E-1,5.277402E-2,3.7815127E-1,-1.0771828E-2,-1.8683944E-3,1.0036636E-2,2.5515566E-2],"split_indices":[35,35,35,0,0,0,0],"split_type":[0,0,0,0,0,0,0],"sum_hessian":[6.981695E4,4.719837E4,2.261858E4,3.3906746E4,1.3291626E4,1.5690291E4,6.9282896E3],"tree_param":{"num_deleted":"0","num_feature":"89","num_nodes":"7","size_leaf_vector":"1"}},{"base_weights":[1.2455307E-2,-5.1180595E-1,1.1738336E0,-1.1234809E-2,8.8168104E-4,1.4371107E-2,2.9020995E-2],"categories":[],"categories_nodes":[],"categories_segments":[],"categories_sizes":[],"default_left":[0,0,0,0,0,0,0],"id":86,"left_children":[1,3,5,-1,-1,-1,-1],"loss_changes":[4.2936453E4,1.348915E3,2.7576758E3,0E0,0E0,0E0,0E0],"parents":[2147483647,0,0,1,1,2,2],"right_children":[2,4,6,-1,-1,-1,-1],"split_conditions":[2.1617647E-1,5.8939096E-2,4.4082332E-1,-1.1234809E-2,8.8168104E-4,1.4371107E-2,2.9020995E-2],"split_indices":[52,52,52,0,0,0,0],"split_type":[0,0,0,0,0,0,0],"sum_hessian":[7.049889E4,4.857644E4,2.1922443E4,4.457248E4,4.0039639E3,8.310252E3,1.3612192E4],"tree_param":{"num_deleted":"0","num_feature":"89","num_nodes":"7","size_leaf_vector":"1"}},{"base_weights":[1.2918071E-1,-2.9782227E-1,6.7176765E-1,-1.0542994E-2,-7.297411E-4,8.866416E-3,2.2921344E-2],"categories":[],"categories_nodes":[],"categories_segments":[],"categories_sizes":[],"default_left":[0,0,0,0,0,0,0],"id":87,"left_children":[1,3,5,-1,-1,-1,-1],"loss_changes":[1.6695975E4,2.416767E3,3.4335225E3,0E0,0E0,0E0,0E0],"parents":[2147483647,0,0,1,1,2,2],"right_children":[2,4,6,-1,-1,-1,-1],"split_conditions":[1.6853933E-1,5.882353E-2,3.3846155E-1,-1.0542994E-2,-7.297411E-4,8.866416E-3,2.2921344E-2],"split_indices":[37,37,37,0,0,0,0],"split_type":[0,0,0,0,0,0,0],"sum_hessian":[7.204423E4,4.03188E4,3.1725424E4,2.1469055E4,1.8849746E4,2.142527E4,1.0300154E4],"tree_param":{"num_deleted":"0","num_feature":"89","num_nodes":"7","size_leaf_vector":"1"}},{"base_weights":[-7.979975E-2,-4.08177E-1,3.464509E-1,-1.0353179E-2,-4.0686154E-3,7.919322E-4,1.33865625E-2],"categories":[],"categories_nodes":[],"categories_segments":[],"categories_sizes":[],"default_left":[0,0,0,0,0,0,0],"id":88,"left_children":[1,3,5,-1,-1,-1,-1],"loss_changes":[9.721369E3,8.783091E2,2.9941616E3,0E0,0E0,0E0,0E0],"parents":[2147483647,0,0,1,1,2,2],"right_children":[2,4,6,-1,-1,-1,-1],"split_conditions":[1.1073254E-1,4.1825093E-2,1.6176471E-1,-1.0353179E-2,-4.0686154E-3,7.919322E-4,1.33865625E-2],"split_indices":[46,46,30,0,0,0,0],"split_type":[0,0,0,0,0,0,0],"sum_hessian":[6.943263E4,3.921918E4,3.0213453E4,2.5544648E4,1.3674529E4,1.549686E4,1.4716593E4],"tree_param":{"num_deleted":"0","num_feature":"89","num_nodes":"7","size_leaf_vector":"1"}},{"base_weights":[-1.8412733E-1,-4.362773E-1,4.2910445E-1,-1.0784736E-2,-3.705111E-3,4.68197E-3,1.8430509E-2],"categories":[],"categories_nodes":[],"categories_segments":[],"categories_sizes":[],"default_left":[0,0,0,0,0,0,0],"id":89,"left_children":[1,3,5,-1,-1,-1,-1],"loss_changes":[1.0505704E4,1.2432402E3,1.8989666E3,0E0,0E0,0E0,0E0],"parents":[2147483647,0,0,1,1,2,2],"right_children":[2,4,6,-1,-1,-1,-1],"split_conditions":[1.2345679E-1,4.1722745E-2,2.647059E-1,-1.0784736E-2,-3.705111E-3,4.68197E-3,1.8430509E-2],"split_indices":[31,31,31,0,0,0,0],"split_type":[0,0,0,0,0,0,0],"sum_hessian":[6.79204E4,4.8132184E4,1.9788213E4,3.4124246E4,1.4007938E4,1.4185357E4,5.602855E3],"tree_param":{"num_deleted":"0","num_feature":"89","num_nodes":"7","size_leaf_vector":"1"}},{"base_weights":[-2.8075764E-1,-4.7617266E-1,7.8402096E-1,-1.0942789E-2,-1.661853E-3,9.533513E-3,2.9558182E-2],"categories":[],"categories_nodes":[],"categories_segments":[],"categories_sizes":[],"default_left":[0,0,0,0,0,0,0],"id":90,"left_children":[1,3,5,-1,-1,-1,-1],"loss_changes":[1.3872387E4,1.5707158E3,2.197975E3,0E0,0E0,0E0,0E0],"parents":[2147483647,0,0,1,1,2,2],"right_children":[2,4,6,-1,-1,-1,-1],"split_conditions":[1.6806723E-1,5E-2,3.6893204E-1,-1.0942789E-2,-1.661853E-3,9.533513E-3,2.9558182E-2],"split_indices":[40,40,40,0,0,0,0],"split_type":[0,0,0,0,0,0,0],"sum_hessian":[6.66426E4,5.6313176E4,1.0329428E4,4.7697867E4,8.615309E3,7.1703286E3,3.1590989E3],"tree_param":{"num_deleted":"0","num_feature":"89","num_nodes":"7","size_leaf_vector":"1"}},{"base_weights":[7.3490506E-1,-1.4209797E-2,1.1109691E0,-7.68815E-3,4.8921886E-3,1.7498033E-2,2.9133895E-2],"categories":[],"categories_nodes":[],"categories_segments":[],"categories_sizes":[],"default_left":[0,0,0,0,0,0,0],"id":91,"left_children":[1,3,5,-1,-1,-1,-1],"loss_changes":[2.3183102E4,2.6371782E3,4.458758E3,0E0,0E0,0E0,0E0],"parents":[2147483647,0,0,1,1,2,2],"right_children":[2,4,6,-1,-1,-1,-1],"split_conditions":[2.7756286E-1,1.037037E-1,5.019952E-1,-7.68815E-3,4.8921886E-3,1.7498033E-2,2.9133895E-2],"split_indices":[49,49,49,0,0,0,0],"split_type":[0,0,0,0,0,0,0],"sum_hessian":[8.228212E4,2.7504041E4,5.477808E4,1.1314988E4,1.6189053E4,3.2572395E4,2.2205684E4],"tree_param":{"num_deleted":"0","num_feature":"89","num_nodes":"7","size_leaf_vector":"1"}},{"base_weights":[-4.877484E-1,-1.4931321E-1,-5.536807E-1,2.0716882E-4,-5.8044526E-3,-1.0507779E-2,-1.1184921E-2],"categories":[],"categories_nodes":[],"categories_segments":[],"categories_sizes":[],"default_left":[0,0,0,0,0,0,0],"id":92,"left_children":[1,3,5,-1,-1,-1,-1],"loss_changes":[1.4289775E3,2.3540555E2,5.5039062E0,0E0,0E0,0E0,0E0],"parents":[2147483647,0,0,1,1,2,2],"right_children":[2,4,6,-1,-1,-1,-1],"split_conditions":[3.9177276E-3,1E0,1.2285834E-1,2.0716882E-4,-5.8044526E-3,-1.0507779E-2,-1.1184921E-2],"split_indices":[55,85,58,0,0,0,0],"split_type":[0,0,0,0,0,0,0],"sum_hessian":[6.4067066E4,1.0451484E4,5.3615582E4,4.9038955E3,5.5475884E3,8.970075E3,4.4645508E4],"tree_param":{"num_deleted":"0","num_feature":"89","num_nodes":"7","size_leaf_vector":"1"}},{"base_weights":[-3.757638E-2,-4.10255E-1,7.3580176E-1,-1.0779204E-2,-1.928376E-3,1.0831953E-2,2.7892193E-2],"categories":[],"categories_nodes":[],"categories_segments":[],"categories_sizes":[],"default_left":[0,0,0,0,0,0,0],"id":93,"left_children":[1,3,5,-1,-1,-1,-1],"loss_changes":[2.013814E4,1.9039409E3,2.8994248E3,0E0,0E0,0E0,0E0],"parents":[2147483647,0,0,1,1,2,2],"right_children":[2,4,6,-1,-1,-1,-1],"split_conditions":[1.6842106E-1,5.172414E-2,4.2307693E-1,-1.0779204E-2,-1.928376E-3,1.0831953E-2,2.7892193E-2],"split_indices":[35,35,35,0,0,0,0],"split_type":[0,0,0,0,0,0,0],"sum_hessian":[6.984988E4,4.7139027E4,2.2710852E4,3.3424402E4,1.3714627E4,1.7554375E4,5.1564775E3],"tree_param":{"num_deleted":"0","num_feature":"89","num_nodes":"7","size_leaf_vector":"1"}},{"base_weights":[1.4283695E-2,-5.138652E-1,1.1360734E0,-1.1201506E-2,7.621469E-4,1.4500247E-2,2.8529298E-2],"categories":[],"categories_nodes":[],"categories_segments":[],"categories_sizes":[],"default_left":[0,0,0,0,0,0,0],"id":94,"left_children":[1,3,5,-1,-1,-1,-1],"loss_changes":[4.1880273E4,1.2260762E3,2.690627E3,0E0,0E0,0E0,0E0],"parents":[2147483647,0,0,1,1,2,2],"right_children":[2,4,6,-1,-1,-1,-1],"split_conditions":[2.0254403E-1,6.3253015E-2,4.720812E-1,-1.1201506E-2,7.621469E-4,1.4500247E-2,2.8529298E-2],"split_indices":[52,52,52,0,0,0,0],"split_type":[0,0,0,0,0,0,0],"sum_hessian":[7.06675E4,4.8050367E4,2.2617135E4,4.4338297E4,3.712069E3,9.377656E3,1.3239479E4],"tree_param":{"num_deleted":"0","num_feature":"89","num_nodes":"7","size_leaf_vector":"1"}},{"base_weights":[1.2910944E-1,-3.9921555E-1,4.3097964E-1,-1.0747203E-2,-2.2717654E-3,5.421473E-3,1.5806718E-2],"categories":[],"categories_nodes":[],"categories_segments":[],"categories_sizes":[],"default_left":[0,0,0,0,0,0,0],"id":95,"left_children":[1,3,5,-1,-1,-1,-1],"loss_changes":[1.1523181E4,1.0360723E3,2.639915E3,0E0,0E0,0E0,0E0],"parents":[2147483647,0,0,1,1,2,2],"right_children":[2,4,6,-1,-1,-1,-1],"split_conditions":[1.2882788E-1,5.8631923E-2,2.7413288E-1,-1.0747203E-2,-2.2717654E-3,5.421473E-3,1.5806718E-2],"split_indices":[62,62,62,0,0,0,0],"split_type":[0,0,0,0,0,0,0],"sum_hessian":[7.223139E4,2.6263139E4,4.5968254E4,1.7695727E4,8.567412E3,3.1824545E4,1.4143709E4],"tree_param":{"num_deleted":"0","num_feature":"89","num_nodes":"7","size_leaf_vector":"1"}},{"base_weights":[-8.009452E-2,-3.9937052E-1,5.197655E-1,-1.0494272E-2,-3.1179073E-3,6.200023E-3,1.9932205E-2],"categories":[],"categories_nodes":[],"categories_segments":[],"categories_sizes":[],"default_left":[0,0,0,0,0,0,0],"id":96,"left_children":[1,3,5,-1,-1,-1,-1],"loss_changes":[1.3263684E4,1.3784849E3,2.4032314E3,0E0,0E0,0E0,0E0],"parents":[2147483647,0,0,1,1,2,2],"right_children":[2,4,6,-1,-1,-1,-1],"split_conditions":[1.3636364E-1,4.6511628E-2,2.8735632E-1,-1.0494272E-2,-3.1179073E-3,6.200023E-3,1.9932205E-2],"split_indices":[38,38,38,0,0,0,0],"split_type":[0,0,0,0,0,0,0],"sum_hessian":[6.923365E4,4.5186457E4,2.404719E4,2.9822186E4,1.5364271E4,1.6712047E4,7.3351416E3],"tree_param":{"num_deleted":"0","num_feature":"89","num_nodes":"7","size_leaf_vector":"1"}},{"base_weights":[-1.8444361E-1,-4.506272E-1,4.535802E-1,-1.0813411E-2,-3.982483E-3,5.1421802E-3,2.0129813E-2],"categories":[],"categories_nodes":[],"categories_segments":[],"categories_sizes":[],"default_left":[0,0,0,0,0,0,0],"id":97,"left_children":[1,3,5,-1,-1,-1,-1],"loss_changes":[1.1485369E4,1.0795078E3,2.1602559E3,0E0,0E0,0E0,0E0],"parents":[2147483647,0,0,1,1,2,2],"right_children":[2,4,6,-1,-1,-1,-1],"split_conditions":[1.2352941E-1,3.960396E-2,2.9411766E-1,-1.0813411E-2,-3.982483E-3,5.1421802E-3,2.0129813E-2],"split_indices":[39,39,39,0,0,0,0],"split_type":[0,0,0,0,0,0,0],"sum_hessian":[6.760599E4,4.7705984E4,1.9900006E4,3.5120582E4,1.2585402E4,1.4693476E4,5.2065293E3],"tree_param":{"num_deleted":"0","num_feature":"89","num_nodes":"7","size_leaf_vector":"1"}},{"base_weights":[-2.7767116E-1,-4.9551466E-1,6.126282E-1,-1.1021454E-2,-3.5706195E-3,7.4043167E-3,2.7013509E-2],"categories":[],"categories_nodes":[],"categories_segments":[],"categories_sizes":[],"default_left":[0,0,0,0,0,0,0],"id":98,"left_children":[1,3,5,-1,-1,-1,-1],"loss_changes":[1.2837207E4,9.3540625E2,2.3232207E3,0E0,0E0,0E0,0E0],"parents":[2147483647,0,0,1,1,2,2],"right_children":[2,4,6,-1,-1,-1,-1],"split_conditions":[1.3654618E-1,3.6842104E-2,3.5714287E-1,-1.1021454E-2,-3.5706195E-3,7.4043167E-3,2.7013509E-2],"split_indices":[32,32,32,0,0,0,0],"split_type":[0,0,0,0,0,0,0],"sum_hessian":[6.616396E4,5.3160727E4,1.3003233E4,4.5226453E4,7.934273E3,9.79957E3,3.2036633E3],"tree_param":{"num_deleted":"0","num_feature":"89","num_nodes":"7","size_leaf_vector":"1"}},{"base_weights":[7.16378E-1,9.0536886E-1,-1.06278114E-1,2.1139055E-2,8.200913E-3,3.3110671E-3,-5.7120225E-3],"categories":[],"categories_nodes":[],"categories_segments":[],"categories_sizes":[],"default_left":[0,0,0,0,0,0,0],"id":99,"left_children":[1,3,5,-1,-1,-1,-1],"loss_changes":[1.295402E4,5.082539E3,7.595928E2,0E0,0E0,0E0,0E0],"parents":[2147483647,0,0,1,1,2,2],"right_children":[2,4,6,-1,-1,-1,-1],"split_conditions":[2.912088E-1,2.4324325E-1,4.7435272E-1,2.1139055E-2,8.200913E-3,3.3110671E-3,-5.7120225E-3],"split_indices":[61,51,61,0,0,0,0],"split_type":[0,0,0,0,0,0,0],"sum_hessian":[8.330306E4,6.773998E4,1.5563083E4,5.1858395E4,1.5881583E4,6.1862554E3,9.376828E3],"tree_param":{"num_deleted":"0","num_feature":"89","num_nodes":"7","size_leaf_vector":"1"}},{"base_weights":[-4.8558062E-1,-5.4635036E-1,5.865759E-1,-1.1174629E-2,-3.8861283E-3,7.037289E-3,2.5313184E-2],"categories":[],"categories_nodes":[],"categories_segments":[],"categories_sizes":[],"default_left":[0,0,0,0,0,0,0],"id":100,"left_children":[1,3,5,-1,-1,-1,-1],"loss_changes":[4.1453857E3,2.6117383E2,5.398491E2,0E0,0E0,0E0,0E0],"parents":[2147483647,0,0,1,1,2,2],"right_children":[2,4,6,-1,-1,-1,-1],"split_conditions":[1.16883114E-1,4.2042043E-2,3.3333334E-1,-1.1174629E-2,-3.8861283E-3,7.037289E-3,2.5313184E-2],"split_indices":[42,42,42,0,0,0,0],"split_type":[0,0,0,0,0,0,0],"sum_hessian":[6.3564516E4,6.015958E4,3.4049377E3,5.8110023E4,2.049554E3,2.5416492E3,8.632885E2],"tree_param":{"num_deleted":"0","num_feature":"89","num_nodes":"7","size_leaf_vector":"1"}},{"base_weights":[-3.661013E-2,-4.1018656E-1,7.733755E-1,-1.0778012E-2,-1.7202672E-3,9.1809165E-3,2.409403E-2],"categories":[],"categories_nodes":[],"categories_segments":[],"categories_sizes":[],"default_left":[0,0,0,0,0,0,0],"id":101,"left_children":[1,3,5,-1,-1,-1,-1],"loss_changes":[2.1138074E4,1.9943032E3,2.983919E3,0E0,0E0,0E0,0E0],"parents":[2147483647,0,0,1,1,2,2],"right_children":[2,4,6,-1,-1,-1,-1],"split_conditions":[1.7277487E-1,5.0847456E-2,3.5714287E-1,-1.0778012E-2,-1.7202672E-3,9.1809165E-3,2.409403E-2],"split_indices":[43,43,43,0,0,0,0],"split_type":[0,0,0,0,0,0,0],"sum_hessian":[6.9836305E4,4.7796734E4,2.203957E4,3.4207793E4,1.358894E4,1.2760772E4,9.278797E3],"tree_param":{"num_deleted":"0","num_feature":"89","num_nodes":"7","size_leaf_vector":"1"}},{"base_weights":[1.2854887E-2,-4.9405015E-1,1.2152209E0,-1.113316E-2,1.5943546E-3,1.770716E-2,3.4302983E-2],"categories":[],"categories_nodes":[],"categories_segments":[],"categories_sizes":[],"default_left":[0,0,0,0,0,0,0],"id":102,"left_children":[1,3,5,-1,-1,-1,-1],"loss_changes":[4.2989445E4,1.7827861E3,3.4343027E3,0E0,0E0,0E0,0E0],"parents":[2147483647,0,0,1,1,2,2],"right_children":[2,4,6,-1,-1,-1,-1],"split_conditions":[2.388664E-1,7.1428575E-2,5.6764704E-1,-1.113316E-2,1.5943546E-3,1.770716E-2,3.4302983E-2],"split_indices":[44,44,44,0,0,0,0],"split_type":[0,0,0,0,0,0,0],"sum_hessian":[7.051416E4,4.9606473E4,2.0907682E4,4.472636E4,4.880114E3,1.2613047E4,8.294636E3],"tree_param":{"num_deleted":"0","num_feature":"89","num_nodes":"7","size_leaf_vector":"1"}},{"base_weights":[1.2864622E-1,-3.0288327E-1,6.4064884E-1,-1.047797E-2,-9.439455E-4,8.604717E-3,2.2594206E-2],"categories":[],"categories_nodes":[],"categories_segments":[],"categories_sizes":[],"default_left":[0,0,0,0,0,0,0],"id":103,"left_children":[1,3,5,-1,-1,-1,-1],"loss_changes":[1.6019228E4,2.2231948E3,3.4073662E3,0E0,0E0,0E0,0E0],"parents":[2147483647,0,0,1,1,2,2],"right_children":[2,4,6,-1,-1,-1,-1],"split_conditions":[1.6611296E-1,5.882353E-2,3.4848484E-1,-1.047797E-2,-9.439455E-4,8.604717E-3,2.2594206E-2],"split_indices":[37,37,37,0,0,0,0],"split_type":[0,0,0,0,0,0,0],"sum_hessian":[7.2484695E4,3.9335645E4,3.3149047E4,2.1092648E4,1.8242998E4,2.3190434E4,9.958615E3],"tree_param":{"num_deleted":"0","num_feature":"89","num_nodes":"7","size_leaf_vector":"1"}},{"base_weights":[-7.706691E-2,-3.607653E-1,3.5757348E-1,-1.024405E-2,-3.40094E-3,4.8878407E-3,1.8761337E-2],"categories":[],"categories_nodes":[],"categories_segments":[],"categories_sizes":[],"default_left":[0,0,0,0,0,0,0],"id":104,"left_children":[1,3,5,-1,-1,-1,-1],"loss_changes":[8.531355E3,1.2081743E3,1.7930417E3,0E0,0E0,0E0,0E0],"parents":[2147483647,0,0,1,1,2,2],"right_children":[2,4,6,-1,-1,-1,-1],"split_conditions":[1.21212125E-1,4.761905E-2,2.9166666E-1,-1.024405E-2,-3.40094E-3,4.8878407E-3,1.8761337E-2],"split_indices":[30,30,30,0,0,0,0],"split_type":[0,0,0,0,0,0,0],"sum_hessian":[6.9167586E4,4.1851793E4,2.7315793E4,2.3318896E4,1.8532896E4,2.2870781E4,4.445011E3],"tree_param":{"num_deleted":"0","num_feature":"89","num_nodes":"7","size_leaf_vector":"1"}},{"base_weights":[-1.8308678E-1,-4.3804294E-1,4.0511337E-1,-1.0796943E-2,-3.9722896E-3,4.45722E-3,1.6873006E-2],"categories":[],"categories_nodes":[],"categories_segments":[],"categories_sizes":[],"default_left":[0,0,0,0,0,0,0],"id":105,"left_children":[1,3,5,-1,-1,-1,-1],"loss_changes":[1.0111906E4,1.1454131E3,1.627842E3,0E0,0E0,0E0,0E0],"parents":[2147483647,0,0,1,1,2,2],"right_children":[2,4,6,-1,-1,-1,-1],"split_conditions":[1.2133891E-1,3.8709678E-2,2.5925925E-1,-1.0796943E-2,-3.9722896E-3,4.45722E-3,1.6873006E-2],"split_indices":[31,31,31,0,0,0,0],"split_type":[0,0,0,0,0,0,0],"sum_hessian":[6.740649E4,4.7025695E4,2.0380799E4,3.298713E4,1.4038567E4,1.4408023E4,5.9727754E3],"tree_param":{"num_deleted":"0","num_feature":"89","num_nodes":"7","size_leaf_vector":"1"}},{"base_weights":[-2.7726254E-1,-4.9155998E-1,6.762678E-1,-1.095968E-2,-3.015666E-3,7.211021E-3,2.5586735E-2],"categories":[],"categories_nodes":[],"categories_segments":[],"categories_sizes":[],"default_left":[0,0,0,0,0,0,0],"id":106,"left_children":[1,3,5,-1,-1,-1,-1],"loss_changes":[1.3491832E4,1.035624E3,2.3024863E3,0E0,0E0,0E0,0E0],"parents":[2147483647,0,0,1,1,2,2],"right_children":[2,4,6,-1,-1,-1,-1],"split_conditions":[1.4893617E-1,4.2944785E-2,3.3333334E-1,-1.095968E-2,-3.015666E-3,7.211021E-3,2.5586735E-2],"split_indices":[40,40,40,0,0,0,0],"split_type":[0,0,0,0,0,0,0],"sum_hessian":[6.600041E4,5.3893227E4,1.2107178E4,4.623225E4,7.660975E3,7.9573506E3,4.149827E3],"tree_param":{"num_deleted":"0","num_feature":"89","num_nodes":"7","size_leaf_vector":"1"}},{"base_weights":[7.003268E-1,7.537223E-2,1.1600066E0,-6.2221237E-3,7.4601215E-3,1.9549996E-2,3.3312187E-2],"categories":[],"categories_nodes":[],"categories_segments":[],"categories_sizes":[],"default_left":[0,0,0,0,0,0,0],"id":107,"left_children":[1,3,5,-1,-1,-1,-1],"loss_changes":[2.425245E4,4.1181216E3,4.4723633E3,0E0,0E0,0E0,0E0],"parents":[2147483647,0,0,1,1,2,2],"right_children":[2,4,6,-1,-1,-1,-1],"split_conditions":[3.1578946E-1,1.3793103E-1,6.0115606E-1,-6.2221237E-3,7.4601215E-3,1.9549996E-2,3.3312187E-2],"split_indices":[33,33,33,0,0,0,0],"split_type":[0,0,0,0,0,0,0],"sum_hessian":[8.441427E4,3.578062E4,4.8633652E4,1.5566727E4,2.0213895E4,3.575613E4,1.2877522E4],"tree_param":{"num_deleted":"0","num_feature":"89","num_nodes":"7","size_leaf_vector":"1"}},{"base_weights":[-4.8517784E-1,-5.4162973E-1,6.159375E-1,-1.1165947E-2,-3.3227806E-3,6.4418614E-3,2.1080336E-2],"categories":[],"categories_nodes":[],"categories_segments":[],"categories_sizes":[],"default_left":[0,0,0,0,0,0,0],"id":108,"left_children":[1,3,5,-1,-1,-1,-1],"loss_changes":[3.917955E3,3.7402344E2,3.9255652E2,0E0,0E0,0E0,0E0],"parents":[2147483647,0,0,1,1,2,2],"right_children":[2,4,6,-1,-1,-1,-1],"split_conditions":[1.3636364E-1,3.9473683E-2,2.846154E-1,-1.1165947E-2,-3.3227806E-3,6.4418614E-3,2.1080336E-2],"split_indices":[42,42,42,0,0,0,0],"split_type":[0,0,0,0,0,0,0],"sum_hessian":[6.2966438E4,5.990054E4,3.0658955E3,5.7349977E4,2.550563E3,1.8454208E3,1.2204747E3],"tree_param":{"num_deleted":"0","num_feature":"89","num_nodes":"7","size_leaf_vector":"1"}},{"base_weights":[-3.846448E-2,-4.1617987E-1,6.847125E-1,-1.0808613E-2,-2.3576329E-3,7.6748934E-3,2.112275E-2],"categories":[],"categories_nodes":[],"categories_segments":[],"categories_sizes":[],"default_left":[0,0,0,0,0,0,0],"id":109,"left_children":[1,3,5,-1,-1,-1,-1],"loss_changes":[1.9045674E4,1.6969453E3,2.6701963E3,0E0,0E0,0E0,0E0],"parents":[2147483647,0,0,1,1,2,2],"right_children":[2,4,6,-1,-1,-1,-1],"split_conditions":[1.595092E-1,4.5774646E-2,3.2105264E-1,-1.0808613E-2,-2.3576329E-3,7.6748934E-3,2.112275E-2],"split_indices":[35,35,35,0,0,0,0],"split_type":[0,0,0,0,0,0,0],"sum_hessian":[6.9704336E4,4.5791617E4,2.3912717E4,3.2320832E4,1.3470784E4,1.3220445E4,1.0692271E4],"tree_param":{"num_deleted":"0","num_feature":"89","num_nodes":"7","size_leaf_vector":"1"}},{"base_weights":[1.3816141E-2,-5.0283426E-1,1.1574162E0,-1.1158272E-2,6.699938E-4,1.5350133E-2,3.1088252E-2],"categories":[],"categories_nodes":[],"categories_segments":[],"categories_sizes":[],"default_left":[0,0,0,0,0,0,0],"id":110,"left_children":[1,3,5,-1,-1,-1,-1],"loss_changes":[4.1650805E4,1.4346152E3,3.3837363E3,0E0,0E0,0E0,0E0],"parents":[2147483647,0,0,1,1,2,2],"right_children":[2,4,6,-1,-1,-1,-1],"split_conditions":[2.1276596E-1,5.7142857E-2,5.151515E-1,-1.1158272E-2,6.699938E-4,1.5350133E-2,3.1088252E-2],"split_indices":[44,44,44,0,0,0,0],"split_type":[0,0,0,0,0,0,0],"sum_hessian":[7.0474195E4,4.8547312E4,2.1926879E4,4.4025652E4,4.52166E3,1.1076973E4,1.0849906E4],"tree_param":{"num_deleted":"0","num_feature":"89","num_nodes":"7","size_leaf_vector":"1"}},{"base_weights":[1.2196756E-1,-3.7917253E-1,4.2215574E-1,-1.0689288E-2,-2.0126963E-3,5.689428E-3,1.6110262E-2],"categories":[],"categories_nodes":[],"categories_segments":[],"categories_sizes":[],"default_left":[0,0,0,0,0,0,0],"id":111,"left_children":[1,3,5,-1,-1,-1,-1],"loss_changes":[1.090408E4,1.1740149E3,2.390224E3,0E0,0E0,0E0,0E0],"parents":[2147483647,0,0,1,1,2,2],"right_children":[2,4,6,-1,-1,-1,-1],"split_conditions":[1.3454546E-1,5.8631923E-2,2.8268766E-1,-1.0689288E-2,-2.0126963E-3,5.689428E-3,1.6110262E-2],"split_indices":[62,62,62,0,0,0,0],"split_type":[0,0,0,0,0,0,0],"sum_hessian":[7.246238E4,2.714438E4,4.5318E4,1.742199E4,9.722392E3,3.3355617E4,1.1962382E4],"tree_param":{"num_deleted":"0","num_feature":"89","num_nodes":"7","size_leaf_vector":"1"}},{"base_weights":[-7.813313E-2,-3.7602362E-1,3.7511435E-1,-1.0203817E-2,-3.3671274E-3,4.848906E-3,1.4197609E-2],"categories":[],"categories_nodes":[],"categories_segments":[],"categories_sizes":[],"default_left":[0,0,0,0,0,0,0],"id":112,"left_children":[1,3,5,-1,-1,-1,-1],"loss_changes":[9.312768E3,1.158727E3,1.2132012E3,0E0,0E0,0E0,0E0],"parents":[2147483647,0,0,1,1,2,2],"right_children":[2,4,6,-1,-1,-1,-1],"split_conditions":[1.3100848E-1,4.3824703E-2,2.4770643E-1,-1.0203817E-2,-3.3671274E-3,4.848906E-3,1.4197609E-2],"split_indices":[46,46,46,0,0,0,0],"split_type":[0,0,0,0,0,0,0],"sum_hessian":[6.895376E4,4.1608723E4,2.7345041E4,2.5268791E4,1.6339932E4,1.9596227E4,7.7488145E3],"tree_param":{"num_deleted":"0","num_feature":"89","num_nodes":"7","size_leaf_vector":"1"}},{"base_weights":[-1.7764756E-1,-4.3685636E-1,4.0077206E-1,-1.0668116E-2,-3.6373683E-3,4.146707E-3,1.6299559E-2],"categories":[],"categories_nodes":[],"categories_segments":[],"categories_sizes":[],"default_left":[0,0,0,0,0,0,0],"id":113,"left_children":[1,3,5,-1,-1,-1,-1],"loss_changes":[1.0050876E4,1.1386006E3,1.6605671E3,0E0,0E0,0E0,0E0],"parents":[2147483647,0,0,1,1,2,2],"right_children":[2,4,6,-1,-1,-1,-1],"split_conditions":[1.1914894E-1,4.347826E-2,2.5308642E-1,-1.0668116E-2,-3.6373683E-3,4.146707E-3,1.6299559E-2],"split_indices":[31,31,31,0,0,0,0],"split_type":[0,0,0,0,0,0,0],"sum_hessian":[6.70148E4,4.6278387E4,2.0736412E4,3.356015E4,1.2718238E4,1.4145419E4,6.590994E3],"tree_param":{"num_deleted":"0","num_feature":"89","num_nodes":"7","size_leaf_vector":"1"}},{"base_weights":[-2.7443504E-1,-4.9374714E-1,5.780758E-1,-1.0934545E-2,-3.365565E-3,6.5807956E-3,2.4028918E-2],"categories":[],"categories_nodes":[],"categories_segments":[],"categories_sizes":[],"default_left":[0,0,0,0,0,0,0],"id":114,"left_children":[1,3,5,-1,-1,-1,-1],"loss_changes":[1.2275231E4,8.9942773E2,2.0817993E3,0E0,0E0,0E0,0E0],"parents":[2147483647,0,0,1,1,2,2],"right_children":[2,4,6,-1,-1,-1,-1],"split_conditions":[1.3559322E-1,4.0880505E-2,3.2804233E-1,-1.0934545E-2,-3.365565E-3,6.5807956E-3,2.4028918E-2],"split_indices":[32,32,32,0,0,0,0],"split_type":[0,0,0,0,0,0,0],"sum_hessian":[6.562965E4,5.220412E4,1.3425525E4,4.4890074E4,7.3140474E3,9.604008E3,3.8215178E3],"tree_param":{"num_deleted":"0","num_feature":"89","num_nodes":"7","size_leaf_vector":"1"}},{"base_weights":[6.838586E-1,-1.2206143E-2,1.0078808E0,-8.195378E-3,4.2757434E-3,1.5617125E-2,2.5830662E-2],"categories":[],"categories_nodes":[],"categories_segments":[],"categories_sizes":[],"default_left":[0,0,0,0,0,0,0],"id":115,"left_children":[1,3,5,-1,-1,-1,-1],"loss_changes":[1.9238727E4,2.4361418E3,3.7381055E3,0E0,0E0,0E0,0E0],"parents":[2147483647,0,0,1,1,2,2],"right_children":[2,4,6,-1,-1,-1,-1],"split_conditions":[2.7539882E-1,1.05076745E-1,4.755985E-1,-8.195378E-3,4.2757434E-3,1.5617125E-2,2.5830662E-2],"split_indices":[58,58,58,0,0,0,0],"split_type":[0,0,0,0,0,0,0],"sum_hessian":[8.528999E4,2.7094725E4,5.8195266E4,9.816902E3,1.7277822E4,3.234504E4,2.5850227E4],"tree_param":{"num_deleted":"0","num_feature":"89","num_nodes":"7","size_leaf_vector":"1"}},{"base_weights":[-4.829948E-1,-4.9902457E-1,7.0293933E-1,-5.8451598E-3,-1.09020965E-2,1.134183E-2,1.773824E-2],"categories":[],"categories_nodes":[],"categories_segments":[],"categories_sizes":[],"default_left":[0,0,0,0,0,0,0],"id":116,"left_children":[1,3,5,-1,-1,-1,-1],"loss_changes":[1.1882559E3,5.84334E2,1.5846252E1,0E0,0E0,0E0,0E0],"parents":[2147483647,0,0,1,1,2,2],"right_children":[2,4,6,-1,-1,-1,-1],"split_conditions":[1E0,1.7241379E-3,1E0,-5.8451598E-3,-1.09020965E-2,1.134183E-2,1.773824E-2],"split_indices":[76,46,13,0,0,0,0],"split_type":[0,0,0,0,0,0,0],"sum_hessian":[6.231145E4,6.1486156E4,8.252912E2,1.1218973E4,5.0267188E4,4.982221E2,3.2706912E2],"tree_param":{"num_deleted":"0","num_feature":"89","num_nodes":"7","size_leaf_vector":"1"}},{"base_weights":[-3.642534E-2,-4.0358508E-1,7.4828666E-1,-1.0759937E-2,-1.6659413E-3,9.46792E-3,2.3898315E-2],"categories":[],"categories_nodes":[],"categories_segments":[],"categories_sizes":[],"default_left":[0,0,0,0,0,0,0],"id":117,"left_children":[1,3,5,-1,-1,-1,-1],"loss_changes":[2.0050717E4,2.0405513E3,2.717831E3,0E0,0E0,0E0,0E0],"parents":[2147483647,0,0,1,1,2,2],"right_children":[2,4,6,-1,-1,-1,-1],"split_conditions":[1.764706E-1,5E-2,3.756906E-1,-1.0759937E-2,-1.6659413E-3,9.46792E-3,2.3898315E-2],"split_indices":[43,43,43,0,0,0,0],"split_type":[0,0,0,0,0,0,0],"sum_hessian":[6.957235E4,4.7399434E4,2.2172916E4,3.3383113E4,1.401632E4,1.3738044E4,8.434873E3],"tree_param":{"num_deleted":"0","num_feature":"89","num_nodes":"7","size_leaf_vector":"1"}},{"base_weights":[1.2391154E-2,-5.1432204E-1,1.0706438E0,-1.1131446E-2,1.3013964E-6,1.4413108E-2,2.9550152E-2],"categories":[],"categories_nodes":[],"categories_segments":[],"categories_sizes":[],"default_left":[0,0,0,0,0,0,0],"id":118,"left_children":[1,3,5,-1,-1,-1,-1],"loss_changes":[3.9274395E4,1.0224375E3,3.3236309E3,0E0,0E0,0E0,0E0],"parents":[2147483647,0,0,1,1,2,2],"right_children":[2,4,6,-1,-1,-1,-1],"split_conditions":[1.9444445E-1,6.818182E-2,5.2034885E-1,-1.1131446E-2,1.3013964E-6,1.4413108E-2,2.9550152E-2],"split_indices":[36,36,36,0,0,0,0],"split_type":[0,0,0,0,0,0,0],"sum_hessian":[7.044066E4,4.7035367E4,2.340529E4,4.3464496E4,3.5708699E3,1.2596966E4,1.0808323E4],"tree_param":{"num_deleted":"0","num_feature":"89","num_nodes":"7","size_leaf_vector":"1"}},{"base_weights":[1.2315224E-1,-2.7891576E-1,6.429885E-1,-1.0099877E-2,-2.1562047E-4,8.948578E-3,2.1629822E-2],"categories":[],"categories_nodes":[],"categories_segments":[],"categories_sizes":[],"default_left":[0,0,0,0,0,0,0],"id":119,"left_children":[1,3,5,-1,-1,-1,-1],"loss_changes":[1.5196068E4,2.4852524E3,2.7142305E3,0E0,0E0,0E0,0E0],"parents":[2147483647,0,0,1,1,2,2],"right_children":[2,4,6,-1,-1,-1,-1],"split_conditions":[1.7605634E-1,6.896552E-2,3.5384616E-1,-1.0099877E-2,-2.1562047E-4,8.948578E-3,2.1629822E-2],"split_indices":[37,37,37,0,0,0,0],"split_type":[0,0,0,0,0,0,0],"sum_hessian":[7.268657E4,4.0988555E4,3.1698016E4,2.2233514E4,1.8755041E4,2.1935578E4,9.762437E3],"tree_param":{"num_deleted":"0","num_feature":"89","num_nodes":"7","size_leaf_vector":"1"}},{"base_weights":[-7.753908E-2,-3.8862363E-1,5.150895E-1,-1.0156181E-2,-2.3739184E-3,6.511916E-3,1.9305062E-2],"categories":[],"categories_nodes":[],"categories_segments":[],"categories_sizes":[],"default_left":[0,0,0,0,0,0,0],"id":120,"left_children":[1,3,5,-1,-1,-1,-1],"loss_changes":[1.2684354E4,1.4508931E3,2.0172256E3,0E0,0E0,0E0,0E0],"parents":[2147483647,0,0,1,1,2,2],"right_children":[2,4,6,-1,-1,-1,-1],"split_conditions":[1.4285715E-1,5.7142857E-2,3E-1,-1.0156181E-2,-2.3739184E-3,6.511916E-3,1.9305062E-2],"split_indices":[38,38,38,0,0,0,0],"split_type":[0,0,0,0,0,0,0],"sum_hessian":[6.8782125E4,4.510756E4,2.3674566E4,3.1284996E4,1.3822563E4,1.667328E4,7.001287E3],"tree_param":{"num_deleted":"0","num_feature":"89","num_nodes":"7","size_leaf_vector":"1"}},{"base_weights":[-1.7760865E-1,-4.602506E-1,4.0920967E-1,-1.0827613E-2,-4.5367926E-3,4.2107417E-3,1.7760873E-2],"categories":[],"categories_nodes":[],"categories_segments":[],"categories_sizes":[],"default_left":[0,0,0,0,0,0,0],"id":121,"left_children":[1,3,5,-1,-1,-1,-1],"loss_changes":[1.1118582E4,8.554912E2,2.071377E3,0E0,0E0,0E0,0E0],"parents":[2147483647,0,0,1,1,2,2],"right_children":[2,4,6,-1,-1,-1,-1],"split_conditions":[1.1255411E-1,3.7037037E-2,2.7027026E-1,-1.0827613E-2,-4.5367926E-3,4.2107417E-3,1.7760873E-2],"split_indices":[39,39,39,0,0,0,0],"split_type":[0,0,0,0,0,0,0],"sum_hessian":[6.701481E4,4.5231266E4,2.178355E4,3.35549E4,1.1676364E4,1.54059E4,6.37765E3],"tree_param":{"num_deleted":"0","num_feature":"89","num_nodes":"7","size_leaf_vector":"1"}},{"base_weights":[-2.7355102E-1,-4.9036476E-1,5.3985214E-1,-1.0845981E-2,-2.8574169E-3,6.668247E-3,2.3435049E-2],"categories":[],"categories_nodes":[],"categories_segments":[],"categories_sizes":[],"default_left":[0,0,0,0,0,0,0],"id":122,"left_children":[1,3,5,-1,-1,-1,-1],"loss_changes":[1.1497004E4,9.280088E2,1.786051E3,0E0,0E0,0E0,0E0],"parents":[2147483647,0,0,1,1,2,2],"right_children":[2,